{"Num_inputs":65,"Num_hiddens":256,"Num_outputs":24,"Layer_hidden":[{"Num_inputs":65,"Weighted_input":0,"Weights":[0.26116258234481204,0.6449630017744867,0.08690277943755031,-0.4791139203676825,0.8930391385459091,0.7540542212798664,0.26365230722344113,-0.9229001836606658,-0.3145571100513517,-0.9221542857243852,0.7792529056133635,0.1963593906308143,-0.514729761088213,0.37698445815561055,-0.5452056764598657,-0.0737105380863905,0.9417985013084242,0.20224794874360663,0.8021903741704954,-0.905413160653255,0.44066879989770746,-0.6045441253093344,0.5779483801239185,-0.7408046648136364,-0.2828846626001662,0.059665047140063265,-0.06548993680760218,0.8094945847402502,0.05930918449310019,-0.3582607695478778,0.2915725635248545,-0.5765480203892741,-0.18624804140786244,0.12876873094585828,-0.6441210045082486,-0.011536028874251425,-0.8894898784248887,-0.3155843080194831,-0.5867177453696722,-0.7215486939345825,0.3429118519998624,0.34558602369944436,-0.7857539779899626,-0.37922886244405796,-0.12144545772131166,0.36627468286380505,-0.4794211976281302,0.554453787540685,-0.860699996308514,-0.5762621350228453,0.8114705517844221,0.5604626685255221,0.11960062936098148,0.13958768188186577,0.11007682559666243,0.2581102551672301,0.7016695098240868,0.7434306988807315,0.4950886672604822,-0.13045491966074396,-0.6918838018944468,0.9719950110581337,-0.15792985877143517,0.728964777717203,-0.1785882947596955]},{"Num_inputs":65,"Weighted_input":0,"Weights":[-0.8142032298649731,-0.7204972031799971,0.9987197772545913,-0.6972980740548695,0.3548887452604459,0.3021514628253108,-0.992546194065467,-0.5605667014212342,0.9612293907621734,-0.7488761955615972,-0.2585409612447054,0.5797309194671518,-0.5533333606653297,0.9834590116647042,-0.9566266311643472,0.7082723628252869,0.8020716428623429,-0.7292237516180022,0.04835887520981985,0.6324961667811551,0.31639466598747834,0.4078730150443086,-0.19167639415269488,0.40854754455153874,-0.08924891621428355,-0.8488428222546455,0.18763505135593128,-0.9467281286004753,-0.28096402075122184,-0.9454378917616375,0.5036203276621734,-0.4184308099927627,0.7408229075557005,-0.9104600051283411,-0.1367150668409357,-0.573026274923094,0.47761946566832725,0.904941097761851,0.8888922127770906,-0.2523286790964542,0.3119046329467299,0.40568152831483184,0.6298773127568973,0.44311294066239193,-0.2532336393851582,0.38276485010498074,-0.0032940090291965207,0.2860241437520825,-0.4634980704747508,0.3559415396789556,-0.353266878968428,-0.1237703221299028,-0.2599656765291124,-0.9840727422146907,0.9229229585886445,-0.7013546058852157,-0.9348588593442401,0.38326972930703707,0.5257787440433634,0.2871508284264055,-0.5734035500240844,0.6728720004394946,-0.06656245595079147,-0.6405653631744931,0.15890772148539312]},{"Num_inputs":65,"Weighted_input":0,"Weights":[0.6396514192910547,0.7718657245787335,-0.5481772768077213,-0.31923452410996656,-0.12607198401924047,0.9646898156759778,-0.3916786718452754,-0.27286909660819925,0.103792323575987,0.6348051459225172,0.7678188981618743,0.45091725749698996,-0.8979932165821414,-0.5700491195341706,-0.245645992204775,-0.004783154395860523,0.3554631916571034,-0.5264066021412374,-0.9713707511195432,-0.12899556556748049,-0.9042415267875524,-0.639661612989947,0.4168930901091248,0.3156822635927934,-0.08931759108399351,-0.1046954876450219,-0.3492845306935404,0.5730192317590019,-0.6564061888068327,-0.9921491838086559,-0.8317447670418489,-0.48408254193067224,-0.6346276825560795,-0.18457126262932466,-0.08243024210192773,0.7973961345628489,0.7191126525777827,0.6516093585728078,0.5707929322860281,0.347069041847359,-0.14918943719719524,-0.734578434530351,0.43554585292681836,-0.14112380117917123,-0.5694860416077627,-0.6604005211882892,0.6556476756524618,-0.8062343177813602,0.9853145061620641,-0.19929515270332676,-0.35274689247714286,0.4706175599908966,0.9661856044637609,0.11542813376571037,0.13300816646162894,0.3280080223031856,-0.013388971670455274,-0.023370037486420525,-0.03139232580583484,-0.9979501287803795,0.026638539161147223,0.16611133678501178,0.26251244410408603,0.5747016744400861,0.13419312323717647]},{"Num_inputs":65,"Weighted_input":0,"Weights":[0.9398024403105858,-0.8294438994775518,0.4977712996894661,0.5904315498234924,0.74933641380307,-0.47263222368955093,-0.00765890615661724,-0.9516251450246934,0.4606315926342315,-0.018871119494097033,-0.8899308762635146,0.9561606510358505,0.44006125951309527,0.4282328953202017,0.0065658057926509805,-0.7578412426579568,0.6503689208310557,-0.8573564771543765,0.7063410622817139,0.7979807085643269,0.5890218382210313,-0.07214662871035193,0.9155228201617402,0.5209723930545525,0.7806856230628689,-0.05585713739506404,0.39381041707702935,0.5585205461919276,0.3844205555657061,-0.7595938551766612,0.6152375024948193,-0.7946752889484766,-0.9224646400032523,-0.8229471392942431,-0.41928624819975246,0.5016891470083575,0.8257452773054688,0.8736160268301614,0.021747000167550157,-0.893982987812537,0.804543238087498,0.4974605437302655,0.5484125083487887,0.153630793011307,0.7956469231708097,0.6257979904241586,-0.047135890779150924,-0.46885320670926245,-0.6975445750956544,-0.7992006730272679,0.12975442194658382,0.6588264169994069,0.35121967015803257,0.3744113160357614,-0.3015257083061794,0.2761088998144632,-0.15395079581908244,0.045445905594315716,-0.2865557555959817,-0.6728042275514552,0.6692039540488566,0.47827831546000077,0.9867545691689641,0.39327337565219644,-0.01444153419424421]},{"Num_inputs":65,"Weighted_input":0,"Weights":[0.9690475955252553,-0.5625832277970028,-0.3433716594392868,0.2524962174415384,0.9683776435260756,-0.42719847436226654,0.5136539294580571,-0.0017006547672712147,-0.959485407383765,0.40501079425924913,-0.7581787168889262,-0.6661757440491077,0.9494252315322806,0.8812821278196299,-0.27097167715390824,0.49581007281573886,-0.8217240779406835,0.7288160934808667,-0.2645031867149191,0.08193408834566562,-0.5074820087891114,0.5138645922391101,0.24843190416237215,-0.7538107994936474,-0.15591266102094337,0.7464571793166437,0.3982770537259357,0.6334198674622538,-0.20680951069954334,-0.9984913679629988,0.07764731774624756,-0.7948355209197346,0.27167379432261884,-0.5499536407224634,0.5189013337382096,-0.19464349248512836,0.5872902936219215,0.36795495440181214,-0.22756621567612723,0.5163012155399072,-0.5770952174293331,-0.5201630951369389,0.670391084584975,-0.6877286090202255,-0.055406203702906276,0.7031275432110151,0.07534623737215118,-0.02948596734300113,-0.11196505528418366,-0.3959698585604815,0.5908887075264013,-0.911893501622027,-0.42602575133702114,0.9425137879258805,0.538248066269839,-0.8998042211267873,-0.7109620055272435,0.3420402591846934,0.8434577761337028,-0.9578976692475091,0.3666339088397734,0.779420211080994,-0.8649019574396442,0.9264892982656534,-0.8155376441555127]},{"Num_inputs":65,"Weighted_input":0,"Weights":[-0.05614142756666973,0.12834603305431935,0.45192352962678095,0.11585356816802617,-0.3071856772151116,0.14682262055593598,0.37573175070019893,-0.9898510462304655,-0.437401729739344,-0.8736749847061913,0.5037295497921364,-0.29676682214219896,0.12291433060120305,0.38913844974537426,0.09769575303502442,0.3399811417468841,-0.8350576874609954,-0.5197397478477964,0.6812872247681692,-0.43117781933798205,0.2689786268909522,0.9512567701424088,-0.39955844786485306,0.16169904744140506,-0.7104498013892178,0.5587858759958473,0.8259722911921632,-0.9076833639039148,0.7284637198889601,-0.0829601429278507,0.6406035301350914,0.14594811049392686,0.9401665369967296,0.7614054888034292,0.07017736970522082,0.3456096363303869,-0.7043406942759707,0.686365182131276,0.45884592250347245,0.7525479089917739,0.36920997050542703,0.17790727147413965,-0.20517010513568934,-0.18225851117575653,-0.2530984451099503,0.8166899997854045,-0.9393420558227162,0.5954985639504093,-0.5717345364033009,-0.9443731979494207,-0.2062009345543826,0.4940099243140248,0.21089153938684202,0.16608525749494252,-0.8172660304392614,0.31710529661546016,-0.9671977804501242,-0.18659026805731516,-0.21020035336335974,-0.9163332407188441,0.0033303439900809195,0.1398416718160551,-0.007070810673098116,-0.8415236193616629,-0.26155605989960606]},{"Num_inputs":65,"Weighted_input":0,"Weights":[0.9689121778331835,0.43104677111345846,-0.2853088917899783,-0.8316654114703845,0.7217149338359821,0.2501409667085175,0.6136598594495684,-0.44855967393376106,0.8220602336295348,0.3335372791249187,-0.02570655703729774,-0.49516614339696585,0.7237955889521845,0.46690677316363094,-0.9934179371252904,0.1796225757324199,-0.7836569808223357,0.6404150712461012,-0.14062765564753443,0.8025708373390308,0.844886953747136,-0.9156644711100366,-0.10416851014994366,0.7609307409577182,0.5781539568833309,0.8425370632392191,0.18275296687456177,-0.4852964474894099,-0.2687108483227326,-0.661415850604179,-0.6917190939767732,-0.6059768540983765,-0.5909883892182458,0.35719319239973735,0.370533959669763,-0.6612849220056978,0.03182379960832771,-0.0887389137256489,0.756913261587393,0.2579425722225446,0.17001236532137098,-0.44819143100647485,0.21715524145921306,0.6015683307481179,-0.5176987161964144,0.5132915110063729,-0.28100247441405013,-0.9207973692860466,0.7985985032461731,-0.589856277243163,-0.847460721079703,-0.9600297374650912,-0.25472590941090445,-0.35063178783055404,0.45127018560053833,0.09259532469460252,-0.2749361860633567,0.9527691642075324,0.3137385474690495,0.25122848700951095,-0.13508883069550026,0.0999912736981825,-0.5862902734618484,0.6906364677381684,0.8160936494819022]},{"Num_inputs":65,"Weighted_input":0,"Weights":[-0.978128621154345,0.14621686867814865,0.07473886548994124,0.048710904145849776,0.9769989425831263,0.05294353931322071,0.46285448656743045,0.38293455052744707,-0.6111675941155563,0.8424584192468663,0.6151773515852212,-0.22997460597163133,0.909348559956666,0.05230302051595448,-0.6836708556713769,0.15364510987311442,-0.21221658724932357,-0.9389505932431199,0.04337025549295492,0.01693869743745524,-0.8369532010136196,0.8222263778414787,-0.14796651581827713,0.23401983830337714,0.2626977964644044,0.3098182242259815,0.7850951363553857,0.9797434440262862,0.5659323565182124,0.5101558316507286,-0.1309119994954786,0.9909325484715235,0.1512507715524556,-0.24636855579724626,0.8870848982746691,0.2954956256646484,0.9072965791416363,0.6726322740346513,-0.10903427508135455,-0.32151926313526336,0.05029052407977641,0.14903889021778194,-0.08653670084567289,-0.36614541714979043,0.12000729921588693,0.4350521387266739,0.6503934138770266,-0.17694812621944545,0.7931953322934053,-0.5295390473868464,0.09342202488567986,0.013803075829304623,-0.9857283177612156,0.18462393507099084,-0.6231460671288729,-0.03183911064480316,-0.9042679454218423,0.07430210932177816,0.3305844707406742,-0.028252026670247732,-0.680336064110957,0.5598422845227173,0.1494500398213534,-0.3186651235075212,0.5800868614781296]},{"Num_inputs":65,"Weighted_input":0,"Weights":[0.5680413531345956,0.04415818735742261,-0.7956242288866979,0.6965740514821674,-0.6722831182965728,0.1308084253087778,-0.7576050873775788,-0.4492910076589557,0.9966661586004257,0.8585996864071548,-0.793422633398302,-0.5782578065161261,-0.37081972152488596,-0.055141698615149615,-0.7134661923960364,-0.24904318524270852,0.37560779908668573,0.5758020194402795,-0.9343682526534587,-0.8072218811303336,-0.3303632017491095,0.04621485567890793,-0.302839889114738,-0.639456428309729,0.8294028440042507,-0.2637978776852631,-0.6830894566044873,-0.8179642892729319,-0.4737037320032996,-0.21102673751697076,-0.6220905114326283,0.5117064511820628,0.2827271262883322,-0.3626351100170272,0.25679348613377173,-0.4431104333724828,-0.32602983618058945,0.1549362540953152,-0.14348973465265302,-0.7790195184713014,-0.30640149742867695,-0.23803264908138844,0.6099860909677197,0.7660738234237834,-0.24541287320373228,-0.6403081490280611,-0.1053936424614359,-0.6212550597139652,-0.8022944464114418,-0.6707296458765029,-0.9469506413456994,0.30234802162766106,0.5669451029071857,-0.6324811665049039,0.9502701163062137,0.4624762331993322,-0.11470953254321581,-0.4974809632187299,0.2248735057345599,-0.9550732821981319,-0.8070145802851274,0.000144008662601669,-0.5236170635531814,-0.43798058108483984,-0.12398423148189397]},{"Num_inputs":65,"Weighted_input":0,"Weights":[0.0019420286749867177,-0.3927312648562076,-0.2530433134229152,0.7526766339603794,0.13848562096320638,0.15136218197892126,-0.8722804657142881,0.39815162252757696,-0.35678359455184894,0.9581378480309466,0.607518848772675,-0.000797604812136754,-0.3357200571221304,-0.6778407052821142,-0.6354072225045455,-0.9835303183669104,0.9989321621439178,0.7657469870618911,0.8382844372705671,-0.19170731926551987,0.5776706221555579,0.20719594913675743,-0.28694488215495806,-0.30022753470941,-0.5106597886974067,0.2514187919890116,-0.11234868152686872,-0.6108426149044545,-0.668455215515672,-0.9534548906557199,0.8852240180745439,0.03028777306628605,-0.3309491358716231,-0.9083620986816212,-0.11723440743094715,0.24095787958202775,0.4369657158747151,-0.5127390290035903,-0.5199439846429903,0.5736357687409379,0.3137909228049074,0.1381236547207394,-0.03346094889458484,-0.5590427416550363,0.3710376342950783,0.04326218509849644,-0.9130312669483125,-0.9792284179146423,-0.9277568363999098,0.27814446683171434,0.4684515561218625,0.6584728430641922,-0.8153979095694406,-0.07620175740002633,-0.7805715477379018,0.09118923579950189,0.43463169590590245,0.6599641420273257,0.2015229067052542,-0.8487022418146846,-0.7376656872956472,-0.7530870555078003,0.696065101853163,0.8584850043829813,0.9036271268934948]},{"Num_inputs":65,"Weighted_input":0,"Weights":[0.3841756088517545,-0.07230266312812339,-0.35776966481455896,-0.49631489450461597,0.6015999821833247,0.934993030566716,0.9475118970186645,0.7117652799681311,-0.9707359162244259,-0.5793591778583868,-0.06012986825839106,0.35603916564789095,-0.3888391101887372,-0.04459701202389599,0.5152618827715609,-0.5089152799059875,-0.08014018446201254,0.20112658701758002,0.6165001043906881,-0.496578580080576,0.6089765127130113,0.7081088959211783,0.4533895827896941,-0.47914254015324287,0.22254729062709355,0.5002236382148821,-0.30457718735915973,-0.7046015245861388,0.2504869057680732,-0.48944985039734024,-0.39313150309297884,-0.9471577986041334,0.9892941075984216,-0.6524112103684176,-0.2827326249178129,0.15637716551895897,0.6031161603935313,-0.8419170427862335,0.27623593069705255,0.9441582581462018,-0.430845952327111,-0.8829232217162847,0.8306773294444301,0.8664629276786819,0.6823614876340858,0.9720092073803621,-0.6433699435785905,0.44798233440288193,-0.8423196634631382,0.595464123311134,-0.6501359854980531,0.028552841158791198,0.7416941799230519,0.5594483070004681,0.21269060960732622,0.7967163413423002,0.066888070643085,0.6397863330263138,0.48091477850867603,-0.2207752163729425,0.8630716959428857,-0.9810402985346612,0.45772141186809767,0.6353669175296819,-0.04929696596303024]},{"Num_inputs":65,"Weighted_input":0,"Weights":[0.041230498777221625,-0.1711395061278893,0.17307187451123296,0.4614567902826219,0.5381010417722911,0.21007729295891386,0.3383355870406308,-0.611957681295751,0.7468679939329925,-0.7523827185137496,-0.35532988917410324,-0.7062598889854865,0.023598807870562677,0.3620572098011128,-0.13368750267087626,-0.2749498055187045,-0.8562321861681724,0.617417755167764,-0.9431611145979074,-0.8083541235604177,-0.8087840075864872,0.25586439733857014,-0.7230372137006074,-0.2811564053839174,-0.7570893620327463,-0.8485274324459292,-0.5195124334488478,0.4485590477271093,0.3857498154025034,-0.15199085093315035,-0.1775058565511789,-0.2663566018519473,-0.7131418908812972,-0.4244836496196859,-0.25189287284741335,-0.6102739519874125,-0.37541476597534706,-0.943933002138456,-0.8999876400907385,0.8480689375470034,-0.21059302081078068,-0.9092444049905156,0.2594215020612993,0.5800582406759911,0.5649218295126659,0.8230906293253348,0.22124804896277195,-0.21020033860920895,-0.4365733472903299,-0.3671835558541062,0.24728160016042144,0.38127267065922443,-0.11786092865003595,-0.7062013591571719,0.28033205343117085,0.11703162393308286,-0.7423686090834312,-0.8749902450536615,-0.7846649701162358,-0.4420847278446255,0.5149017506846438,-0.36983283151330915,-0.9615190514681106,0.8242795997029422,-0.6403626362179805]},{"Num_inputs":65,"Weighted_input":0,"Weights":[-0.9398027348191984,-0.45552305455428943,0.5489869688475337,-0.8414657022691091,-0.672656832358133,0.8486886488185341,-0.5431989520254792,0.6463938979851032,0.6166588793076309,0.9640637289365732,-0.522669445901589,-0.1900651972070594,0.13208796938090828,-0.3301874461336237,-0.02959646189141718,0.6495765690793096,0.015501270813663037,-0.064897240977289,-0.28879407951945635,-0.45906868956180147,-0.6268053474683528,-0.10132238342360977,-0.6583746546488445,-0.20800657373724318,-0.6190996155288317,0.22389373678455482,0.38580808887651363,0.6897715818601899,-0.8953960114110457,0.5508256538473442,-0.47854516340806574,0.7964684461195071,-0.7866082848614666,0.005784178272627338,0.6793705573672826,-0.7443597573758892,-0.06978083165475035,0.09980514109266103,0.5304154728797519,-0.4519078695681834,0.424551735158754,0.7745845491320096,0.7246740475332429,0.9618995862469082,0.3355716619306064,-0.3190827908377728,0.9853021197445475,0.8504551907428854,-0.19741818282533874,0.4577449886920526,0.4533474192220799,0.7431474719385383,-0.0008722980104186595,-0.7763739782226693,0.6450998131545214,0.3363244074122169,-0.44896889984883215,-0.5098354790568504,-0.9792311797166662,0.5526414330239839,0.053901746297499775,0.6247810838334449,0.5053754129874002,-0.3754833291307782,0.1547442175378162]},{"Num_inputs":65,"Weighted_input":0,"Weights":[-0.04850925962869257,0.5261084000347662,-0.6226699455086186,-0.3291509316008353,-0.21534108695486665,0.22929313181610267,0.6099913564334449,-0.3267556186278562,0.8365301445863342,0.7003769128274975,-0.5642516454597843,-0.5943890268010597,-0.6670900530501991,0.19049153390233475,-0.08033641097041944,-0.6323855593824479,0.013652480486253893,-0.5354272180951201,-0.5664413572538674,-0.4132998274645485,0.053783912193472005,-0.11050523076315277,-0.6153099422923997,-0.8028141041475426,-0.8771694419988165,0.9822654076202213,0.9155846411242852,0.863240778879206,0.6233148765626981,0.6670023905770028,-0.2577225478718327,0.9891729083835821,0.34916787282787776,0.10728917349004541,0.7399389520857977,-0.4739908827889251,0.9097843115818378,-0.8096994497605258,0.4800102814484579,0.34583705233314777,-0.539684588564566,0.8021909406655565,-0.9923956240417929,-0.5231940931104087,-0.9881275636529275,-0.21236652227109243,-0.1289547732555517,-0.7550601251575144,0.16721555688212275,0.757908059051875,-0.1422895037929819,-0.26491422124838226,-0.6757695260078527,-0.6276495348572366,-0.935844431156457,-0.5235196058013439,-0.06867066883527662,0.681217542172871,0.9421099266719211,0.7967958384234182,0.5841336653253788,0.01877614659050897,-0.8916042026674234,0.9159339990548219,0.3814269641309782]},{"Num_inputs":65,"Weighted_input":0,"Weights":[-0.841328061520344,-0.5918622855903757,0.27848391256608584,0.6144276487381268,0.07827655962624247,0.8488955152667457,-0.3136763611255168,-0.3861777986346775,-0.9130545479876362,-0.2955212856256648,0.4484863225371267,0.2451733252999393,-0.9198351213070048,-0.7836352100099937,-0.25580201898190125,0.19031307033284106,0.4904588933014351,0.7200069750753819,-0.11043792671377217,0.504619351006824,-0.4116879090614901,0.9103433083109576,0.4534553977628044,0.27704119467820454,0.3731200066677933,0.6970979962446155,0.548949000482376,-0.5261359625637966,0.3607491336280786,0.21600651465586695,0.8413334175864502,-0.44424199052011104,0.30067762996414027,-0.7204965990293368,0.4297009105803078,0.16180206127414754,-0.7683531617067437,0.11019082724016149,0.8192829648461959,-0.053720276436556524,-0.07615100333178071,-0.28409284891934283,-0.8036100380943445,-0.3943942459287654,-0.41606743209184105,-0.37639196651419693,0.9493145763631123,-0.9153969973145961,-0.5451259261124117,-0.08227401927104372,-0.7042048356646642,0.21105285578425836,0.19362203501498443,0.7297098431732361,-0.06559838461461553,-0.05952112816869526,-0.24430266889704422,-0.3887164536599601,-0.44446418638545715,0.8248414621759177,-0.04673998565788362,-0.7686256450933688,-0.16531482098523953,-0.7028934580986484,0.3605646033922738]},{"Num_inputs":65,"Weighted_input":0,"Weights":[-0.8019494701281313,0.7576413005077873,0.19680728428454697,0.7611768351945793,-0.337754984670405,0.7365215066311579,-0.7440315761964992,0.5149185605570983,-0.32316083832044173,-0.267085863640369,0.7454318537200828,-0.9067274338448904,0.8466586795569175,-0.4918853312038445,-0.6042306775424064,-0.2418436159638846,-0.9512562504132328,0.7651690959941209,0.5294314355678895,-0.444853330554116,0.48512358032850944,0.5739701723988855,0.042156793935887116,0.8863176944891473,0.480681052015945,0.9145956913147189,-0.2806748516365982,0.919109546607416,-0.02961110325403471,0.0483977131371629,0.9020839593965864,-0.32670950787902364,-0.72335616183489,-0.8760818334007031,-0.2798205209657004,-0.15680991197352678,-0.033541161784016116,0.6599591109172025,-0.12930136080867383,-0.14437081241050764,0.7302970399594191,0.8894495270034273,-0.6902471924129077,0.6839107777145583,-0.24876718855434388,-0.7096545611211759,0.9336646719890902,0.5882578622417811,0.016322557851631725,0.14985670175618981,0.5720211591022475,-0.6872648353226429,-0.4762232968241411,-0.1605985365608471,0.7756051627355209,0.3559001612873878,0.06177020738082328,-0.4349224050444148,0.6800332459845071,0.2224152624404363,-0.4986670418358612,-0.006971175754280856,-0.948336321584641,0.7466623392654259,0.4261726950779994]},{"Num_inputs":65,"Weighted_input":0,"Weights":[0.5510898778164268,-0.47145031613238264,-0.3661520899138514,0.528874000169675,-0.5167472327647191,0.32220215654379025,-0.7154392566582322,-0.925408550389557,-0.17956387723466982,0.7208675835530964,-0.078939144276856,0.5432359498845518,-0.8257538849547186,-0.07580422594130443,-0.176277706106578,-0.4741767384277106,-0.5554999937549389,0.40436062978283216,0.3909816698528956,0.6917323393834436,0.4337305457364653,0.38958257940178753,-0.4505306049406883,0.30924995775939923,-0.629145948641104,0.6070182962317148,0.43250418311884276,0.7144860891106943,0.3044833901893338,0.43765044297850997,0.6881818131044202,0.3898990305749763,-0.09005938571346594,-0.8964153532476157,0.9378922563186212,0.4406079876380853,-0.2303713236962852,-0.5566390447428291,0.2115945337948999,-0.8055141314549211,-0.7524760689073701,0.6101244989814487,-0.4487845038251609,0.3495051496230164,-0.978140967918641,0.7276828755795968,0.9697956471359277,0.10304335319716285,0.3581467667121587,0.7930195484804157,0.05072880270649627,0.6010614404307817,0.31187984796100854,-0.6884125192540489,-0.40232326117785977,-0.6241919024271838,0.7089287480330921,0.8884141197320736,-0.21885651285366148,-0.32753723119000866,0.7626130475089263,0.6348300320442657,0.699622631819657,0.4070826793168245,-0.5936521862216783]},{"Num_inputs":65,"Weighted_input":0,"Weights":[-0.5853906524419172,0.725570298863758,0.6190353882245638,-0.2964589120806683,0.6383947016136609,0.03210752805339245,-0.983341176570219,0.07436277361641475,-0.42980661757476213,-0.29490058507363814,-0.4774914764027074,-0.7348555504848796,-0.9410907715198443,0.48701487860931914,0.01111015099749224,-0.15684775248151184,-0.5081391187961201,-0.9559159698506343,-0.9358152387199912,0.4702534695713789,-0.2791522315989957,-0.8084717342995392,0.2500225059371557,-0.018481944627925517,-0.02264389717562798,0.8477932214558606,-0.1913530117737715,0.13856278964404645,0.06060749203695459,-0.4169649346008796,-0.10192533600188414,-0.16531121132596027,-0.04773255878741611,0.13324617304478026,-0.5197136595760314,0.8854329516874804,-0.33946216874506485,0.2801833574126953,0.9289976538841245,0.9584964827925821,-0.28765776507055285,0.9128153263778747,0.8648299703992806,-0.2602678825415944,-0.59687023132761,-0.6535695282789304,0.5755359299363543,-0.8441542270550961,-0.038211922721919866,0.8518460177584284,-0.043743435566779176,-0.7064297675747591,-0.9755377510461418,-0.6427449155108511,0.23070177385925628,-0.958248367553049,0.5683608079973088,0.5054113300687639,-0.3152239994346536,-0.5992651937511586,-0.7253359572999205,-0.030589877171815383,-0.5328521640113115,0.27824976092003584,0.9421625530564233]},{"Num_inputs":65,"Weighted_input":0,"Weights":[-0.9093134026604516,0.29983840861396005,0.33916196836143464,0.7776402977015981,-0.4713605754118604,0.30984111308768125,-0.38996174388406557,0.7134045925043571,0.147618028517704,0.8136706191185941,0.8826750734554092,-0.9726966880271517,-0.8884348308888693,-0.08962014596949164,-0.8158919666831709,-0.038719384202532625,0.45762913887558243,-0.479235496073518,0.6122899175730008,-0.5424352685766668,-0.4320251089035909,-0.8822714199278658,-0.16391547045686672,0.3987629872192686,0.5520478001350524,0.0831572085605985,0.8134552647587852,-0.15035495081486472,0.07936632518622688,0.9988333788346968,-0.6445345596487668,0.4829589696429506,0.3365230065773832,-0.06507675708387672,0.7989578665420705,-0.20388364252586666,-0.4101549154367068,0.4109687359876286,-0.30884810547773367,-0.38592902127693773,-0.8461084475167866,0.9877828237631558,0.20952388947524714,0.45130944888288016,0.7772721439349111,-0.871415522635997,-0.4394543472877388,-0.5071465517436269,0.5800348954767853,0.04732645763936172,-0.43582966551613744,-0.5729408800754267,-0.6784381065880087,0.7894585123949911,0.9368981150326026,0.6003811621389301,-0.5715118162280153,0.4773352553481771,0.8339476849479002,0.555673450218505,-0.5601626269504704,0.05930229688559918,-0.2652433599930474,0.00790703728584008,0.3738005927961523]},{"Num_inputs":65,"Weighted_input":0,"Weights":[0.8493348945019834,-0.5194755430635846,-0.05940376447098894,-0.6229459847043699,-0.9539356106731642,-0.29340277424529304,0.8699708585024777,-0.21866050559901695,0.5038191208767728,-0.5342682598472805,0.9680198500265724,0.21331790684385776,0.1356305081735898,0.4417988697836255,-0.004068353966313554,0.9592891768427017,-0.8593163801312441,-0.444114048599754,0.5352189858795044,-0.25029820497501165,-0.31316992280076916,-0.6555424530382203,-0.9478714052837061,-0.6145157320145824,-0.6538700736025593,-0.19926464674264133,-0.5021327709179513,-0.519055367962932,0.8323944689094314,-0.49475313496733586,-0.994316186574149,-0.2213425726859194,0.43725238545418676,0.8458825232144394,-0.16781210599599927,0.24504669066134954,0.21994475512164247,0.7923084728792715,0.6571139297294595,0.591439378110358,-0.9946716218820999,-0.8169693105788478,-0.9962154139673414,0.8577273249842883,0.8259971920029789,0.916848183061991,-0.11782918712328472,0.801046199796249,0.5688078815619109,-0.6750183961675267,-0.706286740795093,-0.19787445487835376,0.36404266249735273,0.1792613351604475,0.8148852011796242,-0.6274959585187032,0.7729368927132947,0.3004465177589817,-0.9670215647687633,0.21189058613772804,0.9560472540061073,0.8991050032103067,0.4345248430248134,0.01424258789381705,-0.19220944460877576]},{"Num_inputs":65,"Weighted_input":0,"Weights":[0.23747629715815122,-0.4651453258395759,-0.558802350792702,-0.39562105058504704,0.8636905191170396,0.7603491008260879,-0.6255341190907717,-0.42018365935011825,-0.4676577039987817,0.9985010664706533,0.02447467853441787,-0.08613148610652244,-0.11599039248285326,-0.1922827270800539,0.3957225833407034,0.6397433666599095,0.5196565307380501,0.23743594852198702,0.6201261743469852,0.13603100236416044,0.8880945021668405,0.449940933523719,-0.35720068311490183,-0.1901613614639971,-0.7384920654879388,0.04268616963407945,-0.17431084568485533,0.035145255152485344,-0.16678393585569062,0.6545930457114078,0.39065582258047993,0.8447266629823691,0.929560289028901,0.5866015527723374,-0.47992624858217714,-0.38041869496081426,0.21865918300102982,0.4067509632102173,0.11892216063504879,0.8836963938014164,0.38900931308744946,-0.9843682047765798,0.1880492775009408,-0.603396117741156,-0.2576919109777689,0.4000533085694562,-0.22740520776346107,0.8360014054493303,-0.9281674391855466,-0.24779639001443188,0.6810208049149193,0.7088786583507092,-0.5237744983825496,0.9543887229617518,-0.9623443170075986,0.7780799919272707,0.7659264794719087,0.28612769987897635,-0.43452824751079977,-0.7940714775740281,0.41027852456985237,-0.8544240103728409,0.5854413553220705,-0.8718402014401067,-0.07134967130948544]},{"Num_inputs":65,"Weighted_input":0,"Weights":[0.41275255211762074,0.3589688058237981,0.5660943774147633,-0.7725811033604013,0.9946183086787923,-0.4528376630540415,-0.8476117564599001,0.02039662664360442,-0.06062920258719673,0.40996991204958877,-0.4964545403681051,-0.23308768435196325,0.09158584227838307,0.07147788694110258,0.057429467219142216,0.046016505211958325,-0.47280995155867134,-0.2836669535241818,0.5585698488977984,0.6170723631161152,0.17423373105099604,0.5008476164791769,-0.11427857173179135,0.32354420987217014,0.9147384209487475,-0.36116694696547114,-0.3113142515094032,0.9562583190894909,-0.7787849259250298,0.5826865291465793,-0.5351245500479721,-0.8581881462116221,-0.5347208341867584,0.7683491342322353,-0.6179503931378534,0.109228851345603,0.1653859727386493,0.46428453361562094,-0.8674793807143498,0.165634920547717,0.6313887009195338,0.0902941666315562,-0.205811355722489,0.5425645283887053,-0.596594800728206,0.8556045998165309,-0.8175029225740862,-0.9218585913222839,0.4204729815173287,0.707133358870836,-0.6994575562799745,0.11142674776314121,-0.9916339066903134,0.2513633570604581,-0.48419394222051415,0.5054256235134933,-0.8382366006845821,-0.210940036632574,0.9241640466855574,0.9324889126421376,-0.3060945117238756,0.9687452898259392,0.7100163635010701,-0.36509000437897177,0.5886580211291155]},{"Num_inputs":65,"Weighted_input":0,"Weights":[-0.6360846889877851,0.3067382731715682,-0.48989767687357366,-0.632952026854313,-0.19408248992828425,-0.3052002135984795,-0.8965801382627583,0.2955288307255146,-0.02523870985446497,-0.5850972280385651,0.8976413316461469,0.33058289504554006,0.04582466431942156,0.5413630735196415,-0.6222561158386777,-0.8785629988735992,0.7754423798327563,0.31297539183588996,-0.05333888073283277,-0.6752485206750163,0.08559792804930622,0.24881068239378545,-0.10309088354872809,0.06779794213681467,0.28178607675064726,0.6814031824578379,0.6835818702053444,0.5313760866886639,-0.7225688990866974,0.5308256579013122,0.8205389074284053,-0.1671845923313987,0.47704660290886736,-0.8099925469473732,0.5466489100028837,0.8333731533198456,0.27104149198353134,0.922577203743338,-0.04098755507970231,0.9254289973364307,-0.03629449978945498,0.27909091584027945,0.054091331513758334,0.8624484291908066,-0.009379470063318074,0.922651599669021,-0.7637619247904305,-0.2579376209384261,0.40461137264181923,0.41931228621562244,0.10430914806260394,-0.3835680052188646,0.13651414501683146,-0.557679939266907,0.1684504498726005,0.10835348554622315,0.8689764556438,0.485992457040612,-0.702271842702504,-0.8855687628443567,-0.4732637101264039,0.027317549688078202,0.982372576378701,0.24081484715583779,0.8975502823065729]},{"Num_inputs":65,"Weighted_input":0,"Weights":[-0.7427917164153781,0.03368221300988972,-0.4227766456923685,0.7137376216704088,0.2804036093167126,0.8197078077452884,-0.6021626025042897,0.9948884360822545,-0.10966906343773486,-0.4659844383852303,-0.7374672151577314,0.2793052635055968,-0.6019433950879142,-0.6052948978960604,-0.04765161752167202,0.9557931097137473,0.654099108295674,-0.3065071191557166,-0.5888614123685838,0.4031731694391929,0.2003714109593533,-0.7439149514587378,0.31110625370640754,-0.24935087217136798,-0.31312232582332267,0.46971157676603026,-0.9728390231107252,0.8643070897490734,-0.12821447537301822,0.8399399186406651,-0.16963546950892283,0.39305062164012106,-0.39939736444641893,0.00012749883086038416,0.9692403214664809,-0.2586252871421387,-0.6026165909756465,0.9594644523135871,0.41991133850112394,-0.3706699563149779,-0.6277698112891471,-0.11126731559235703,0.6667435311564942,0.9146915152300059,-0.6291765671331866,-0.6193378161655132,-0.8666719416613127,-0.508465193368178,-0.7692704791761058,0.7767192069898423,0.8401407525441171,-0.11878864764370045,0.9805517372467276,-0.5029399317133818,0.11353369111362377,0.17090290793960627,-0.5524838162468184,-0.39974838018312875,0.7760412579457923,0.5787340159657501,-0.6692524008907503,-0.0033113867928861174,0.5427114057070428,0.41812631018319624,0.7478223842998888]},{"Num_inputs":65,"Weighted_input":0,"Weights":[0.24503688638573373,-0.0350454305325788,0.6752532047269959,0.7326287270990972,0.6563079525244959,0.7985835619296198,-0.847633092763035,0.47915275236583943,0.3623750490855948,-0.20927079067792498,0.7121663652382788,0.5495051124144319,-0.9094458840543198,-0.35589970786248204,0.3088437827152508,0.4368569905976052,0.6422344994084894,-0.9381769419713355,-0.5809612568482541,-0.45069543950987234,0.7589896185765339,0.6645463836967933,-0.1855553719676838,0.063146707713168,0.9663490374837347,0.5788750863410346,0.11131745409864591,-0.525281291373388,0.04476994994197803,-0.09817543932823058,-0.17674844260707978,-0.7504883627147263,-0.7545305323828337,-0.19453200086077016,0.3289464766279866,0.6435915680701747,-0.18774047343180733,-0.7085291107140428,0.31323053759109354,-0.6860001207484894,-0.8453864498275614,0.19946483680489435,0.306417545433213,-0.9315946096986407,-0.425366807816007,0.9842009992440421,-0.2788132900202577,0.3082295658115495,0.7822403366091659,0.3481404769709777,0.24263811162393623,-0.6924091242650185,0.9624383272631143,0.637401399584216,0.13930548589603586,-0.36906091381763173,-0.11830338287981002,-0.5213110607621814,0.7663157934007214,-0.525169020150998,-0.056925999084878276,0.0346911166656958,0.2606001257910937,-0.6943145058608617,-0.7563903700335067]},{"Num_inputs":65,"Weighted_input":0,"Weights":[-0.23817185555130493,0.16682294716675616,0.30183315863910276,0.34864397125170554,-0.6802882095260833,-0.712465916364774,0.8451627196431524,-0.6348939185992981,-0.9162295479003824,0.6854964983277576,0.264280781115094,0.04009901835194363,-0.058736215243255785,-0.025595921537079236,-0.18613180990618083,-0.1209501659352431,0.5083598992855629,-0.04408346120457807,-0.5325735535550069,-0.8897464749649306,-0.377347305929962,0.5340228303278454,0.3828084535292422,-0.6187425334317301,0.15509740747464518,-0.891755672708506,-0.19225359976377743,-0.40945726914603686,-0.32775032949392124,-0.38680213447448186,-0.49939926483865005,0.7403381765563144,-0.9969675501252858,0.25394308238258123,-0.41246133667950824,-0.7752649820313695,-0.8932451483379642,-0.19485397960924267,-0.4533927044569238,-0.858846406605275,0.5010012889818729,-0.6012841385408805,0.6898402674510729,-0.16770877893942215,-0.5091234731060785,-0.23215864316727064,-0.019698713147708324,0.015099773926023907,0.004705591716688273,0.7868626954178166,-0.44229751017945707,-0.7633886225606883,0.6256750016639567,0.7049955916140671,0.8227798507603239,0.5712106155775558,-0.5002651677328847,0.8638352933186633,0.0458355835589912,-0.2964081137409422,-0.6653687277931631,-0.8252449071149295,0.5515218554311143,-0.6624949049888772,0.3403360400793316]},{"Num_inputs":65,"Weighted_input":0,"Weights":[0.5300869880764063,-0.34749293252909463,0.5624122492406112,0.4535594207701663,-0.37350085559499435,-0.42804058340876683,-0.9729210055674375,-0.14532519661584664,0.713074276893298,0.16088283501264167,0.008867602211533487,-0.7947994140463978,-0.7474423373566689,0.39044627604960125,0.07227530840672691,-0.05802356861601232,-0.6836189540167907,0.2785695103872856,0.9307873805766327,-0.328822663986153,0.7692871362145179,0.4448738500793319,0.9456007320586151,-0.7550430613911789,-0.49251465270442407,-0.24976043931128378,0.18609064070718073,-0.017044197626007174,-0.6258113751624012,0.17110530039534488,-0.6224501733367775,0.7614691262989961,0.3925056971310248,-0.7542488310877009,-0.2176619773114553,-0.570724953827743,-0.7021104698482687,0.6507405116418772,0.4620070116320236,-0.6742289026920905,0.8175506139221174,0.1856969982787824,0.2432730282913158,0.052585671451271576,-0.7743420304765471,-0.21068723559621338,0.4162791127327645,0.7113609846131461,-0.6095426305137963,0.8220327129247613,0.7853133349087447,0.19986005268886808,-0.12402987150045108,-0.4085897740313319,0.11683397602813317,0.23958131534299953,-0.18980414873194562,0.919841982215222,0.6150176924933646,0.23816561255552537,0.8847577421878132,-0.11837434529718693,0.8716711645281812,-0.6397444209321437,0.4359436459223316]},{"Num_inputs":65,"Weighted_input":0,"Weights":[0.824875498551012,-0.4832051135440718,0.08048313502152338,0.04233753930439765,-0.5642154745420678,-0.8068743228475084,0.005015328237650829,0.949743906581801,-0.946750524863338,0.8014249999273879,-0.118629848490578,-0.03339063377888196,0.0967268591197814,0.5533152828054235,-0.2547651188090868,0.2819981958748503,-0.7417174957301578,0.5935420696888976,-0.31493344686420477,0.669818967085656,0.7475539985243065,-0.36387398644628,0.6777302699504733,-0.20876778658176798,-0.20635687941772685,-0.8408961073942809,-0.5671247099146199,-0.8038602547137242,-0.7969296296112266,0.49618789334204827,0.015019044107204893,-0.24110201704321776,0.9488675768781645,0.24889497988379472,-0.4093328497716423,0.419769080775247,-0.456254449019862,0.4841320220381129,-0.2599857578695285,-0.5738475273028818,0.2636372704117218,-0.7027625591133844,-0.8731972513624555,-0.28948030493468846,0.29946371451624665,-0.6267234322842332,-0.9041990564388754,0.9990217590509787,0.20447011816387173,-0.9453478382200253,0.050399937215962254,0.5832199872080381,-0.3527064719086834,0.5354519531852233,0.8185152640644728,-0.7560609504722458,0.09729505065002741,0.5790918383522197,0.5596989343716103,0.14966452666258157,-0.3027589912957017,0.0005102670835186451,0.47594440626497736,0.5164534274907246,0.03275409264967566]},{"Num_inputs":65,"Weighted_input":0,"Weights":[-0.33746180163028416,0.6886195717275514,-0.7771917753922477,0.17712445143236777,-0.15074002571672473,0.41743367707014967,0.4496574487684448,0.0800195177478169,0.9901908377979156,-0.240820850109858,0.06496611978749645,0.630095271869832,-0.6319896958195466,-0.42967245223286343,-0.489758457065234,0.7855381479793,0.8654998083223855,0.24805422190520998,0.03552491772765376,-0.577843753088175,0.19351664279292158,-0.5522849967303287,0.12892988241420755,-0.5250291504327097,0.13297251177393576,-0.551095903991552,0.4878485664849861,0.0866829896712662,-0.10612369215642192,0.0817762251716887,0.5906510840468127,0.33482222557782837,0.32796661190182674,-0.08594752933827698,0.6910702958931949,0.6498079842844282,0.054090116520912,0.5024227685365903,0.5224582439122829,-0.14213253595518527,-0.667595651203676,-0.4548453668436808,-0.8665363563969259,-0.2846869255527038,-0.7106584303167904,0.7799067056196687,0.7444138156335065,-0.5503636703652548,0.3363982391224585,0.4277341761655924,0.7863908611996293,-0.5558322744305457,-0.4499463338022154,0.71223959463669,0.37633074821422197,-0.7941735738523215,-0.007888212843155218,0.33135306385158114,-0.20521771783310527,0.12682425445138645,-0.8108864552903372,-0.010546184933319602,-0.7867069117974026,0.04379441131431849,-0.8970085298432333]},{"Num_inputs":65,"Weighted_input":0,"Weights":[-0.9799765300609649,-0.8194393852771056,0.5748790990789823,0.24231791037906447,0.5113884073879233,0.038102531745653145,-0.5299923533661877,-0.02155293468767372,0.34153938040157805,-0.3719217983292764,0.964751850701965,0.18878917659675798,-0.6731274934294724,-0.6561262615856513,0.17335545042734535,-0.01714780284821349,0.7095685267018974,-0.1320053018175572,-0.7532037366359994,0.170281886632752,0.7599475799283337,0.6306246142242533,-0.9967012156382165,0.936146854930036,0.18379876241285653,-0.1928608281530686,0.557115465429012,-0.5264050294150815,-0.9561131725143698,0.18698626591348932,-0.01538848523546632,0.24471109910644628,0.062321817793172585,-0.8867750668000024,0.691548848683784,-0.24019166655365887,0.7039215712123068,-0.005723309277034017,-0.2052928304245435,-0.3159799890402062,-0.1473097932008024,-0.05824929610287133,-0.3255369625951734,0.48320886362438253,-0.9471811575651716,0.48533559979395413,0.06252159604673246,0.6488994415172344,-0.6686275990474528,-0.2727405788326698,0.746172666036212,0.4466385227044256,0.24931024783458633,-0.9256218997852065,-0.18645670134748982,-0.16809398509652185,-0.294580887162611,-0.04494331086716574,0.8284728424940955,-0.22869903987657625,-0.6379306465708167,-0.4701591262482617,0.06476073606413912,-0.9960915408492461,-0.20707436415481584]},{"Num_inputs":65,"Weighted_input":0,"Weights":[-0.8770063070157863,-0.30618817109786756,-0.34641996751474935,0.5757682828328623,0.2363642748219008,0.2913268265779281,0.38702168591319897,0.9318607986528458,0.5595715804957297,0.006805585136808068,-0.7777349783092198,-0.03971790931117658,0.319654104860281,0.9867595852741198,-0.5864713337119285,0.4940253679901374,0.3418409951305825,-0.7991268984813843,0.2800675690215011,0.22782875287209148,-0.8708383294586605,-0.5800793703761409,0.5827954929595021,-0.906746865567958,-0.9329000704551235,0.931611968356717,0.3340631266826335,-0.01843922049506541,-0.4075035275419001,-0.5777200834464323,0.6873606699677872,0.9839585419216939,-0.4457533092225713,-0.8247314348876047,0.6163188700458708,-0.8799383993848604,0.042961247734131014,-0.022427934336479494,0.9655894993038341,-0.862533873323351,0.030489743607958086,0.396820798071027,-0.8990955230690768,-0.022957631945947132,-0.7242231230644021,0.5387714140483089,0.14277798432391342,0.603127030618025,-0.2357888204464328,-0.6970170503031632,0.33219058186395056,0.7573187323654598,-0.105408629346329,-0.9359003750283991,-0.49483133005051383,0.9864527037707065,0.6417372134493482,0.17562286371486557,0.8291491854222481,0.43553072681769067,0.9007184081361221,-0.7163643932859851,0.7761017803866297,-0.8334069419940575,0.27301573802530865]},{"Num_inputs":65,"Weighted_input":0,"Weights":[0.7821927224118939,-0.0871306059500172,0.19187705246391373,-0.9334509561663763,-0.4706446085677861,0.774646390565159,0.12761505086727842,-0.4980855751263472,-0.2193959360148695,0.1268763273237119,-0.6066167516544609,-0.4921977373154607,0.24132346632114543,0.39862432737322306,-0.1825530219575724,0.30234389059702393,0.5344748129297769,0.9923803004447627,0.07278096450355265,0.6581248900069678,0.600826324922465,0.6598901420781831,0.48433117840945084,0.6257630378020373,0.6927198721030985,0.41265257003490796,0.9294184098071876,0.737044579347425,0.5375921988430714,-0.10491648435200174,0.948187948274337,-0.27271427367587786,0.4145234146656811,0.6801644411914076,0.37404350968170985,-0.6198550200883104,0.21662490439871385,-0.13871189031660058,0.6742772555208452,0.8566600869129808,-0.925513437994029,0.5043404430561869,-0.058436311838275246,-0.472909825586979,-0.7250103917000976,0.7744663434093915,-0.282127787618042,0.14048966268999208,-0.1952072704794896,-0.3241170725990272,-0.42752466167774494,0.33817193218300434,-0.31039188266807816,-0.4329464269297103,0.7812227365696964,-0.6456032918173674,0.19675529780437495,0.3109722200939242,-0.3547990496223935,-0.8774782280217838,0.03876213175492227,-0.6246989281117421,0.6328417595837721,0.9945952881909828,0.21946617990705364]},{"Num_inputs":65,"Weighted_input":0,"Weights":[0.6529001848654763,-0.7580510041654798,0.3952283352011847,0.4678146403736967,-0.733032097829932,-0.013063886372156275,-0.48918514904911103,0.31979551819839336,0.8957362114479914,0.6989620344674279,-0.09439155712307667,-0.5724008103184293,-0.8581176188061458,-0.038988961775975994,0.5587052639190508,0.6493617324901635,0.2329596891305128,-0.19821373538210652,0.9816277785213192,0.23750545320469585,-0.5230400484571389,-0.68033675983679,0.3051921708564296,-0.7749014714215847,0.49158061140567066,-0.8907027403622793,0.09248977011996651,0.5022533812636132,-0.5190426940470936,0.41847270457225516,-0.16084871634133813,0.35866323798661814,-0.18620670076957335,-0.8309443945777264,0.532091823296523,-0.7622552135909619,0.6336811912458997,0.42979189658895267,0.7411990620977444,0.4684456409461306,0.01103222024292605,0.4859195400078449,-0.6491019523501035,0.09889571028202337,-0.9851505966078915,-0.24878678903130302,0.25457448660813187,0.4841171843443839,0.36740023505540176,0.8173552879922696,0.23750673453897253,0.910794989002276,-0.48500012829744743,0.301013074825655,0.4884769630552386,-0.2871617800036287,0.04998151517392513,-0.5117002647153186,0.4777769878324669,0.02235943236027471,-0.6963543635008383,-0.8942242136624513,-0.3514708399006429,0.23855477030170547,0.028324988686456054]},{"Num_inputs":65,"Weighted_input":0,"Weights":[-0.6508037219323584,-0.5509798670069385,-0.24824852892264204,-0.09210914656668301,-0.18663236309303466,0.058518348907214524,0.7491592683405237,-0.5009523326615017,0.44486402105609946,0.3522709119595042,0.8367691295708979,-0.2974743085628425,0.7433507966478428,0.793595513667489,-0.8126521925282875,-0.36276181567221744,-0.7230122316712324,0.3125226956057443,-0.960857606621411,-0.02980771877273558,-0.831608450158348,0.3976581144591156,-0.42432185831707214,0.16863647453538655,0.7342541995159129,-0.6417911327442434,0.29975461344947973,-0.009217779785108404,-0.35922331232195703,-0.31505300453141716,0.33845037461980576,-0.8969826389490476,-0.17652687390846244,0.6745194723872148,0.17367739170505314,0.8639682739344323,0.8344052191290534,-0.8588807548050352,0.21911216216198115,0.7800656029930728,-0.6974900063214211,0.4338946139217241,-0.41126843693197856,-0.25375317737766523,-0.17817202257564158,0.7878447597236686,-0.6598964702938399,-0.9689366901053293,0.8639347365101311,-0.6978796735222341,-0.7963837944962258,0.6719938317334866,-0.3973559362686765,-0.9564246706811914,0.6301319157843359,0.36001622558341295,0.2933470478598543,0.9315803674901877,-0.9181116280468331,-0.9704052320695186,0.4011719676007708,-0.5664897047596876,-0.5624954581117186,-0.2610864022904259,-0.6441084861875919]},{"Num_inputs":65,"Weighted_input":0,"Weights":[0.6246548281577056,-0.25415494882344647,-0.4076870216787213,0.612840407761509,-0.4680196651604632,-0.38395214655105625,-0.8678811081402562,-0.6481042794163228,0.5683072754354395,-0.9817983019879047,-0.8046409486221237,-0.10181623601126832,-0.8531620938083809,-0.0947607447574732,-0.39640919374507577,0.4157846855429186,0.059977844096491095,-0.8974411010385863,0.03317997128204775,-0.7323218688173889,0.8430090138175337,-0.2734448339267639,0.5788463086777769,0.6265878888678571,0.17293090639033237,-0.7579199131772144,-0.09321373027200897,0.506396742329585,-0.7224538688966956,-0.8937971619631844,-0.5839579065240923,0.89256689477699,-0.3569112982648024,0.8747957635944317,0.9351290300039243,-0.8414313706652676,0.07371954341115883,-0.9342798784541163,0.6858538318438914,-0.13295505952213593,-0.24910007362336561,-0.583346050012215,-0.40850718209274606,0.4251625582813199,0.6428383911876785,-0.13100755672950337,-0.9146705486628621,-0.20829505510387325,-0.6814449197566907,0.0071368766591124455,-0.6557069891824867,-0.46285421306421026,-0.6724821894316132,0.788222161529955,0.6043276662778303,-0.3570463753834241,-0.1806454387465184,-0.770277920402651,-0.5019964260665577,0.6386120748882211,0.33977337170115685,0.47093151313480797,0.667599486760825,0.3456982855193127,-0.6650225310978015]},{"Num_inputs":65,"Weighted_input":0,"Weights":[-0.3771463929036386,-0.7919466083803007,0.8704958450691525,0.1961794971722277,-0.7846432332168176,-0.4101957096648179,0.29242388303964373,-0.5083891734637964,0.37512010844302046,-0.05546116863053707,0.8989330634285042,0.5015817585805131,0.4934681691755425,0.6834010263071266,-0.7215193658956672,0.27296210205046356,-0.5511112047282858,-0.6252704153063282,0.9033152543850984,-0.2508853832236545,0.36026186313944986,-0.681452529870842,-0.9002358330154501,-0.16713126544920498,0.8813148796716244,0.9592333024870288,0.762613365240512,0.269353050293486,-0.7220736049210403,-0.14036769818537664,-0.8895727842577348,0.808020291489401,-0.21154417924140734,0.9540092329738459,-0.2101714796259233,0.5065354414166214,-0.6468949176286802,0.6800131260747355,-0.4456218847415132,-0.44278610049419787,-0.6462776614322915,0.47217171780000977,-0.2589536975576354,-0.951585656509683,0.5127935561489461,-0.6618867902753129,-0.7193470621442596,0.3878525806980382,0.47326317659659245,-0.9294951124948093,-0.261011169893377,0.3755381249625094,-0.22940441078596263,-0.39996779780585445,0.6865510164967894,0.6851958939731191,-0.538411664616496,-0.4288154047018641,0.14967201881057535,-0.19436478555822134,-0.2888206561432273,-0.32466331203573695,0.04603238053267278,-0.6027096875826843,0.411031317445816]},{"Num_inputs":65,"Weighted_input":0,"Weights":[0.012817083083324743,-0.5496504305282894,0.9374014122722132,0.3645321078967445,-0.49087874143201393,0.6394671195357882,0.7131770662186334,-0.7996212356886079,-0.6142415560795933,-0.22588115491616245,0.7903700499769746,-0.49173250854942696,0.1704025833417755,0.4029914624115827,-0.06377829564550619,0.8136860288095378,-0.4972390369789428,-0.749313466292477,0.2283689542534666,-0.9161452282886953,0.29368276406218197,-0.8267860909666395,-0.5407639503015647,-0.6941342114131107,0.28910343481403067,0.1713135273333144,-0.07399767333438012,-0.2330670872866486,-0.6847010596231315,-0.3449140781806518,0.9981690359668105,-0.7654420693475672,0.6454152957619819,0.7369438368497594,-0.3283478428101422,-0.6477097564041225,0.6005842536411266,-0.23970900745514134,0.05298295166281264,0.9181480774395834,-0.45299042514418664,0.019650567251469964,-0.5339431900876874,0.10766006267538408,0.36008814368703246,0.28586951210660727,0.32147258422138636,0.19957819002772204,0.7870997358491367,0.8285964432961714,-0.09009234336746885,-0.39121429780668504,-0.3021920156814527,0.9378498384794105,0.2400633830545551,0.06241579574456457,-0.8767859856430995,0.15978930355973864,-0.268600418319869,-0.9755328814166631,-0.9809981405281157,-0.16393332653894743,-0.9617309272350413,-0.8605310887729878,-0.592435389245831]},{"Num_inputs":65,"Weighted_input":0,"Weights":[-0.7828010304090689,0.7332364121179429,0.5913581117672415,0.7012580818121226,-0.39171913220607457,0.4639811058232657,0.4190556329451909,0.590218106114081,0.5160182709190981,0.16745034909118028,0.1652216702283471,0.6113908464283733,-0.7276315517067777,0.434381469431278,-0.6730137726356342,0.9340223452744207,0.6999667643271632,-0.5284511577581794,-0.35124516384483906,-0.720822458589683,0.05428018884946373,-0.4214533523495525,-0.7954659734492515,-0.13990126784349965,0.6909397318009471,-0.39870472321009065,0.959423888211854,-0.7052492593185421,-0.9526818095247531,-0.43344850638606613,0.18655480282587633,0.70819770838027,0.24105090165993492,-0.10510014423692304,-0.06173371400349037,0.378037441772213,-0.834778093584425,0.5131181099266398,-0.9733132818769715,-0.6021552132516291,-0.09702153095331012,-0.7002661547886764,0.7880853207251688,0.38145104168458577,-0.5591973671198478,-0.4749390835699401,0.5071413522401778,0.8942318531607016,-0.2758466212931999,0.4464670605183969,0.7038669122229815,0.1820850726917822,0.43765395507535354,0.8604400088638207,-0.8399108948935519,0.5242428146648352,-0.3051800804277841,-0.33876943126878256,0.27742420808819124,-0.05671885237861496,0.5618973918965642,-0.09246336161103419,-0.36086911264821175,-0.5644544767044081,-0.08671454451814009]},{"Num_inputs":65,"Weighted_input":0,"Weights":[0.8506899566703809,-0.2499050973028425,-0.20625024777950796,-0.9523429622896146,0.9299219073946283,0.33722368499201916,0.20362547101048967,-0.8376578012106022,0.08466305710347188,0.6445561615926911,-0.4328591693047098,0.7043436804885073,-0.13094256243765012,-0.26496385712447423,-0.31046591302018745,0.07557127484346537,-0.4575685195676391,0.5270022639181962,-0.9581642793328837,-0.6851003062521812,-0.04798896002493158,-0.36269232534788154,0.3894835713166025,-0.2632103104338597,-0.01357616883957935,-0.41019368991168004,0.411649655836144,0.9786534627755687,-0.5293147992557324,0.39883065399152895,0.8718107112544065,0.07884607000359267,0.7657170201176338,0.5477646143627795,0.4286236796746441,-0.7471742429032342,-0.974479259455555,-0.9887023923157354,-0.1849952633299463,-0.65042852283104,0.8115045571655446,0.6415809814815487,0.7908722343505432,0.49696586098145845,0.4651445104407035,-0.6002625799476864,-0.7401719394376673,0.14758427385477946,0.180492574396669,-0.019830750588225476,-0.9745558305266719,-0.33600262964501404,0.9655780862035597,-0.3808296974278732,0.01842890714352352,-0.09285690261437618,-0.13366684523316408,-0.6148635931955394,-0.5236120597578988,-0.12918975273099298,-0.03874293907627535,-0.9347993279785638,0.31176658635559273,-0.7667220579621843,-0.39429011316365026]},{"Num_inputs":65,"Weighted_input":0,"Weights":[0.8536693750509117,-0.8225810244946081,-0.4853828367938898,-0.7462850501817182,-0.6266346338775615,-0.8310047336700478,-0.5657689396581389,-0.521362950807437,-0.610770566331486,0.7539894106977674,0.7032570669649378,0.15278857540262591,-0.5313956320397504,0.13258665327132046,-0.6150764427742212,-0.35834819738500057,0.9124404864405733,-0.022228561649876966,-0.9955842175738205,-0.0027077854847076255,-0.037835509198890005,0.0808329964611858,0.9645230414659252,-0.4982349909303382,-0.7493879297537174,0.22511927986045044,-0.7423090137449015,0.9082814373007992,0.7566311299523241,0.32920914597146655,-0.9781502577315077,-0.420339758988321,0.10434091515280186,0.8800989737827998,0.2976750093812679,0.8331703348678285,0.687746751917419,0.4664011342130576,-0.3694452159282491,0.9673926179878742,0.38418087803661405,-0.2948913599208597,-0.414789229382184,-0.24872298378418822,0.7428935649215473,0.9451259041656428,0.6639031392151737,0.009899840798247572,0.800497071779164,0.737417717691843,-0.07301203093222097,-0.6058437764372752,-0.19627734983057377,-0.2097098073362581,0.2004344593360794,0.08838465311811627,0.3130306072681426,0.7504106484678723,0.9262286611110735,0.3782245892471703,0.7499008443273827,-0.8149983479695331,-0.42858747111663087,0.7770490879205103,0.004356471113373894]},{"Num_inputs":65,"Weighted_input":0,"Weights":[0.6841452460622224,-0.3237547590430152,-0.46108498062587233,-0.5774666515773972,0.636389512709395,-0.06958058909665832,0.6797661076964858,-0.39436386211139174,-0.1792359305307426,0.8017776977246971,0.8357231932700191,0.21503272956991126,-0.9405066911893987,0.8434636464628686,0.7590384651503763,-0.8968789760933437,0.5148646995814297,-0.26029558126372343,0.9098158164343317,0.9316834999391361,0.030758474521208834,-0.7130350345043622,-0.5503589646637062,-0.026909577374240157,-0.8608478271531509,-0.28841459458594165,-0.7705883885804127,0.9748074576562475,0.5682629813011628,-0.9878580690915502,0.6659514891472942,-0.004008967251096229,0.9660188229796014,-0.26262172454251054,0.6191914817345239,-0.8834578010610987,0.07789125953634568,0.16712433663153115,0.8399196662383461,0.43230251194962555,0.930851112368029,-0.9148188973300293,0.9054966183122717,-0.6990727438132535,0.6817490486659263,-0.2525391549720951,0.8402308521278203,-0.7933305258591243,0.4759377945080814,-0.1682471382749633,0.29578837312059525,-0.5590852505906561,0.6898725561849071,0.09370974250025199,-0.30516535242148224,-0.8664504827109817,0.829554231434082,0.2815133142048596,0.49317083147887275,0.4730206988592205,-0.6131058715908413,0.0256965499581161,0.2509991189044589,0.9574665289009923,0.7196369765922739]},{"Num_inputs":65,"Weighted_input":0,"Weights":[-0.7231458043868193,0.5369428486975902,0.6113507673071654,0.44907333205191735,0.7734508036972934,0.19611123868479985,-0.11165269730973815,0.3853226179528948,-0.08681251020272351,-0.7102982466038112,0.3375447213711371,0.868435908475278,0.13632965914503603,0.06260115290159929,0.2115107684658959,0.2965642009768241,-0.9930538887326309,0.5400114588523717,-0.25038197300316245,0.8674045947668112,0.2606255841386609,-0.39972546179514234,-0.7262501787559338,-0.7363693257289012,-0.15651808233232545,0.7737351178000456,-0.831822699312556,0.4891631294770675,0.06477921924018482,0.9135529745419133,0.8990233715640403,-0.5596951118425673,-0.30613400958902215,0.8465741209539672,-0.2075192747186223,0.08213221297096496,-0.8404547152115425,-0.1555958615279367,-0.8935900911070991,0.005763705127712848,-0.5808018877854114,-0.7449749853264263,0.7651180889579761,0.5681283772259262,-0.531360735473496,-0.20568699802792223,0.4523400557014545,-0.3813359888010429,0.8202846058427542,0.7019464481585924,0.056093797098724085,-0.2723588932111274,0.9951414267666276,0.18611084630108632,0.6820364899916427,0.7932027166764326,-0.7540328642224057,0.8289753979886829,0.026779594455002886,-0.7560556666351299,-0.9319116010439452,0.6153848996832028,-0.7109466795919357,0.054200293648875464,0.4616046327519965]},{"Num_inputs":65,"Weighted_input":0,"Weights":[0.04981371504578758,-0.09306545615163608,-0.6750488476568406,0.490964610215854,-0.5121463329876135,0.8129690228622954,-0.8786463395640581,0.835067306141706,-0.5746088714895778,0.26468715886949545,-0.7320719302054826,-0.4907456280987972,-0.6178349805021897,-0.03902093442215371,-0.08425597654951544,-0.3155962424739329,0.7235282611588123,0.5050432277815009,0.166525274411502,-0.3192943688206217,-0.11015925775059043,0.6447144282998623,-0.22550664520454833,-0.8010544074532207,-0.36707346295007104,-0.1874183419134059,-0.5151086638157514,0.8275515841504761,-0.021800934159320162,-0.2060682404077392,0.7852066002282712,-0.187732613039588,0.9072988279169825,-0.218204951958612,0.14720595584098106,0.7562228650911789,-0.06891515208092691,0.9190823140722275,0.16659683757304178,-0.7150407343219491,-0.534202822115725,-0.45079052477526627,0.7021247498779166,-0.944567215897949,0.933189070758853,-0.7548336231305224,-0.8320449898130786,0.40991326468254785,-0.04615390428544219,-0.9775913579846769,-0.17614843422509863,-0.39480836206818715,0.25420188817559874,0.44945863424192334,-0.6539360983754376,0.2421574003009883,0.8496808221284349,0.45021244013016326,-0.30036456265084355,0.4131521205197555,0.9665518108311664,0.4006439441332401,-0.775804350939165,0.1731666938114833,0.09884098291003984]},{"Num_inputs":65,"Weighted_input":0,"Weights":[-0.2554548777353488,0.7512103427930035,0.6058782160509681,-0.9399137653555086,0.8116028014589982,0.3554556086135334,-0.650726661615233,-0.7467852825350096,0.8075606987487713,0.9345733783019345,0.42705290080560254,0.8251097555538811,-0.14697978349036955,0.08150914584705093,0.2504345486354793,0.28438879937646666,0.874325859133394,-0.16659757288833432,-0.4111054822828153,-0.7905513590978317,0.5410651000342399,0.05688702439826998,-0.22982953661400163,0.39198828133996866,-0.36252370089935415,0.9235940863879688,0.9787888164280898,0.4046712446873644,-0.2331291588313914,0.1267200533541406,-0.7410763874135953,-0.5282617555689524,-0.7323541414333928,-0.5111869506672975,-0.3262965292123402,0.048726161792620015,0.6359108571671623,0.7538667153828125,-0.1286949324097666,0.8387986637368188,-0.48425058430196044,-0.12075351505324461,0.01720965496223248,-0.5638073719512271,0.7758525827423914,-0.723538765735384,0.6708317248480455,-0.41689607837800613,0.27211085739215735,0.825984545331562,0.6651393544738182,0.6353787479746082,-0.8805182840713683,0.9532598601925342,0.6889206391838456,-0.9036351268904513,0.9075114909601458,-0.9926506720181828,-0.2680163605063135,-0.5211690342003668,-0.5533375059324888,-0.6133785067502366,-0.08512989131260662,-0.1504607788643273,-0.7552386460131012]},{"Num_inputs":65,"Weighted_input":0,"Weights":[0.7152744895277661,-0.06528950357330565,-0.10483591218761945,0.9672688334764024,0.0760339363193534,0.8075001740500893,0.7068964144513246,0.2875288934385174,-0.18958164757065543,0.44998062666514893,-0.5934287717216814,-0.5054448335411372,-0.3550046210747402,0.33680650603287954,-0.08718595777819482,0.8689619193200737,0.5732057400046933,0.9242004550830598,0.6602707212911554,0.16251359805578747,0.8015907953648682,-0.7593752940859846,0.6882500130919813,0.14490503886269424,-0.15483220031751244,-0.9385689760324564,0.21325577900547787,-0.3027755163067656,-0.23906804423923034,-0.13303838054532158,-0.5762179725753112,-0.5312971841398363,-0.3442255208157774,0.17388359358739236,-0.7601954929248549,-0.10633161812736447,0.8295495835805071,0.7176430188193965,0.9584766981107373,-0.5009524840726949,-0.31723451679503323,0.01594034896023433,0.14206521178594889,-0.43667579102848586,0.5594655547790184,-0.697441593491642,-0.8173231466412292,-0.5953835655456813,0.6827307033250758,0.3508580714899521,0.9072590658865971,0.08544223556732544,-0.5493720741156409,0.22085245241041873,-0.5297687893639571,0.5985136294473241,0.17829639301689437,-0.08813018928106209,-0.48693481639539427,0.7625628826351851,0.3075565577171291,-0.9857447491072758,0.11055088150995562,-0.0724389633595478,0.3317671703650795]},{"Num_inputs":65,"Weighted_input":0,"Weights":[0.2946931403514128,0.7337117737773109,0.9928124417169075,-0.7742113109993747,0.9235274326573506,0.5563291560497128,-0.6553611411123115,0.4067073913424186,0.2495166124266417,0.918603003040694,0.25086755545764094,0.3443304808359975,-0.15881855891396413,0.6453007577096868,-0.0038390149142030205,-0.15364829983331707,0.5492557528438171,0.9201216944292545,-0.35770032649173744,-0.5991469035523014,0.08247340346005427,0.9754684028356415,-0.3938523026225389,0.3128686003893104,-0.9867592736310844,-0.32963699951009584,-0.9754464709954186,-0.8839758755774357,-0.44565254656802555,-0.14640666999198837,0.2636959290746157,-0.0756000579824786,-0.7822419635149764,0.11832758281009981,-0.9709345118867814,0.5658773508793582,0.6369872758663251,0.32846980008626825,0.10937923539646977,-0.9951502102748953,0.7359072372308393,0.8953990886591314,0.13847589204070365,0.6164674068430138,-0.029811699898597444,0.8638375950392476,-0.4433635913234405,0.9201177126447344,-0.9617555077935563,-0.8739228812233092,0.006318000891493147,0.16566190165200556,-0.738952953081248,-0.9085284290889033,-0.5644033105048621,-0.4370818460461042,-0.6672150238475,-0.4088499641046852,0.20204759025555696,-0.39171869199465037,-0.8366596498836282,-0.35153714372936107,0.8702902782998312,-0.6147856651349775,0.05633802324514492]},{"Num_inputs":65,"Weighted_input":0,"Weights":[0.6608579652126645,-0.48006192454009844,-0.0746280460607206,-0.8403922181893911,-0.2526710763790456,-0.7690762983289987,-0.9667183731045295,-0.7135230684563143,-0.5675901852343026,-0.8370894148482244,-0.717576140116468,-0.15443699599072502,-0.7616817518750959,-0.32829750897437737,0.14084151872077144,0.9142798950452591,-0.08617965063425803,-0.1764040446717059,0.5094863052332712,0.5151592989376441,0.9661463616141213,-0.17069202667192462,0.17068264099334862,0.5071994032504545,0.6432669036646737,0.6600343281519694,0.8972919153906691,-0.9234126533943365,0.9732034704611017,-0.9624883833795798,0.12539619008259617,-0.6816149502624739,0.5980784128973531,-0.05697235922088806,-0.4085104727131167,-0.19915907935993804,0.03652972780185482,-0.7267592930084823,0.22493889957310187,0.41053561365737146,0.6146471606432149,-0.05043645467933222,0.2614758782985185,0.7195858561871442,-0.7340933939652463,0.5231615811790535,-0.7814154624725138,0.9699056564876907,-0.037260054062127734,-0.8889336059025701,0.7825942206066452,0.17571084520861402,0.4334899430650607,0.20277446568891766,0.9221724867721819,0.683135872858073,0.3762082195646608,-0.5372224335507797,0.5306516971115738,-0.36926971236863515,0.27943772255191046,-0.43116466662765596,0.9397324799449316,0.14273742107616894,0.31092134086263123]},{"Num_inputs":65,"Weighted_input":0,"Weights":[0.8748624730721095,0.8624074023563284,0.2553139607104362,0.014328774923791698,-0.6502134895249291,0.1845786687805322,0.4480535697837924,0.9594908571947167,0.8939170646513759,0.783941407058059,0.665048531451508,-0.38084964816318945,-0.24511650410640573,0.19335667298197956,0.8166778177858824,0.5960107132720953,-0.8809670682196976,0.5703097233003533,0.8573242160603525,-0.5064990242697688,0.1264960531628152,0.7177859408648504,-0.9123667173916037,0.9531214580796878,-0.2015012232102238,-0.6752582297997458,0.08842802589234777,0.6911787381716965,-0.9859277752619946,0.3630711476771824,0.45772260230613426,0.01380420915876801,0.8266168248330337,-0.8688572141899611,-0.941446179881681,-0.02877688170780368,0.2753970982830707,0.7857434105611252,-0.5546788566091501,0.45343377416451847,-0.9373457714153459,0.12853833812332138,0.6977429179914825,-0.8706197105944364,-0.8384663435246987,-0.4723297660474476,0.19950319250543713,-0.7422930301987891,-0.18344470625431786,-0.7548628941877835,0.20970060370313348,0.4268097577398342,-0.7633111836177414,0.041604259628555074,0.9655432808297748,0.7025503094532035,-0.8567181029192094,-0.4282451417890807,-0.4270283254744359,0.0286003092951137,0.15879785225740228,0.9523728335945938,-0.4694724043466205,-0.36062858244208995,-0.31920729088254685]},{"Num_inputs":65,"Weighted_input":0,"Weights":[-0.8042113452971807,-0.859534458556476,-0.8209752727533481,0.5963151340736137,0.3030316652937304,-0.39741645797649217,-0.04797194014093131,0.9148516948447507,-0.12259599127317755,0.574050774278444,-0.08485210412695365,-0.6055306204268032,-0.510734462332685,-0.7789848642552202,-0.5312383543540047,-0.4895026962234176,0.8079305717017844,-0.8767080996369163,0.9361752498812919,0.40471504211331344,0.9313847141233382,-0.9278235972543071,0.682672492486053,0.05028509229969913,-0.7065489221056251,-0.7472271432993008,0.06110078075249126,-0.8335464449829209,-0.5036045109457228,-0.9157317545982187,0.7413932490017581,0.8443832632537498,-0.003750668656902101,0.20919227299922194,0.3113961676713055,-0.37149690877064256,0.36952669580301545,0.22494981784481127,0.04097303119346729,-0.4117627483350126,-0.6401889913179422,-0.9828443719603606,-0.31708565791198806,-0.24135586110242457,0.14797037069430474,-0.19051052968010185,0.756484842705331,0.557988263195512,0.3572160188872011,-0.7277074206672014,-0.6094779391624858,0.5403251636377027,-0.6844055475263473,-0.5412796591055289,-0.253265631490429,0.8828811274614503,0.37762984548577627,0.7917000677377504,-0.2321553023175542,-0.8298202115905938,-0.5603333666571296,-0.10164896452096484,0.8455004512337359,-0.252334330473011,0.8905285914473267]},{"Num_inputs":65,"Weighted_input":0,"Weights":[-0.3041109201850989,0.6017738188346997,-0.3099775294165905,-0.6932493127680666,0.5096421169233991,0.6705013419123911,-0.5497233235077518,0.4882020134670888,-0.9938644537798434,0.06904551886659882,0.5457963995990975,-0.42948671287612805,0.7347231991570271,-0.2130201640234658,0.7454761975682891,0.27825043536821115,-0.4720252580218155,0.14852669461728496,-0.47086413960383144,-0.5184770285477929,0.707655470082841,0.20381720044617047,-0.656241476463707,-0.5362454634484628,0.4173481796657732,0.36184183966042704,0.9221745191165998,0.0713385050333426,-0.3172887987219678,0.7684339852671229,0.4482194941000417,-0.5090333130487273,-0.34414287877140837,-0.7591495890381449,-0.1427568181718235,-0.5656371380642216,0.8430443095396292,0.3203059228463647,0.17449860352748647,0.049207793759376006,0.29089847699503446,-0.04036975510470919,-0.6579315377571238,-0.7348414819186407,-0.6386613559142944,0.7303481321698522,0.016677788483524747,-0.010704136163824263,0.534375339713437,0.6096866091492192,-0.15784339611879084,-0.5070503512413131,0.3056224212951695,-0.24105557167928737,0.858680974509662,-0.34848120475789657,-0.26265757345398233,-0.19259968821391005,0.9194805005768318,0.2976194722628387,0.8179303323667853,-0.033506271899914286,-0.6715919769213243,0.5911333691484317,-0.9605028947342756]},{"Num_inputs":65,"Weighted_input":0,"Weights":[-0.9588923766042339,0.20738542096134904,-0.01904278620412736,0.4828092210967976,0.9627993869713798,0.670136180593772,-0.5714293588180555,-0.19285507760208886,0.2190320054232131,0.19619828826626828,0.6659932533233086,0.7948018844485674,0.12828158642164844,0.9590001849494807,-0.9734172983217062,0.13225760307662315,0.5421408947342983,0.1141112484888116,0.089081896660969,0.9051956909032015,0.9752003942626764,-0.7733735243515093,-0.9112115888743044,-0.6303573263151812,0.9498093676740393,-0.6943434168772771,-0.7359667198064797,-0.31752837536966205,-0.16516560975562067,-0.25836241908532365,-0.4646683543195821,0.21754777032754546,-0.6662432625275521,0.8319488990204573,-0.4360994303389929,0.6524407643491803,0.8703955206839733,0.4578344964464658,0.13531169150568623,-0.04975569840250038,0.8869912688769881,-0.1526573752780762,-0.4623818001319603,0.3790897543373468,0.21022853381595108,-0.6957960592603332,0.22763365279171888,-0.10443922572620334,-0.029357971175849595,-0.07444463563714854,0.1699362640833182,0.07591506181787722,-0.03458416082898075,0.1811193871277903,0.4699146854306169,-0.9110432911725165,0.13634494929114394,-0.9684948215462632,0.6948281017317421,0.16232795807435507,-0.93991445584865,0.47391079240127154,0.4778891306453872,0.9257378002575283,0.4406189826792939]},{"Num_inputs":65,"Weighted_input":0,"Weights":[-0.3124102655626453,-0.7536723775148866,0.9835737603676418,0.6042311431773919,0.9324901580063356,-0.5460806949678378,0.07271297733478455,0.9610368462902321,-0.47162119130546687,-0.8642538786517391,-0.5031344130758767,0.456609012302869,-0.8032767821824641,-0.5214766784271845,-0.22131000323194217,0.7893204620850554,-0.20242638737881247,-0.9663483375897146,0.4548268239134581,-0.24020501063455124,-0.11494799074184625,-0.06490514917799028,-0.4644315731450609,0.6292537382384928,-0.3261498472832839,-0.033796325163569674,0.4575630065296199,0.7084352096448279,0.3927020326212387,-0.872990553904535,0.44013295507596384,-0.9220013642495976,0.7047056225580497,-0.5974177069522184,-0.7826879151998777,-0.6000939829634246,-0.7277822646258016,-0.6510314848004269,-0.052255457354866364,0.2137795944245826,0.659908900356204,0.5903994451916033,0.10461811003715549,0.689792874479418,0.1078809606611435,-0.15418821353875167,0.8863998581378161,0.7517222441347304,-0.7610018044755129,-0.2780434332652594,0.3440470662671269,0.12980453369637757,0.3929246410561289,0.27274360036811984,-0.6678381890882867,0.12182074435302348,0.2983250734988725,-0.25532355829357833,-0.08058751984887791,0.3734747594669914,0.09848435062665883,0.42997310539584754,-0.4182427874862583,-0.8799388918813092,-0.6305986883522481]},{"Num_inputs":65,"Weighted_input":0,"Weights":[0.9382249967512513,0.6331309608495139,0.07616790186542088,0.9788800575990102,-0.9029365323999039,0.9535897147997348,0.13525792792910396,-0.18578590847878906,0.9680572356779109,-0.14843066189305887,-0.17762321603497766,-0.315179270181554,0.4149256650344664,0.6002827181951853,-0.36095269844562616,0.3625526611157335,0.7196862147238581,-0.7004245772166928,-0.2199295606609466,-0.920741517026567,-0.789422982905361,0.5708015777107864,0.5835434845171967,-0.7688408226492305,0.44368957147097854,0.7499074143115607,-0.9133179002823617,0.47163723923669476,-0.9464617890416755,-0.004732560849271206,0.648186990063254,-0.9208657426297923,-0.09030446668799108,-0.13114895235927848,-0.026894517220101943,0.03318868708964229,0.2744948683496824,0.8434477730644134,0.5426439464367812,0.04871617455055954,0.21929813208800852,-0.24673910443420322,-0.37837982419977967,-0.09172151151931085,-0.1169914720265548,-0.24283498315811736,0.9672614275565274,-0.45402317394865177,0.6924300904941947,-0.49513118127439226,0.09666555219653561,-0.6128595099865699,0.8792969350545878,-0.9870481612517971,-0.19261412690784485,-0.8472001665749546,-0.9210521103390671,0.8820716157150266,-0.07335033861351226,0.10875744039838775,0.8347615536866131,0.5486097265580492,0.025014911616573876,-0.3177198853755394,0.47391441968901415]},{"Num_inputs":65,"Weighted_input":0,"Weights":[-0.8237817198369689,-0.4828474956061948,-0.704902717162647,-0.6576055521611525,0.1552742324186145,-0.7909136223914791,0.529234328574453,0.7292096703125333,0.8161939200867114,-0.9649511136001121,0.3699890211303374,0.9724473178785966,-0.05464407432936691,-0.9715788122589384,-0.7582016469467798,0.8334170742623188,-0.9601543850817099,0.2502290966255596,0.6523752988183054,-0.8327513194410168,0.3194340296189926,0.4520013255917008,0.613918041494592,-0.8873784494569114,0.02552357686161333,-0.6353683708710686,-0.30201359727808774,0.8085254483951005,-0.9126677238070594,-0.4863743505136444,0.15608358055118465,-0.01719452691435097,-0.158394082913904,-0.25338064907281976,0.26333706702032544,0.7002841448979333,-0.41576213667584394,-0.5460410663070973,-0.7755541473377505,0.19648240889766733,0.477934822608433,0.6509848172348376,0.17364946191801423,0.8240371454342486,-0.27567689096454784,0.8326546962779047,0.8202700285682358,-0.9190425980781723,-0.43388689573747163,0.30867401368682446,-0.13760266080344752,-0.8818925923448676,-0.5827239257110453,0.3068835397151479,-0.44346600986456663,-0.23342441619456822,-0.2580957465098471,0.16115572676904355,-0.8521044147237224,0.3153074490177643,-0.8151720169295438,0.6569240222944945,0.36698072579727237,-0.460044827063983,-0.15199103740321074]},{"Num_inputs":65,"Weighted_input":0,"Weights":[0.3254500028674676,-0.6874710262559952,-0.47717071070100103,0.4220066746844071,-0.9861845607429798,-0.9455177156432276,-0.25484035096141333,0.006399015765196303,-0.9470452429238607,-0.684499152654789,0.5441672373423856,0.1491507737004114,-0.9912892501112833,0.4861710663293508,-0.49682096635693385,0.8285005002446206,0.4112713136160253,-0.10625921265307225,-0.16124884511095694,-0.2552759838731996,-0.9947404603777081,-0.06076667963835147,0.5466759686913614,0.7893118197749986,-0.18375549214923426,0.27955632499140237,-0.5248690188141145,-0.08654994313636288,-0.6286962719657321,-0.10546515777898391,0.7760265444622512,-0.812580532019306,-0.8274161745169064,-0.07285037126370997,-0.1774866031436355,0.9534337801825912,-0.7428879438248452,-0.7920134040852632,0.7216633386682376,-0.8326492098751619,0.06380458926243082,0.8872856257876993,-0.7894082109397511,0.38403437618414626,-0.9577683590442108,0.16287533020533385,-0.9206505053996762,0.8351634122340235,0.41029702521747846,0.20448873360196473,0.18155614232308004,0.036763024695412705,-0.6541790796552392,-0.856621605218971,0.5843248361331503,-0.7512817663174916,0.1791533589028822,0.21354635404225708,-0.02295488344795804,0.6666117249581522,0.7954357533751821,-0.013856961007798652,0.646847506525682,-0.5872751582997604,-0.6218450821499802]},{"Num_inputs":65,"Weighted_input":0,"Weights":[-0.5007943262219481,0.6230191581124707,-0.6609998130673296,-0.5934513069667435,0.13114269004957935,-0.6585411328576003,-0.956216625731848,-0.23734385244354328,0.9337732114207593,-0.9873219673112642,0.5344526068476418,0.6169912434045661,-0.7952950949837815,-0.049871278407240816,-0.015918690032552085,-0.22402585532848152,0.5441654340114779,-0.5858664643066416,0.08134268649639287,0.25581552134977037,0.966217601779102,0.5993612902060874,-0.5855062413668211,-0.15623046293126341,-0.269021123381336,-0.6065682859125007,0.975674397294618,0.8717280582052214,0.042223386242947525,0.5385164515155794,-0.8920447335535203,-0.27038646692218604,-0.009295840026269597,0.5141685475941311,0.06736324340170552,-0.7460100242924788,0.5280950216311489,0.0987298027626704,0.49643134755249463,-0.6101674420271519,-0.07708973747757875,0.08941204727331464,0.06998197840578668,-0.2658791876445803,0.22790709404799459,0.5168175731857516,-0.5155479962683194,0.9519680912224335,0.019496186769371926,0.9855076605548938,0.21186150578741447,0.4330014967221514,0.4762644103106779,-0.17958192301096743,0.7385119348528628,0.4003380380920971,-0.9019392812677446,-0.8572447121407989,0.3173193982143425,-0.6394914026667412,-0.5341977589283897,-0.1137757016817279,-0.34976314925343877,-0.007300174090351774,-0.5287266105523282]},{"Num_inputs":65,"Weighted_input":0,"Weights":[-0.00809201556325767,0.9248161321614283,-0.4557089825273444,-0.49202576513498686,-0.9875813599539226,0.4444870569215966,-0.16036244509103614,-0.9654067312835479,0.9341065313540247,0.7371560494943572,-0.01585245376475397,-0.5043781563380115,-0.9230392086293678,0.0012432124120729249,-0.5714594863854667,-0.6693110378545972,-0.764955536577762,0.3120486814797474,-0.142993183040949,-0.34562050908640585,0.707079088771561,0.6213644374837615,-0.9911725925005703,0.5688322504642023,0.268552220046538,0.3602373125271643,0.24489966103584448,0.7422994531748255,0.3218042697644896,0.6630553017881868,0.42483914747788076,0.7343361699125899,0.6006864173435893,0.9738247517753071,-0.3340248562335254,0.08729375076308576,0.37258926627751054,0.308749254954922,-0.418131331463759,0.09808627240803847,-0.7523268034471408,0.40183949886925263,0.8188507783294836,0.6820567821716295,-0.9865873929900879,-0.6141605096056904,-0.2720954546820543,0.023311710966109844,-0.584113551276793,0.7221478578020544,0.3582026681484396,-0.01422403943882422,-0.4648186508093122,0.01775349683985117,-0.6549179531782908,0.18013656378806409,-0.6976405023041787,0.9587403772984442,0.7635420490659639,-0.5577271487835493,-0.8809263534858132,0.6396689379514404,-0.61133987295488,0.20999523320398517,0.41066887435604027]},{"Num_inputs":65,"Weighted_input":0,"Weights":[0.4285738824083136,0.14592047106982697,-0.22368411012494083,-0.6958762529615237,0.02054258861634506,-0.25822158200794965,0.9183199562957041,0.2584424681439226,-0.04358102613316073,0.6699544113007361,-0.1699815491046206,-0.2330172516747906,-0.8368800417452014,0.19837742317036522,-0.9476490678999356,-0.7314761108434262,0.5451201196685458,-0.9614693346278822,-0.39228140872683714,-0.9325044558576269,0.7716721193758151,0.324960823340124,-0.34922910102054394,-0.24025254153502307,-0.6467759395670647,0.1258008009828795,0.4940406644449913,-0.5563376762659931,0.16882261729886272,-0.8821647392291861,-0.932285576746632,-0.4301558098263042,0.7018499870951573,-0.3096016697970959,-0.8306893742996299,0.5100643126769422,0.4052442101071949,-0.925827271209839,0.35382477056549333,0.4848359291117861,-0.1553395234159315,0.22913497057907417,0.6350190419508965,0.610235234535492,-0.008755631488801763,-0.9992221134952429,0.48365243085667986,0.21866305119473162,0.9669812561108253,-0.21663991112807224,0.7889840702786841,-0.4613033167224514,-0.9818541704169281,0.46221990565884075,-0.8995466024238109,-0.3172368479342873,0.8894458521984605,0.6107809589968634,0.18876251836175162,0.8832259364709554,0.25173616122173104,0.28259003000906624,-0.750783553228479,0.369226640443568,-0.6565630913927114]},{"Num_inputs":65,"Weighted_input":0,"Weights":[0.16180508389970272,0.21717146560220968,0.4357331185066027,0.47879424250980285,-0.10152788469525986,-0.5442431515900776,0.9957998438855982,-0.4714402220344266,0.294516978703357,0.6565751343259685,-0.023615529572710625,-0.4476627225739839,-0.5312365266693296,0.6902494953563665,0.6842209810628412,-0.9748757900390714,0.773299203291332,-0.09517218270006422,-0.38394078185109015,0.3409673850772885,0.7684595155108858,0.5139729688916839,-0.6459460280458443,-0.7672009556049701,0.5324642765160856,-0.5533518039021801,0.6922893034354818,0.9744870051494521,0.3681254521897408,0.6364328712373106,0.6687284430953326,-0.7988152924814206,0.6970445245171397,0.3284369725348262,0.03772921400935236,-0.49019279594408327,-0.33533272320019347,-0.9416205008050432,0.2798764174437103,0.35359430656985236,0.005816369684471967,0.9904607502187059,-0.1586991205271886,0.5712909859384647,-0.9951173642860383,0.9079483819599232,-0.3987167329955381,0.5195173366362729,-0.5563374947833314,0.26977395805361293,0.27016760601607137,0.5344715794488051,0.674021732900898,-0.7665912058671245,0.22082837778274,-0.0022055698232265053,0.7282675097598399,0.9603046257673558,-0.5055374093475831,-0.9670089078495648,-0.2753776738210104,0.1209166951788816,0.8130611564277399,0.663472988817879,-0.3056441747416746]},{"Num_inputs":65,"Weighted_input":0,"Weights":[-0.7641846778080472,0.6357690926723794,-0.5976947691603195,-0.6919018749559482,-0.24944908064729132,0.9289250116059375,-0.763901086345284,0.18399389312036085,0.005040999795113743,-0.770229445804242,0.5553448870279494,0.12706145594878326,0.5375919749558558,0.3155392822786973,0.9588882800049334,-0.4776519655047249,-0.4325456764748532,0.32585355501548663,-0.6477096110578022,0.13299229631865628,-0.31446870824016515,-0.01729007898518853,-0.27959066034090363,-0.8767217102961464,0.014397775633726129,-0.030371260432072056,0.050931901895200804,0.2109175678131452,-0.17926581457563873,0.07964860630476633,0.9827921715611947,-0.3779445988671597,-0.07320964676738173,-0.5961449457256156,-0.163905286281828,-0.4821261188871744,-0.9615108747712442,0.31978483545105063,0.7964326969271691,-0.05862488807104227,0.5933276484835937,0.9168391681417505,0.21919014018914784,-0.7004213113026265,0.7634108746950439,0.32227849840314704,-0.9546466027952039,-0.6562775037375435,-0.11451964862630071,-0.4167000919815368,0.17830086836321457,-0.09694698010849201,-0.24869867400890266,-0.45310525780746946,-0.16479321794926538,-0.973008465144031,0.41456320227162413,-0.09261914432489826,-0.29108240353247994,-0.2927607417592515,-0.7224279732910572,0.6571285191682354,-0.38921787269111763,0.219953983112388,-0.8560701949722891]},{"Num_inputs":65,"Weighted_input":0,"Weights":[-0.7891242101686834,-0.8119823872320313,0.41263143501711697,0.6131780293919888,0.7675663207007151,-0.32652909209526826,0.04676991919025708,0.9144319138095864,0.04354688196294476,-0.12643616686936554,0.9830195625561373,-0.37233894813177737,0.4699474959158063,-0.21415697668158107,0.44373000013545805,0.7389574496843996,-0.03328012523992829,-0.9904928068420298,-0.625111901934449,-0.07704891150289361,0.9561751133652112,0.1401499101105408,0.8329801720894077,-0.49586358117749274,-0.5040176256633718,0.9668392665110546,-0.33517829512539266,-0.5511689747657401,-0.8598874208389802,0.7807925449090738,-0.14994090121733483,-0.6498243367623878,-0.23296058986145185,0.9437388230145647,-0.6813745055709652,0.11750442462265864,-0.7992519348023662,0.7916260097827343,0.13069184851203186,0.7665100233074831,0.5287645658386795,0.7024489110186931,-0.44966868437757335,0.5234107879262788,-0.021012827237154585,-0.7851638604517297,0.0841075841629686,0.94582583150929,0.33435152973235316,0.797641400977706,-0.29002401931665334,0.5014047110968767,-0.894467915684585,-0.18281932528937905,0.372746139551416,0.6827622969383156,-0.9792366670655355,0.937006481652525,-0.6596568764942452,0.19421043288024986,0.5970601742613706,-0.08566615270948352,-0.08712341136558388,-0.2595174154452051,-0.4601582500419408]},{"Num_inputs":65,"Weighted_input":0,"Weights":[0.06736390578520712,-0.7015314741074201,0.17362851475487728,0.6775786928638616,0.8995214404653438,-0.9070242953043886,-0.18422879651239954,-0.3976475812667274,-0.10382405751739543,0.9333716300686046,0.669828573776255,-0.4653912009443323,-0.01122969051620315,0.26344141090509265,0.2870290119904626,-0.719228005282027,0.6931039676165931,0.18535238536146692,-0.2908494772964195,-0.6717269191025383,-0.9966807894997479,0.16477639753313755,0.31044530701024553,0.9280696725967916,0.26654975631833655,-0.23835865148992608,0.016767888661876063,0.8250988722087933,-0.02961178471377146,0.706864566845772,0.34810008883936905,-0.36070901687794144,-0.12431721362830506,0.05977483761689184,-0.42703300058945237,-0.1829652117096674,0.7145496931541693,0.6043313888024757,0.046702899050742985,-0.399708653014039,-0.7105264496695769,-0.8728140818426546,0.3627944889209276,-0.14120734816962333,0.21071426354251366,0.8087012529493902,0.1153280647196746,0.7812227055286465,-0.6724737574390287,0.9948198654994234,0.96054236208999,0.9840768436012164,-0.7482887271959928,0.3371723983970678,0.4657348561592749,-0.05110845584019719,-0.39948592550992057,0.2814589483840775,-0.28909025428049806,0.5897611074595852,0.7928770987522591,-0.4556986493182188,0.6720757079705857,-0.22249865101597632,-0.4894160966966511]},{"Num_inputs":65,"Weighted_input":0,"Weights":[-0.9161605506491766,-0.65490947005088,-0.1864973906852324,-0.6108613220058929,-0.8057837980245666,0.09141310883191367,-0.6667657443864106,-0.34436106442081926,0.2785211341451088,0.31307304839612504,-0.23406688920000318,0.7337177525987784,-0.6272626154958629,0.7434902666801979,-0.5518175220178001,-0.12145907118739607,0.8875472714803838,-0.2604494851255128,-0.7729574507364655,-0.9400051704450448,0.44841435480616854,0.5232085283778705,-0.19178693434044736,-0.4895436862988466,0.8619720672586544,-0.8500604506504978,-0.7376170282693439,-0.7524427678930675,-0.6439357867757262,0.9850143455843254,-0.15689405469062434,0.34223856061876723,-0.7649616772794225,-0.7692178859034954,0.4519461650216765,0.02793481708079293,-0.5182775456470041,-0.3013945718727514,-0.4822413090498112,-0.3901388860382028,-0.3839213059303971,0.008203951924572683,0.9282889370492284,0.9065955708014133,-0.7420123168439238,0.17711276176689483,-0.727675394990541,-0.09391329837937168,-0.6967635469720399,0.7870445028514543,0.7583239992528465,-0.5255900077062634,0.7668430521052467,-0.9609334539942701,0.8180013310048211,-0.2855835732352249,0.882218568013384,0.7635056542643455,0.7072711752683805,0.3816665473355816,0.08578357818367177,-0.9062987762448442,0.6335199084681065,0.5251137510585373,0.8927350024495284]},{"Num_inputs":65,"Weighted_input":0,"Weights":[-0.5311350003834849,-0.47529607617097414,-0.6982909729621377,-0.8550643742718946,-0.659755006487831,0.40551717507741647,0.2053272078068591,-0.86821862008471,0.677913636068622,-0.9781401216002779,-0.6613244660395308,0.0948327461049514,-0.5298360713296775,-0.35459215979716074,0.09249819385483438,0.5044475953785066,-0.8366815353120799,0.8126547271576636,-0.057068417252335135,0.2418993574056807,0.5049665633552256,0.5278324883135954,0.8104538651997788,0.09990519751393445,-0.541395896313235,-0.650665302343169,-0.18644942947892362,-0.5076012843868998,0.6026891539707444,0.21527794163580527,-0.0795996947046127,-0.9782880517501656,0.4797405490128275,0.06418039042565993,-0.9510587373676842,-0.6122692873392989,-0.5664657625461942,0.7182670849493498,0.7104271808107196,0.3141792456070607,0.15476497353788665,0.9375024735432964,-0.9249037863539227,0.3671239868455365,0.3156287509834248,0.44932492846614513,-0.10399758287708682,-0.9625206503769155,-0.9325549604700698,-0.9442686931011139,-0.4443594427073799,-0.8662090262074151,-0.7973677752815799,0.37637211036776597,-0.35113580189877935,0.8136199348683146,-0.22444449596967286,0.5539806890470875,-0.9224207870333865,-0.917143129567016,0.9891368086249583,-0.8370136755692769,-0.6053896075073246,0.5545776665355533,-0.5521392901883513]},{"Num_inputs":65,"Weighted_input":0,"Weights":[0.9330176776363139,0.24478669100887807,-0.3770853402783886,-0.5573417032528967,0.11219685594184958,0.9249213186374912,0.7205397106254874,0.3313749711536753,-0.48081245638205483,0.019521941858846592,0.15951499334637176,-0.358281498745493,0.2506623417591196,-0.13937221093270968,-0.5709638784063953,-0.22290723717312555,-0.7157245362227806,0.1927774146367709,0.5077316856178775,0.20095489933469102,-0.18026889495547604,0.14632399342076496,-0.992043810424181,0.5950654834061535,-0.8888217927347278,-0.5260540774243568,0.1557780184116524,0.5769470222960054,0.3622567098774714,-0.6065349739450705,-0.12948220111604092,0.05649990048317677,-0.5886850179893605,0.038810713738485214,0.2851810019644918,0.5999147482474485,-0.18936250089991635,0.9345669406767487,0.6616890063115888,-0.5454070026612428,-0.33841520584226037,-0.9824562544872419,0.002526721196199899,0.38178565189266345,-0.9986240343136918,-0.8354876532938103,-0.46660714297171035,-0.664196220804973,-0.5998253798298585,-0.6975055695162664,0.7609075509900332,-0.6156489267599679,-0.507597856357189,-0.2458050413878814,-0.8339608859752085,0.8355558922070394,-0.27734589735826665,-0.6548461460046328,-0.1653173028434538,-0.19484446456597726,0.5900533177162062,-0.922407214046502,0.19936850029819553,-0.6540982508915996,-0.9871594200518621]},{"Num_inputs":65,"Weighted_input":0,"Weights":[0.022784610162134067,0.2871240890292892,0.230693318235917,-0.04820392168495713,0.4089311055885496,-0.5665498560250997,-0.10483681814160806,-0.5445232699975372,0.16816953800049728,0.8256813960815357,0.8708226193540227,-0.370879687548079,0.30528495932041766,0.6920030771435763,0.8993720309302504,-0.10048740804154832,-0.24284780885317414,0.018287653348087796,0.7372594443693969,-0.1930018355109776,0.922666907484712,0.8244668434213693,0.04872759249040515,-0.6543332478351237,0.8541857097698389,0.4586724388972918,0.17518294214425034,-0.9093813328182578,-0.11459105859665009,-0.5430208588374104,0.30733107497752776,-0.909164924408173,-0.4471773671834207,0.683565371931836,-0.26764684270179184,-0.5934386271470277,-0.8832697838503377,-0.0740792206385893,0.9671101806369413,-0.19253704640608849,0.26609478479581505,0.15958622379400422,-0.3381927706578808,0.673586527693556,-0.6707174213907479,-0.6438653340455006,0.46261489886599283,0.07505810725720097,-0.9917899064938561,-0.3177340358047478,0.05088302079806173,-0.938276400180945,-0.19672274842421467,0.6850801998073859,-0.5911986688338694,0.6468656317241686,0.43077346482842627,-0.15543904704277622,0.5535046614853696,-0.21980729883889116,-0.5866100096126531,0.48555794230197113,-0.6846353564716863,0.41359399721413426,0.4574428994920181]},{"Num_inputs":65,"Weighted_input":0,"Weights":[-0.4250804397238267,0.7463136730355449,-0.9819146280460105,-0.026859428775925176,0.4453478686320982,-0.2761473545414178,-0.4110448140532048,-0.3412036729461516,0.11176704384246783,0.453045562312965,0.9098381032500902,0.45831148586319514,-0.5874088494808616,0.5297768528895455,-0.07786038354918212,0.6729821859502603,0.6193444084399375,-0.13993629138280295,-0.6176529597790529,-0.7193364756055222,0.034490526871198135,0.03747519698315638,-0.36667400991226273,0.9706607894524473,-0.5367281495147651,-0.5165252170377378,0.44386494890797534,-0.42821456486654474,-0.4340622287056283,0.3485978099901137,-0.4354101753342463,-0.7672771331142305,0.2882317699373629,0.24268095871273143,0.9407209570862838,0.8855019429821502,0.04062747745161044,-0.3512439789527704,0.7782511704345194,-0.26195310645780423,-0.8444856013096098,0.9188700757359922,-0.9834977000929467,-0.3108179048322143,0.8541313424636894,0.3222006731794491,-0.5888308050119935,0.621272555219126,-0.38487569287073065,0.23947647691851048,0.01862240362070544,-0.7963467344293146,0.016433981836904143,0.15924156963533664,0.3418339940156476,-0.06679030470419811,0.9291301381811585,-0.5104140729983855,-0.9546654963648387,0.5696485661327189,-0.653858538791392,0.6363763659716866,-0.23702580053827105,-0.8722403122074636,-0.4774385131891761]},{"Num_inputs":65,"Weighted_input":0,"Weights":[-0.6817190745096877,0.6680745715474758,-0.49428868542300075,-0.3965585800308846,-0.939251052344871,-0.17446147644852883,0.25396386846405306,-0.6334100061556197,-0.8943806507136504,-0.6489096681545807,-0.3522607003547521,0.42244589676160094,0.860205516495375,-0.6704469953121512,-0.6306962127815996,0.09302241550502677,-0.5142893181774983,0.7603654922784986,-0.6858376728373923,-0.3912005488523048,-0.0228079495139909,-0.2771092379152441,-0.8967995656404762,0.35373215611405673,-0.07888704076754038,0.8186041599383131,0.6158779957674683,-0.6809620765204486,-0.7708363675564459,-0.2287775869079286,-0.9022500671948984,-0.4787780584070077,0.18249979992836063,-0.6362153227522882,-0.731040395822957,0.5209528949992135,-0.8641864350279285,-0.8136123425927285,0.5092471905019942,-0.1618116300230068,0.8011464480571102,-0.3922859740145975,0.33013851364370583,-0.3155033372330306,-0.6436171629367853,0.41988012060873525,0.008258259017496883,-0.18714228690078993,0.4497947361585195,0.9412941580400844,-0.4492564864406726,0.8752026942510416,0.699705464455614,-0.6144123518873331,-0.69898193593125,0.9046544037174009,0.18940405802727378,-0.9082396636288508,-0.8931906462683139,0.042178184040724265,-0.26162276302957854,0.9286138121628156,-0.8078761610257618,0.23543786816739165,0.34909306442537646]},{"Num_inputs":65,"Weighted_input":0,"Weights":[-0.1301250355462471,0.7677300744478706,0.03983511207751822,0.5362807038228286,0.6446887205370306,0.4585370873469554,0.09809100318417929,0.9451571269746171,-0.9736505378527374,0.7837898610131395,-0.27645758511499663,-0.429359928117639,0.8865620114864812,-0.44108193400511675,-0.8883272513758951,-0.2509194241914301,0.8191174667874881,-0.13273789112560852,0.008716677820862717,-0.16429077981230178,0.1722440259435858,-0.5468442633307542,0.9721082010171331,0.29101743826790627,0.7693654583534548,0.3879601682138969,-0.33630447524295404,-0.7486309487041443,0.856416010554077,0.86874500912224,0.08910752318405524,0.41938158382381374,0.32095985007671035,0.959428694797368,0.8167785631641777,0.09779523549046898,0.38081872860042676,-0.5492491746270498,-0.7679840608312355,0.970966781410556,-0.11151753423822586,0.6839117031578494,0.2504483805218112,-0.24673230257148537,-0.9345053188489729,-0.921881236507982,0.6961903474573559,0.5552949914941028,-0.41448828302344665,-0.5553475850965568,-0.18974999755390387,0.5814716464770742,-0.7647664553818766,-0.9732088994477041,-0.9747944414179796,0.8351722828274784,0.6394116031757293,-0.3917765166321776,0.33860685487821196,0.03919145782651423,-0.9719927128203747,0.11657113232176486,0.30616679701613636,-0.15053052938798073,-0.4663655121892042]},{"Num_inputs":65,"Weighted_input":0,"Weights":[-0.6636276879048686,0.6920353011958182,0.43546994375747694,0.6211681382317651,-0.6262469847999104,0.8109823189261829,-0.8987221672314157,0.22408217882236214,0.7958461131202861,-0.5464880878101734,0.32291237992768296,-0.17101567298069664,0.4748752133261991,-0.5871973461258341,-0.5915640833595315,-0.3047173675018713,-0.6621434775564281,-0.9438384036453727,0.6945717558622371,0.9710497717980011,0.6201488014382157,0.4322578575918392,-0.026899825304426916,0.21418480242107862,-0.5569642823541487,-0.0004104142482669326,-0.32082990676597345,-0.3237008356142992,-0.5524090696457442,0.10353782908064146,-0.646863908964127,0.6796901481511142,-0.13917573644982595,0.7538257328706064,-0.3464747282784588,0.8303908591614229,0.342488619747469,0.8920385346487965,-0.2484095662915491,0.900822063196806,0.024953005911181325,-0.59711655355009,-0.7874799896494689,-0.9895936907886118,-0.4658565086616443,0.9722586876666341,0.9751403930964011,-0.7911618901673022,-0.044074998134742915,0.7103438995227427,-0.6328976330779786,0.1288383096494714,0.21680528704021484,0.4129733770106414,0.5076767008953289,0.8084457158022049,0.669733444891236,-0.19731435350996307,0.36170816532307226,0.2117405700277597,-0.8420603204298808,-0.8431372243176374,-0.13538567317143868,0.5888452583089088,0.5526727816217287]},{"Num_inputs":65,"Weighted_input":0,"Weights":[0.5143989883202675,-0.6793825551530688,0.4183182056579726,-0.9347098760016641,-0.6406782064963601,-0.05665895687221212,-0.5913762868581183,0.023521056465850343,0.07630910363776455,0.7905738664738979,0.7080550318432406,0.679466578817858,0.49704096761512484,-0.45890203864718815,-0.30908256677681234,-0.4079472969941311,-0.6259118464453528,0.057041601574032263,0.44808294628786904,-0.5524812717544215,0.27523689855845657,-0.018672250965410142,-0.45721276643588726,0.7728289478106567,-0.6555350795825139,0.12282777437754389,0.1773665042999113,0.9461140657375322,-0.5006938812699345,-0.8418715726512476,-0.08724127352741984,0.835226639653845,-0.20897702147883868,-0.13484751224685765,-0.7052804921957971,-0.3193797611058893,-0.9963584937627954,0.09926506360718879,-0.4681295105051345,-0.2776942877424029,-0.8035708020924965,-0.5087694286957543,0.8352519112197787,-0.7100325502464035,0.4830901586416412,-0.036363042286315594,0.6073916088845468,0.49669205957145013,0.4008105268068187,0.692748435775036,0.8129662522870065,0.8722021203283705,-0.39058107696939737,0.9711184944559659,0.7391557467531527,-0.5232611694680311,-0.8089311854027943,0.06572188533227763,-0.8925559043284832,-0.19100801308244675,0.10324854254550031,-0.9373108201112254,0.04007049038205812,-0.47989712969432596,0.8392461933318944]},{"Num_inputs":65,"Weighted_input":0,"Weights":[0.14436493707153097,-0.6263382787565178,-0.45465138719823517,0.02332512504018691,-0.8227836376375857,0.04050460199317141,0.9848466690193101,-0.6274383934202526,-0.6189804477217427,0.4249856607998732,-0.9382871330725716,-0.5812002985132594,-0.5497922470801151,0.6656185689491181,-0.7337417255170959,0.9084439059655185,0.9749811360719061,0.10816331817615654,-0.5614603460956376,-0.8175370240441425,0.33437398634017046,0.7784612701467573,0.022290848937925656,0.886543044416672,0.5478217071070492,0.9537186994987958,0.17929611633246467,-0.5996515288436142,0.3133602334158685,-0.9924100354173608,-0.041893086259444656,0.5035546851850266,0.18710347417425455,0.5842549753560857,-0.5387425374953554,0.050484805218472095,-0.31816333872833036,-0.7311735594669656,-0.9584241687108024,-0.11753273403591513,0.22046020559181745,-0.5901075823632844,-0.07919043710143359,0.7171882012454815,0.5587342036926806,-0.28434612647821766,-0.13683718906070108,0.05013331906905827,0.9046183793707565,-0.8701205391253155,0.24485842983467476,0.3646407991116343,-0.05835206184918762,0.9833141424065392,0.003774229760314274,0.06788459153128379,-0.8830859913889856,-0.8452146463248135,-0.741111235292704,0.10787916685418386,0.8947701796480776,0.8887026257710575,-0.16580085982252257,-0.47343220289413745,-0.34585217538746316]},{"Num_inputs":65,"Weighted_input":0,"Weights":[0.3895919865558011,-0.4490362961398393,-0.03971699315416899,0.4246878542285293,-0.9673154168367389,0.723295312167918,0.403345219265854,0.09610901352445267,0.44449523697524773,-0.5282102943457072,0.2888718421236254,0.454638318164025,-0.9060164215202111,-0.01602591989129243,-0.9906243911607434,0.9532070754179405,-0.6934613697458956,0.15207569219761408,-0.5413085028911317,0.8431739502767563,0.13331257996745483,0.44291105397456554,-0.10380735341360381,0.10470892778550134,-0.7424307173257041,0.3245423621056569,0.5820965899285593,-0.6040955780732381,0.8771093144435491,-0.7784159561163652,-0.16914391119470795,0.3001837386139439,0.2703924773473909,0.4061974494964944,0.41315969894911464,0.0524097769876366,-0.11308650911768758,-0.6552359811053812,-0.8708875524587959,-0.5138454114982536,-0.6170012885288791,0.6074094634470442,-0.3583758889554889,0.5228976240435286,0.5993175423236701,0.877819140185153,-0.09732190609820235,-0.7320949118306919,-0.33557514352828755,0.08281669863628482,0.6979131877336817,0.7789867837716955,0.2773705392375947,0.09918313407347368,-0.809197380149591,-0.7200629739396002,-0.30915170120593294,-0.38547739440753725,0.8219005806301303,0.30920714369416724,0.5756211160532505,-0.026435100172370274,-0.16851242826725443,0.3052540542594755,-0.4790498875873924]},{"Num_inputs":65,"Weighted_input":0,"Weights":[-0.4838228650366162,-0.7086569762248942,0.6656999111694939,-0.6155728404138787,-0.7509086687335234,-0.9383546365418619,0.1399534881669331,0.00921710895047867,0.3732107765853996,0.8442932074814402,-0.6234131425575052,-0.9612501956258643,-0.8472450197188399,-0.5316632070562397,0.6023344795434105,-0.030406269321157975,0.3703403881923242,0.6793533794836433,0.20552070719315552,-0.44188139975799945,0.17524244680286416,0.38862400231350014,-0.8962618518055235,0.979590401937211,0.14238846705530506,-0.0260943895167125,-0.48842768274440296,-0.9617747332616211,0.7123191701324509,-0.4989137999702282,0.26986675780192493,-0.6988394806560638,-0.21419515801276723,-0.32941043383834956,-0.26986922781679945,0.10915372070686646,0.6592781785440454,0.1735069478540776,0.41636094936071455,-0.5482701345904825,-0.47244326065388087,0.699920281730726,-0.9706098581569176,-0.5131906829863637,-0.2608482368561844,-0.9236188284601929,0.28340025131239277,-0.8650159446149137,-0.204273164453732,0.44484431969291105,-0.7778627049909961,-0.40400746128030873,0.1878228381979401,-0.0879829030141509,-0.68291881031399,0.9064821210072305,-0.6916329796198711,-0.6989393766323428,-0.6416809958448348,-0.06680162672555723,0.9308803789432831,0.794208839727498,-0.2859070623169587,0.8478664701545677,0.2373196060709759]},{"Num_inputs":65,"Weighted_input":0,"Weights":[-0.19755153212875343,0.6572593969458362,-0.8341708452469108,-0.4073971234251309,-0.44416513467257634,0.21537528824975416,0.7533866230774666,0.6620944030650278,0.19198343644981053,0.9112954436188969,-0.5821769742352383,0.42765086432871735,0.5311321062062286,-0.419801876663633,0.22267312203834,-0.4066822282346426,0.9437312151962494,-0.7779894987659763,0.4925137283667862,-0.024466942464604235,0.8175817038151889,-0.006453808633757108,0.2949787486292128,-0.568926194948181,0.9217089524090589,-0.1457589053384929,0.1568345605156667,0.8894961227293992,0.17257630667318935,-0.2599136464768016,-0.6931878990406326,0.5787097655984978,0.8377114832699255,0.48018649148081494,0.5479508389191567,0.7885893364344103,-0.0025669848653697702,-0.5610341776587286,0.20123273941341902,0.6002716102045615,-0.36992655623895876,-0.7986399552677088,0.24235522366838302,-0.5946990575525077,-0.513920979138881,0.813129475361366,0.002115454765504232,0.7043439008770453,0.026863317198341674,0.27910741203121403,0.44383092414211167,-0.021657440773896308,0.35583369422344346,-0.7865075258190413,-0.11280363217330536,0.9665229871620662,0.13333579744982038,-0.276038383649551,-0.4659567778655971,