{"Num_inputs":65,"Num_hiddens":33,"Num_outputs":1,"Layer_hidden":[{"Num_inputs":65,"Weighted_input":0,"Weights":[0.24041447515765002,0.00933231949539115,-0.4574252123920324,0.5457152329195409,0.3283081869122013,0.10403335685297344,0.3090238942892436,-0.9524336651352828,0.034688576496482604,0.6027659824023568,0.4682103433897331,-0.5014830851644649,0.9843860476128066,-0.840534394670843,0.01611460994574787,0.7293507675598649,-0.6272170606661871,-0.0846018016235629,-0.6682474142141797,0.34751497580208635,-0.21695760089236638,0.9718703622828293,0.9697939739272359,-0.08203945190281825,-0.4074283643656258,0.13507288404919393,-0.6972850177739791,-0.9699289358085857,0.23249492819307194,0.3754795292976769,-0.8955544071496635,-0.22153393464835147,-0.9186655211031989,-0.10871671172619457,0.9870929129650658,0.4927557818485184,-0.1024879884833576,0.17851509769955887,0.5113124754772589,-0.22844868546191266,-0.07665090984956768,-0.4846371995910459,0.32826942888695965,-0.4806850308329069,0.27037255988924835,-0.3391302690678436,0.6992780237123926,-0.5230575286288986,0.6626097409462095,0.20986196316100814,-0.7665186035889977,-0.02331315880450746,0.5324407130648896,-0.19956724006774385,-0.17737487770281102,0.5899070603118661,0.011190874636207493,0.4123106917856163,-0.3762689508332737,-0.6949858398998201,0.8529710210207619,-0.5565042215804494,0.9689701160587572,-0.9496924107823282,-0.21226679840667861]},{"Num_inputs":65,"Weighted_input":0,"Weights":[-0.2043126360946127,-0.4817928244863725,-0.33497503521672367,0.04127630940017357,-0.0021599147719422174,-0.4315698069210693,-0.12451197954508053,-0.07334176274044202,-0.8421772083166215,-0.36481649052963316,0.34473296405721143,0.3842426169298172,-0.44230903958864864,-0.7653075519599424,-0.6747077194482292,-0.320743019666645,-0.05224920082972129,-0.9608117793234092,-0.8881370416036208,-0.5424929976139534,0.4745464219800888,0.6580481225109498,-0.5869027488240605,-0.8572709464002191,0.14650199739820358,0.5929587015205031,0.800414991036636,0.7855761805133976,0.7885717383971469,0.358302162749639,0.348260855515824,0.45260276683450296,-0.41865688203139684,0.5659772130032403,-0.6178015419494912,0.016198211974445265,0.9050382567106059,-0.6066378866021374,0.25676116668528026,0.199725850327229,0.9727924690739878,-0.6821110059830797,-0.060086946226755034,-0.05843065269607428,-0.24019029648850376,0.5734993764302141,-0.1711269535434613,0.7379546307854001,-0.07351841587416152,0.5256634425658753,-0.28349623170295113,0.154886527403729,-0.7530603874060102,-0.8846390084638004,0.26026667033721873,-0.5509336867672878,0.23234610930757182,0.999840356455072,0.17965438826737246,0.03836670204779247,0.7091814785111128,0.16375910765158208,0.24032343687836044,-0.705245811524355,-0.5690263149686279]},{"Num_inputs":65,"Weighted_input":0,"Weights":[0.26087276539786397,-0.5719444358506268,-0.7731355040581781,0.9458151174981417,0.4797435720877308,-0.8291375192046879,-0.5250990925477885,0.639404003391592,0.19200159410454543,-0.2041207393946729,0.7288169293123687,0.9534580016617464,0.017744201102429802,0.2561651651596186,0.7478328894179367,-0.3249303235216586,-0.04049744389479604,0.10245818724698896,0.8446726104665754,0.14221664589942828,0.4518982261812461,-0.8220394338818606,0.10685363704206008,0.4147053681634343,0.9601912785135276,-0.9613262762918127,-0.9839587113436575,0.9715354038004909,0.6456028016849005,0.2886382288432252,-0.09845347819857608,0.8457780201901182,0.4850099152492926,-0.43973493120291307,0.6654212863369977,-0.6940390358659412,0.1259024463005296,-0.6186061330839512,-0.48625180779382293,0.42388199747591004,0.46818284424129186,0.7246355738581216,-0.720746801255818,-0.7535360601898995,-0.8673630413691409,0.4096460001449862,0.25468340413281254,-0.5561542174003495,0.4455626760547693,0.06928856482670276,-0.3598660554446591,-0.9691582576933859,-0.48695552224427485,-0.20943038808987702,-0.5684723254081947,0.8633850470661457,0.3237551180449847,-0.6540121414258613,-0.3339268088199927,0.8922683930883979,0.9066742144240103,0.9783440233009668,0.7259590641777642,0.5532441785772535,-0.10281086960446018]},{"Num_inputs":65,"Weighted_input":0,"Weights":[0.8848195489065143,0.9293434907776001,0.6954810217966025,0.08139572773489623,0.25061782375474406,0.35967104656292803,0.4618018116026854,-0.21111062054051688,-0.6548151848035846,-0.2273220104366751,-0.5697405015319428,-0.943376739829253,0.3150544026844071,-0.5976948553575216,0.4231957614291544,0.396821782547248,-0.8902938129056157,0.8980772917456135,-0.2765434319072393,0.8462266913663992,0.5336434296950885,0.9734951142585537,0.011645422382688064,-0.014489694684431287,0.194974371185344,0.595727515282032,-0.9819318931748201,0.4169097498175873,-0.26922505474089553,-0.04746898700528579,0.6521298836419256,0.625361778317495,0.011213540327862814,-0.09060149712240573,-0.456570406777007,-0.6188954709914858,-0.07205183184467989,0.3508777617224057,0.07249436059749659,-0.025838149081191197,0.9294670539462344,-0.14190150604491036,0.418112129287046,0.672161866348348,0.1458951440579861,-0.6458847195033699,0.18479542850741892,0.07601163808972489,-0.9080445648804694,0.5393382101676323,0.7677347480396088,-0.24699241186591836,-0.6319387348689942,-0.9526019813900815,-0.1075119029919307,-0.514908071433446,-0.6150305436933066,0.5425760723506399,-0.9110381657286127,-0.3005179141037615,-0.4738534651543006,0.17886530734551065,-0.6651391967527733,0.9622855368347805,0.5554956321848874]},{"Num_inputs":65,"Weighted_input":0,"Weights":[0.9365082183133968,0.9774941840551132,-0.6309439583559711,0.07300261706946953,0.07198460101059223,0.10178296432871092,-0.76630743365367,0.0008239925327999664,0.17348030459085506,0.619228697273625,-0.4011623937097971,-0.3078506767320517,0.8271756754657746,0.15487962627671825,-0.12574739872844098,0.7588889872747211,-0.2349981703339089,0.9749919714205582,-0.1988196483681426,-0.32563025659135736,0.37207109087436896,0.7371929198320111,0.7557707418893407,-0.5079114017747,0.7269411184569925,-0.33134420249754404,0.004671183749220376,0.17625465727641143,-0.3718471939101412,-0.979029749569942,0.6466513629306239,-0.16361626360547132,0.3686856051982774,0.4572122024461105,0.8196105735856511,-0.43768277035558734,-0.5255568294541733,-0.3400231295794687,0.47651115747571127,0.2881084545360981,-0.8828888963635445,0.3024736869202298,-0.9804436948512805,-0.5230138105536084,-0.3095059094447298,0.12973590062333673,0.38219245758472464,0.20974034800913932,-0.5374526386599134,0.7181597458920033,0.057724643171165324,-0.55584294100521,0.06473461642793898,0.600174211202094,-0.4567791799831342,0.7740700181311779,0.3019733022167663,0.12459462158131429,0.9376583869474122,0.3069865262181879,0.5642514690341627,-0.4637665897597343,-0.9955530256265782,-0.7423266316100111,-0.11499675021525768]},{"Num_inputs":65,"Weighted_input":0,"Weights":[0.3672331677896925,0.053164723612433296,-0.9805889695669919,-0.7462584211161696,-0.476633654579532,0.5563542620754989,0.9192076517759034,-0.38875296573522744,-0.5995832148579784,-0.0337513606264791,-0.44751372070630857,-0.7641532975551111,-0.6789043107329003,0.19700318531151817,0.6947621605681038,0.09639249538474925,0.3225544059890033,0.09399039561633327,-0.9273236774929992,0.5857778688321569,0.14758147973878377,0.16311059171670905,-0.4363361119530387,-0.8522770803315483,-0.8230148771720025,-0.18168633580284366,-0.9691703967967346,-0.7170169725518823,-0.33491758272889405,-0.35417627590050205,0.7997535237022007,-0.6881889173278696,0.0020970039962120435,0.7961495845976949,0.9180059880538123,-0.12970279687959652,0.7941617095309652,0.7485261112476453,-0.31563361960904035,0.49423755279650106,-0.20555253364668657,-0.08809384927911434,0.817864915516129,0.5980440278578623,0.6498321301925152,0.06729941615920465,0.06519964364108333,-0.7496363232360148,0.7810398065040862,-0.17009037091523893,-0.6359958242121395,-0.6799280310301019,0.503100015136047,-0.7180080640702154,-0.2520262768423962,-0.225745182237285,0.5736932295281065,-0.2957427331093523,-0.1847668478623613,0.6632435436561865,-0.5038883437562812,-0.30459281084743983,-0.8924831785943792,0.1791710829582429,0.9354509552446144]},{"Num_inputs":65,"Weighted_input":0,"Weights":[0.30864639393112614,-0.2668179775710231,-0.6065656091155248,-0.7385360123598232,0.6824699999501276,0.22746321715525264,0.9095852298759883,0.8168196853642886,0.9048039560056875,0.180436779638391,-0.07380683507927399,-0.22598011328113932,-0.7762184199601994,-0.025813733153125518,-0.5276873732806505,-0.8594681700224877,0.4090082763998626,0.5887277212574866,-0.49989847950696287,-0.38682597202869917,0.46014125663639915,-0.09185521011237507,-0.7451869153265462,-0.348180163826889,0.6902253449881153,0.3206456081409892,-0.2651027663029315,-0.06841370591734686,0.705023679766511,-0.42156188078435863,0.18554301475558144,-0.4562373599375551,-0.7810744059833273,-0.1287459243893182,0.46595104773652674,0.29289207858148636,0.83660842937806,-0.016883008744938977,0.8483265764866299,-0.2522125411925237,0.26939341651348325,0.8124079233494264,-0.6225456039650503,0.2658950598105896,0.12373236815425281,-0.18241631775937317,0.46664544770312766,-0.9267624782370212,-0.159875921830404,0.8347948294382888,-0.8538651540736147,-0.7372023105605018,-0.3907947842022613,0.15226282969846405,-0.30667545535931673,0.07154427084743964,0.39313510478356783,-0.10623906966903074,-0.45536908082758876,0.06012363732324544,-0.28173130739761254,-0.9676968092694361,-0.36881145462430054,-0.4784832443446674,-0.7951436370600429]},{"Num_inputs":65,"Weighted_input":0,"Weights":[0.5321040549374223,0.5618761599143602,-0.8848739838160505,-0.29473219905701586,0.637368299724481,0.2656024073685703,0.5214988759415671,-0.1859679553424921,-0.32206380510790233,0.09531666213530765,-0.019449325589395827,-0.6201212604115127,-0.418223711812973,0.3547309669349752,-0.8334575351129108,0.13706648214857386,-0.05454864775675783,-0.7990307598843832,0.24170953274752738,0.9148745732933192,-0.12398876638702427,0.786535850582802,-0.37285152662851606,-0.292569542542534,0.38331590983758,0.7955574546924704,0.7537804195306701,0.5511692632935998,0.7890780483846631,-0.14896908106658202,0.3437026855556855,-0.7153175110162948,-0.2914654553015624,0.5349241115927883,0.9208986341085812,-0.23341567687781717,0.37210634216418814,-0.10085062069467998,-0.941841324592148,0.7198682335409339,0.45474625400830604,0.04612456728491732,-0.04469042262219247,-0.5320079880599475,-0.09221665714541694,-0.7260127724695002,-0.33566715310679485,-0.3835683685164082,-0.45685247731790235,0.6208367885915167,0.3947815296189108,0.7645442999615206,-0.6161557356141146,0.951940440824967,0.37659995953137426,-0.02671754931146275,-0.43082703006353607,-0.960496429942278,0.8172465985028119,-0.6938326698241231,-0.07707344107507708,0.42389504147676993,0.6881952467648873,0.8051893251559468,0.41161675857333924]},{"Num_inputs":65,"Weighted_input":0,"Weights":[-0.7606950794880113,0.5897452939427155,0.9097603334902631,0.9818408237862242,0.5324291445155207,-0.7307229151523631,-0.5400501261806979,0.6952680291242614,0.8134999958793776,-0.5076749810193413,-0.6817496753321168,0.7985930027313384,-0.27149354679341864,-0.13262285987547284,-0.2705514345077109,-0.2032965525664976,0.28730445396791326,0.5756129361731825,-0.9710618435150079,0.33363037831447917,0.42611640310617616,-0.8567345431337898,-0.30302359557957137,0.5513002632712225,-0.5112019916432945,-0.5415590530933971,0.001461984777952896,-0.09797409849205008,0.07880484740680571,-0.09907400734449912,0.8969005735777371,0.4322876199806167,0.005157396936707581,-0.7422129846013685,0.5617259845427225,-0.2733896676882901,-0.31587589180730213,-0.5036162430142421,-0.7686527371661116,0.5743675133585353,-0.6366170028770769,-0.9558255637693537,-0.019218038007632887,-0.3041349648591659,-0.17666968858651044,0.19324784702155862,-0.7617352956141237,-0.23815505300269335,-0.5999361322974718,-0.9083222428712483,-0.3865977763644066,0.48214344451140434,-0.5373184366712738,0.1050554491329041,0.09776403284001112,-0.5765834978935647,0.22469499270091187,-0.7313795036634064,-0.839182517209859,0.6970205639576337,0.1826961876471882,0.3277802676873798,0.8222556995548047,-0.7894187457857305,0.8341165708120186]},{"Num_inputs":65,"Weighted_input":0,"Weights":[-0.37132722661879725,-0.49123000019458085,-0.791285891363831,0.052570681064380675,-0.6429703829854938,0.09278876906241651,-0.675330553096156,0.7595458365281991,-0.011426180697312938,0.27361245453148886,0.21098174350256094,-0.3820553728572895,-0.7470685414559328,0.15347407984896067,-0.38851686857683976,0.44264290038377707,0.046979623867472675,0.24734446201066773,-0.7131127985892727,-0.32457862217605393,0.29812354146632103,-0.40531201595716926,-0.5679106636847078,0.44999391678914935,0.15394492361613432,-0.5154499048350645,0.48554141321770605,0.9484422105761712,-0.38239086782597664,0.8869934692159325,0.9589548423267251,-0.5966262944326015,0.16762792105061064,-0.052373440102393976,0.6719677653319864,0.7193261136357385,-0.8951262350643654,-0.5490975587779828,-0.4983865390134713,0.8211186696330888,-0.2008133747918045,-0.5680143087774124,0.39544827310054775,0.28144277434576215,0.621096865138737,-0.2645408732542539,-0.8887687279269152,0.2613944991739898,-0.4497494253933727,-0.697369739710192,-0.29326509771984943,-0.23368509166931417,-0.7689435154086706,-0.35466669381056093,0.9876258001168194,0.16987704608649157,0.8374219328476689,0.44033054843699815,0.5166458288981084,0.37036715878087856,-0.02822390801457597,0.4050459831889761,0.19626191529320658,-0.8981520768545991,-0.47451587006803764]},{"Num_inputs":65,"Weighted_input":0,"Weights":[-0.4164136609126179,-0.2538207825187565,-0.14008563998456114,-0.5676705966821065,-0.34983728616029663,0.002535054368035139,-0.17420084252294166,-0.42384954479961123,0.5456192692718496,-0.5163397692002731,-0.723650885779574,0.14896614746134107,-0.33116865489411984,-0.8897094548316502,0.2831516353815775,-0.6435546850926197,0.0816853655157288,0.3063190574151673,-0.003337431478825814,-0.497582064542781,-0.8615822686195111,0.31083393741004683,-0.17129711637004352,-0.48135313061836893,0.8646169906337242,-0.9464045924870963,0.42385894890344433,0.6940949135123218,-0.6987779134702967,-0.7040286887798068,0.22490163359720183,0.4775928175587483,0.220186662949319,0.7211853539791881,-0.8316567642491123,-0.16984401514564818,0.5998950183607745,-0.577465047482802,-0.7928151435537677,-0.5747588320127204,-0.003526475433695331,-0.6745529224545156,0.8881712102364321,0.6404358812657271,0.5702301403926089,-0.5105518555804405,0.22718079058804164,-0.4915902051379212,0.23096959627176306,-0.5913444143458344,-0.855474986790394,0.05085439323972607,0.8210166869338433,-0.06887180941638171,0.7212155331518388,0.5671022046482406,0.6675932480283404,0.7959039525152611,0.15627936209813753,-0.4115609228522571,-0.8424031632997765,0.9551954174242896,0.10083896355629163,-0.1515679700602044,-0.04268108226655376]},{"Num_inputs":65,"Weighted_input":0,"Weights":[-0.5511759155205036,-0.5841907382315676,-0.20056570557956388,0.07779856693568976,-0.9581479139487863,-0.12121488267318015,-0.27791725865243655,-0.47247919581202935,-0.10901472609254537,0.1696648441493962,-0.5462434895367836,-0.05884720277462696,0.16739711063091312,0.22209268773709967,0.061924079146550515,-0.9799516907631826,0.4725027005824869,0.7684540573454226,-0.5183784289523492,-0.7747754073750526,0.7805227348975201,-0.051581445461957864,-0.6373469676334631,-0.33488395764196244,-0.6683277762939672,-0.7419732537301408,-0.4429566289311423,-0.6691092445139338,0.3484401360376639,-0.21238116844658017,0.5166267150941819,0.8329709906814355,0.800931110481347,0.13993841859631018,0.1376581340433598,0.28574714163718307,0.8774966298636915,-0.040348159168341335,-0.5352595767347712,0.15509139874457079,0.5026008818830339,-0.20781474024229207,0.4633526172462792,-0.21147759442010872,-0.8534544992707723,0.38483747795097556,0.9811122450956618,-0.48856420888261365,-0.14205672583502194,0.6369851309036565,-0.47711453710666063,-0.6742909060602493,-0.29956643527132,0.15024873352776336,-0.5886580921958324,-0.9287270844651158,0.42649746126293064,0.48775817315966163,-0.4037156201310099,-0.9006221357390137,0.6288500960687788,-0.2136821228693444,-0.13299689576038887,0.24015338176942613,0.5443185580913998]},{"Num_inputs":65,"Weighted_input":0,"Weights":[0.7445867528670458,0.8657193018828087,0.05030114665170715,0.2173133202419355,0.6247335032479391,-0.8529382539730874,-0.19586642038281632,0.9192673379302136,0.42712215639226825,-0.5789644137815766,0.3906278615148746,0.31535877540424684,-0.846977313683798,0.0779052640446607,0.12854088186960788,0.21780592629581763,-0.3719249839740556,-0.4353439164025924,0.07811301545069038,-0.3831938504613319,0.7097930908444345,0.8461975749106072,0.8186305001402865,0.9889524604386943,0.27091870556515074,0.6927625345717263,0.3282689308187976,0.30449805840015554,-0.43722613252013154,-0.9702393105263494,0.5329803469601102,0.5606298983100828,-0.804206019027387,0.5136895667940644,0.17390627028052652,0.6375957477349963,0.15147967026845022,-0.15222185704784175,-0.21900445725953643,-0.4660380432222837,0.44893954803344993,0.6591677504677549,0.2551077142103857,0.5484989867293315,0.6124865129856727,-0.6988230529550012,0.6667702536251241,-0.17686205735253824,-0.41507209560585634,-0.6833776158382188,0.4602090338872393,0.795748508837651,-0.9985846195036936,0.09634419181555431,-0.48241457415255795,-0.735164580962721,-0.03995794709857858,0.412425867687644,0.7615466103814328,-0.7097354058599146,-0.8579130055438485,0.9964732782497452,-0.9632370263012571,0.3581584358437211,0.062238110411735104]},{"Num_inputs":65,"Weighted_input":0,"Weights":[0.2958388618555716,-0.19780496982809392,0.11481490162288299,-0.47978698549086696,-0.8829783871551855,-0.6361777833109177,0.48621195209644874,0.19923138918456473,0.8601454457167188,0.07663747941157517,-0.6337812594091785,-0.48064057776586844,-0.4470466345377705,-0.8298734969529834,0.08336898700479822,-0.1644484275859075,0.7016312235542557,0.1825136417684945,-0.5142435974963435,0.8888482567925684,0.717411311603322,-0.29255206655355837,-0.8270627850188409,0.21853458450937113,0.16812095769064062,0.38595633570047694,0.7849484898496812,-0.5552701317572406,0.08427507847436444,0.936155559335953,-0.1953708342340571,0.6602140689444358,-0.8349850779443021,-0.8119902186030676,0.6268958970172547,-0.6651798766101227,0.3400424478372981,-0.41194272639681595,-0.8311122474226077,-0.22111555308489184,-0.6280461101763515,0.3527098972477849,0.722046295436906,0.039942061059812684,-0.7101913763182535,0.03546624860651071,0.5087038413874532,-0.8363697110278492,-0.9846431661068572,0.5391594178242534,0.5744277375139459,-0.8601829882411014,-0.9974672697044149,-0.0689042429483755,-0.6268545560399772,-0.23020656483092639,-0.24605306969539809,-0.254104976025322,-0.8151246510423135,-0.13165267789210466,-0.7180506397603226,-0.4838584218223356,0.1585976984282449,-0.6913235245689338,-0.1780575569450048]},{"Num_inputs":65,"Weighted_input":0,"Weights":[-0.7360161900512329,-0.6321636303366418,-0.5742154097407389,0.32091317516676665,0.7282678521143608,0.27424611933785203,-0.0034842266162814495,0.725574130296774,0.6823613617429503,-0.7658060100735923,-0.6793842276141389,-0.6141411493518341,0.2748037156587859,0.24923128516843573,-0.3814209662073734,-0.8723244318968542,0.24894472073636598,-0.6042455965936748,0.6959829569643503,0.08356161735884826,0.8118306729799944,0.8696107969173505,0.9328729742607682,-0.7708108762404219,0.13998236047092538,-0.08049149520838106,0.49084861073182307,0.25421370064980464,-0.36923341277143606,0.6645493581440711,0.743416762471365,0.931524069986627,0.04917526298586927,-0.5880622660301744,-0.3923716136489611,0.4737483465095722,-0.7462176412992827,-0.290341126217994,-0.5762117913045621,-0.3433929264396317,0.2377125927662458,0.2837986663954781,0.6196549731571397,-0.15019417069072094,0.0445623007520044,-0.31359702051178073,0.378478445194252,0.9026560777457711,0.9970232204926,-0.805365691432804,0.5303200881952586,-0.4646028336479544,0.42671268473632873,-0.43377946949243285,0.5854345070097522,-0.580187519112097,-0.5013427158578079,-0.7943605730220122,-0.8586407696320765,0.013125600269809246,-0.9749479584550139,0.04111901416486985,0.14694051366508543,0.997361641603141,0.33284909986272093]},{"Num_inputs":65,"Weighted_input":0,"Weights":[0.6536794420758019,-0.0781514597497539,-0.27755531495505803,0.9121203802086697,0.8978464150198882,0.05478382049965003,0.7975728985229402,-0.6470748338567343,-0.03202553989892698,-0.2191309216872973,-0.060241269169769684,0.7639735469420623,0.7411547337415147,0.2133514085892103,0.23532821351118538,-0.1814533762727697,-0.2124458581283457,-0.9365667647582672,-0.4745552915932676,-0.5566256729045673,0.8983176674596547,0.336103476044294,-0.7010107678120692,-0.25568329664914424,0.617221162084419,-0.877301038481952,-0.7772903836973553,0.08485155417575285,0.023423201564477525,0.5565190287484074,-0.7568048664206406,0.6483514652026379,0.4021657002981067,0.6743732180768698,0.6097963370979274,0.5611354762278291,-0.16324102243567884,-0.464945086361354,-0.41239683907349567,0.2706787237949049,-0.9187121171849396,-0.04592084215891834,0.8215100422215358,-0.5920397658434786,-0.09435987871845175,-0.6150033843994576,0.20334628356718198,-0.14526409986529798,0.6490562799718942,-0.7710504161395645,0.4499095038587657,-0.6317997470437557,-0.819618922986497,0.9786641596277863,-0.6378624938789484,0.17159148833299853,-0.798486609328401,-0.13251755724498748,0.42162212094901586,-0.8913725811985258,-0.7052047466930121,-0.9364740320614424,-0.551145671881982,0.1076046494188101,-0.4766979641579323]},{"Num_inputs":65,"Weighted_input":0,"Weights":[0.005239477959818384,-0.7718781751974,0.5749995311674494,0.32700863215138587,-0.8663744145042935,-0.8133796794861419,-0.8211728930180195,-0.33805361687166824,-0.6221145579595286,0.7533009109973836,-0.26141334260156335,0.24391097122767236,0.667648422888778,-0.6757487434739283,0.8452519593167247,0.5348044548765412,-0.8426635467768763,-0.7829807651063933,-0.24296356851403744,0.3712977834181306,0.11978791330729943,0.0710342947445346,-0.7825716049730138,0.3426726578352284,0.3011373646275639,0.07788861442512984,-0.7862114777654907,0.07377823324385058,-0.9665097014192939,0.1308281473565267,0.9417630692134151,0.5973690666261071,0.5751452546084477,0.1486787615134586,0.7397146555113887,0.9376194143479211,0.2155729105719344,-0.5670010560530783,0.32684466908752197,0.9316604042926759,-0.6657060845463251,-0.18874844184832118,0.45687945264334284,-0.27459194026895106,-0.8522861730672704,0.792428414130127,0.8666535993837516,0.33110875894691016,0.6107110482122406,0.1355656231459479,0.12365489720477396,0.5596098441235318,0.38131823791847363,0.8801774299571898,-0.8852753727348148,0.43124243104395044,-0.08993672411344389,0.261542053801711,0.3493837372558193,0.7530625176244929,0.1508957449520678,-0.36846294774149035,-0.022052980920829968,-0.5348549932207083,0.8272624829550186]},{"Num_inputs":65,"Weighted_input":0,"Weights":[-0.14125871776807286,-0.9640924863653212,0.5477724498346073,-0.026226755306739347,0.23482686786460927,-0.12669275965192928,-0.5521815206281935,-0.5043436764226394,0.8582056612196933,0.2260994418891078,-0.9370661223483799,0.5233811054234725,0.49729976719425695,0.9708689114867015,-0.1965035343167968,-0.07724903301622155,-0.09583918948404069,-0.18486706563439714,-0.8454424421283553,-0.20019907829541317,-0.31659114773540153,0.03980606542191878,-0.0991166274934071,-0.9460897231803583,0.41878956380250876,-0.553466877534147,-0.842014852904254,-0.862791265944053,-0.6821912457413379,-0.06948671023686448,-0.16161057561628234,0.4436495582345794,0.8678187611856916,-0.37956179546907265,-0.4034560867149112,0.8583607591940432,0.7805934642222436,0.5178783745350193,-0.34334828811175455,-0.28824047064948255,-0.0012374208906089645,0.2987167411644185,-0.35815498926564115,0.09835356578407439,0.16189677799467872,0.23157802734706068,-0.05498692714672282,0.6430643541983181,0.6386284578709538,-0.850659608201226,0.6464292178107054,-0.2853289567428221,-0.09180886796174137,0.8195388755077568,-0.26280948095527434,0.9721808559569487,-0.45849935634478745,0.10491657017609701,0.7568792600228555,0.7059225374662879,-0.043648945007123685,-0.7093508318762558,-0.2109103737456095,-0.6416969172303213,0.47214841163603705]},{"Num_inputs":65,"Weighted_input":0,"Weights":[0.7093718015785253,-0.532157134067956,-0.9000339566069064,-0.7818657303998829,-0.796000721517322,0.2233910744931049,-0.37958335027240764,0.3852976143746807,0.28626580330731755,-0.8117460655760159,-0.7882057900872134,0.7283073082619316,-0.6905637967213081,-0.39211873235269956,0.6217999273940904,-0.3839141824678942,-0.5984233624376469,0.23997109714751086,-0.9631651358398571,0.44778300034152374,-0.4812390872352268,0.5394055915912168,0.6191880195436157,-0.48709607356497264,-0.457568095943128,-0.7072972477133777,0.3526374344870875,-0.24113805071466543,-0.028513619801618928,0.4901259907298974,-0.008370747007621526,-0.1317505732386396,-0.6069190810404286,-0.14801783520614176,-0.6369370527577216,-0.0392202724835331,-0.40714073886238644,-0.9565941521821513,0.20308994763786914,0.6579501596031165,-0.5626120325948034,-0.6248399263223645,0.10966410140509208,-0.3212796221127713,-0.7263782221984219,0.8332919451706327,-0.018415855561031202,0.7188809345449729,-0.95807343768105,0.6946501403925871,-0.2061097778250457,0.15659878516095138,0.6801164583764459,-0.7459568093351527,-0.3664361251540552,0.9877717204563721,-0.9607147433226028,-0.8327373883127767,0.7466306362925215,0.6691962118112271,0.8411605532020174,-0.47332221177407086,0.26887085280679623,-0.0921605084299928,0.08418304947448174]},{"Num_inputs":65,"Weighted_input":0,"Weights":[-0.6944386732719061,0.9341190366799847,-0.3519272738588439,-0.22995276049671576,0.0861688839301995,-0.5203855773861246,0.8654445489804043,0.45441700556920384,0.36834069227105926,0.06647091738024136,-0.8772424542532559,0.6709100477047496,-0.06330802380405431,-0.7219002728161195,-0.4417694167374149,-0.23191831585974054,0.22197106264106226,0.8804652829323691,-0.06097843723093699,-0.8605439067754436,-0.6895853892501808,-0.06444390012700452,-0.8463687186414643,0.2390090710536361,0.26708722280984554,0.03341053968104579,0.9732997424186269,0.6390601456360112,-0.9373738291858063,0.20431854052091603,-0.2951910964554809,0.7396594437754909,-0.7254687018621957,0.29241151676533206,0.914348750724931,-0.033451224415999015,-0.49546637693336115,0.495040440850151,-0.6620418523082636,0.926663923091553,-0.16548169776688104,-0.6707906978738591,-0.9118312825339434,-0.4546856190256958,0.14083181509484044,-0.3108829997160997,-0.9888046307948846,-0.8724119768140752,0.2897548748608674,0.9316885080298958,0.100121188236995,-0.43467436875163834,-0.8500537476632002,-0.20510644623509644,0.02050818092519191,0.5840856005452209,-0.6262767627732875,-0.3872052589136401,0.27523799193371823,0.8259229718505208,-0.021586975273911957,-0.24026015344975604,0.026598591350575962,0.9420472431603553,-0.6105492307585949]},{"Num_inputs":65,"Weighted_input":0,"Weights":[-0.3006925916780684,0.7570568291569244,-0.44404528804552235,0.49865602221284155,0.06971491943043406,-0.55081788714741,-0.15533177418624977,0.5363604857957853,-0.40777717675469993,0.07251658304786912,0.6463228949447439,0.3307903927400504,0.8156520981645896,-0.22672291780259068,0.9884683450070331,0.5780909497476989,0.014234371247382915,-0.44898698001970716,0.20332601073347645,0.29096980602695854,0.06565796965741111,-0.20559645796048687,0.04211892671801465,-0.095062019791614,0.017836378610329495,0.5674682473387636,-0.22343854897403426,-0.563265878986865,-0.18022845251411657,0.2937485518454821,-0.5578663722890203,-0.7431092564630233,-0.2441943706113232,0.9106622891630471,-0.8958835136938375,0.8118269537485794,-0.42370366102258583,-0.8957652144987256,-0.2811531458574792,-0.9148344646909253,-0.8824593748702039,-0.9011967772463131,-0.2024592874559028,0.6763194380145598,0.9036200628258984,0.19932187037325266,0.8756793638195681,-0.9057405056640659,0.7607062769106203,0.9614409766196583,0.369802997477519,-0.6713171393076229,-0.7557151631486752,-0.23437722431728203,0.35270476468760115,0.6816142085718482,-0.9051874328392706,0.6294284114311373,0.507803403679491,0.026264464608106053,0.538233321302052,-0.3978981597575306,0.4517520502334189,-0.6114628709878627,-0.20145963235312458]},{"Num_inputs":65,"Weighted_input":0,"Weights":[0.9110359391144909,-0.6857200827697478,-0.9143511794437389,0.8561354727196626,-0.9360243514910493,-0.30648465438080896,0.9777458515516364,-0.1874998639928509,0.6798374478748215,-0.6310506655125172,-0.16658503225572419,0.3912004984585542,-0.2218006024849538,-0.7324456137489794,0.2596210037724853,0.5542994465377555,-0.044281040101399105,0.949033455288776,0.7740261510417623,-0.04250090199248624,-0.22585665711842318,0.2988706995967352,0.5407946116110718,-0.18286067184724797,-0.4891439636468077,0.9932701294997182,0.05193488412331915,0.7576107907721659,0.07173589753223086,0.5528625341353655,0.9386277761035535,-0.20371005480759197,-0.703345394949094,0.9632908718057118,0.6319518530547492,0.7967278831457103,0.9080846372681775,-0.2630971754867355,-0.3752538666754275,0.9793453264526257,0.11061843899850721,-0.5199674653348993,0.8732290891555934,-0.9809988143434444,0.9109681554032065,0.7090404347415662,0.034593375187047526,-0.03667516462251719,-0.9231469219259556,0.646749668809987,-0.8697204547966682,-0.01250576107742496,0.5536097760289294,-0.8715666504634171,0.07809454902427171,-0.8581035802201773,0.035414011998017525,0.6720224843859173,0.7214970166217469,0.9118757413491427,-0.13704695270556944,-0.15297658049250729,0.20475217005865542,0.47071526554164955,0.8602712220567688]},{"Num_inputs":65,"Weighted_input":0,"Weights":[0.36108113136846565,-0.9223733132119069,0.13546329879854513,-0.619952205954323,0.4171982721955194,0.10976164199091265,0.9586356512051764,0.5507106277109786,-0.45015911170238043,0.12363468371939512,0.8845595815485667,-0.07153639192095451,0.8012179189715258,-0.04893608962979201,-0.35744577439773306,-0.6168247095565965,-0.6301393715570505,0.1396943554109107,0.8926548694519683,0.6857656403487489,-0.006649686501798757,0.21906852111494635,0.09665040432577987,-0.19108394550404628,-0.6207169031532431,0.8189046596021816,-0.9339466565125681,-0.06952190754268373,-0.499489730547105,-0.8892802370545037,-0.4529744397599962,0.5155087391999005,0.286312231317956,-0.6356263559727485,-0.7666668071409675,-0.7476793493114164,0.5149091435285438,-0.7930769649743007,-0.9627087705235151,-0.20085200640601863,0.7482913174970205,0.549898173564423,-0.6650743966098607,0.39201451436467183,0.0079905629370709,0.0025087908576586493,0.878434203011828,0.7890768009187044,0.6188977840260668,0.40000711060170757,0.16220859729169068,-0.5754358726169025,-0.7173948717265458,0.12375091540044991,0.9448095432826471,0.2311455953050019,0.7283256897441455,-0.04379991228429847,0.3590601544347911,-0.49063079756792616,-0.8998391236891956,0.08891182150055932,0.358255197892857,-0.434606790668964,-0.7158818651556454]},{"Num_inputs":65,"Weighted_input":0,"Weights":[-0.25164975384058685,0.30125441545681664,-0.010542252823296572,0.11766060320533933,0.6989231866676004,-0.08307709561836041,-0.20188856154105406,-0.3807445730824611,0.3708949463123572,-0.1848682507675452,0.08957102591889976,-0.09775223737462724,-0.1665615165040707,-0.6066307448153487,0.24473177399336588,-0.428006336927369,-0.7101646372473468,-0.09909459785618191,0.676238824303395,0.8973366603767134,-0.08683790014817638,0.07224205023793306,0.6361937606249264,-0.23196260224420218,0.34102422958660106,-0.1638274608969167,0.41535063265201444,-0.6788500736939738,-0.1427812992676124,-0.8388525843225451,-0.8454686323753164,-0.607977193049406,0.8544568277027176,0.9878578425781088,0.6651765246202788,-0.15556397221110063,0.9842396149823032,-0.1733033450379543,0.2250326655670325,0.39939464398039326,-0.7558149013944915,-0.5879657348752315,0.6624949887297022,-0.38701266468604234,-0.08674508125859115,0.014349527772940851,0.33108344078956686,0.7666954990460979,-0.06000760439656394,0.1840930838283108,0.02916477226091052,0.9222114999620055,0.8358658878558118,0.10114095496111686,-0.6738663260333928,0.4055644637478275,0.9986110576017975,-0.5414253164030707,-0.9548772210388203,0.01987291845569472,-0.5959368482800156,-0.008838450586504343,-0.613582416656268,0.00018988725153512576,0.7998685363530322]},{"Num_inputs":65,"Weighted_input":0,"Weights":[0.2889988345774974,0.020038912116344676,0.007158921073289415,0.5533638154527505,0.4218880333572781,-0.5828522904745811,-0.6708959375736192,-0.9432608988998511,-0.7948291058011272,0.38844575396386727,0.3955478795196934,-0.7950544286140945,-0.5669543000167478,-0.46420789928770556,0.5784804564233841,0.902552133677935,-0.035249509216156216,0.9412419563989165,0.9528135330083267,0.5338746645597516,-0.5365310585545056,0.7370843841206014,0.7559971145533511,0.9222669991370993,-0.5220536735198273,0.7511247759434803,-0.1687187019110834,0.4791080189532899,0.007174532001380518,0.5475361151271689,0.20357907098189787,0.09038824202706786,0.49340798917827855,-0.5751585061458819,0.9999080163925835,-0.19474477140891178,-0.5059460915795182,-0.828728441874944,0.2804325060906565,-0.2668863292083895,0.880299505559168,-0.5610253240183658,-0.8803478221773935,-0.3606519971635763,0.13079799531839242,0.5331977064611244,-0.30288842978488184,0.28120845607186884,-0.9058604971562527,0.05792912313032583,0.31961548787399163,0.04048635487936081,-0.010180488756808881,0.4651923768984636,0.8200859533601597,0.6121014137471197,0.23502548117510202,0.8546899341633296,-0.920535975508407,-0.22093637588092618,0.77303299319833,0.33400811743231906,0.293308496933929,-0.8184702342654964,0.6850740929653283]},{"Num_inputs":65,"Weighted_input":0,"Weights":[-0.8516957001318919,0.8759672935469272,0.27593247502721874,0.9015115425900475,0.9122492973679186,0.6849377226003188,-0.09951262704393582,0.9574219745812809,0.7348663896186456,-0.7694690332238332,-0.06514978565138019,0.2280608571991567,0.8412333719980656,-0.09937581261007666,-0.5821908471634728,-0.0755418776183312,0.8234432250884429,-0.9406369555519934,0.06399960073985667,-0.8792647163976187,0.5111512917350105,0.4696604356414129,0.6869673088488826,0.5684184003572463,-0.3994275702804676,0.4894172358561095,-0.304645775598429,0.8972051417571631,-0.26045594053690724,0.38382552274368353,0.9555567154685813,-0.9775063253229327,-0.7393200668158828,-0.4698360015090485,-0.13523798152099586,-0.29985452781209676,-0.9692098833473046,-0.18131537480161442,-0.7909203092833045,-0.7195931333202006,0.835061158629036,0.42936956849699803,-0.45371619212597414,0.8372698715658073,0.6637279427078171,0.16120382215053208,-0.3707416079035636,-0.009203926581056177,-0.8061848353668946,-0.3887859167699378,0.658970042899828,-0.7724430083914215,-0.7952653762639933,0.3501145307592004,-0.7198378836773703,-0.9588821811546233,0.26143330123965103,-0.3902481515822468,-0.8487339354284742,-0.10216130330467121,0.20430544507718174,0.4711083297749179,0.748527243754838,-0.6810420147921967,-0.9979555520146425]},{"Num_inputs":65,"Weighted_input":0,"Weights":[-0.9454014185153937,-0.6194763628028652,0.47377125562899924,0.9539782671109971,0.8163489122261007,0.33902868235985784,-0.666232100834336,0.43554332548449604,-0.8697425937935045,0.08142064843467334,0.39000977916514223,0.3475863743790437,0.46625121191325136,-0.94918761950114,0.9305433913702852,-0.27263660380354304,0.8999327242197834,0.25220736070765204,-0.9199146954006817,0.31895917053527967,-0.5086647450609051,0.8804821747244764,0.738239526366089,0.45799455428949987,0.8246613101916336,0.07090808977157104,-0.07248849453697326,-0.16780046130118276,0.2638482926132384,0.5615130135799455,-0.5935205496157634,-0.8052889733832509,0.7148225772516519,-0.2216343449230629,-0.9011134760342387,-0.9119614375604395,0.4635625658954525,-0.4947290362003781,0.44186145226283013,-0.6687104965934461,0.1291633972287649,-0.6702245304126113,-0.7202813343060852,-0.6593164953448721,-0.8348348530394307,-0.8698999797739598,-0.48332612390833773,0.9184401403148885,-0.382362510650575,-0.9997019630413027,0.8176525464617062,0.19581598041466353,0.3215140802209244,-0.06247895114307389,0.019836806695140208,0.11976265782717976,-0.2699547433281849,-0.8915289677599545,0.7531461031304256,-0.16548781515597755,0.05399986078439323,-0.6193812808545847,-0.8891572656700627,0.8675959875616039,-0.541883408167825]},{"Num_inputs":65,"Weighted_input":0,"Weights":[0.5832100807326472,-0.6876405335536535,-0.3616576835305957,-0.11600675098366653,0.8154729362206832,-0.3070942632150473,-0.9423713664813008,0.002629974268815616,0.465410469971139,-0.9940073346126672,0.3457545029649669,0.217940744568917,0.9423676874092128,0.593831715080235,0.3045577067757381,-0.9065033791998265,0.9738485289299836,-0.3800081686274326,0.9279691053621326,0.3324251897633139,0.21934962115786627,0.9373738067557895,0.21572582680193042,-0.5539189057987749,-0.7939476766389083,-0.01703240692225516,-0.4819255213922047,-0.8343308392383039,-0.36202494960391063,0.9410658406629944,-0.5168854220933858,-0.08551054701075522,-0.1483452966653921,-0.9437993717233844,-0.9326664410118348,-0.7353532820707611,-0.7493379104442297,0.36386257341373107,-0.9184964142868112,-0.5119190713582155,0.6413821280089136,0.2985720711556952,0.03699748483864562,-0.11317021980511766,-0.5921791470071349,0.4987429142707862,0.12163232631618559,0.9191035570967148,0.8831826614317617,0.14673152899823516,0.8100268209180292,-0.6099358546469279,0.10187674013872439,0.5769707383498568,0.6985801319712686,0.956191145604089,0.389152797349154,-0.9757280654934967,0.8547656637407799,-0.1526118796773306,0.7663075597014035,0.8983353324873997,0.7185293709910021,0.8700685953116822,-0.7792164700772448]},{"Num_inputs":65,"Weighted_input":0,"Weights":[-0.31802328085526343,-0.8157652967398238,-0.9719470070524086,0.3395775574718971,-0.9820893243027043,-0.106525305476323,-0.19444400974358578,-0.3192141161904126,0.9958402675740747,-0.39069550332580183,0.824928383827088,-0.5991091633043071,-0.2905741120962171,0.11052184696384892,-0.3039275279876651,-0.1990077725887942,-0.6461256782621094,0.5149655627350918,0.831272425142846,0.6944012432439433,0.01752646575539263,-0.11353304301250577,-0.4008132373622566,0.22573806190052603,-0.1250717192001387,0.7441059053408379,0.04975419661260516,-0.6479302281402766,-0.3567035939505402,-0.767597308411197,0.05057498971282892,-0.6282841053246403,-0.2844838595451321,-0.5440847967507628,0.05070926823657462,-0.3287263693867961,0.6761596384438053,0.08045340795147515,0.9965693993283351,0.5336189403906795,0.43472495569567804,-0.573078493828074,-0.05819694213913962,0.2671683641531326,0.012961607860398905,-0.3752096372818009,0.9040824752318661,0.47261260067927546,0.9925970497247576,0.3529534269444141,0.04036602318860605,-0.35750351611141606,-0.40523958291575346,0.07384682322546676,0.8582241685363625,0.3846005711095617,-0.07473852601349884,0.6599219643741181,-0.0011966070663222972,0.36672195414558995,-0.43524754368443364,0.5450079568193094,-0.23868847108182534,0.2721383652940401,-0.28366031013492043]},{"Num_inputs":65,"Weighted_input":0,"Weights":[0.05755415141518716,0.7844186402368505,-0.44850976329337433,0.2803377079449052,-0.27085403204356495,0.1552307174380958,-0.4081045680550929,-0.8668555505784804,-0.724194555419484,-0.12928230223913573,-0.9115740068892758,-0.9416009121011164,-0.8417180112339455,-0.03406671161976016,0.02297690069861069,-0.27755895322106217,0.08413143542243162,-0.205834109469331,0.3284979531862726,-0.5702317016392663,-0.7619801934384132,-0.6865121106663155,0.3209788069307826,-0.12246986596985043,0.9201520065962452,-0.4156905442717812,0.7631876731968565,-0.710527959514442,-0.693489971086524,-0.8380838317650198,-0.536999287588322,-0.4759633348741692,-0.9589144665098249,-0.5523555907470767,-0.34461415656160543,-0.9862343827219362,-0.7305009232129394,0.39378366367815043,0.6689791171934545,0.03718685491538998,-0.2862503788031535,-0.7382004535552295,0.8370163527547339,0.35314747829692017,-0.4073404296779751,-0.7283025957123748,0.43954190809523586,0.4228582802107024,0.7935247386787225,0.875822810144411,-0.9536349557038483,0.5561008083395511,-0.6264808465013174,-0.36817597471346486,-0.29487305051560253,0.9407752312874638,0.9538032193828219,0.9744466900976352,-0.5860615859044958,0.13955981992640343,0.8869240741774802,-0.23357708327908933,0.9314925259146991,-0.8258250719429462,0.17576182587005973]},{"Num_inputs":65,"Weighted_input":0,"Weights":[0.9805587938550848,0.29075697689804336,-0.20241557727260384,0.29993277668695995,0.6237289806196864,-0.031862921087622675,-0.9734442153500582,0.19371805874169223,-0.273712587505626,-0.642445726888075,-0.43261238699914994,-0.14186266168814732,-0.30126634072969494,-0.8569785596392504,0.16216370689841075,0.24688351811081777,-0.1481203801409765,0.5985856533141591,0.06723876357737968,-0.5533320258294987,0.6265957728897005,-0.7587737377009559,0.8529260250027879,0.14374292685667633,-0.7243794690124701,0.1142027559572194,0.7770244919883598,-0.22131224128596294,-0.13751701813889705,-0.6775598430703247,0.17904854673608406,-0.07528710520519089,-0.6422616540214627,0.8811094040873952,-0.4089207879179705,-0.809174363928252,0.7860086471957399,0.012006351025851458,-0.3421461444349321,0.7525012996263518,0.5473533802066661,-0.21235126768024715,0.26848102699713094,-0.6734852917882486,0.12758443991545243,0.16354366132898446,-0.3210937616460613,0.07152897109940137,0.6685889412263906,-0.8806106636388373,-0.8178365991618277,0.5979574172307551,-0.767876058666604,0.30242073215950516,-0.12578840182917939,-0.4722567653066658,0.9559996001632087,-0.5670844297845894,0.8400234988437414,0.9916044732393541,-0.6852918892791053,0.244361533856555,0.8466165873366183,-0.014091497727703794,0.8343105011782834]},{"Num_inputs":65,"Weighted_input":0,"Weights":[-0.9258420796071072,0.7267569857103224,0.22872691518678168,-0.8918825088337173,-0.24589827605496106,0.5612218569702643,-0.14470344389621204,0.6989810206583482,-0.1252270944741013,0.8055367069244892,-0.92762653777069,0.8888474193228062,-0.8088426315130187,-0.9142289921668504,-0.7199236679069798,-0.6038384935533623,0.6712867632353297,-0.05018959846993831,-0.11367588630458247,0.87537304022777,-0.6661282585544581,-0.45696176189112936,0.27821430060575203,-0.7982659113973156,0.35538595506251713,-0.5612175010376497,-0.39908753941982056,-0.18101399476669744,0.508600726221212,0.7940041137815599,-0.24265129934895702,-0.568425538032634,-0.11468861332059066,-0.0913850362279588,-0.0492522893154832,-0.4890278546718487,-0.2483155144262189,0.05269415880357542,-0.18007287536984296,-0.8617790071694102,0.22679525942170997,-0.9234416045118087,0.578693324771669,0.29977100174596094,-0.07442243747621391,0.3465335352639005,0.1580534526459645,0.4135449070416142,0.6186300769279613,-0.26122356959792215,0.5418150842815408,-0.4219845094689981,-0.5395672806997822,-0.07520507268306342,0.6833824929381407,0.06367591113004134,-0.06892910408059005,0.8470462702672308,-0.3238088861337236,0.4733007802599438,-0.4110606197157717,-0.6498572146642578,-0.8564602383449739,0.28800117740637887,-0.897758818906844]},{"Num_inputs":65,"Weighted_input":0,"Weights":[0.8186603665777705,0.45443115853321236,0.11008389877446434,0.934253250653819,-0.6659665395367482,0.6990390341646608,-0.45880694377442,-0.29311171293679594,0.821240738431311,-0.9215487674435389,0.3316120704592098,0.5053049651679813,0.8141102485336411,-0.6504749747285024,0.48947583265813477,0.9889402471832915,-0.029577578495597612,0.7619615243876221,-0.1666792307471342,0.40013714963918057,-0.017353897535733354,0.6409582831218317,-0.12368883044201429,-0.24074311886487776,-0.709404812178396,-0.7543813739536047,0.9478302828582454,0.7095959447467814,0.3730424810410342,0.24518426115075376,-0.9304427590634974,-0.5323773748131706,0.7648918191298273,0.13508444881295212,-0.574788110502255,-0.769396816147857,0.8814851630850031,0.17106354370482246,-0.4352041646220637,0.9450077168257962,0.2544792263115234,0.510263331298038,-0.25225689371233295,0.22754943966377916,0.3550128068103293,-0.5676572345198363,0.09839920373056521,0.09716914304647162,0.09366676400515739,0.07122362359064516,0.5643179982157036,-0.3764082656559621,-0.13860090765199684,0.7278808893997444,-0.2416688943372145,0.7954463273917964,-0.3392537060031653,0.9802704496921957,-0.1571946165441226,0.10869848405737459,0.40459176651991324,-0.486994358648671,-0.31570949359380673,-0.5123497258001118,0.337635013983242]}],"Layer_output":[{"Num_inputs":33,"Weighted_input":0,"Weights":[0.2586170199329665,-0.3271398727882284,0.24701644817384572,0.4498903753558696,0.8903040636051898,0.2209056019306581,-0.36550536942008305,-0.17879751702669788,0.3932835871405318,-0.24180851009712967,-0.9887512220788613,0.8388752329585321,-0.3129726403654256,-0.8982989350015618,0.6664436848875961,0.9775820814566325,0.18116089539340452,0.29376505684389054,-0.4449434535570366,-0.7762257388768551,0.13324720237417886,-0.8692663082632599,0.6081905581290257,2.381505129100958e-06,0.7334494068814676,-0.2337347595624617,0.32296013689414504,0.6147951095895958,0.06808167389733621,-0.6566326676636952,0.9350922290788102,-0.05599420612817241,0.30877030871276157]}]}
