{"Num_inputs":65,"Num_hiddens":130,"Num_outputs":1,"Layer_hidden":[{"Num_inputs":65,"Weighted_input":0,"Weights":[0.736918444937789,-0.03311158503710543,0.8319831348527784,-0.8265150566541517,0.17947811498348853,0.11770236643119669,0.8159337725601623,-0.626406836295108,0.45600351721952737,0.018005044325381858,-0.2947571202122262,-0.20756738595269253,-0.9994457592623527,-0.6091741402860669,-0.7629156094567753,0.64498547667844,0.5992740364732281,-0.45961281795564324,-0.5805094789304884,0.3420668016794215,-0.08152727557274653,-0.04357801004272921,0.16836907233420506,0.8423010071772508,-0.324417504578402,-0.3998675660764963,0.07550153170980556,0.7678725819470438,-0.11144036755537479,0.5398577919752192,0.9653040605852581,0.9375637414257945,0.7305719850621393,0.5323106000309821,-0.5548347186321163,-0.9631092796408605,-0.8064519688913403,-0.48333053456521,0.4942824080743875,0.5513203003152132,0.3593577276304887,0.3454284382302266,-0.26293579397334166,-0.7354922371785451,0.04759661299373952,-0.5372444162399019,0.05982077688277809,0.34003218603790053,-0.15873378972310226,0.920280494503845,0.027661310126068317,0.4440569681124322,0.5868065521239942,-0.5336028502114726,0.49737429240629427,0.5094621843386142,0.949428958096866,-0.7132910537558665,0.06552433112370393,-0.5578558746192619,-0.404823587773686,0.7718511127454184,-0.20491567648608577,-0.09851180002397608,-0.07286718794082714]},{"Num_inputs":65,"Weighted_input":0,"Weights":[0.6354708907636211,-0.8722679469216327,-0.8419855199724551,0.5784004608958051,0.12129906276448055,-0.15099839288992656,0.1223504361195431,0.6847702623521703,0.9182684961286591,-0.04549170809648584,0.37186353092008395,0.5937442346565442,0.9538324191192611,0.6934259034850812,0.27484847406578927,0.9718042526600197,0.42914005071525296,-0.9265688356454079,0.28827622573041456,-0.002335462899144547,0.4135716346821816,0.41550127760183275,0.37061299782202406,0.5162585150920838,0.7937067376483937,-0.49108162831253044,-0.770904907160358,0.9804080980945926,0.7675055856495443,-0.6466644676361983,0.8128091668772446,-0.6142511213233496,-0.48191571091426066,-0.27353112132877966,-0.8274924052460754,0.8782074996502138,0.9007732226377707,0.7232199270327517,0.39107705622470545,-0.23925737497390132,-0.3208272241833565,-0.17156880337582314,-0.494002152432398,-0.20232383898749073,0.04385273271197376,0.8153845040251648,-0.07807706627581712,-0.9929075507211853,0.5249675141466628,-0.38976858084739574,0.6387885357781196,-0.6500005886705067,-0.8601935327674944,0.9720767404625612,-0.7922295930767874,-0.4329478470996463,-0.5094543001805436,-0.7483557688096834,0.9808565741847912,-0.9496171127270864,0.9007855035588535,-0.3054597040145137,-0.4253948603722928,0.1645035022019461,-0.04911082269867073]},{"Num_inputs":65,"Weighted_input":0,"Weights":[0.8295237261056638,-0.23751057502591089,-0.8671144008409812,-0.7813341603843332,0.8223276947354246,-0.8777225689496418,-0.9867163910065827,0.2702804483256318,0.9375521153036563,-0.0007477737913665905,-0.5202088552679733,0.9425878141033766,-0.12724366587893599,0.4948983528445756,-0.08075652663244937,-0.9624313606448851,-0.21034658918467264,0.35996850219288956,-0.15734332330603362,0.6306930580856913,0.5737967264394761,0.306676620869929,0.4970168058336266,-0.02825094202422207,0.06766633161909019,0.9203101277186791,-0.32233301385827584,0.7225166945108858,-0.8714247696506497,0.566086268946348,-0.5741740930143562,0.17737479789454236,-0.9080367458801055,-0.6095930588274067,-0.8594736461743641,0.4365819544318079,-0.36934761723352616,0.25289808382890455,-0.0519887638183415,-0.46753391300608316,0.0050040513930362795,0.13593601230151275,-0.8690211176979441,-0.6651856399407485,-0.7115171804108622,0.7404969324711022,0.7999359982563488,0.4879213192975047,-0.9742010868314975,0.22311160281120546,-0.19188813491664092,-0.013455682839127014,-0.7489343116131728,0.12097357750499738,-0.9562197510469276,-0.8477776654852952,0.9771038012433955,-0.7296305872426935,0.9995286800321361,-0.056264164862861454,0.9748119548119172,0.7198767473813836,-0.03864763528852455,-0.6296582566544779,-0.07964101082711372]},{"Num_inputs":65,"Weighted_input":0,"Weights":[-0.43586667411507307,0.6637010530114547,-0.22020587170688632,-0.4922248512326657,0.7588331266231461,-0.07389570106164167,0.2362604834899793,0.9021569094188462,0.12548847577558475,-0.31349020860079135,-0.5442056032055967,0.34093014676083433,-0.6946025037650045,-0.5149766499291109,-0.815062559970336,0.31828872485034276,-0.36979566246604567,0.48415120983814086,-0.38581759955927963,0.8574234023499869,0.054070610566588906,-0.8455406225272059,0.21268407937855693,0.8198165910818596,0.832714495963168,-0.5571417080384142,0.3643730729426242,0.2628002039708053,-0.12269401708011485,-0.1981619622448635,0.5608301867067558,-0.3104328916061819,0.9124379123653377,-0.6381009714086925,-0.2105554272371889,0.088353140615689,-0.9827506311304927,0.44839243649631855,-0.44479123291712386,0.23464954174759245,-0.7760397212369113,-0.5197660479144011,0.9843282442921957,0.8979042826105346,-0.4183696514473543,-0.5398764472186304,0.005141144511461082,-0.48350630998779576,0.544753693431201,-0.02655844110260508,0.44154166739101997,-0.09540283527352367,-0.645633679016901,-0.21882899239826414,0.2785093491962005,0.48259005310998804,-0.1437340697998667,0.6703630705577537,-0.4484855082059589,0.05823186260688873,-0.9016843347995039,0.41442081057395574,-0.6602186670016233,-0.8908263124932365,0.4738018423516266]},{"Num_inputs":65,"Weighted_input":0,"Weights":[0.8469212840519729,0.007711455158751823,0.24901722291192296,0.1781109237756735,0.5741517196949386,0.9227449597791082,0.5713308725437725,-0.9134025570610161,-0.4865429017498146,-0.011406980273000467,0.3672672013945635,0.13007022093295406,0.9511170602814156,-0.3127934510122672,0.7153860760449888,0.9782796653662338,-0.42869325519874213,-0.43800944572764555,-0.804817754265629,0.29476000001189484,-0.8490299348779284,-0.6618222464750749,0.8640164286278329,0.8693507817471486,-0.6049266491334,-0.23908067085734042,0.36448243846847483,-0.9679799192258659,0.6154539651499058,-0.7150796217025159,-0.5923286736228719,0.011672135236303616,0.6584092707651383,0.510643030005913,0.8287688460975466,-0.47460947156624067,-0.4150433802409115,-0.2714697978913758,-0.8984656784551814,0.4218648309194637,0.6643770396569437,0.021077800000351532,0.6911772552796767,-0.7788860220099653,-0.20995705035955337,-0.1142260468994859,0.1408344757925375,0.29342936519623763,-0.8203498537107933,-0.4336944669692724,0.286691151907815,-0.7449459821903675,0.2033174358862604,-0.007293601650957937,-0.6861996391003349,0.6731271602232096,-0.34643506328434304,0.8290374571205343,-0.510363528143068,0.24659649354814372,0.7313537474875762,0.09056968302253576,0.5864353917248575,0.5896672963340266,-0.2633933135477642]},{"Num_inputs":65,"Weighted_input":0,"Weights":[0.5897819200658616,0.5319514860499237,0.9947592046949729,0.6499411699755484,-0.5149433653697626,-0.33626254020902213,0.6008168095256974,-0.9875277115472,-0.16358312564976918,-0.37011101156722115,0.9696152239042948,-0.11039658658336371,0.9423322166683084,-0.32688089774782336,-0.4809731854139917,0.9011966262221376,0.48772176734559447,-0.6262623980691331,-0.933905982559953,0.6464538594418743,0.9799641151252279,-0.1943942056166199,0.008942468037743234,-0.4504594658611354,-0.6129382984643309,-0.08875110605219283,-0.14248669523015034,0.39634419616758554,-0.27415926127043644,0.5102507306734516,0.8837466551880264,-0.4990249354177062,0.8033757561927091,-0.8612075852926087,-0.19902889756988573,0.9705269096533526,0.4944033903034357,0.722256795515015,-0.45277290807718196,0.5714495695015931,-0.5555192473112086,0.42991469589739717,-0.04519632623236025,0.7580060776161692,-0.9205676039558315,-0.38659982051025776,0.23643360149935488,0.3228221081411342,-0.9577243404925976,0.7539263471398638,-0.4023653153441141,0.6536793615836336,-0.7674862024066893,0.008923619662978055,0.12095286345239664,-0.31154908558011274,-0.7787383855645378,0.6983765074035613,0.5536643075469609,0.3828996973940939,-0.06942780939938875,-0.4230612621330183,0.7380806669793378,-0.3688940698471631,0.5915435662739463]},{"Num_inputs":65,"Weighted_input":0,"Weights":[0.8543035665266914,0.0953104767808024,0.9983657921498672,0.29817236982796014,0.5686970713258157,-0.8272209245655808,-0.776996645008162,-0.7441989492588814,0.10934652535488087,0.01612285743596531,-0.079236957173209,0.9701818260541417,0.4659141162549594,0.7160214221593364,0.5085563264578634,0.6443760345620368,0.17286637533524218,0.2054497137805673,-0.028758567760969078,-0.9793112813575069,-0.9131012050287729,-0.8128203540405636,-0.10573604266610281,-0.9237992050776876,0.10722391642020268,0.5171181545353203,-0.8010179772335194,0.10153482933145153,-0.02241059562426828,0.241202066478432,0.6741191150095716,0.9360912346368173,0.2254304315782858,0.8223784583667408,0.5448439360533761,-0.5062027670934897,-0.41630019928711537,0.39880030365263686,0.2933967332315861,-0.03361747442796481,-0.9345545673926976,-0.8168128336290561,0.8758876007211494,0.20088778968563892,0.1403322987526825,0.09823142577429911,-0.8912511566532848,-0.9650221969002685,-0.6112666514769247,0.03690245782827861,-0.6401751122834036,0.2934385613785775,0.9962880349398489,0.9404117493774904,-0.4986305163753346,0.9804666928274319,0.494265175858557,-0.21284956511236497,-0.037783937035712256,0.00821030191493044,0.43496383257382254,0.574312903088914,0.5173116192990286,-0.3695937218594998,0.972731286994226]},{"Num_inputs":65,"Weighted_input":0,"Weights":[-0.3202137292449265,0.7389366565687603,0.9195712681279082,-0.9774582283061054,-0.07394331077785998,0.12152221130788576,-0.7684433954380008,0.7680638682671426,-0.9256601193200196,-0.5308103895390981,-0.0818113335249212,0.35857257459061476,0.6850855833288692,-0.9821408003200057,-0.2703960249591181,-0.5357660484119514,-0.3402473659204174,0.07165350153145056,0.6716473297187608,-0.21451958754816058,0.10880894119078643,-0.36302840145832393,0.6843478217772032,0.7673443238415922,0.6197863874808323,-0.005376097862500928,-0.5733603908941916,0.09851415310810685,0.5241635333706856,0.6431583397016065,-0.3431729894312959,-0.018013723879728993,-0.662943319715841,-0.22294239001167637,0.43880224640360543,-0.46148715683297126,0.8273009311814901,0.9096514098972375,0.7273448478789457,-0.09190089485196162,0.8850648260024869,0.6805507436334919,-0.6420633008639767,-0.6808060929983382,0.4568994250593499,-0.5916818311651151,0.8331411050141149,0.870702506873031,0.5829842277814983,-0.5667255006512549,-0.47958295891559877,-0.521493251949696,0.4852030524888389,-0.7862253988925227,-0.16390231734512273,0.47174271751634045,-0.4197098350227526,0.023099103123140452,0.684074072472272,-0.6049053986039674,0.4695463829118849,0.273008201297096,-0.1334233284590387,0.14269801425247186,0.20369151057998058]},{"Num_inputs":65,"Weighted_input":0,"Weights":[0.3596716035295522,-0.5155864020394879,0.7988769168747307,-0.36184373722140006,-0.8412362285326476,0.8587039711767492,-0.44450699552179285,-0.3183450883635389,-0.623710195921618,0.9453934105532908,-0.3499579677522703,0.30334369580442644,-0.08501086143176784,-0.5951478011750571,0.832812744852288,0.29407968925337746,0.31099615339923425,0.22213984546238685,0.5794762568904583,0.6007651627941426,0.9717967293162557,-0.9424094746653193,-0.48277365302680153,-0.47911498609301784,-0.001961403978814613,0.4521377473912713,0.4072984652252918,0.6733255941947696,-0.45473323992175896,-0.4489122007918278,0.07104568815106127,0.06259966822400398,0.18172327662519816,-0.5934258039821689,0.5847359818134668,0.7548290356986418,-0.9474328941415664,-0.6703441977201563,0.9414360720344461,-0.5240066846947066,0.443846096630258,0.593909964371087,-0.17796344461845226,0.24239837015370225,-0.8563304440866362,0.8912072720720716,0.5036016517689548,0.3073047103151836,-0.5976039795511037,-0.41214088228226464,-0.029163086397772098,0.9204215983557384,-0.969868397980564,0.6807083636820057,0.7933878039705438,0.8449783132971249,0.3958370577326469,-0.24729335556088616,-0.16846997761749472,-0.8669011746038984,0.9590367125362198,-0.9015284309485853,0.03868752588471658,0.5099438114493333,0.6866177213568179]},{"Num_inputs":65,"Weighted_input":0,"Weights":[0.1890302030916251,0.14772017671176974,0.3688915013287615,0.7850082546434334,0.08367350039899168,0.11668815619964557,-0.778889595049708,0.2276581115005658,-0.7824685252699632,-0.7563650485869302,-0.9657225854966085,0.2714602028537014,0.3490783570222047,0.8609776999241079,0.08172013673667355,-0.16212895551843998,0.18573623977484188,0.8027959957966915,0.28326699070314887,-0.609008574364505,-0.27411272009325616,0.7276323767274613,0.42305906774034785,-0.7910503708224338,0.20207150734693213,-0.17723115294909086,0.30595469229113537,-0.8369357971328236,-0.571217652771618,-0.45109329527859965,-0.4172632397732178,-0.6682776659004452,-0.13692373947949188,-0.8294032627220882,0.889620173506193,0.6934271620054016,-0.8790200290674391,0.9936325599890818,0.7738919468700791,-0.7242880654874018,0.4292908015910486,-0.980867480726158,0.9954629495764593,-0.8394304641277287,0.8935416102675908,-0.13973574840699832,-0.6052843170678235,0.0942644833242865,0.22433951854148337,-0.9735499260338863,-0.5956660725881995,-0.08494258963776646,0.31068895840668365,-0.7019925403509641,0.7569011495070441,-0.22736254035856596,-0.10494212784142809,-0.7468360888982106,0.7614366280855192,0.9128834179410994,0.002967085072053788,0.08391022199187304,0.6458187179137178,0.9272196549592637,0.18384458324525776]},{"Num_inputs":65,"Weighted_input":0,"Weights":[-0.31387968912543784,-0.022215388959910154,0.9556850519727988,0.9740323554663952,-0.9568754525967129,0.8306902871739157,-0.5549055743261749,-0.7923332320595037,0.1100786681769339,0.4616923180608741,-0.675367841211628,0.4579167124098149,0.10118717767536611,0.38958508101129063,0.6144080115959927,-0.34021822822145265,-0.0530676661852616,0.5669057584395056,0.4999237418518261,0.33039481164316387,-0.6300934723112221,0.7395484464513824,0.14183218383390428,-0.8908757517296679,0.12475056757976954,0.47253014918875746,0.6393309397629336,0.44807108037498367,0.21907968324326288,0.27087462126898587,-0.08138993626676505,-0.7410870977586199,0.8514772633281806,-0.5928857568228101,-0.31166976617872677,-0.20136691254749328,-0.4053251650665618,-0.09970467085544388,0.9372570358291765,0.09072886396472257,-0.6919155531134855,-0.510622999039916,0.9438336822949065,-0.2861121080219655,-0.22919115247821686,-0.2793483459264864,-0.018555123352790748,0.8381797475608193,-0.6231728237406873,-0.9303244659215737,-0.7501636047368253,-0.6177094382188878,-0.4806690836691838,-0.8694828498373387,-0.4820257827449357,0.1259741031638728,0.05640250524061918,-0.28866961552730896,-0.7568781886900833,-0.7523860420951074,0.47142435787059345,-0.8523692878217182,-0.8738580849429354,0.48704571539019303,-0.6791570997708631]},{"Num_inputs":65,"Weighted_input":0,"Weights":[0.44210408851945515,-0.6076631772611611,0.23768952232111218,0.7240287777398886,-0.9717232353264258,-0.9876284411245028,0.4698997652268959,0.11708186048931135,0.768360407903451,-0.5173374709923259,0.39860235392905086,-0.5825423007163923,0.9424987464255528,-0.6720230645441716,-0.31542023053883617,0.3358808136318232,-0.4640096002832713,-0.972227276230873,0.9840672563367094,0.0073384163599052865,0.30429442845173704,-0.24112249049179835,0.7359680976859699,0.8212584496998134,0.7022151999438324,0.2969427946296894,0.09583045808915158,0.9696273645366227,0.8992543283097878,-0.2461335200207826,0.2525256338039219,0.057703943413256686,-0.8025713354641612,0.8713703313126637,0.673746763227481,0.3483877861338631,0.9690990488292428,0.9750255333051776,0.21793056572400515,-0.8593802032531703,0.12239743120775959,-0.7007381270381243,0.04004820760893946,-0.05627009183808551,-0.47194533230719327,-0.8533606965473042,-0.7050530588838785,0.8748425719598558,-0.8449723475970345,-0.2686004073524084,-0.39278457135394684,0.9771700668205818,-0.8439587552372942,-0.7526227621640198,0.14119935957266994,0.2807764769333754,-0.9662676200370697,-0.8006141592806196,0.27507731694178483,0.20477870436096657,-0.7229644042668619,0.05058473410481801,0.17515488432314585,0.2670729764490416,0.19729680374566372]},{"Num_inputs":65,"Weighted_input":0,"Weights":[-0.737409818507565,-0.6543096571511099,-0.5764245931403464,-0.496421692242518,0.24703192055087042,-0.5141843792666058,0.6869253656341883,0.09313661220829483,-0.9425078901389545,-0.5219470443859182,0.602714992056645,-0.8496724433275382,0.30800985996700936,0.6551782447092809,0.7470687486495298,0.04398438200002164,-0.1340951008496588,0.6005416027596853,0.3702671683142331,-0.6958259874480902,-0.5909434746718158,-0.31250962428288986,-0.3824573130389086,-0.8454725983214421,0.27849058755667655,-0.2428259670356524,-0.18278124907950521,-0.37915812454604825,0.6439635726282424,-0.6897492888974265,0.24775702361831997,-0.894351843795614,-0.5573566418341478,-0.14935840168685977,0.9437294592837413,0.31649606604310776,-0.13022105517020266,-0.38030203811335717,0.3087901682624907,0.7131938389240691,0.09362182820278186,0.408981488432542,0.6519288763158064,-0.8567983766710623,0.5008957784667176,-0.07667990377273182,-0.289127081386957,0.461979041407383,0.8666862365842793,-0.6444992883274513,-0.04989010761925783,0.6026972394894816,-0.265874418927631,-0.3523208481711736,-0.09971344364640822,0.1609390103535122,0.26724780853442764,-0.2271393405709713,-0.4430529031646153,0.059124224573575246,-0.9350109807485157,0.5224585876159691,0.5162958083437257,-0.09217815296612886,0.6713256577523623]},{"Num_inputs":65,"Weighted_input":0,"Weights":[0.6356437748139987,-0.43794339171639085,-0.03215766427493516,-0.7578341622871587,0.7398648296825578,-0.7896507927640335,-0.603793477227053,0.5596237196568954,0.40172744729655974,-0.3396529910598117,-0.6777193869546868,0.3845366516950477,-0.7100032204268365,0.33998923843147577,-0.625717261105229,-0.8461910051251764,-0.9121753052794747,-0.33774977309262544,0.31764075427617455,0.6948469185205186,0.989926487747639,-0.9931929252785572,0.5507782375962016,-0.04083845039626788,0.48673671695206955,0.7626504632979927,0.7043652164032568,0.5533270440985381,0.9183640019100858,-0.438454822127459,0.2537752860608289,-0.2963091385173501,-0.9769050696486103,-0.32939159374096105,-0.6100168388994794,0.4919851646668951,-0.09341710831013161,0.2238374672011103,-0.9908361282870577,0.10683942897802967,-0.6379550521612822,0.5932729190682695,0.2991913912044015,0.5190995481301595,0.16837031599996743,0.20439414686235713,-0.024281960416230985,0.5932550374667303,-0.0579202700698499,0.9770546905206177,0.564632394465767,0.6101409186113644,-0.8482954706836204,-0.06088015136587488,0.6944984171099122,-0.4824386337259634,0.47561720831287757,-0.22298483389801294,-0.8971998170502147,-0.5512156616645032,0.2424464445489527,-0.8481052808626616,0.1756742273184777,0.41986921375125386,-0.9098755543962013]},{"Num_inputs":65,"Weighted_input":0,"Weights":[-0.20244734131529918,0.5261411930238808,0.8284164801746159,0.9257184408183929,-0.4869403773157427,-0.9511737227175912,-0.23651692911343258,-0.705342965605469,-0.269491685637834,-0.3503288209867046,0.7704099456753533,-0.38461513927545155,-0.3244706361133898,0.11481687851149247,0.056405362276825466,-0.4516692562462,0.1740230914065104,-0.5722080292856945,0.047699216369237796,0.4867682706046137,0.9448532344578846,-0.909374453428945,-0.03256672913231651,-0.454015249066242,-0.6258496522492153,-0.48671872132187577,-0.5459388383413547,-0.21555116684313846,0.09671861876694332,0.9399322550361808,0.29708279472622245,0.059582593527237604,-0.8311598202473218,0.22968517362782404,0.7570248935289425,-0.6268023214188017,-0.7407831731968719,0.38083506201730266,0.7811395646682935,-0.04085289620799748,0.5019113541592617,0.325758245124945,0.14026154409541802,-0.9748708639036401,-0.9492999107688962,0.21010585723089825,-0.8323544306966365,-0.9519628146269823,-0.0033252708415704157,0.7114505878163009,-0.5902664459288005,0.05599497697123401,0.9057959672653018,-0.04511806904689586,-0.6300170989790183,-0.4396049560624582,0.934702722928338,-0.24894623438802543,0.7470853248187055,-0.5428776793111283,0.3829002241013575,0.34056222962384575,-0.467869205908543,-0.6011980879323326,-0.929067050440642]},{"Num_inputs":65,"Weighted_input":0,"Weights":[0.7405150346835849,0.9424701322846321,-0.07915716328265898,-0.7058168220394366,0.5874430733964511,-0.6554057087424614,0.6217103576894683,-0.1732939984086146,0.613204419582422,0.2791468133910895,-0.17816801608081234,0.7223500999688057,-0.251652365465184,-0.6810272330719187,0.41747466099607333,-0.09628029677737582,0.037658391474203246,0.8472174923276343,-0.9840139652454978,0.21384469111381632,-0.6673014285118963,0.28866258697149694,-0.7879040215097292,-0.8354936413430252,-0.7943777813793699,-0.3883289342231694,-0.9913064134949099,0.785159353217898,-0.19780413870097946,-0.9023723080047947,0.48365445401548723,0.5935235734603495,0.5741257865767677,-0.3667676145359984,0.10546839424444787,-0.2508520033690238,-0.2716587078874134,-0.947273508391171,0.10082692186735853,-0.752023049289559,0.9967210429920363,0.42283232384303404,0.7993197275258312,-0.29667518488740974,-0.05856264175870063,0.7207643220654529,-0.06858261973561675,0.6979958051969182,-0.01986954073135161,-0.2564921893724976,0.9545490522444793,0.9632915360486818,0.08649133383361107,0.5826797915026423,-0.7826182030279624,0.040408410097262815,-0.015101580256802083,-0.7159054087651842,-0.06113100075545275,-0.31725275101790873,0.247793909125829,-0.6117146574156826,0.8254512442852033,0.5533382712589745,0.4060944052505371]},{"Num_inputs":65,"Weighted_input":0,"Weights":[-0.7706627791459939,-0.6279428078314329,-0.3769703241544913,0.8258828529776725,0.48337456874237583,0.17769674192121787,0.5289815396621238,0.5654911735275332,0.4372627747120128,-0.8414555620308822,-0.8464063494210807,-0.5226174800204944,-0.7327111693011065,0.5706586325860139,0.6233144449181289,-0.5631157710238104,0.6355513583700789,0.19120269780683619,-0.32425056388404305,0.014785227006398616,-0.3287222089684617,0.821067419853178,-0.8453112321895353,-0.15637553405150106,-0.7861288887644049,0.89641384145751,-0.13055288278552835,-0.7721829422602444,0.7922513992390297,-0.9992555854023606,-0.08558426731580293,0.2923531770640355,0.38772470662404945,-0.507176744274284,-0.5919285482314709,-0.8695669788828152,0.5670081532999403,-0.9630981219521441,-0.3996963017330819,-0.2651466810883464,0.34150380360903365,-0.3844080264495504,0.5319578497114288,0.19072589342892998,0.2224190138601292,-0.053765688251878885,-0.11994819950114888,0.7997134666205561,-0.4233103174775761,0.14061582705925613,0.7755218623178166,0.9814219775517623,-0.8639186180075222,0.310260386988912,0.7503850970368762,-0.1677677952375496,0.14461399895518356,-0.4493708374690071,-0.060194299238167215,-0.33135370237360895,0.9379162127177993,0.5135373178335698,-0.6566653340448028,-0.2629087917756372,0.15980937587420008]},{"Num_inputs":65,"Weighted_input":0,"Weights":[0.5521447606768941,-0.14761205674261435,0.8807498829628686,0.8112032853998796,0.2526406842226374,0.6760506954804699,0.5064579606902091,-0.4144724926331417,0.4197098926653573,0.5598409050384154,-0.09015766760689592,0.6870423871347608,0.25067966998011904,0.9170074200564862,0.9998480655853217,0.0020273302907558577,-0.02885336270178207,0.5888773303073689,0.08926264382423366,0.6935449612327014,-0.2936319355095227,0.7077344875822029,-0.8519162018379476,0.7413871842734725,-0.008250176280331312,-0.6225839021556874,0.30094398059837535,-0.775070844071496,-0.14755775080613476,-0.27160622845900617,-0.3866288737730381,-0.08067057090549423,0.5138196609428558,-0.9424845246673048,0.5706775707476837,0.357105440526039,0.509070115146919,0.6206089132826218,-0.36524135443707295,-0.8252066770261353,0.5281280006274389,-0.4748018951781784,0.6194226402929082,0.9870777811685778,-0.8776311723338879,-0.5320910150418114,-0.4056740522001797,-0.7014742481773182,-0.9331322822882828,-0.8040764452970008,0.5932718354182216,0.08012189093378175,0.9344019166063657,-0.3623603265448555,0.49636483621258987,-0.45719324515110227,0.9955638098245523,0.23978175203143115,0.3299387800794389,0.31020558251979846,-0.6969013108540649,0.5841093855867183,0.5067702827542544,0.4280534881749716,0.8199527016893435]},{"Num_inputs":65,"Weighted_input":0,"Weights":[-0.618826344936457,-0.3389678950944286,-0.9473679143391176,-0.1291353450695063,-0.7306222886346632,-0.5255331438794963,-0.32001696365874266,-0.2984472556639378,-0.24753149997555457,0.3599940921925613,-0.3321462459879746,-0.8579498620132177,0.9205464117993811,-0.8840526233942634,-0.2855281267032579,0.23665666365140892,-0.8848507703807795,0.1800478100525813,-0.5854653874393987,-0.3116105683561853,0.3620945486845495,-0.297040637921669,-0.8387570747523423,0.4212279856610539,0.13297650936440086,-0.6983237995771531,-0.717861658035046,-0.6021906303166997,-0.05275293774643641,0.9593467217545362,0.5820911312437886,0.9130021318619177,0.6657936654524383,-0.45733129448054577,-0.265394350803134,0.9003073321729955,-0.28120009453216643,0.9991404373968926,-0.008869252219723678,-0.5266266547058063,0.016220232412270663,-0.42093711473008544,-0.7724878945966,-0.19277976430095056,0.9954407257797047,-0.17997389743004466,0.09586256825426664,-0.6418101462818553,-0.4804782086181699,0.5557093598582086,-0.956015384900371,-0.6988994469876775,-0.3488754092843832,0.9729252253560956,-0.707287847306928,0.04579711279767662,-0.34596422105598634,-0.7097226929204437,-0.7840655909986785,0.20865333214158843,0.08218477099777832,-0.25264332146124424,-0.9945279095887849,-0.2973053651428851,-0.13857448870533007]},{"Num_inputs":65,"Weighted_input":0,"Weights":[0.23180655804392014,-0.9090394565169867,-0.8751549910107485,-0.4551714756818058,-0.33463230142690825,0.9676083350121991,-0.27380739559003275,-0.8674181613904035,0.5563178187808406,-0.11495680883338544,-0.7591622245990617,-0.07675499649254602,0.033276113508152516,-0.44669787845912,0.08749464235185855,-0.6643504629595605,0.210295438165383,0.160378074052834,0.7909946976271238,-0.5137314123655231,0.31971095640812974,-0.11564777591667397,0.7205604087901012,-0.19499843665301675,0.9484847075606662,0.9623892312408351,-0.21171780285262187,-0.38187539643675594,0.9512372202435715,-0.2807381453613692,0.5343773801716141,-0.5047972651037376,-0.7078703359170502,-0.274783889845595,0.5282556329672008,-0.5794680756653903,-0.5902595980374115,-0.12531329180211082,0.10802002257536225,0.46845465831648325,0.31853810171695285,0.22938490830198321,0.6926576855679285,-0.8095872834005428,-0.43442052563422306,0.39006640652777436,-0.24059058514388165,-0.23262798851654576,0.9809699590716907,0.6757198318904862,0.17526887982334882,-0.561217870967565,0.22437878893739538,0.6724066089554988,0.0737928765911744,0.4164974337516101,-0.20573686587786577,-0.03911313586719767,0.007214395539057339,0.7735414416228115,-0.38577082853475797,0.505307963745439,0.8337628304165263,-0.8494396211057831,0.9987372151366289]},{"Num_inputs":65,"Weighted_input":0,"Weights":[-0.24112815406307408,-0.906477489008515,-0.7091696609347237,0.8548582509977891,-0.05059870870281624,0.644673581178314,0.7648519046253679,-0.9341307878896528,0.6798964892447334,0.8599639373726498,0.024701008188930285,0.635746679692712,0.42909652731133296,0.9917362798297615,-0.36401681450133105,0.3241702970919853,-0.3054508207597042,-0.9238136392510112,-0.2067565478449842,-0.1991855262405653,-0.34874643037797426,-0.3615649554261222,-0.559584271730516,-0.1730415574457651,-0.14150011353562986,0.6185243919061143,-0.7080827043901287,0.7040390558933141,-0.09662493182306664,0.5814330039823468,0.6321324505022616,-0.07403509390438057,0.4970150460395448,0.6271541721011815,0.47278134015135387,-0.27258875916758096,-0.8840599222234942,-0.3902473683850205,-0.01662572331919132,0.20860076686461193,0.44076538481235605,0.3965769515089237,0.6893279475109322,-0.5039697756502184,0.6812205987315181,0.1622314182425637,-0.4219870128662192,0.954253222662871,0.1075040521141104,0.8165497244922395,-0.7049505338882522,0.6517308974953782,-0.4152960632645293,-0.7137747203901119,0.2749466768982227,-0.7458084200646811,0.7843256823596807,-0.43698960488947014,-0.7830702567488702,0.3788630437359246,0.11755780485521483,0.49185987103916373,-0.5840790827406972,0.2557237269609147,0.3267814953693611]},{"Num_inputs":65,"Weighted_input":0,"Weights":[0.46308708258988074,0.05095487061474446,-0.8624044292340347,0.20869454138384924,-0.6208939338745674,0.7382897358415677,0.31835700678536916,-0.22806425147090004,-0.8716262127006869,-0.8060021862872747,-0.9726333019279285,-0.16490425469033243,0.027614722865136443,-0.6509218539021229,-0.8815340092101485,0.7206522184968371,0.15722067844818466,-0.9932786995300608,-0.24736266146855723,-0.26925852679545437,-0.3586361008538069,-0.7095234051335417,-0.6286471316753568,0.2801425793738843,-0.2130922225877302,-0.11970298820794467,0.20431473856308813,0.8363388791477657,0.11895747406521218,0.2730340514855847,0.7188222990046269,-0.4174833583105546,-0.15686623528700228,0.5786153714600999,0.905622410491784,-0.29620038984041874,0.48960203898566457,0.7268495507727875,-0.1952118972915886,0.2692293941753152,-0.5253011515435564,0.8724324393230458,0.8072578518167508,-0.08990066141473618,0.07664508852943519,0.30354936979904124,-0.3072163559934342,-0.6999761335959985,-0.8921538562614619,-0.2075271302295142,0.13165938989199888,0.1693714357509759,-0.3204450771730122,-0.3357455657130769,-0.7005810343456907,0.35414437614232264,0.9038861057405405,-0.007773793584575417,0.038326834544925026,0.0144225136215399,0.6224990347015684,-0.10621924620854206,-0.2783516771264436,0.7030207813548923,0.7510748934330362]},{"Num_inputs":65,"Weighted_input":0,"Weights":[-0.5769498323969113,-0.568009568227599,0.5835943158546177,-0.5260755166444226,0.49789311390494384,0.6856938024616284,-0.015782683798443387,-0.012858811548037252,0.7656188865400086,-0.5536782878921807,0.8243329179364376,0.9516180846082609,0.10050573979168376,0.8987194118921171,-0.5679822113490758,-0.24754817258460582,0.16100734632931335,-0.14020290659904133,0.11851635146605166,-0.6739794833799221,0.5770115337347399,-0.3174597282399121,-0.6745016261106718,0.20867943966864,-0.38294709531266735,-0.5334049020052335,-0.7973251760345026,0.9161242613781027,-0.8198627433678082,0.9308451821411925,-0.7787688383357492,-0.7980795885906501,-0.7942016290358639,-0.8458686113999523,-0.27041383909427064,-0.21128528895895415,-0.02009016974529021,-0.6704572974339246,-0.4661033191558779,0.9138184613631923,-0.8408605563612286,-0.6884685710173174,-0.5613257192245391,0.05345461080219205,0.2745850550292728,0.7803427922538606,0.76897599567406,-0.17404745036939473,-0.5393655610195132,0.43140740493204777,0.7991200359488309,-0.4963820456029556,0.6447305668129912,0.34940140637721817,0.6091026035682625,0.21122846170523935,0.5892472163390161,-0.05685231861915685,0.6059804205783346,0.4754178794547397,-0.5217445330146366,-0.3255182876112368,0.43050767329414485,-0.23901865867856842,0.7613254914851841]},{"Num_inputs":65,"Weighted_input":0,"Weights":[-0.6069404393068822,-0.963183320346836,0.2635979876269572,-0.10518496232002317,-0.3738905465060658,0.034348280897744,-0.014219552593171647,-0.2973996751826078,-0.09505121272295836,-0.6434767346573209,0.575985084781097,-0.22512845744731858,0.6042378555163848,-0.9735734164081712,-0.08595259300980684,0.8937678791702051,-0.28136106121321103,0.54029343790247,0.5281733236529407,0.4291575704057109,-0.7427051028812321,-0.395417539537264,-0.7593641582426237,-0.6690372994088492,0.211320792354861,-0.31069218165824963,-0.4657311897773533,-0.12865298489771937,-0.19974949212752457,-0.8576166441008185,0.31197631853526575,-0.6333555746018169,0.7810762964514637,-0.4283313132650527,-0.6313394283950682,0.5615067620504155,0.7725019418630295,0.4703619944953854,0.6045681730158958,0.09354949402698765,0.790711188249767,0.9041965067365296,0.015807292756166103,0.8366078544908133,0.3941568635820307,0.9864649602845053,0.06730924422886853,0.6752155840554286,0.07610503229438437,0.6274146666897908,0.18859184585346123,0.7533184211029809,0.28604242543035197,0.7730678927941141,-0.004302113595471946,0.06181163183038385,0.9065237991256783,0.31127245118300384,-0.9786445674402314,0.5681701522140721,0.03578790607223792,-0.6414003152650014,-0.5860378176031704,-0.31759251225320584,0.564234304525415]},{"Num_inputs":65,"Weighted_input":0,"Weights":[-0.5516812520197281,-0.5402981956118874,-0.07560455502901609,-0.7813019822176573,-0.5609034047946875,-0.4515096524619866,-0.06491544075312039,0.5554128646431409,0.2868691713770237,-0.684531165770853,-0.32334511586394576,0.5937315049637999,-0.5142764238731722,0.015215371141467315,-0.2666422979527432,-0.888842773315249,0.4469685901554905,0.22436648629706424,-0.6519367345239034,-0.29959563798337707,0.11535025260891896,0.2837827518636409,-0.5729424766930212,0.5685747008088664,-0.7244200301223773,0.24153559688031034,0.8717746561200124,-0.988417448937673,-0.950277572576008,0.8978281013715017,-0.7137973784419309,0.7541663274073462,-0.5690109526356109,-0.2881657273443341,0.1256475213539634,0.7806400391503687,-0.15192724847794548,0.2517288013016916,0.137859729235414,0.5711365667520831,0.1704913169562261,0.5608614725842933,0.5156115343462151,0.894425934952497,0.7110216874803716,0.7212494045136291,-0.5673883440543179,0.7785394567397554,-0.04214971186382244,-0.46850435390810885,-0.662168706782666,0.08407836270683022,-0.6245624910216829,0.9833096495167264,-0.8560530192379321,0.6000305943002746,-0.4222511847183338,-0.6944982744812533,0.3403753314898368,-0.7600177297231074,0.16573713721135896,-0.7943792295259707,0.5681605202558522,-0.3028866904686217,-0.49806552327016484]},{"Num_inputs":65,"Weighted_input":0,"Weights":[-0.7996775551786146,0.5422818291135492,-0.40196527507542723,0.29660402561993626,0.3538793045859472,-0.5127597017089466,-0.13639607464961412,-0.23098632155768828,-0.6761167915496368,0.20105235188232906,-0.32083590158059594,-0.728336127953715,0.8212777316202273,0.6173791607107091,0.9573541781738564,-0.895431901606434,-0.9373434213290495,-0.23258506215433372,-0.273171116125557,-0.03882964248536447,-0.24286391004917407,-0.11922955830993842,0.7054868007681856,0.4582649326001407,-0.6716349418326502,0.22601119419601678,0.8170552974289591,0.5575372730543486,-0.24727777675179075,0.9743209108433226,0.8513256443405401,-0.3108437576688109,0.4993917320926935,-0.0910741874472677,-0.4628617845883267,0.5937502719214836,-0.5110790231702038,0.4533247051772744,-0.5529605963536462,0.8820756434987347,-0.14156527858264045,-0.816923697690529,-0.6981676995428335,0.15769880670575942,0.6998399496600174,0.8500526276792324,0.6120119017179118,-0.6820516010750592,-0.9965881514305909,0.6324391999702412,-0.11323337036949443,-0.8203738339981052,0.22921357801498465,-0.37904950152583994,0.9316311377093045,-0.6231598376900906,0.6160387643060283,0.49081361972027593,0.08184514697494372,0.38568270236592084,-0.7245444458064518,-0.6298671069568089,-0.8882821292484118,0.5797631389131861,0.9224293444842151]},{"Num_inputs":65,"Weighted_input":0,"Weights":[0.7487511672168932,0.8877034774844443,-0.6259712920572785,0.3524708343678786,-0.6238064598730804,0.6200353234794878,0.3620854326705176,-0.36592272783289426,-0.43917618259341984,0.5826930775512298,0.31624241474632186,-0.5911945007804312,0.5626159802252846,0.7553657746751579,-0.5997383600962441,-0.007443744335442926,-0.8954259217497297,0.05956154819358961,-0.3406887884105624,0.8327964268972441,-0.32368063829599525,0.006504505638859515,-0.820448296784024,-0.3514995675303785,0.200088059695813,-0.8448585327798503,-0.22774338541395256,0.31520251592117843,0.4391717669190571,-0.26074597693059176,-0.9080770225045938,-0.17513911213191535,0.6630763678345653,0.8691979702320194,0.3165917566534422,0.10262208739275569,0.14954206591021046,0.5625326047854489,0.49043655647555795,-0.38508703391946264,0.4676649537259834,0.2610998776264639,0.858518699675825,-0.8781207632123809,-0.6054919868675102,-0.9297965383870471,-0.7230816092653847,-0.5936292231061742,0.04995344975632032,0.9839590593713254,-0.37326856027864896,-0.6569626655763989,0.79321843609563,-0.0767356297454107,0.1153121699695483,-0.2951535549272887,0.3612227347906949,0.08139247624607071,-0.27945842440904645,-0.3310706950097536,-0.8310350133292757,-0.2400256696311891,0.2492751493391121,-0.2695823325433312,-0.850015538815095]},{"Num_inputs":65,"Weighted_input":0,"Weights":[-0.2650128745775263,0.5823554049612556,0.2863708333874859,-0.7627063133618868,-0.09663358062914751,-0.9496071820405279,-4.879825877379673e-06,0.27410675153130826,0.8242638700926643,0.02031244151858047,0.1776326067218701,-0.22445801283314193,0.5742232564799694,0.12868286660114014,0.6937373275599175,0.15222164491460277,-0.615318914738785,-0.7099474437078201,0.04757707607589623,0.2101254898461158,-0.045009485282212935,-0.7377238120057128,-0.02684388804537363,0.1874857723401362,-0.1482488971874959,-0.6447965780561268,0.5199126237905649,-0.17450835691527822,-0.2480242622593143,0.22836119756730455,0.6212227890818356,0.9001511548854229,-0.1580928932898007,0.3802771164459622,-0.7281902047472602,0.29431741689881874,0.4497638139727018,-0.5272854386136143,-0.9906738024874066,0.70461078196031,-0.5256301424659149,-0.11716378703918373,-0.36203262668388925,-0.12348345999973231,-0.025278723872139364,-0.4734645877252136,0.4994380770185496,-0.5317493342255342,0.4228864116197062,-0.18332202731280844,0.3935064008589244,-0.4808604824092527,0.2420211353554238,-0.2621938463465915,0.3431219996885482,0.42106585044146394,-0.6125261615886552,-0.6925655727657426,-0.2579025499287736,-0.8098666704750203,0.9413297751608847,-0.9832651636565468,-0.1062241412736663,-0.9434305781217933,-0.42675684098151134]},{"Num_inputs":65,"Weighted_input":0,"Weights":[-0.8659622227456809,0.5988251057585228,0.5853854855264593,-0.1915912700411947,0.04251268170220435,-0.7805132009842594,0.6486088283859874,0.931590618819174,-0.20160769063273554,0.4272979211695096,-0.21370805303577256,-0.08100167171898176,-0.95310550930014,-0.8167177392851399,0.12367607099838085,-0.05828835465050941,0.42941268247810394,0.3468726719154147,-0.9027852294860629,0.7228025658645632,-0.502769563535969,-0.2180815812677238,-0.3474451781115233,0.9494340581262397,0.9986035585679685,0.5142663924001443,0.4894382847559118,0.7004354597747673,0.20590529288896597,-0.3721949578179844,-0.5103716211290743,0.7906814792840762,0.39119963949383996,0.6041892754192788,0.79980857478851,0.4012910218095387,0.714715254596147,-0.07578307139443397,0.13230278574043552,-0.5606725770178267,0.8057937057422326,-0.40227981062452545,-0.33377541320161896,0.12451546611758957,-0.5951206960269502,-0.4969686348629747,-0.8701660026866264,-0.24241343486214884,0.23628465619661765,0.19765383136195536,0.11916950218772793,0.14741972043017104,0.8344091632348367,-0.6439548372486068,0.2536248890087178,-0.48779836124017983,0.6823458908388775,0.2126024306216321,-0.9708862142758994,0.7691978401200505,-0.0973245658985995,-0.7436284304198718,0.18358100335952,-0.9982482331004996,0.6180811012592478]},{"Num_inputs":65,"Weighted_input":0,"Weights":[-0.03721884243783036,-0.12813308270698598,-0.9292089630087856,0.5778648136533784,0.511518254225775,0.002864758488632546,-0.6067106048216517,-0.07254994392581582,0.8786167562711273,-0.5395795810515669,-0.8818421715493152,0.3634565120789368,-0.33975434015810524,-0.3784670508561192,-0.10338204781024651,-0.4626312418813854,-0.7524269307803385,0.6587942024009494,0.9008799406888826,0.4619533472981858,-0.3146374278737307,0.20724111384891697,-0.5302723744025267,0.7951753988970274,0.8460819750741009,0.03620577413501991,0.21358751716210578,0.7778748347992963,-0.28297368017958535,0.9945864962517115,-0.9144676156855599,0.3185220064155807,-0.8789849004984542,-0.6664963634016529,0.7565861126621674,-0.1596505444302354,-0.7664838995119285,-0.31600390398017797,0.15401583869592228,0.876630600087051,0.2226056136660428,-0.09792423782752624,0.18963604863023353,0.9740840532698269,-0.14436776493598902,0.389483297943656,-0.020329254312934197,-0.2086810674330275,0.034651947197872346,0.6200387430689616,-0.22249683093979866,-0.21363060604149586,-0.6643368261153979,0.5598483950297093,-0.008807294921611142,-0.6394241437240887,0.8273696466863196,-0.8841209409554768,-0.28466022497484156,0.6050391936951227,0.391213931859961,-0.7920654433062507,0.10410092509176883,-0.2701454872862745,-0.7983246857107706]},{"Num_inputs":65,"Weighted_input":0,"Weights":[0.4912755780743352,-0.9344185103269594,0.5745502249029346,0.8220268286593628,0.8320150007138849,-0.4046163830504944,0.014570383316876656,0.8272774695323719,0.32782928271518386,-0.04829412333899663,-0.24099272621679002,-0.5113298560522719,0.4423745621419033,0.2264440904225724,-0.42914052017886106,-0.5123414225440559,0.17944749398610482,0.3546266345469056,-0.6126833307940537,-0.7122273949612339,0.3184636325327228,0.58179058534284,-0.1085669444224222,-0.6028294684429237,-0.12712442919245137,0.4933352435234595,0.9173609163423642,-0.5380512100592227,-0.13465142643414285,-0.28496901147266973,0.7572620817378821,0.11128925695456116,-0.9165522187234685,0.6083044747400441,-0.1530735756663184,0.22560038571150676,0.542763882885644,-0.349915359600236,0.21910767576997792,0.45437566157709397,-0.4896761971746654,0.696859431292111,0.795157384013587,0.29416986608878637,-0.29676003439899823,0.5871172714124964,0.23039389623633544,0.7978430939866856,0.6214574077066781,0.6205220056102676,0.9603496779472123,0.8228551669455941,-0.16394535069682792,0.9688938684978936,-0.9705367291623508,0.9573751994273205,0.6019796647409166,0.7345187767098627,0.35266991198278097,-0.10136756863596574,0.10177656117795997,-0.09239521226600311,-0.4334238861570022,-0.6860217110824377,0.3370659112028578]},{"Num_inputs":65,"Weighted_input":0,"Weights":[0.5974270436132982,-0.25016386769831067,0.6121728785923042,0.9924993014980434,0.5564827382900588,-0.8099697177499973,0.5372570124430551,0.5789735665865046,-0.21242228420317388,0.17560196939058237,-0.6166377204609524,0.4213926059952855,-0.3375643083963422,0.5240371520344953,-0.6676780718008566,-0.04717446295609018,0.10543942515781501,0.5101671414440436,0.584254930566303,0.49531617591708343,0.2862626225088223,-0.489157742598162,-0.014471304324400913,-0.545410315986225,0.1799891570505885,-0.9568858369345191,-0.3579999398954068,-0.5371802208459446,-0.5247102617979071,0.0726128691391037,0.6690293209786182,-0.8821511902317873,-0.5125931857534523,0.3272874954127507,-0.9564437844670592,0.7341041256295622,0.6312079533365862,0.6390837604340676,0.723252443961852,-0.1012026772642336,0.0174474556898232,0.548395940420477,-0.7495131595791387,0.38974627234450443,-0.8861913091943162,-0.6247379513389988,0.013976227655690954,0.4709890642576262,-0.34228837232240394,-0.2989284821645183,-0.6539579384665224,0.2488443811538248,0.8401671162506754,-0.21353416627652044,-0.8821451090457684,-0.09641777542712726,-0.4063653278414019,0.07445452715460643,0.8158423494488107,-0.6226159903367284,-0.8567184199620568,0.19858591475317722,-0.7082869497981645,0.4424683476873703,-0.41905254402167347]},{"Num_inputs":65,"Weighted_input":0,"Weights":[-0.8113966014095368,-0.8633109078697979,0.6037973001300425,-0.1578742765329244,0.36214588061281683,-0.11068846825747847,-0.038151292603920806,0.6803228159736789,0.15931272014938558,-0.2194746435868612,0.7371288475939333,-0.3666803045476983,0.17241789922043682,0.7825847371321004,0.6915984731048308,0.39966593154661845,0.2339749946433234,0.8351826746911777,-0.2034207210139105,0.26730386559797026,0.008224153413937563,0.8448849571578585,-0.12951498877825895,0.4941784338206727,0.0010550582788970697,0.6680345279329265,0.11696292254020046,-0.7775308310545671,0.36157103192710216,-0.38220633338002274,0.8163874291038784,0.6019781722455619,-0.5193895075335778,0.6526827229469829,0.8615596962457837,-0.9408713926301383,0.4780271078354448,0.6749133149542346,-0.12747001838058225,-0.1829823169752417,0.733163262518485,0.39148486935397364,-0.41281542872119015,0.5532043531641948,-0.9186513520040335,0.6737698546892112,0.5524698547909681,-0.21887561702822456,0.516451662461705,-0.0021022953377873854,0.7634195503861214,-0.6958683643303506,-0.5732359422557596,-0.6371417337038529,-0.06102445636391163,-0.7477378939647402,-0.012736249795748389,-0.7937952398546229,0.14081972378041185,-0.46749190225407966,-0.36655222627464346,0.3614389752405316,-0.9241754880248538,0.4901567195053247,-0.9244995368752159]},{"Num_inputs":65,"Weighted_input":0,"Weights":[0.6639937959145108,0.2304109212797707,0.0408017571452739,-0.3292367135745411,-0.23250721192182688,0.14116158214114338,0.5103101913777048,-0.26960062667850204,-0.46878748146060545,0.193032140642033,-0.7487003858047366,0.8545371152450316,-0.029873778512733207,-0.33149354655897256,-0.6396483320977928,0.6549727087663735,0.8175560923617846,0.6061871264144953,-0.8775780965732044,0.5903904142689562,-0.8050063330965022,-0.6243071064372898,-0.10668334981492245,0.4556119141722432,0.10375470506712547,-0.46713549615983896,0.3299432860798599,0.38452552610712476,-0.46788977488407735,0.8928706369666624,-0.8170440357471972,-0.5694841769803788,0.029041831476301905,0.8638397612130784,-0.20656683602022985,0.22294236106326437,-0.2334632426631582,0.5259504416132466,-0.549433193602016,-0.7946029282354101,0.8481263239457049,0.5772416283027553,0.5942858675144049,-0.14520735164706688,0.3685019130863618,-0.5199835257089035,0.3264498425152804,-0.2692096248971829,-0.39308073928498755,-0.8351827879382759,0.8098789103411184,0.31641488615238167,0.05788395530480983,-0.7340034823938779,0.3662496292270876,0.6859273883130967,-0.8981807642682148,0.36943279587673916,-0.25983691603811976,-0.7980576023683124,0.4304373987726078,0.10160394562707697,0.12620297822514215,0.7820264810780884,0.08455095912516897]},{"Num_inputs":65,"Weighted_input":0,"Weights":[0.16398346208864178,0.43869151414843355,0.6807139190155105,0.689354389814131,0.006125713205834327,-0.8591107542126286,0.15754332265461146,-0.017357071493144027,0.7148923198617088,-0.3313604410148895,-0.4212830523415967,-0.6783139005012513,-0.7162542167464512,0.9635002216698059,0.6945919451076477,0.539879768691407,0.08959921044049612,-0.2565728124694363,-0.12754723758129372,0.45200499138320116,-0.5976391936266283,-0.3137168411701774,0.3093014762585593,0.23269089574133317,-0.22401210029447782,0.7795992258045259,0.875546199242687,-0.568019779210387,-0.8353542836840883,0.36071948897316886,0.5204302281571052,-0.4127794445466889,0.677434843516947,-0.5860231218476817,0.34772645927143375,0.11010245557983178,-0.6449297338066495,-0.7089696469477555,0.5418993352612946,-0.5485934640163752,0.8882155387016102,-0.9878269527867576,-0.8067681025945599,-0.08274912872623397,-0.3336850239252215,-0.5765537962442082,0.09349768427586902,-0.8105934502297372,0.37665890270234104,-0.4069203709115179,0.18650802632926555,-0.41342349116750354,0.7551911402304452,-0.8302377150954339,0.5451755792759643,0.3078998306725367,0.7259306880397616,0.30677734252980127,-0.48523677671809196,0.4841305694915572,-0.8975288894514657,-0.7122883725545013,-0.7265538225249561,-0.9316134268483192,0.11302610816506808]},{"Num_inputs":65,"Weighted_input":0,"Weights":[-0.925462976442846,0.14306389739216652,-0.8291052798481885,-0.7236699650764935,-0.0410884444319225,0.4841295828493264,-0.9772550683568796,0.8187111155226316,0.7125264233849402,-0.3296054473182338,-0.2971107814092896,-0.24975334476247846,0.7287406901185685,-0.11596729818568341,0.7015164646862206,0.06852210878661458,-0.44648981972567436,-0.6178151141528181,-0.5084141519735093,-0.6077330504413105,-0.9603756660872387,0.4840205556969728,-0.06711392326141274,-0.824881724819352,-0.9729913191308306,0.4918795390853563,0.6460350944760898,-0.03784951002283965,0.40037793421463586,0.9353121665158797,0.3578977978751319,0.4891104721179076,-0.91131407320831,-0.8473270774321131,0.4974059189255817,-0.4096572498509713,-0.9095858271630123,-0.13979315200550613,0.4367980248422463,-0.12045853167906184,-0.11439535039992965,0.19448026949662856,-0.3018459300703108,0.5900805542518408,0.2795620924994058,0.600434773574664,0.022192592043993598,0.968953075910737,0.7255884599983256,0.7037910533830676,-0.7215573628684389,0.12354876861661301,-0.9211703808642341,-0.5440679222072724,-0.8100164883281695,0.19924995431916548,0.6545405379085534,-0.8868695945899375,-0.25122499444825086,0.5898488445902783,0.5781971450437147,0.7371123722344348,0.5806068651203204,-0.5175993090405323,0.9241131190180847]},{"Num_inputs":65,"Weighted_input":0,"Weights":[-0.49030285414937524,-0.3990728317317588,0.4623571491546894,-0.2235610155193507,-0.9175931796789744,-0.8609207269022867,-0.048669692741688975,0.3318812709971519,0.14978575134481353,-0.9746637667496519,-0.18558381353922482,0.43227462115088167,-0.8177639410609161,0.6381648086718741,-0.06463540345081065,-0.09376944537808529,0.693255999241295,0.07903962540577858,-0.17244702039361648,-0.9472650492804817,-0.4153574913856639,0.2504790110651085,-0.8736224072093864,-0.497332334423894,0.206506056391617,-0.0021366103321052154,0.3060530649573787,0.6288154895458593,-0.8168037829477967,-0.3168577080418864,0.2664152051383384,-0.46406429731012466,0.14015636786620345,0.9391944338970144,-0.8029091334454608,0.4266508051646467,0.2201443235942675,0.557351853273987,-0.7409149681316918,0.9402589260886671,-0.8207333641602415,-0.17436701924484688,0.1667040086000049,-0.20160922617049826,-0.9160870931026368,-0.08416677840305331,-0.08865659795034786,0.9722293899247905,-0.1522855399420051,0.9083115090542757,0.4052360862821569,0.013628838573084945,0.9150498926825421,0.5052714491941799,-0.5000340776844248,-0.920756502360914,0.8644555459890404,0.35980033066720063,-0.7097519709836246,-0.6122031200332383,0.031233270652007095,0.7583999090387661,0.891395809438333,-0.9322110617139232,-0.7163660785944073]},{"Num_inputs":65,"Weighted_input":0,"Weights":[0.3757038452268737,0.023509463526675267,0.23242850541697235,0.7037769932022564,0.42167884741218864,-0.7988794595537666,0.8001359807935298,0.806993661194982,0.45073728075176,-0.48563308306499053,-0.49489177507950666,0.11229432617818902,0.8595322241418499,0.21609256747823147,-0.6718679521503368,0.36788558962558704,0.577393772125014,-0.1713908782299347,0.9847866497113329,-0.47368799389825933,0.7049727578255007,0.7150125996351975,-0.15834799134457167,-0.42763374716717584,-0.6459155368904197,-0.6047560799588534,-0.14526893022996545,-0.3424474707721945,0.6645908627743535,0.5736086958246622,0.9355865384516691,0.4538702838221509,0.8681309526825611,-0.8705373658530522,-0.012039742443001766,0.6082531757037686,0.47506358619066624,0.5190855481350827,-0.1764728160940945,0.7826349138203159,0.9071756649445109,0.41019872544641456,-0.6243657202309747,-0.5993192948873096,-0.2955838355098306,-0.5498717726125475,0.40294807650698794,-0.6128179878433848,-0.09100390680427684,0.7168183118806091,-0.9447089770951772,-0.08148975791913105,0.4645728716853026,0.8720270353342197,0.5743692650249439,0.45870202822618067,-0.10396947490747266,-0.4857670161186436,-0.37224221561574944,-0.04547987499902717,-0.6513909290374074,-0.5834275918034448,0.21068762473737634,-0.6425467234207032,0.8828266602860539]},{"Num_inputs":65,"Weighted_input":0,"Weights":[0.11326384609583062,0.9597582470397117,-0.4063891901560984,0.6745994658232819,0.7705728243443428,-0.8840009422393212,-0.1617258363176749,-0.7984129796988119,0.6559982805567224,0.9261802249750437,-0.2905967864224367,-0.04119525785030964,-0.21590722806387685,-0.17289374174474115,-0.6518770990707687,-0.684189826615565,0.9930907479124917,0.25722348946667406,0.8856854312042237,-0.4901464175040856,0.28570026811410454,-0.5685059880448325,-0.6198691611540708,-0.5291098772254385,0.34036022447927117,-0.048562904865041,-0.5302089761231485,0.9846837859393074,-0.8732142429412514,-0.9606394008434618,0.050854180637980084,-0.32632844456622656,-0.7686603960536202,0.3558844860472772,-0.8955884462615691,-0.6486227322186102,-0.06405665125927773,0.6198608986288092,0.15650338040423795,0.10868428719391732,0.012548642089666995,0.5262964331635276,0.9183598040270504,-0.12010827366321974,0.5303589365587056,0.0722169856794741,-0.9539424282800524,0.7278553060199706,-0.32143044601471693,-0.13522550619169493,-0.6279555133193131,-0.9723087671245084,-0.5424865081203485,0.4243879093654974,0.258614789999428,-0.03150863007865401,0.20649710540583466,0.668441543954092,0.02218188838509727,0.13017622255432681,0.008887473874792606,-0.5310489290612115,-0.8979764648933635,0.1904621100982704,0.6544572477555308]},{"Num_inputs":65,"Weighted_input":0,"Weights":[-0.07073347354681181,0.41865217495312,0.462415606859647,0.8724531740026451,0.08930816268714503,-0.6845424569620969,0.9674648075324463,-0.2894626353109556,-0.13074192413523322,-0.14177782923539095,-0.2792834809068614,-0.7680685747370043,0.7990203485847163,0.804296281343265,0.690311574662609,0.781483523445548,0.062209301199984246,0.4894571891550097,0.2587814376528341,-0.4134701696681168,0.8968331719930147,-0.25378898285318263,0.8663307048338713,0.6119461353229221,-0.7648539405349052,-0.8802668796907994,-0.49729985114518416,0.12212720170027858,-0.7787015164374216,-0.4043625282486243,0.6301785403438798,0.88072804097007,-0.6137876603033001,-0.945768685573528,0.12078023428669793,0.10644142223108455,-0.9559206140275092,0.8411490302634688,-0.7939394794711276,-0.31981985895794707,-0.9427284582636217,0.15735657816716264,0.19052429555324935,0.7141238150715343,0.6192829812569911,0.7777579946668243,-0.5366358911676037,0.8880005576768866,-0.8974496261918171,-0.6940350417163863,0.4718487368134272,0.9733365542414658,0.18272528885558437,-0.2776327228348524,-0.5874103981237263,0.2800558595871323,-0.5746033025207201,0.0010079936957583246,-0.8514710920435278,0.1315224839191922,0.7955393029959834,0.12075252402561998,0.8694899427150486,-0.2199102258880542,0.23166159038758893]},{"Num_inputs":65,"Weighted_input":0,"Weights":[-0.8769754009951302,0.21553317830977292,0.3511123127291267,0.7576134109738142,0.8648043763379942,0.7957569566051639,-0.5474421885322069,0.26863389554236994,-0.47910228132459776,0.06206956498077454,-0.5589073226712518,-0.46391478857937885,0.5067068021015013,0.48697231417105047,-0.26284997332834636,0.8590525028175715,-0.04955171852390383,0.8689901710116914,-0.22889788559929503,0.7781966996473999,-0.3592013650600133,-0.7501497741265137,0.38054840536865986,0.25829640614933314,0.9063228475643947,0.316405034594782,-0.03782523604519239,-0.7329470076062021,0.33706899385198685,0.5620246084358749,0.15846323793423278,0.2873361583595573,-0.6120070963651648,0.5869153805013132,0.8017535059404539,0.6927865622744545,0.8484238444771053,-0.7035465848283449,-0.7161348551760477,0.43125703447539876,0.8907239156591382,0.39152444636349193,-0.4218967560398339,-0.47350006414982726,0.8723998351463289,0.700755102197951,-0.1425086666491362,-0.1880316078818104,-0.2204542011126075,-0.39723559033154565,0.09712860011983526,-0.37747976158341146,0.1735618809416828,0.2306356594821779,0.005531351276659047,0.8719184018145425,-0.9006585404621339,0.4339502403569977,-0.5128627167837057,-0.4233131307282799,-0.757026804393556,0.1225888482276265,0.7256916699613474,-0.3106871906169708,0.36347226749576866]},{"Num_inputs":65,"Weighted_input":0,"Weights":[-0.9405358306910112,-0.760683483985128,-0.32884691119632725,-0.6035048610406452,-0.4003822619197861,-0.3277526680358547,-0.07910268706502388,0.4318056945511932,0.29707636353657385,-0.3700102330698778,-0.7565122940667433,-0.6734756528379149,0.8695574433951494,0.39437987406694375,-0.19983557828565823,0.44338191095748125,-0.18644188527255467,-0.06838893690264658,0.8118503674685369,-0.4010694257240064,0.5838879375161381,0.42913530326057225,0.07909129768819967,0.9851797042306436,0.01955651780930201,-0.9496056641287187,-0.27555410231457655,0.06482173525856627,-0.9583626432772201,0.05846745929733643,0.37971567325982347,-0.035214155701909,-0.7055136203553178,-0.9068414754693582,-0.3716185299817628,0.2507675007339616,0.006023651983837031,-0.12542657384317324,0.9678333831501589,0.02803463916428317,0.6663205977499895,0.6616280008577811,0.8380851881444065,-0.21557510252911016,-0.362649648381985,0.5917235007278527,0.5438227807889875,-0.2949726871273297,-0.17125430953505227,0.07091243983436613,0.8484228655269315,-0.6871340200995533,0.04038497418489673,0.9528844835384593,0.7067179911802635,-0.483332061880002,-0.409895264647522,-0.16767659971926907,-0.4781584062717371,-0.8398274133097381,0.30676064921825286,-0.8239112960712276,-0.1076717295254791,0.23555870445642824,0.9965278399974999]},{"Num_inputs":65,"Weighted_input":0,"Weights":[0.8230513964728654,0.39482947729203666,-0.6945662568350963,0.9965657821699823,0.37721050930498734,-0.842688194316542,-0.390459737433969,-0.22620151590898951,-0.9906099415151254,0.7252934502212092,0.9195992001978344,-0.2002323397426068,-0.8662685524936973,-0.3417828897879771,-0.7956479845654526,-0.2666794183887471,-0.20854780818603713,0.8415826954050127,0.47008457456900565,-0.3350826745939669,0.12581483131218985,0.8213615155090197,0.3087187296731688,-0.7562722059216871,-0.4835500066632218,-0.3926660738580575,0.94912210506366,-0.6926919788197949,0.05849587041189008,0.8337588578025568,0.29952703393816615,-0.45365483439758514,-0.5151202446714096,-0.6064525740649801,-0.4284847096015114,0.8204880915400754,0.7113420796855741,0.3841035559799406,0.27011365895699213,-0.027231298882624988,0.6616607908472414,0.4070511641733747,-0.20318137679742787,0.1330631053936846,-0.9163925137455402,0.011314502219841094,-0.9701317572001099,-0.16911189959089068,-0.8195009524086929,-0.32852064527082947,0.6651165119024223,-0.6511828147646186,0.9295531721978518,0.8464301696055478,0.8812233208866862,-0.13929819500943252,-0.49427419879268675,-0.9467975490190405,0.5312333371984619,0.42078529027725486,0.024375952846708016,-0.1411492724156208,0.4188687965134532,0.5947922325184003,-0.3975277035255872]},{"Num_inputs":65,"Weighted_input":0,"Weights":[0.6237844248296109,-0.8548087951381964,0.7945298482504459,0.34041777086545144,0.7711995642728109,0.8466630337418408,-0.788028141203513,-0.42957670601087883,0.40454759641985283,0.2989868244888072,-0.6571930617545294,-0.33513134096667097,0.7025863132025021,0.943306924167435,0.04076270722981401,-0.6658059057881759,-0.41157356480995266,-0.9439459360694687,0.6128280228951852,0.7644330331246321,0.4366872532057058,0.9120622065652639,0.4800945496683191,0.8834062341926199,-0.10897861379514495,-0.7802113600789782,-0.9446452300154947,-0.20633472527769336,0.19200342705029638,-0.20198576900871046,-0.4944641925186254,-0.848508496858007,-0.7987910895762039,0.020636200032949192,-0.7281392912967138,-0.0837035404627885,0.49131178316114066,-0.35277113190299747,-0.7928177972216301,-0.9176177335593166,0.4668861815660432,-0.1939568989137781,-0.3427646298450171,0.04705239764198077,0.23992097130268664,0.3890255363813204,0.16198544570742945,0.5987956957319696,0.31070691918335824,0.44251035265852456,-0.1765084475970169,0.015074541309502809,0.11399631443491254,0.6377766888964234,0.7295404559478389,-0.12766396602569552,-0.5727742491535527,0.029508938800755447,-0.46691144136142493,-0.4717497696356582,-0.6140049757034053,0.8886911857055722,-0.8497110133488702,-0.4817199521395302,0.00336957106555813]},{"Num_inputs":65,"Weighted_input":0,"Weights":[-0.4632916000872258,0.8833090459027138,-0.08446341774095778,-0.0745630123755403,-0.36434896766084235,0.4685778309202855,-0.5391127607312869,-0.6500086654832331,-0.3126876399168046,-0.8480550803625461,-0.7586480756892633,-0.640958661862157,-0.1454247715578172,0.5876242649488641,-0.05087298760755665,0.8244581646644493,0.14040097023284326,-0.9105300075383786,-0.26864626228475486,-0.44538776663194735,-0.05055490777932137,-0.3891298182385018,-0.6502976494193042,0.7646672515252841,-0.13535250215423378,-0.934210689915305,-0.9860408753611167,-0.010687674830517913,-0.23754783158717951,-0.27023794653255695,0.7659757014560356,0.8874723985446931,0.053432633244799854,0.05010139245266543,-0.6618003897201814,-0.12818131233519314,-0.5871491851245554,-0.02932692996820041,0.7661313910514371,-0.4680120156472495,0.48787299148604424,0.2574189747729403,0.9905139049600447,-0.12535869284136048,0.28003422427351055,-0.07596089458742161,0.6735747561168373,-0.8724819608593105,-0.011549587413270168,0.7386863680660958,0.726516332962587,0.6377983952300184,0.5937182790134263,-0.5375923425094766,-0.5955902399473202,0.8944217790309883,0.019821459752534354,-0.037791471849901836,-0.04023608995964967,-0.26205777855173507,-0.7053078135392534,0.682861080463329,-0.8550922961782975,-0.9298284184367809,0.9211636841932955]},{"Num_inputs":65,"Weighted_input":0,"Weights":[0.8336503752606237,0.36000452099923885,-0.5623361034097888,-0.8110461316257496,0.30263267617924594,-0.47867252156428286,0.717500297551712,0.4851223763176833,-0.19265416613232966,0.3117033774025433,0.7328978300240763,0.9659774767579046,-0.0996415405412322,0.8655428915229897,-0.9939381423500168,-0.9910661417678238,0.3586238011945855,-0.48128956529924805,0.2697173317027519,0.9335080827111286,0.038888612255141286,-0.3208221141939859,-0.9843249328872233,-0.3501491165368844,-0.7618383194399789,0.9967981100100325,-0.978310122215194,-0.702457880016173,-0.27607138802403297,0.4145523930962931,0.048502027639623524,-0.06126642277525618,-0.8700381474861035,0.42509503022449446,-0.8367875093297669,-0.486663480031153,-0.7057136187782093,-8.867792160227594e-05,0.06341493640379992,-0.14453859738799513,0.7903503749039673,0.5349519654487422,0.6864988383635386,-0.6985736740381132,-0.7336301342385863,-0.7642020869461676,0.08853567102931748,0.6019061647436275,-0.2209816035684523,0.9349534107868183,-0.5747839152543797,-0.46625508729247456,0.07315606897546156,0.5054125766358917,-0.4354150828680715,0.6688591719562456,-0.35722064331750225,-0.7352810700113541,0.1075503527554007,-0.39983591897266235,0.23476433672247188,-0.5679267502113856,-0.9686746044903717,-0.6770551599347281,-0.7755019542380439]},{"Num_inputs":65,"Weighted_input":0,"Weights":[0.7619032613315544,0.9371496931696013,0.23570081197299197,-0.3166532241768757,0.424396818130544,-0.9885196432811599,-0.8686682948024795,0.18187874688678374,0.4762230448390612,0.8528337180939212,0.8109046639618545,-0.30534704108954713,0.5170718554558986,-0.15675051161612785,-0.7343142883420225,-0.42299475932616726,-0.7650994291218973,0.8923846220831559,-0.016326740612517376,0.6750146102068422,0.5952053824839831,0.9828644183809259,0.24857385338738203,-0.9349949692627032,0.48815184405164214,0.7304044500909797,-0.932258931548756,-0.9975714674243447,0.14052117446485557,-0.7922848884537245,-0.29787957439472057,-0.34091776414760977,-0.5197337838872669,0.12285402578357085,-0.9986742380622581,-0.5604395482837139,-0.19477650999808127,-0.7924526154360849,0.33919517447463554,-0.3556752855453297,-0.7492395059417245,-0.10219537585491589,-0.20055676618756368,-0.6613784369076969,-0.31508204091102576,0.20707021337942133,0.9515411365504398,-0.8977420310693345,-0.8381991958138891,0.16854154320094472,-0.8061084194389937,-0.9223687786229916,-0.2585058800427221,0.6719567585454547,-0.8660924723201999,0.6100439617130637,0.6764120958373339,0.8285979053072556,0.5743028449530958,-0.9989265774614655,0.7260629770002871,-0.8287065279489834,0.26441032686279997,0.9068980447066877,0.6016667265575015]},{"Num_inputs":65,"Weighted_input":0,"Weights":[-0.23522845777126722,0.5261769877435349,-0.687640975278941,-0.12962121165543472,0.7926135894136186,0.8854597201275749,0.40216796710482017,-0.8092787167576849,-0.5769231621843615,0.16570991023859083,-0.27132091525176316,-0.4492597413495276,-0.3189277277136572,0.5278627803417393,-0.960716992354827,-0.07408153529274442,-0.9715342058532329,0.6381026786685138,0.6409604698683979,0.1260548069612395,0.1429553244468682,0.7823457233841449,0.03956399663613697,-0.15034017089660767,0.5123895821905686,-0.9368571176987411,-0.18658957324044712,-0.5588074226591586,-0.3376811766797082,0.6035866970438168,-0.9476647329758647,0.846376490874357,-0.15950596928045468,-0.7850077430631158,-0.45776763691162037,-0.6815289963755051,-0.1755414416507758,-0.1496301379268361,-0.14222544484553834,-0.9379552579238053,-0.9116017129144066,0.3933997307916819,0.6319686079981217,-0.9133948324433122,-0.7127550495789521,-0.013571745460734363,0.2944969797668602,0.28251399033065705,-0.6611631924916704,0.3375471994038117,-0.7399962232697336,0.48046084729040994,-0.1318613781097504,-0.41332034482087365,0.6972734127469342,0.2922045168354359,0.9898705353485711,0.6091416645623984,-0.9348093878779222,0.745693013598222,-0.3324541304053784,0.8253892558969278,0.9017660100298239,0.6130013091380118,0.5982357220516807]},{"Num_inputs":65,"Weighted_input":0,"Weights":[0.9186619617514808,-0.7327955847043093,-0.07789807911566249,0.3195497010038342,0.6455328102128957,0.011139203148158972,0.9112269713784207,0.5325607320516361,0.7408455701781276,-0.6107718680353328,-0.4970836518495101,-0.07319543433756148,-0.12984130593106846,0.9207941811131444,-0.7312473155893193,0.6048136129559718,-0.34093453871162094,-0.938980304462308,-0.5348482428181601,0.9473676387421639,0.5908247539327045,-0.25322711286435073,0.8780164246875033,-0.545423465469546,0.16795587977497495,0.6210456805568119,0.203810388205786,-0.20788351680557604,-0.31733836669884974,0.618995459820376,0.5217358665984129,0.5185687329214956,-0.8461798102155998,0.6780167368347723,0.4396466039339879,0.12616045182764557,0.12266360359387463,-0.48803655865935525,-0.6564771098754081,-0.6175126076779351,0.28848626720267734,0.0035675760424771497,0.15076616941898724,-0.7907141017510102,0.10457590037074138,-0.19028275484243584,0.9597473731669925,0.005446539103016068,-0.044024868674904294,0.32634728641375954,-0.3827161458534223,0.9298256558653291,-0.33936707682213496,-0.6237846376856816,-0.6892492146903613,0.2395879744457241,0.7588436647412753,0.9066771915782135,-0.13934714301606022,-0.4616172598698781,0.840781956382336,0.5571291871458897,0.9865911726533869,0.9226534996286151,-0.437155568202944]},{"Num_inputs":65,"Weighted_input":0,"Weights":[-0.8951603829652811,0.5302186493512748,-0.43205652023765406,-0.3531976403421323,-0.3956782640331822,0.6597672736143265,0.6775416999139456,0.03975546983939382,-0.6150339404105235,-0.48828096984467795,0.0557702221010723,-0.9403858021785066,-0.10381518355539987,-0.8901580471950573,-0.03146971014131261,0.13257118156450032,0.632394904060317,0.8689271723005176,0.27183625356701024,0.30299706952211625,0.39400691805569865,-0.9756337823772449,0.6571312172603847,-0.31806785111158853,-0.2631533611109492,-0.8923496981273622,-0.01333345721814061,-0.5337015457191332,0.6531096111537908,-0.1592432030455324,-0.25786421979655694,-0.6197465165742502,-0.23928727363654823,-0.2221606687977178,-0.8820374641371344,0.24863838446644038,0.6500507850388761,0.5824591669136674,-0.04823900656938118,-0.7556883008249786,-0.22689173413427377,-0.6837501735659053,0.9865713862426957,-0.013781311481427805,-0.40365496322106287,-0.2767626482475022,-0.23009319355908842,-0.48654431856634606,-0.13552618571214758,0.015281736608372398,-0.5823827272699214,0.3328355253631474,0.08211102904592349,-0.3586434550365367,-0.11455516773922836,0.8239923090045354,0.0040711844900149785,0.4966909888135591,-0.20470213513315882,-0.7622676226488593,-0.3169959798968669,-0.16568736246682458,-0.24585933750215505,0.7887587144603632,0.11936013607864782]},{"Num_inputs":65,"Weighted_input":0,"Weights":[-0.8662816734003493,-0.6236445322830084,0.888427119659444,-0.5512553486737133,0.6790961235971267,-0.7911559620180786,0.5924970557964648,-0.023765567126502907,0.6372969574555247,-0.830949295165367,0.3169655077490965,-0.5912221383965883,-0.5304363233473275,0.04645524719807592,0.8497497675101722,0.34150742752448005,-0.5905175731788537,-0.1477067646254253,0.2899433779904599,0.16574989354509673,0.6866288973634966,-0.09950970077723464,-0.36044722467353674,-0.7322873876684194,0.6481341953497282,0.5250672636374696,-0.961171336441217,0.02886551500216261,0.5985769243127854,-0.23277900082622982,0.3889120778680808,-0.047758317493825864,-0.9971300009325089,0.5752083002200157,-0.10137077661502425,-0.631585818994439,0.12079108585200538,0.24944231545212614,-0.6968917309345063,-0.42738396155594605,-0.15559255888415813,0.7193972912686426,0.9590435564146338,0.35420807399185006,0.1900010733895181,0.2754434583843546,-0.4776690339236116,-0.39563282007130807,-0.9909597884210393,0.4905892190207235,-0.2113012788024805,0.2536968657689118,0.893592360733688,-0.5198969721201884,-0.4048176289130294,-0.3213335704027809,0.8084845366800193,-0.27459024796144804,-0.9227268983214604,-0.5369563754014193,0.7944110120827925,-0.22520788399881642,-0.6203117408394759,-0.7997158622459831,0.42468789566781706]},{"Num_inputs":65,"Weighted_input":0,"Weights":[0.7191180401984993,-0.004411180921182423,0.5505944629102748,0.2350106138791015,-0.633178212619461,0.9495442387069197,-0.9124552351445822,0.7899183056609893,-0.26590978018235767,0.7097942019689178,-0.7776779770469582,0.5371388676272377,-0.5228238372606917,-0.9917981582538388,0.24392139210581698,-0.35450903972886805,-0.25381169558497496,-0.36234999242025634,0.19185077287315155,-0.416245786101619,0.501631749369648,0.08704573623573975,0.2115742709251529,-0.3568362200391092,0.32939419194515973,0.8263445547002546,-0.08193669990376451,0.38812874216357773,-0.7484906611175536,-0.3891387930553699,-0.04382021562751359,-0.9203906765174086,0.1153173206209892,0.5125895525395858,0.4664600381300399,0.400367634578779,-0.5540431326407336,0.752839963157184,-0.754171841403884,0.4494122369361573,-0.23693694264204623,-0.7474804387533056,0.38232925314985833,0.5501038612341365,-0.6043789363711548,-0.658868492787773,0.22893921380213778,0.8716448905834475,0.7427371640746896,0.31441006703442276,0.10892730450188437,0.7565869512937808,-0.552901609442596,0.07473562379970367,0.5559328748270465,-0.5156924802882075,0.8551872848517796,-0.7280929866738561,-0.11782723532991135,-0.9948124863217979,-0.3675301759265589,0.7855756719471796,-0.6136849486950996,0.37798676990191726,-0.7465266833429222]},{"Num_inputs":65,"Weighted_input":0,"Weights":[0.8627819905905458,0.07510443834378067,0.9304358998080198,-0.11225392246110932,0.425834043133676,0.5178016210909893,0.8627858972060427,0.8671333859888044,-0.031469268763134606,0.44251067367281816,-0.32442504934862837,-0.7993514931845397,0.9482049274660671,0.3775870219828459,0.41565679332616745,-0.13264970463128578,-0.1819544128780204,0.8453186434018676,0.32527711766282685,0.018388556203820183,0.9209886807264838,0.3064890550846737,-0.16390313493520714,-0.27190169242950535,0.9983129558292461,0.24941390667127483,-0.7078411832954536,0.42297427492582784,-0.30487358030505174,0.2636093902875223,-0.7300527842463296,0.3086814366642281,0.2079213920719607,0.43325759981939327,-0.2504622472386523,-0.3989987880373974,0.8390628749913593,0.7124359960209521,-0.8137947431983275,0.6129816838497306,-0.11313087846620373,0.7422711764335079,0.6133188299272463,0.2849514576896224,-0.9922264041747068,-0.5261181099628653,-0.7637812985906252,0.9209690454999651,-0.4713598579773731,0.8318425656942272,0.05146953171948021,0.04954674920899671,-0.9814251730496666,0.9033865129311882,0.6422094463972909,0.9250723140723496,-0.5200898920876185,-0.16753847717933068,-0.3926231510755259,-0.7759005648084685,0.8504123175109717,-0.9046466886334196,0.5012766994908708,0.47932911519893584,0.7204347240259867]},{"Num_inputs":65,"Weighted_input":0,"Weights":[0.8067995981531648,-0.10629607764114779,-0.06997923771315995,0.8907921027754884,-0.9105680285243677,0.11770702096029062,0.860125754795912,-0.6025188463752744,0.4303362373850024,-0.31200589450352656,-0.25608585330124345,0.483902937472801,0.37920638323022837,-0.7973059839360368,-0.903490317045667,-0.8143407478199831,-0.2974769744689306,-0.5321322131819817,0.3892460003888063,0.753268296165974,-0.725414601226986,-0.0489211260318706,0.7934796368104149,0.25559316785342734,-0.12462015512295177,-0.4025193710721644,0.6217412521907741,0.2920502985313125,0.9005129611983469,-0.692380061365528,-0.07792897930461495,-0.9996977386092812,-0.955987729742579,0.2870361665219716,0.09243043021943853,-0.02329115675182536,-0.5611245010216784,0.7725862253535902,0.7466276920435728,-0.6593188012176419,0.9684681422369332,0.51889390974594,-0.7606060733799388,0.510002210314126,0.739358802523576,-0.4444970256963011,-0.5207199055769924,0.5812780547787202,-0.048572063313307434,0.7203079085864816,0.6172342475144001,0.3688895268135739,-0.4460802964220185,-0.2946845437259351,-0.8329949091823049,0.6601337982191364,0.05408060365416745,-0.7606396975073868,-0.531098987849791,-0.45478469182432013,-0.48137605704994646,0.23080817186355307,0.2617817072328006,0.3870267477545246,-0.48238915917911407]},{"Num_inputs":65,"Weighted_input":0,"Weights":[-0.3724689706783556,0.28380482842769217,-0.5969917857733651,-0.6839166510105268,-0.6613363079657362,0.17002964869278459,-0.44293113867636547,-0.34455555265211935,-0.3916630642079787,-0.7123319150498528,-0.712491809990141,0.0060031800907724975,-0.7468159130792251,0.09823610873409083,-0.9055646965040419,-0.04516002371068961,0.6879863522927478,-0.6272971140004041,0.7094281578890487,0.2149324466689324,-0.9525063957472837,0.975610576106823,-0.8338686870422284,-0.8160231020825129,0.49183750051998687,0.5004176977765564,0.11369284764242416,-0.9473041487891267,0.26215124586318983,0.14269277247129875,0.9938966136918739,-0.9325115484168198,0.5740822947265734,-0.10601011618538037,-0.7865163273527915,0.0976149197375833,-0.34321944508557656,0.4186264799815882,-0.7302950966844681,-0.9152476231401021,0.9658445022102187,-0.30741256746276013,0.5281972247444509,0.9406037926374742,0.01884747447173951,0.2545031301274183,0.3533147278649331,-0.07810596093676281,-0.6066477344980672,-0.27708571453253683,0.3040141115155772,0.5309722045114031,0.8196606058149043,0.15923393374801775,-0.07879636245400157,0.8244087096603139,0.35147208835913646,0.2529691142586066,-0.7814228795783191,0.529972130410991,-0.2284385729470887,0.27762489743598673,-0.4752246095968661,0.9432067136861368,-0.040915921718247095]},{"Num_inputs":65,"Weighted_input":0,"Weights":[0.07996640341230932,-0.8537554210935497,-0.888257977524732,-0.7787297211950532,0.9225938355105554,-0.3457892407247136,0.7152088003062238,0.012113983372222137,-0.11051191545878236,-0.7323002165773824,-0.4652313612808273,-0.09739410337652477,0.2704326389148135,0.26935576969812636,0.5319892242502051,-0.3178667904889958,0.13522931314138087,0.9013140160773583,0.6011115243313108,-0.8867873774594449,0.2275175180249378,-0.6049440817995615,-0.3642999266577479,0.9328122084880945,-0.556918465430342,-0.815185093837734,-0.028163034691323974,0.27852027920666567,0.3702399568256136,0.9276776046785016,-0.43118232614277063,-0.5810509585045989,-0.37921431634489766,0.5740378812175677,-0.5445495347771596,0.28518523577813126,-0.3243414772033206,0.2114501151945245,-0.054634866631165346,0.729982030334664,-0.2398760584337405,0.27292576634643395,-0.11875867705409049,0.221928751130817,-0.9300135892705522,0.4766641860361298,0.795295140640691,-0.8868847534925908,-0.927960093438857,0.5329326250181285,0.8740876484044477,0.4151353184884743,-0.8798351797436212,-0.7306545698063163,0.8026863256899934,0.20280390042325025,-0.7163081895738759,-0.174135331065429,0.3033493420813711,0.2503698712645861,-0.6180918617071377,0.46792787601487795,-0.35164264587209826,0.31766207077732034,0.09247558272024037]},{"Num_inputs":65,"Weighted_input":0,"Weights":[-0.1160246547926822,-0.9182200188569053,-0.32275988722315185,-0.4690293598704912,-0.45821700064436477,-0.28241804843098406,0.5132579290588815,-0.3396776937321534,-0.2482730721521037,-0.5596259260400694,0.869816253609849,-0.18268967225767463,0.6976910639353058,-0.5135549038266884,0.49796971565943227,-0.29015787599835174,-0.2943807438122473,-0.27950570409935316,0.30902723238499563,0.3073765374353352,0.3911055682051545,-0.9076720694227113,-0.7252557744447506,-0.04610676636315392,-0.8787578873110241,0.6764080278314804,0.32061995639098195,0.13641720634534282,0.9906848000823136,0.5916460312729406,0.9085262161314036,0.11775811546119241,0.947320471540275,-0.2968720890807518,0.8492079453039065,0.7967218550405004,-0.603165151025479,0.9523681014555734,0.20481514734854667,0.35217938686563266,-0.22189109927873363,-0.3668300705642452,0.15846872686696134,0.09666650768474994,0.9818744948249034,0.7022094592623989,-0.8309720597953396,0.5841143678095617,0.15729788097356034,0.2546835468795625,0.517878930868868,-0.2976544235650972,-0.7555754200186029,0.3505116740982077,0.21001841333307936,0.6043861582617973,0.17231505940792835,0.9397764319292161,-0.6010524695795124,-0.3458626662421559,-0.3330610052232317,-0.1764045449002538,0.36303813151082953,0.6601018181206753,0.6873986856066778]},{"Num_inputs":65,"Weighted_input":0,"Weights":[0.3500760561278833,-0.532010394338801,-0.41805746596616356,-0.6834959336459452,-0.17274888541012734,-0.6157652831387831,-0.36584319093830076,-0.389327729723683,0.9407067862062479,-0.8055454407238409,-0.2374929555798646,-0.12005929764617151,-0.9332523473945917,0.4928219364285382,-0.15617896502431838,0.855082286589502,0.25307898602526224,0.7555116217103846,-0.8560131155473997,-0.5270850013586105,-0.45826637926854896,-0.3301942462272721,-0.3145264546458538,0.7578446426727505,-0.020653413563577416,0.7332090219316487,-0.8512836384314977,-0.25079975416387834,0.3057821252363577,-0.14333869561450374,-0.6902610127207898,-0.7272863306822482,-0.611714469308122,0.3120424577250487,0.5300533499720144,-0.781648926021081,0.3586089461584816,-0.5646373439976952,0.8177795199416951,-0.2143957542222079,-0.6335344892694585,-0.2768588460700019,-0.41383498595992174,-0.16727748452276747,0.959389517866962,-0.9988345376934323,-0.13896289726728495,0.4149511769145522,-0.48071394756645924,-0.8759369858810403,0.7294609706860586,0.3897150734030743,0.025275301338322675,-0.26844805777150793,0.022486385037682854,-0.7138117655330352,0.37055136633582286,0.26936764053765794,0.16171612024962223,0.5113855541359842,-0.8004418112366819,0.09220663767497927,0.3355021582270805,0.9713405566100843,0.2364232296081059]},{"Num_inputs":65,"Weighted_input":0,"Weights":[0.7080970045169337,-0.05909056855262851,-0.06408404448752869,-0.585577454885311,-0.34619086033964575,-0.4876043421759634,-0.6304956248113751,-0.5170125216789292,0.27210052954146424,-0.8919182849578213,-0.6318589150619196,-0.06237271425465507,-0.6960910705459729,0.919786527598843,-0.823940252346618,0.6102766566198965,0.12404809280572526,0.7354004699110113,0.11222145989557752,0.9355853381568371,0.007716561513519293,0.7122731447900594,0.30046415870597976,-0.5122186996856326,0.7108826628477458,-0.21751454745557441,0.09781735837294603,-0.8208506488053815,0.7833086760183914,-0.9442401768602776,0.08253794081555976,-0.4173279620034591,-0.4050135654489404,-0.816222656550994,-0.39825440667033407,-0.27435387096022434,-0.26149447790169167,0.5608860772792448,0.4772793734444507,0.6698089971173726,-0.8153812066681981,-0.8291711758332786,0.4060404654878915,0.41500749438992623,-0.5638336286903773,-0.9340257860300222,0.1633241144433435,-0.9102536177448085,-0.40949784475488715,0.2709886784364124,-0.8388911938577012,0.19218991072570302,0.7226710750265266,-0.5853373396947477,-0.06153354179748427,-0.45766751061096544,-0.041138192970548326,-0.2796151294417425,-0.6768127003731167,-0.226222623235532,-0.4717389849350381,0.5954603132642313,0.754728579787523,0.3215141885463437,0.23900910856706847]},{"Num_inputs":65,"Weighted_input":0,"Weights":[0.05603690744410361,-0.9313667838446911,-0.9738691804650501,0.5333004690252261,-0.20463264354051336,0.629016923983061,0.037772020888996005,-0.9552639422172913,-0.7612272828228615,-0.9089223471761645,0.9982626663763414,0.6930094656881884,-0.40120738827931346,0.0009810589952361504,0.5021280017843492,-0.2343807756037164,0.7573036353131353,0.25973863901133254,0.7472454048850168,0.628115001861135,0.7600733715367984,0.20431052648527093,0.8320170754774285,-0.5479503585920494,0.3987053976625303,0.15727372349249502,-0.4061323219725772,0.5710456075871113,0.6154317418151103,-0.9479554608698252,-0.8312318297784759,0.343149580393475,-0.38489189600841334,0.36507408189699575,0.25237343812989765,0.7940320144819455,-0.2019805987828841,-0.3651107860006185,-0.3834202815311104,0.19389753341200522,-0.31722796501513806,-0.10044596794128591,-0.7365489877437529,0.4125518150452421,0.6949789069916883,0.039889509496413345,0.3971834923174866,0.7740855285876049,-0.06574555159199647,-0.02362904571467317,-0.8654704136614546,-0.8624034690249895,0.9926647183550752,0.24594655105120822,0.6905532171229025,0.8313497191479025,0.46076347595201694,0.3361098546634065,0.7249026761288497,-0.4561628538655872,-0.18577205827043963,-0.15068331245307787,-0.2928429984454267,-0.8530362490507538,-0.4565679665922585]},{"Num_inputs":65,"Weighted_input":0,"Weights":[-0.26864960195731447,0.26228714383303364,0.3062923455097464,-0.329850093323348,-0.7147695950719681,-0.5416950962973065,-0.5217559413036572,0.7300672322770896,-0.5531913422377814,0.9605244234964554,-0.6939287336946683,0.8532083240361708,0.8799214717826673,0.38828590266557916,-0.15588491982480346,-0.5134043356383156,-0.6866518010805025,-0.30193861808423816,0.1572182860318243,0.2858067205900987,-0.2337673522947431,0.6604381950925333,0.36390015417075117,-0.5661861015545026,-0.7882933263072815,0.039673951544779706,-0.5148767354980506,-0.5679637780538608,0.6125772138527459,-0.09408801263250943,0.3956905421563337,-0.5469448028660394,0.6304524391424562,0.34166645424326525,-0.5712131952540879,-0.23526511723568455,-0.11448806458885008,-0.971620989781511,0.2919902602632043,-0.6432778576581034,-0.0796911732548572,-0.025740044277977603,-0.15432081778711482,0.8999950723863774,-0.7408094999049166,-0.423171836341808,0.08993289192785414,-0.5524089694847761,-0.2697598175623245,-0.32327904207673785,0.08348322530503305,0.14674818842074622,-0.7136644504112817,-0.9577948065379289,0.9734782267057116,0.7667935889434117,0.2736807332561806,-0.6627944717454404,-0.6889585714307943,-0.7963261058999096,-0.9686532565730833,-0.18715379159823653,0.9268060313279796,0.16733894207889644,0.10386950722941868]},{"Num_inputs":65,"Weighted_input":0,"Weights":[-0.13179247647737669,-0.3039821810289475,0.0694273173526001,-0.6023456671555538,0.09777534215645955,-0.39314865144933286,-0.20784178446182966,-0.11699137036103557,0.40913605081298665,0.4159695762588218,0.8561565452333657,0.4393025073080701,0.13895741822939445,0.11257225709667651,0.7945368571512368,0.39949952196148697,0.13013742205304712,-0.2896193285251768,0.1269237871464428,0.8290988954214022,0.4033389260019873,-0.46498573941776067,0.8612686065969235,-0.39694881627844014,-0.6866830084784497,0.04190522284192766,-0.34656152182714195,-0.6564813883687919,-0.6869277892549419,0.3946949454673534,0.3627824576796628,-0.2652575601949586,0.4066996992208787,0.5777942730451113,-0.5348592974093389,0.46629796421225866,-0.33029187434165486,0.3507899490423061,-0.22127836867653294,-0.8150461813079782,-0.06797468873826851,-0.08303337274642864,-0.02986997551824777,0.84935954143123,0.7485967740381096,0.04032647386902166,0.16547905581454003,0.46860510065303296,-0.6713954970284972,0.7224883466527607,0.809916882660914,0.795070700021359,0.2598350447457609,0.7315543096186541,0.3886634431337084,0.40750554550192963,-0.5644528674246605,0.989652420396498,-0.3484975955900157,0.2135559142748138,0.22341441240688642,-0.5481014174569125,-0.39870020641600834,0.18827216706164762,0.9191257477360248]},{"Num_inputs":65,"Weighted_input":0,"Weights":[-0.000157957374818829,-0.191848316978821,0.9114508078561843,-0.8210778732609335,-0.5642721321654196,-0.7643383100689413,-0.7857376670465173,0.7982362601528388,0.9627658685771072,-0.05285549659483335,0.07651989704519035,0.3608210988738063,-0.01604822481793633,-0.7686428962700003,0.9707161065634027,0.9163200081026159,0.6116292515390398,-0.24920978203491417,-0.6247248923256916,-0.11679715055068507,0.5332469244899891,0.9950358054270105,0.3897300390592544,0.9115858157920842,0.4526593322608996,-0.023299200934905673,-0.29352295136135875,0.8340853382696931,-0.8677884279934807,0.2995471349291008,0.2622432031611617,0.7835193550707154,0.2273386646753779,-0.5858759425035553,-0.4933764575215691,0.7164862817980013,-0.9809169964081388,-0.278244542191329,0.68243559239365,-0.2396372083899463,0.8426049679971943,-0.1489082047252679,-0.5034043674354934,0.09635188947273243,0.8875727998410465,0.06076051859745224,-0.21247109451561086,-0.40653753585832053,0.2886123167080814,0.41144319839710186,0.8791229466441357,-0.48482264761007543,0.08438695852729294,-0.9608602728316031,-0.5541702340168768,0.6142671718989874,-0.7109463262990376,0.9906795296335402,0.02956319403855434,0.6976196369972156,0.36851499353169115,-0.6108925270795276,-0.268877899021689,0.031956284372740784,-0.6212177227361038]},{"Num_inputs":65,"Weighted_input":0,"Weights":[0.12190027757048916,-0.09272741764039316,0.7571115512979805,-0.5245772844012595,0.3405633057087629,-0.48124243180678317,0.9077782801244016,0.9792833495535171,-0.4324493546140684,-0.46865219115224044,-0.1629370006549421,-0.599653163747268,0.1131917514457983,0.7081990998921015,0.600514841127175,0.003965045711684878,0.3353379944155579,0.7239248629340467,0.881840885054965,-0.9234143440293822,-0.7937199443487387,0.5274847711422974,-0.24410718352746774,-0.24915676685156074,0.021695537596512438,0.45209152153550014,-0.8177967654349693,0.03724218595711082,0.5540727169372732,-0.7795370690616604,-0.39106929017147374,-0.2583493269649939,0.5853054591168634,0.17396756986750161,0.507301118229015,0.03425035704578372,0.22617734105015685,-0.4641399335896055,0.3265746070673452,0.8504147968716127,0.7877992771251876,0.06076632797480386,-0.0006879472840445322,0.6747570274620847,0.3759860869610756,-0.1351152165357582,-0.10967356949594376,0.11297399063059999,-0.3171889257045468,-0.8938422737798634,0.5825639141861594,0.42762838471020803,0.8532371287529881,-0.8405269097128678,-0.938559235445492,0.2165928952995264,0.16455701651517707,0.4126504920308738,0.7239027587648037,0.39035733151720575,0.8907532213260596,-0.930196700758257,-0.8855534068348426,0.8912296606616135,-0.7216943977403151]},{"Num_inputs":65,"Weighted_input":0,"Weights":[0.03547466648552988,0.30006642927746374,0.11025415789584381,-0.46426682483069315,0.9405334215665291,0.6278640662294201,0.2040778133040091,0.7252251941908499,-0.36462011500021807,-0.5974319372525043,-0.7036788851302622,-0.5628368610090084,-0.7995554720113229,-0.45406837886099694,0.9790411493526814,0.8239780311989602,-0.253106934766162,-0.05828521469709014,0.051884307739064495,0.42196074874722456,-0.7327748327811515,-0.6530546077751036,0.18117913855327883,-0.9685159087832562,0.15884321241202382,-0.843508745129586,-0.6573288549382601,-0.015925459603123415,-0.8537086200560826,-0.3640960109133854,-0.21362630563976592,0.6832560123605165,0.3786379412924459,0.7143558197188318,-0.4868524684714137,0.4337754018704818,-0.6338767006848394,-0.3050572591658952,0.41057318934853804,0.6423600712981368,-0.2931174751757575,0.8997962281255392,0.8057378900961714,0.5392653676738242,0.01796611057946018,0.6429062577833904,-0.6363049324092269,0.22979725271542772,-0.6733476387706163,0.7500476999800483,0.5934521061779503,-0.6143157804476336,-0.9505916151521165,-0.155158029415703,0.5543845521040593,0.9081657939012491,0.27578481234108776,-0.8184555773569882,-0.8907458790776458,-0.7422759779707215,-0.27844156224551275,0.263918795979023,-0.9520529588997977,0.10807633061031363,0.4051189675330684]},{"Num_inputs":65,"Weighted_input":0,"Weights":[0.18730165306250335,0.5357909784133119,-0.3478038136766203,-0.8401347882990663,0.9070245778863943,-0.2631476134267896,0.6401959783947422,0.4648856903129879,0.659759494523241,-0.026361717430897325,0.3280828417415016,0.9348499348026389,0.7010760290074634,0.6847835367791084,-0.7541291072184003,-0.7485359516017873,-0.24603173835656322,-0.9135257949828348,-0.2643713871211302,0.41347022603789796,-0.6175778010400045,-0.6494020616609831,-0.4149247613012801,0.6533450830324343,0.24288360281008692,-0.9162027778826994,0.7986062927320401,0.8700838470801759,-0.9868341859604044,-0.20836426998695723,-0.16535734440237004,-0.5416637180591244,-0.6715682269394678,-0.6551814003415375,0.19963184580904758,0.8383607040513408,-0.11605933247070854,0.8481242393467665,-0.9899745410268072,-0.2622834314109793,0.5224128655861324,-0.93001547907243,0.5362906553124158,0.649455742097188,-0.581124596284731,0.9584384695459471,-0.6704303569147856,0.23458806237608054,-0.9829742842220768,-0.74384599337156,0.6463902432175377,-0.06611023424958784,0.710990803508637,-0.6939656409824891,0.8795731895866752,0.5692198034518123,0.15926018430587296,0.5552203647925447,-0.8038446492579598,-0.07919522429726666,0.9918396915891972,-0.8332287743851137,-0.04554980348372273,-0.13052823661345525,-0.582462421887476]},{"Num_inputs":65,"Weighted_input":0,"Weights":[-0.45785224614046516,-0.9329182038670334,-0.3304132477562626,0.5086343792227881,-0.14749458867328236,0.21987328687100116,-0.3608217900967168,-0.9455828359712969,0.8338226319906146,0.5300920853250894,-0.5695399573066843,-0.7093381888280401,0.4125633309198873,-0.39334422003974223,0.37364890582723675,-0.8607332162137232,-0.33027318249714654,0.28490408010433677,-0.5939326662144756,0.8579391037833037,0.7002789846748572,0.731804179606214,-0.13236185229653563,-0.4410468716943833,-0.23051852813889961,0.698473428070342,-0.2740899058898961,-0.048578169742300115,0.2751075549474036,0.3140310447443868,0.02276002484460049,-0.961078035023871,0.9161269602907693,0.2955475350718595,0.4463443884761895,-0.7519111439094285,-0.06390340950589779,-0.27697998212125496,0.48664272442347256,-0.39203177666163036,-0.030812706182522298,-0.3366391569648486,0.059928655714828416,-0.0867390462090013,0.04582229460516296,0.06388886214455547,0.45551483105734203,-0.1418936542803545,0.20408124376634107,0.8375104947918408,0.9140866045328724,0.2903583592340935,0.7090089714902161,-0.8050440516219308,0.3680893130997682,-0.0023919779133952934,-0.45466284395667944,-0.07919179146290145,0.6684947847106899,-0.41829506567344976,0.6846458712159922,-0.14903182938834825,-0.3797482168473979,-0.34012176686779494,-0.7338198015580721]},{"Num_inputs":65,"Weighted_input":0,"Weights":[0.0369195193126568,-0.14483691918807273,0.3264260236243748,0.014112410873787118,0.6695532191980653,0.5140517874768804,-0.5582397140497566,-0.6458210275336684,-0.08424233869144304,0.8029228384597655,-0.5070068018637894,-0.27567318057604473,0.04955018602936767,-0.518493983331696,-0.19588711304137174,-0.8685113124489033,0.5822351939833983,-0.11406719681693622,0.1807888109848268,0.08789685629845478,-0.673591873409392,-0.12653469855358945,0.7046387671379224,0.05269398231934974,0.5032989589478751,-0.08533342743558647,-0.2999126137698753,-0.506462110636422,-0.20814270949593006,0.7532848919043047,-0.12810355957552277,-0.17862132552862042,0.5334391810453107,-0.7966088084196806,0.19754348962856905,-0.8033947911144214,-0.7490720171216843,0.22867906059187382,0.7866637440852096,-0.8538817005873622,0.6695050203924915,0.3893340260327234,0.3821351707081646,0.7705118379084994,-0.14455760642712423,-0.13876882031225768,0.2536812957059871,0.8070074792389128,-0.7645185730875734,0.3321176649505062,-0.2434044842617369,-0.320432930743595,-0.7855002749662574,0.4046295044432031,-0.44360571560299844,0.0152781133813511,-0.39744361477697243,0.15045641608295823,0.50490542475533,0.23727557837206725,0.7538025624198095,-0.30198552144464863,-0.8603707678055548,0.6252700670739331,-0.891791173502572]},{"Num_inputs":65,"Weighted_input":0,"Weights":[0.8515922309001982,-0.5984670621136765,0.022770419836793954,0.05435708677515416,0.42498115901471034,0.6909489288838606,0.5550793512992762,-0.2443838955491272,-0.7864636259208707,-0.013816848366449808,0.31663447491498786,-0.9649890843726872,-0.4553991953477762,-0.4457739840667523,-0.8619936059913149,0.7755109876264783,0.9622567894334435,-0.9954632411148843,-0.11902829315762242,-0.7147367794270396,0.42172752339719644,0.562247287483584,0.15021014693124402,-0.5940654433639436,0.3034267364713885,0.37331515840584095,-0.3703884965820724,-0.4646725032055755,-0.8522901957746443,-0.5660212783407714,0.08804171686021411,-0.4928840904280801,0.33317665243741224,0.7242673385064717,-0.43628807972895545,-0.7146328993907035,0.13575231820782285,0.030302617251371844,0.15219441635835773,-0.9674968068832926,0.6245316679371486,-0.46283311386553294,-0.5847795666003885,0.0520736898872054,0.5205550821967153,0.1836326504162087,-0.6410392112834769,-0.989265790692612,-0.20958246893317667,-0.33315847216366823,0.5923442384004329,-0.8030057187074368,0.28938046742985435,0.08694476398491102,-0.23109090287376577,0.7184501350061152,-0.004491781638196524,0.17288156336874239,-0.8219270928641492,-0.879237621724667,-0.19538915761868236,-0.6104562069525097,-0.9279207097380067,-0.09820687840716202,0.8343519605250698]},{"Num_inputs":65,"Weighted_input":0,"Weights":[0.8044532908918338,0.27966409689126426,0.35085201679937117,0.3844137240660972,-0.7084889656949445,0.46633846440807325,-0.9077091376813081,0.12109141473346074,0.06140464082646302,0.39882035523521786,-0.8763532144280356,-0.8184253259313019,-0.9729326120306067,-0.7307487243968469,-0.10851128814744093,0.0456257236599098,-0.6598381354710257,0.4254695953683785,-0.4958391221986267,-0.04822591701480128,-0.7268763420776426,0.6922913967635804,0.9199539396502006,-0.5012304271689733,0.20122262892320708,0.3628845332426731,0.9314840930504587,-0.5995908708378811,0.5579864977179501,0.7929461089385186,0.6104346773044176,-0.15693729060209793,0.08771195314410729,0.2537351958475398,-0.7887994846236043,-0.2681827007754284,0.8486141495896997,0.23009006027143952,-0.9919768575449855,-0.6785477694908796,0.5248599278234327,0.7964513909623916,-0.3186867066416438,0.8446345248394818,-0.9885814922596303,-0.40135608298278336,0.4866734470963965,0.13833763410614464,-0.27607031181327335,0.1636406808451305,0.44123231152044884,-0.27374268745476116,-0.7191220344509941,0.2482224452697428,0.5572200026193999,0.16440439947226237,-0.1407912915113846,-0.14559126371426123,-0.2821549175159124,0.5466712674969851,-0.07611667966900004,0.8817525330599081,0.6848942462429559,-0.0038818475891495563,-0.4282263275633508]},{"Num_inputs":65,"Weighted_input":0,"Weights":[-0.9799880701908245,-0.3246533021853759,-0.12161476403319527,0.36351548671410816,-0.19421981585636738,-0.9857384370164373,0.8202209487283696,-0.07083423355618956,0.767266924705508,0.19723657448551668,0.7667201184975416,0.5818099912340708,-0.724599516226448,-0.23159938686929316,-0.6937709433504362,-0.6151502488636629,-0.8806688624788788,0.6583982458825195,0.1203666606112117,-0.34345633245132756,-0.17710849968111908,-0.12250438910307881,0.5435316151368565,-0.7336932384310471,0.3037514744282457,0.757530623370388,-0.6532687196580138,-0.38562293311491924,-0.967173631744569,0.750086764003693,0.11330880980609903,-0.06332777203712803,-0.7058832367513682,0.5608593991538591,-0.09230094620450313,-0.4443272829093936,-0.14708053862616288,-0.45258858464790885,-0.14450484689171939,0.9197700782895464,0.9121682633921584,0.6869018633198445,-0.3676859026429323,0.04066872111386899,0.7241914472907114,-0.5358393562759614,-0.24779129024586377,-0.2197601347898398,0.200778911435743,-0.11716161786289714,-0.440620032848548,-0.5962018964512732,-0.5353262101893324,-0.003582855341707658,0.3354654354671023,0.05136693398321057,-0.7472492454101465,-0.917449214447507,-0.08345374640233072,-0.18830639864299192,0.8680033096881137,-0.08985773739473801,0.5374704755135404,0.1548330618913012,0.7201315905701999]},{"Num_inputs":65,"Weighted_input":0,"Weights":[-0.8025991053825571,0.22629998399344897,0.13588228495597354,-0.019107293620021615,-0.9813074437847393,-0.2577985657564913,-0.5748955753803502,0.6793016226755959,0.6289623779991249,-0.15437816767505297,-0.07048040476823281,-0.16022755651523446,-0.9645088868619107,-0.20197723024739878,0.8210722183383001,-0.7848761831262259,0.7108106141310182,0.4757147594745945,0.17143969604515674,0.42168527506780795,0.18569045175379317,0.4256879637583961,-0.5471357092253697,0.7765953732256732,-0.636829998265996,-0.5574381211554579,-0.4522935164995239,-0.42905067390084206,0.8045247431075848,-0.04866260014509827,0.5364234864097948,-0.3018255871861021,0.9013426691100852,0.8834456970395947,-0.197195351572511,0.7612810838484108,0.2735947458000969,0.918856933327368,-0.32148806946957587,-0.9988387743561729,-0.44815108971706985,0.647572458950697,0.671592158830498,0.2992417044838178,-0.1284709952733376,0.4179453315427928,-0.062278400749169904,-0.02604017600084141,-0.8203219074221763,0.09880711282903465,0.7102387055187027,0.9052687901615697,0.0546017759953914,-0.05084669289549648,-0.5101193812064999,-0.6627253640470375,-0.08815298351728584,0.765152851473893,-0.28445003154268145,0.46641341818339677,-0.1678012395638071,0.8325767411346865,0.47139386169690534,-0.22767458166293253,0.666240683581447]},{"Num_inputs":65,"Weighted_input":0,"Weights":[0.6853599284121874,0.04781393138187684,0.584397400076756,-0.6790601372073285,0.6121658973943698,0.27773820452604436,-0.6111787608200743,-0.3964171532917029,-0.276585312242286,0.8555833869444176,0.2826654710319636,0.13688158520120264,-0.8261709339094832,-0.04989111142981728,-0.1273921661363051,-0.961209116286006,-0.17821871362701336,-0.7028004725061359,0.6141558498720954,0.9280045868755162,-0.7172059129819836,0.13466341031736895,-0.07260474681955476,-0.2712421756572835,0.8197990774731241,0.4387807905583696,0.1888780784038251,0.4772422961934739,-0.782467335563472,-0.40981843898192805,0.8904574394452203,-0.7411743162266649,0.7696805238645499,0.17470567215173238,0.9724583246061589,0.22064977361405425,0.7905581560363404,-0.2572459149325357,-0.21794944848627018,-0.7144336091986032,-0.5564840451275861,-0.07475829617325036,0.22692468659343135,0.78198340765651,0.37985795610171147,0.06197900453556171,-0.9422111416524523,0.2593264944534024,-0.5224295609695788,0.930363179926561,0.5927343400808043,-0.2960718989452028,0.5126643853183976,0.06982217727260398,-0.20986956671551438,0.2808344427146763,-0.00338657664006603,0.5458518031755653,-0.15728999146393186,-0.5580882527165261,0.903835590266524,-0.03826012012986624,-0.9969624568842047,0.44310456429523604,0.6916214620590615]},{"Num_inputs":65,"Weighted_input":0,"Weights":[0.5068214958911628,-0.4348747347447057,-0.7167554016479128,0.04128625501245842,-0.22097649130399255,-0.5084772147941737,-0.1976262845367006,0.7071093627919027,-0.7315409435615391,0.22268405293467364,-0.1802934464726511,-0.6706012039317193,0.7025846756758352,-0.46479814527244045,-0.15010503538199116,-0.7151344266634442,0.18807620410829862,0.7691476729954088,0.9014820096468117,0.4117568931836011,-0.9635063162450225,-0.6653124709250638,0.9582477725780878,0.23109465380372174,-0.5837334659873827,-0.5364191704945507,-0.2634867420290756,0.21718259420457997,0.7369309955830552,-0.28926270657150366,-0.32511436851401576,0.40131160425023116,0.2646438777628026,-0.4168654507478988,-0.3398664192135752,-0.10012409954787138,0.3167928138105809,0.21779687008702053,0.1358691074273195,0.3220121315987863,-0.86554273065661,-0.7386386602906208,-0.5645414091947469,0.5518394091035816,-0.1630564044289261,-0.9141978185393057,0.30760483801628147,0.5259421416262935,-0.9931929846869263,-0.5544514357578774,0.6840574062736178,-0.019621718608715533,-0.1754313094792067,0.5727636567675758,-0.17983069288545073,0.01625179828376755,-0.9109006780852595,0.8536593413171396,0.7240653408578621,0.725882464767164,0.1461592269075216,0.7126443541163112,-0.42140339308964336,-0.7366017029136617,-0.5622254693582202]},{"Num_inputs":65,"Weighted_input":0,"Weights":[0.2934373521703113,-0.728386657644106,0.764636248265524,-0.8770278146188502,0.9612730290084555,0.6415572039326858,0.06724339610310937,-0.9754755347188749,-0.481822100108817,0.9141991337134987,-0.3642836599801773,-0.7521236972866076,-0.8166436811738145,-0.7134083710976167,-0.3609035373647065,0.38749563302835033,-0.515838169470582,0.5196964473609338,-0.4947960240170526,0.04598094419355703,0.40468219410003514,-0.032712443073259045,0.08990936232789637,0.5121891831677763,0.9265611240326688,-0.7387767607351545,0.058343768355199055,-0.8108034138290524,0.7670523859497527,0.5233715619231707,0.5724043707410813,-0.7207984998572077,0.4428888107167468,0.9050789918718549,0.41012270625428826,-0.44956444731592293,0.9230480052730672,-0.10328067065206381,0.35687884196868014,0.8755624166097553,-0.49201875991228394,0.9393261213901571,-0.1289622078504845,-0.8925741598825312,-0.28878733775801635,-0.80657483488429,-0.506861898949946,-0.13865211835000402,-0.38708974569470866,-0.30474413855275306,0.14313473388482012,-0.9554530563066328,0.17824776536063913,-0.9356787281227521,-0.9353339201899197,-0.46521461283027643,0.18915735113277043,