{"Num_inputs":65,"Num_hiddens":130,"Num_outputs":24,"Layer_hidden":[{"Num_inputs":65,"Weighted_input":0,"Weights":[-0.1640108128370108,-0.42187222411120573,-0.42264279638295577,0.9582583135783309,-0.847318786506195,0.9693946591286131,-0.923107553973012,0.8669549889594776,-0.8795476882309657,-0.9971848297778609,0.5024168875577812,-0.52835210499709,0.9198807037812935,-0.5997948493836811,0.08101786218729679,0.966703670203011,-0.20141359019121285,0.0022423421746318173,-0.3039262249979673,-0.3117935001283948,0.12177636459507846,-0.5106920277913641,-0.5015498877248539,0.7995700608857934,-0.14105120637798474,0.7305913964780444,-0.9388513831172556,0.986158885086202,-0.3235383429652001,-0.6259854322955289,-0.728741695941942,0.5796060057520602,0.7121783401297404,0.335936706075306,0.05369740121021027,0.746684126397464,-0.9577667259280277,0.9815556883288843,-0.30858281055464754,-0.5285173746477003,-0.9166257093128376,-0.6471552520581179,0.8178171286536402,0.6048295985377525,0.46386176363332865,0.44964665917042357,-0.9596775994679589,0.8729581508207138,-0.09669967907014976,-0.38947290863598527,-0.4795493491364825,-0.27216959436256527,-0.10825068399705606,0.03970485960513748,-0.42198201097190313,0.5183076622360949,0.9400117233489955,-0.9904790094865698,0.14886688478027077,0.6064395529319557,0.5306888691020277,-0.7559630375020486,0.20055843839817689,0.6717393446556479,-0.8750717508711067]},{"Num_inputs":65,"Weighted_input":0,"Weights":[0.38285820086307565,0.9706134460517453,-0.7083824172107025,-0.4171182815316472,-0.18852893652564273,0.5792309991542293,0.40598251650782946,0.8223482823564221,0.9767329892692942,-0.12805383231506096,0.4556203963765346,0.4335711872011043,0.715964029316623,0.44336889852717865,0.14477034780891684,-0.12860568381636572,0.49077162096572957,0.8461754030206972,0.7586964845854087,-0.10818450673796143,0.24458979065203024,0.29403551738320943,0.11623777343803576,0.09634885206707322,-0.10051530717656232,-0.4411739225236794,0.5065166446625671,0.08291356324137156,-0.19656727865997814,-0.2708903032640383,-0.5325114755860632,-0.18534744820071136,-0.5518580653088307,-0.7659625758993728,-0.2376123983338223,0.6386677983855178,0.32757848745609675,0.535127422761045,-0.21861619460133508,-0.5256509289076742,0.9847551801483763,0.6447266766358974,-0.4064159565459746,-0.7813515115131575,0.10180773714823999,-0.9568273234186894,-0.30358075094308756,0.06731028005286843,-0.36333347801535343,0.5468136609794283,0.06772516529085837,-0.020411816920985704,-0.6251110524318078,-0.9573056730744801,-0.5001972862187756,-0.1266788604962522,-0.36276057302586306,-0.9752101069404542,0.4451239202028767,0.04699563197739254,-0.37977003335082127,0.2087218457989719,0.7519919775286785,0.5794583540791098,0.9421765635447643]},{"Num_inputs":65,"Weighted_input":0,"Weights":[-0.8212443526384272,0.9142001306449956,0.7253856611086615,-0.35016097537926383,-0.7524480189512176,0.9854216946640928,-0.9526236303075438,0.7294798284098192,-0.8514539481418602,-0.8989387979092665,0.18887747874839955,0.9942661637388506,0.9756620007539711,-0.13523012074244667,-0.07305414077825734,0.6181195371809722,-0.4867135227860909,-0.3439885839283855,0.4642089445183677,-0.11252417200548981,0.18544939929903403,-0.20181445906472317,-0.8474376844839835,-0.5579110172566861,-0.23238395424561253,-0.17154502582754205,-0.7576889826424239,-0.9855481093119187,0.9909684038221005,0.5299681989448555,-0.4261514418714737,-0.18400964247612228,-0.17082459041929732,0.01021608813210717,-0.6378661325756734,-0.44046398065867987,0.7647018743091096,-0.11653566597620024,-0.8435964344941755,0.8077775402533969,-0.7139968552378666,-0.9079652110469453,0.6104250996257294,0.541050937623532,0.9696709659116634,0.882020722751206,0.5392170676352008,0.04410930162686255,0.9833634173008281,0.6152133167650378,-0.7007589560340005,0.44766492103668565,-0.48890918935727723,-0.5848895825029979,0.8716928510816759,-0.48180756663195,0.38667888518341464,-0.08400569677504077,-0.7708516174425315,-0.45141863278384364,-0.7941025532461969,-0.8658901725357706,-0.9484397148892136,0.003211446676579799,0.47234476144115245]},{"Num_inputs":65,"Weighted_input":0,"Weights":[0.47676006884335065,0.3561091374349794,-0.3706355564056496,-0.225697457968296,0.5859351528286134,-0.039823295118594615,0.38091707856674284,-0.6218451236341523,0.0794343324425788,-0.2673107871365237,0.38231705515421144,0.08115443504810038,0.0285707440672911,0.6461803135165118,-0.10019717624169233,-0.4494928537100762,0.5875662399203372,0.4607796849036947,0.05994885283978135,-0.9669153454634426,0.10890388343765234,0.8836995221160537,-0.2743464513534297,0.7587878384351643,0.21070210259294342,-0.4019699369814912,-0.5617308147827147,-0.6759943536151494,0.24695047884370358,-0.8921084912950958,0.12259446857265277,-0.7728516196640492,0.1246730333280952,-0.3520588067954178,0.23591071129579855,-0.8197209289030682,-0.3450935419673056,0.14443281915702966,-0.3959891569511277,-0.18768064054734823,-0.9714660328951207,0.8896142324300012,0.1626713607406347,0.3513588083833519,-0.0177254492661697,-0.689166328911542,0.4364553480653177,0.4026861869008209,0.7947787290999786,-0.49477557394374694,-0.4917861097616756,0.7421381436735417,0.4736202061720276,-0.5362846094025283,-0.7258957536173982,-0.2917460384032331,0.8867197634972905,-0.9641058875669407,0.09210666259234301,0.9525750355076683,-0.11017428534584528,0.07238438637656452,-0.3645550700467106,-0.12952027652793063,-0.9268660244052621]},{"Num_inputs":65,"Weighted_input":0,"Weights":[-0.4344735384796402,-0.4777079266081061,0.27868709228088506,0.845903491559451,0.7822120495250997,-0.4356614032484508,0.2860650811653833,-0.022405235600786333,0.6470192294784463,-0.7507202841219086,0.9962326078878598,0.8688531259897538,0.737141477161195,0.6795352790594267,-0.05927032456017689,0.8618880568571905,-0.9738954315480112,-0.1062406431463977,0.13625897433957412,-0.15384887204907016,-0.09885887119523029,-0.6664705600610077,-0.12376699478889175,0.47772270451962906,-0.10970220384253315,0.41871577673003113,-0.6063806074090574,0.7373465844542704,-0.2586501271699235,0.6776091015836601,-0.7771386363798944,0.6389859919056884,-0.7364548198308497,-0.6900584064959505,-0.8358952434449218,-0.3669225834223605,-0.5834974628450073,-0.6471271048441595,0.09032392276414414,0.4181359658670485,0.86195356201903,0.18635158968835297,-0.5697988809770735,-0.16743100575022418,0.11721031154196893,0.8308004015880956,-0.6405037605551618,-0.46872692820936657,0.1850931768657591,-0.5462676650492833,0.6337904137431203,-0.5540558905874109,0.0920599953951966,-0.08306147612701331,-0.5193090785430123,-0.8976822833055397,-0.3469627142507504,0.5201061259735484,0.9249996837470003,-0.07115434693529432,0.6206257884784059,0.08021798162315918,0.0040899823258042645,-0.9975664147403752,0.033278129077957574]},{"Num_inputs":65,"Weighted_input":0,"Weights":[-0.12132182298023209,-0.8502416061484539,-0.585922517893875,0.03382391823246267,0.35133578380727193,0.550395096937748,0.9899017519027782,-0.08110156815917857,-0.12216219925414296,-0.6098875471907212,0.9929321181268953,-0.43654941404801884,0.2551342042746416,0.03754828579617775,-0.1485498968420843,0.21932117531784212,-0.004975934855068864,0.30227679553077924,0.5485069087355265,0.9989426137168886,-0.5770666791036718,-0.8922705178607977,-0.8208522346950562,0.7337464218850396,-0.7571142630263396,0.3140344250216065,-0.22548012852610555,-0.27809282049149997,-0.5589751414612512,-0.6029278389911814,0.8126786561054031,0.6935620188919664,0.47512401871100485,0.8688386885664652,0.7166942185452343,-0.9078378709812417,0.6532137812052967,0.6496642158382302,-0.3860843752263565,0.937373965069457,0.38685383528706874,0.35522218843282083,-0.9456836190506301,0.09382873104218437,0.31986549269072717,-0.12171689084215565,0.9674854749432094,-0.25393573905436995,0.4284313542806564,0.8718639392984309,0.5035199231200151,-0.4318340761226104,-0.7745063579572752,0.629989830032764,-0.810012290280372,-0.00838229402698687,0.4060447318663123,0.8113084979958336,0.7053885786764618,-0.7154295058570275,0.694629325834021,-0.4426638276428374,0.3996839586659122,0.2622798376108033,-0.857427837207378]},{"Num_inputs":65,"Weighted_input":0,"Weights":[0.5576856917179751,-0.30221371358523874,-0.7070699874636105,-0.0940794752526165,0.2644159702098028,-0.19176107803806797,-0.1766142448880864,0.3476231061858168,-0.523794947043599,-0.11311368956756551,-0.914684106585613,0.15073476397441832,-0.16715968506998913,0.7862207468910358,-0.5370578662725598,0.9568995815316383,-0.05991181717467431,0.2776116519659102,0.6321572442808201,0.6568013920278684,0.8816966232449182,-0.7110567161115766,-0.33426769704901627,0.10745727682818496,-0.7006002944029366,-0.6109250596866678,-0.9905775795135151,-0.6885286529239165,-0.42955515246344467,0.675426792130148,-0.7855181763676267,-0.9007591045717399,-0.88857543511543,-0.11387160786963502,-0.8214851157147254,0.9500052776756447,-0.746831727166666,-0.14759001976247,0.8981066941609432,-0.843250399954254,-0.555422343904415,0.8215546710285451,0.7965100342314195,-0.41838080846091785,-0.7881087982556433,-0.7464280835007919,-0.835261499049009,-0.1338409557688759,0.6221205334479467,0.0939911142352754,-0.49290862918824074,-0.204695109816193,-0.938638902210896,-0.6355806148439797,0.32734599486947613,0.8976878515885274,0.660286978518611,0.5883885535237396,-0.5900618770123085,-0.6069839344921137,0.946296265867403,0.329747749913893,-0.29490448302469685,-0.009368686573983154,-0.646706407998006]},{"Num_inputs":65,"Weighted_input":0,"Weights":[-0.23006379645835517,0.16147331519438968,0.07780386531218175,0.7872592298708028,0.8015187659960905,0.4349624979966342,-0.5593682873128452,-0.9099176101978299,-0.6854607686925933,-0.5563452755851801,-0.09784837065275698,0.3557157543825289,-0.11604974365921916,-0.7544153591856212,0.7705459959783865,0.5879365879526275,0.1633172332145456,0.2022670815762737,-0.2507832977595451,0.06824892602813515,0.2720334545584695,-0.16591419065848323,0.8353342087477995,-0.669028744323799,-0.6908507882928909,0.30713180021864517,-0.5569205526205294,0.8840135538893299,-0.33792138904136515,0.5139153925006219,-0.19629990775479556,0.6569490482826812,0.4823168765754977,0.8821113306404007,0.15664868654630437,0.7550489543666423,-0.3009393673958196,0.5989159341447259,0.4278800599964774,0.6212346602844556,-0.2455442512880831,0.5300247632694124,-0.31573793978001174,-0.9277413214314336,-0.1630344736752941,0.049993956184507304,0.659008045630691,-0.5818722742725588,0.6321302338758155,-0.7456900104862787,0.6179025261168396,0.4295565397142722,0.6471192443660634,-0.9683719888395192,-0.4396106906878947,0.19616183628785544,-0.8445647199646527,0.694965068333879,-0.6522808028870324,0.14624503257751242,-0.8202606330682681,-0.78115215512189,0.11677871201963597,0.749073432114344,-0.3864894200479865]},{"Num_inputs":65,"Weighted_input":0,"Weights":[-0.687135518714238,-0.381094687855441,0.5832945329903085,-0.6933330636498711,-0.5250099111259579,-0.5154272735695542,0.987597000259185,-0.265887156721496,0.1737906970540375,-0.4381041144255149,-0.26478951942541873,0.37955895755790103,-0.8520465756234374,-0.29368731391599445,-0.3176686440492661,0.9863450778240084,-0.08242441494624464,0.6606450460630406,0.09347545709604277,-0.10377503890365503,0.6738581051469617,-0.7548089978639444,0.6102662711017546,-0.9350864817411708,0.2479475619941951,-0.10528849578685173,-0.18909647189630208,-0.7417461247586402,0.8304708978404733,-0.06221091098894593,-0.48934207117231665,0.5437543440903521,0.9665101880847333,-0.8562428007470435,-0.032168598269357696,-0.3783733206952866,-0.2963070477689489,0.29344942912977756,0.46600957444897695,0.11721830394357147,0.2517261755862785,-0.7660032182074059,-0.21513498337384573,0.6866668236833828,-0.7777979830907648,0.7137982163852321,0.1776304416000245,0.29984458910299794,-0.8620539559504973,0.8744008716044733,0.2622748710097931,0.014750413112954552,0.053673998607804974,0.9991082512588378,-0.021272051088476962,-0.4447724382486291,0.9285283471243047,0.637374491955744,0.6939125118484142,0.6632362114240193,-0.3127499199769156,0.1154523848624005,0.9391488824676444,-0.7106423092121604,-0.39956401896032556]},{"Num_inputs":65,"Weighted_input":0,"Weights":[-0.4055047099178154,-0.7250472247926545,-0.4689090633791133,0.9730272390271824,-0.9305194866961779,0.7297608183348097,-0.3215212345190793,0.3723120871645407,0.801227917206236,0.8541327480849976,-0.49748615267169527,-0.3280643616865291,-0.6727697209276048,0.6637175043763976,0.995530958479399,0.4889883745668806,0.37554354375225585,0.5098139760546583,-0.645370140521565,-0.18965842703217717,0.24148666626061988,0.2999457069836542,0.7878365785078096,-0.8480455240132343,-0.049303082404781984,-0.7610093205104311,0.6495083444182088,-0.909124596060479,0.0489377283040513,0.6501442202823731,0.9358169212071998,-0.3342709896595528,0.7608914886370726,0.1504972468020711,-0.5276699986055778,-0.1812042823632496,0.7292241548938085,-0.8087476895525056,-0.3875478234601898,0.0854516128108922,0.449315977216991,0.35816245981146233,-0.23787009555612548,0.31995604497931485,-0.8079051540801763,0.9302527941236252,-0.5743696363249529,0.9105335859927828,-0.7619202977938878,0.9935867867303123,-0.4487255237837915,-0.06467891617302313,-0.9429738905197859,0.1161547047845628,0.9440217778815543,-0.9064230103923299,-0.04255084710988166,0.7795763413894132,-0.10559018411755539,0.9245061946553046,-0.0023752206282098287,-0.2259065778792183,-0.14939947372262286,-0.4514045716887284,-0.8868360956613481]},{"Num_inputs":65,"Weighted_input":0,"Weights":[0.28326742614270284,0.2084550948732704,-0.5940901925014603,0.35852736214867775,-0.3891522467690326,-0.737138105707128,0.1977741728447051,-0.17640985199598513,0.3026841243802523,-0.9940781340692936,0.1189076119541368,0.3847152277795336,-0.021719295110637526,-0.6862390452998959,0.9399940238990037,-0.1430973030403878,0.702354356688689,-0.5313877364574311,0.6486647676421775,0.6866157190765636,-0.9446934746061117,-0.8902115801909676,-0.3850135005804787,-0.3451906130472643,0.915801357759227,0.3688609840938264,-0.16811356015843248,-0.8621642466042254,-0.005198397510804642,0.3743263852752019,-0.3083091286605595,0.4756615837632059,0.7826770207448912,0.23720876796656976,0.2666713320269778,0.6712950197289711,0.8323145674217238,0.5772221889966818,-0.36208680178385233,-0.30656519325937037,0.8358236502584655,0.8556732624255061,0.6288669590101681,0.09677021840576683,-0.8923131845381118,0.3017349534053313,-0.8348182313354153,-0.04352802805157763,0.1448936942416097,0.40236352261712227,-0.05394780877678762,0.2747175438053284,-0.6327453699371676,0.6044477238620136,0.5552064408340545,-0.9753612451954627,-0.46138490848431435,0.5057326302020393,0.7415412735478628,-0.14574852020917817,-0.03824582989875647,-0.20701400760089128,0.5230220514050408,-0.791515729445377,-0.8881834098503205]},{"Num_inputs":65,"Weighted_input":0,"Weights":[0.3938559429174564,-0.9053704229577939,0.7260748729082507,0.5089642519932038,0.49199021532611575,-0.9636279653197167,-0.43733546668938605,0.9374762914563319,0.3219674338052463,-0.6745925489919729,-0.8509738930787363,-0.6137086737665767,0.09653350122719462,0.7182411063170053,0.2482199147445232,0.3580659098474397,0.6819693620976883,-0.0757742546763489,0.29179520545335813,-0.9847603921346201,0.11405819912749049,-0.2979466926439347,0.5377421231489072,-0.5256557771776491,0.6982159280993481,-0.29650825633640265,0.4896421928034074,0.28309681526589836,-0.08253804022754974,0.46408903030313886,0.3028265257519036,-0.36010129748798647,-0.40240375267949624,-0.39915775798209896,-0.8623631631633657,0.7124390215476619,-0.04811364119773165,0.7056316242878315,0.6860339555089405,0.9385863953899365,0.24056155611096997,0.517848268544616,-0.12398184868485684,-0.610585510413231,0.6093457831713551,-0.8006620971596736,0.13608395512115767,0.764233894435062,0.9512153891283834,-0.4551572414267725,-0.3175575737872789,-0.956421533729527,0.7876565862501483,0.41494594642376326,-0.564361117732836,-0.8828108320936566,0.9747363865487462,0.48659576730399134,-0.509176830982655,0.35266012352393195,-0.2198833038064577,-0.2558398808355522,-0.6796747071678779,0.15748728519773691,0.16552044028363477]},{"Num_inputs":65,"Weighted_input":0,"Weights":[0.3151893445417846,-0.564111940230567,-0.8809084199186132,0.6220240939930137,0.7269603663544362,0.22817599984489845,0.5787881257387348,0.3118475213997347,-0.16838778071512484,0.8771417107851935,0.5379267422548766,-0.5622074775166181,0.8442513836951475,0.07336008237349834,-0.7140986759140888,-0.4227885946856993,0.951231008280955,0.5545541019014089,0.5268083435994171,0.7110957526369452,-0.9571815767307728,-0.8939460491089314,0.2624117447968797,-0.6661444896024843,0.826455358164961,-0.3174800123798043,-0.774028529007782,-0.660440239523207,0.2908908523767193,0.21593310538752908,-0.34862885028820645,0.7737377984946321,-0.3762981431167094,0.5480562947287158,-0.9964755061864332,-0.8560666296335211,0.331129390865726,-0.45786057940255387,0.031114852440324414,-0.5546973892088185,-0.20569913258181272,0.9077834771327233,-0.5228153612679429,0.541843983064551,-0.043112302610972764,-0.17814244449768946,-0.2843029288195472,0.986649171369419,0.9747873358803045,-0.8341334891517584,-0.6204645352952148,-0.522349047508141,-0.2287053847056415,-0.2566481686281693,-0.615644059083494,-0.45355537402608026,-0.11718196491639243,0.13325805341060182,-0.9974955802311402,-0.0996828310099438,0.12066708003786597,-0.4091935203450384,0.5357674207113654,0.5278282953504758,-0.9607140838763109]},{"Num_inputs":65,"Weighted_input":0,"Weights":[0.1273593984571859,0.6520356741971769,0.10264533981969093,-0.9822882314192046,-0.7471937036980134,-0.954625377877601,-0.21594015675150546,0.6218504754262906,0.8936859157281825,-0.6166209792790567,0.8335040931295643,-0.26528074357239906,-0.632484211955759,0.31120915549586736,-0.9395075610112641,0.3408127321741814,0.6655507062276309,0.5071716530711583,0.8802747169592979,0.8711501988388419,-0.09419518022376439,-0.5256440813960974,-0.44080903907465185,0.05410897676913784,0.9720993914819926,0.6463314268582516,-0.4456929825717877,-0.7898759224854977,0.20131463587570808,0.470617880419006,0.781186366010794,-0.8288512573878982,-0.6019868136161401,0.19876331511404954,-0.1205321661370633,0.19655332198483166,0.3852682856300631,-0.007149930557254547,0.7834688972664461,-0.32593819607694374,-0.8159024329741009,0.6587050911978047,-0.6377944698783914,-0.5973135202823325,-0.5800151670162301,0.5975804412332781,0.34176219365273486,0.48673980992589483,-0.23034100467832164,-0.988915341229993,-0.7194568074655017,0.5032461424328889,-0.4897225734248567,-0.1680437151711951,-0.3911594561758732,0.15455141428948815,0.544285436054986,-0.8539845274211755,-0.5900827141730969,0.019257255186766686,0.6525256074679457,0.9650668450530826,-0.5715052161851331,-0.07843015095118089,-0.5012461053806092]},{"Num_inputs":65,"Weighted_input":0,"Weights":[0.33263615814665193,0.5926822834338976,0.23157308515693065,-0.32632804776008617,-0.5246258414228946,-0.5115588275539249,-0.5589932933070674,0.04530679470557053,-0.8471468695461866,0.28307538709006064,0.2719900855712303,0.5373007349347501,-0.22804196783438802,-0.658846554324467,-0.3492671674855954,0.7343239474062035,-0.24438121599396245,0.24945207491845456,0.48607847281333383,0.5075419192812971,-0.21979476006281495,0.7724423307343657,-0.45812454533148905,-0.35368327693476476,-0.3076801811383205,0.09812871234912168,-0.301128762710988,-0.5478979597522129,-0.7171146576407663,-0.8647964965337436,0.06323546980871608,0.2102101905798297,0.23945115019657037,0.5542020319723828,-0.6258846811558632,0.11072185937025569,-0.5830842179934594,0.3107727632457311,0.44177891061373953,-0.34117622946237214,0.013892713380437183,-0.4692196571209005,0.4824119844141548,0.5054454944851756,0.4768280262096487,-0.8880268075141586,0.83048096271139,-0.834283644678676,-0.6860669307279988,-0.2591173647573364,-0.02127346866632074,0.45805911674903,0.8436834485249411,-0.8540948452869314,0.14707316106612334,0.4792827208693424,0.8211238248071613,0.45404617434780725,0.3488334507767641,-0.03540386717059185,0.8850350940118696,0.7143612768014058,0.030047891071274924,0.39821479122142733,0.4683074788700261]},{"Num_inputs":65,"Weighted_input":0,"Weights":[0.4243510723822357,0.7065688133435,-0.5386936770764617,0.48947105838425276,-0.8492070325400021,-0.03189157750504523,0.20348463511896098,-0.19827398486616554,0.7725093747400384,0.9685731877099566,-0.8468193032999941,0.2553425227725372,-0.6556313269092464,0.9480378173541857,-0.2006495647333162,-0.4651501677161064,-0.7942840365347756,0.06431443823881389,0.3237469912876856,0.2130782737870014,-0.5983869520373911,-0.2420861257628334,-0.46333274616192643,0.32566970542722373,0.3224476512712344,-0.736486809659597,-0.5220872781696633,-0.8087181179368508,-0.45920941972232765,0.8330226682367505,0.8606888591678066,0.9577297065378971,0.09172374941364403,-0.7347218582155264,0.04889378510389353,0.8398026647345069,0.7772311219426842,-0.6882497394165115,-0.8419364295344658,0.36379249656367385,0.1723722375130381,-0.6588899684210542,0.4061533621388862,0.03546145638730258,0.2685562255896272,0.4844788403375695,-0.699211233051239,-0.20297673757502777,-0.4600522355576838,-0.7864401099090375,-0.719217870672987,0.20058301990114868,0.82750415833781,-0.8946904333922665,-0.32204790882667345,0.7431188925262648,-0.915374041683088,0.8526594219726533,0.9876854637027734,-0.7403070472927851,-0.5615483388169256,0.308800265038224,0.8735271865532432,-0.3493137970482606,0.6201506193135369]},{"Num_inputs":65,"Weighted_input":0,"Weights":[0.702555856709304,-0.5951406603517064,-0.6592619164412505,-0.8943862291310756,0.7857163669519451,-0.3373380437499559,0.145025247269726,0.9777748821872532,0.4561852377008768,-0.9542014817361634,0.03616028772058577,-0.8249716521905884,-0.6875822570231739,0.25854195662786683,-0.20218667069892382,-0.21387007856899087,0.28738505425155636,0.6335866199401019,-0.40595811909033974,0.059599162133656014,0.4622711580393781,-0.39273872317138525,0.16076418016335903,-0.953589711074458,-0.7396409264959047,-0.23948853775224344,0.36556801289910124,0.9442445191832551,-0.12876016141249003,-0.02827711833196589,-0.9089250159977482,0.9867797483783489,-0.3857719199026457,0.6873819609418965,0.0984465334383493,-0.02571850539845788,-0.300464803350203,-0.9904246587730485,0.3991485790215523,-0.14106058653934672,0.9531005290974635,-0.9644881637604082,0.9420514228202537,0.4974132639792779,-0.8315044561916287,-0.15582846237163817,-0.8851915586519354,0.21016795068009642,0.8455286105367052,-0.28602275552905465,0.8831966355472054,0.9491761358334525,-0.22249630966033895,-0.3187976971407577,0.2353573810488443,0.9066609435184139,-0.8271195156821101,0.03906962392764646,0.5055084764325708,0.3856777777544984,0.6178764928512253,0.48387682416040056,-0.8948425739525133,-0.24618269766309897,-0.2245794483953959]},{"Num_inputs":65,"Weighted_input":0,"Weights":[-0.652409819303841,-0.7278546535770838,0.4619098741150862,0.18847913367544833,0.46086141374809086,-0.3312152669906575,-0.720692705734061,0.5146881266977477,0.07861560182077931,0.7382567178837358,0.505881128557623,-0.3271792161402878,0.37223316977992194,0.22531653617868197,0.8923907359154251,0.19402040800079678,0.2868400489246463,-0.10687040940904002,0.6408361108030831,-0.4428987392229069,0.9330386983226422,0.19073720107971792,0.9488261267154188,0.45168085782333156,-0.13597665490634936,-0.6188642235854296,0.8631259195083794,0.8577449172923415,-0.3599977711146103,0.7309358232199934,0.9790024756748084,0.23133812765242623,-0.6272192906307673,-0.3797073195039863,0.009737730236930142,-0.1903934248304675,-0.601288499541391,-0.6650120255570819,0.007543400661749855,0.021664079866390296,0.22906365275599838,0.20441113553063373,0.11671190053009939,0.9740547933918586,-0.02493242174547583,-0.684187157378505,-0.19545303511094037,0.02008506578998981,0.6059578031319464,-0.061581687298167265,0.83858863739552,-0.764961599696047,-0.98334621593737,-0.8038981739523914,-0.06891436211987179,-0.8179782680168675,0.5386476014146946,-0.470799064515506,-0.2131292792806837,-0.33817015648971993,0.1607345436493186,-0.3442510043196634,-0.33551619352737605,0.9673214034903015,0.4000880930407662]},{"Num_inputs":65,"Weighted_input":0,"Weights":[0.48962147939382095,-0.6044920380806882,0.19788742754358268,-0.3427521347573421,0.9887387342314358,0.5716147854438731,0.7073283429686792,0.8893955337944965,0.31351497598560685,0.9396905136585423,-0.87804315344683,0.8989053441791062,-0.46803517698794594,-0.6176056960549319,0.6247346267407525,0.25678088690990153,-0.6860569208598384,-0.530772297462389,0.1769297627215951,-0.8820924334126338,-0.47594833660544456,0.3461399337692006,0.8627713978784946,0.37162210397379547,0.7858979406606608,-0.24401546636046612,-0.6375377240549902,-0.7929755664522172,-0.6950573110488502,-0.9111140688615912,0.2011895470616838,-0.21029356300440905,-0.38527824979714165,-0.42796037900971595,-0.1482701738147929,-0.004078726798031673,0.6328123279065427,-0.6311431297448586,0.1246914614606558,0.9014296930296111,0.8628305638647238,-0.1369383793450062,0.3655330843772382,-0.24535805777710906,-0.6140540608077583,0.644884037620074,0.27516243029895726,0.19251464168095134,0.8211418737309448,-0.42884862954372016,0.45659101900182253,-0.7978282674059562,0.9320015967156945,-0.7779620779184587,0.534110391466565,0.7257442084330041,0.6928910606537733,0.2089661148054398,0.8194790692673999,-0.07642929673320809,0.7843741887113755,0.11823147583998272,-0.5559890231659036,-0.5026813421729811,-0.7234335113231368]},{"Num_inputs":65,"Weighted_input":0,"Weights":[-0.19543327683549305,0.9360036410241368,0.002135973438877503,0.7534796938222963,0.26874313811887474,-0.6248824321121709,0.8199471829261242,-0.5518754806884552,0.6212169712971305,0.9286810454097243,-0.466527276656731,-0.7288109177670925,-0.6949495434827409,0.19665568614767492,0.20406051629412536,-0.33717112215670286,0.08281585350691123,-0.7575544554575235,0.8757492174316879,0.13359824645974694,-0.23168948379927223,0.23085806968217093,-0.15144548497336052,-0.46793130668363614,0.41268143652829337,-0.1393101894508605,0.2652420570615712,-0.5211463343393239,0.13623993292066006,0.6243239500375228,-0.4465917747745708,-0.3222489829117219,-0.7167438849886203,0.19187227490283876,-0.12308761459714723,-0.02938427513022135,0.05417899344714794,0.08710641547844356,0.06466518010233924,-0.17629279798061448,-0.5347753863489293,-0.4070976702208503,-0.5007486347476413,0.14374705003559374,-0.9061533115396136,-0.2040177992955743,0.1921895419338817,-0.49560734208392765,0.4761732327379511,-0.791427509352895,0.9319646444615499,0.03791259448074458,0.7103822446068155,0.7677483667028029,-0.08305836296630054,-0.49524727128874957,-0.770638576398432,0.6702991199020059,-0.11805828041434752,0.20829769600898218,0.9074626357343853,-0.87870136890928,0.47224771241422925,-0.08986145215732955,0.06176065920982432]},{"Num_inputs":65,"Weighted_input":0,"Weights":[0.27644531463990885,0.6675224016969037,-0.5149656836514395,-0.4716888095393229,-0.871645629304302,-0.49569117412150643,-0.44372135675939284,-0.6482490585735741,-0.6051286349494753,-0.14675142927490048,-0.5068182609990945,-0.9016544281185056,0.19478173246816466,-0.4380376464454212,-0.28186135984012617,-0.3972227355635304,0.4073745148198158,-0.11747066874727641,0.8315620816201166,-0.21715877707471476,-0.6240680255792563,-0.1094071205593723,0.40953184521372243,-0.9117653200900622,-0.546625300161957,0.7303125238445687,-0.7307951512331822,0.7964051208173659,-1.807623994032337e-05,-0.9795288201990425,-0.48019894339521796,-0.6652032904573858,-0.4168954745459027,-0.887502491539754,0.256231473876102,0.08162607651566134,-0.4203162713442469,0.5280495447276852,-0.27623282722224196,-0.7219940899261171,-0.18869043992042922,-0.08273975061060235,0.5716731091342231,-0.430227570352141,-0.9782315100261855,-0.006197035202320178,0.43500197806828367,-0.26904893379652073,0.6915884651761768,0.2078854275137656,0.3213318225148556,0.17300926184971233,0.08404911353106992,-0.2156124777482381,0.9373540889528889,-0.3522426766704404,-0.894718281318728,0.14458773338114694,0.6805115431409903,0.8425959385299608,0.08159875459494637,0.3897625449772053,0.9981130502442672,-0.005841385200027749,0.013202443468579794]},{"Num_inputs":65,"Weighted_input":0,"Weights":[-0.8898137848586354,-0.0380383030135244,-0.8185169716251542,-0.22058482280755776,-0.8493857738261317,-0.5759263013576961,-0.9173091507089887,0.4765161173450152,0.07564164537642015,0.7945596331548741,0.7759381011618705,0.5411494709525786,-0.6644519033107672,0.21761977440862768,-0.5239758208444152,-0.21442416835314637,-0.22140706283827738,-0.935177447827743,0.5053359142098586,-0.4502292181024252,0.8661178081861527,-0.10325270012200438,-0.2141109135181377,0.5151011119713924,0.23364142878538097,0.6899795998612408,0.15067820672150734,-0.251976651542997,0.4096728500162765,-0.8330013257933173,0.24190810651829375,0.5688506580205692,-0.5566399967717888,-0.2707019913751706,-0.38754537885320184,-0.22025709816479278,0.050236412478852355,0.6452334775126911,-0.4007666737459644,-0.7563805510915991,0.8702267414146596,-0.0650899100659671,-0.5519550081328133,0.016301976495797676,-0.5069231370785938,0.19937130968914452,0.8316448761999815,0.004985829616079407,0.8889153275280419,0.5782924863654384,0.7886253426137593,0.5017108255640959,0.8338507856912534,0.7860089209171146,0.16079061012351614,0.5278968280483902,0.21564653614277218,0.378485804568766,0.7015829507586733,0.20588918838072523,-0.8620288918763244,-0.7118546030686825,-0.8636843901653469,-0.017365493669705967,-0.07686160964879485]},{"Num_inputs":65,"Weighted_input":0,"Weights":[0.5543668783761277,0.3425863918461225,-0.38442900135022073,0.6913150674210509,-0.5474840324254666,-0.4815126958666123,-0.5313187307521865,0.2648017527678588,-0.16655145330539356,-0.6887264771001903,0.8095241134339999,-0.5455169067799318,-0.3383848642980445,0.3818157609548245,-0.9608537499473748,0.8352401713019149,-0.35579320617255283,0.31737938549703015,-0.6371362634996105,-0.9564999672796222,0.6818351468201311,-0.9618434469761125,0.13625660501113823,0.3048355841826964,-0.2108899315973558,-0.8061822674401072,0.470542140131732,0.9718552183442231,0.2986863101191315,-0.5469350800249162,0.08964545025905357,-0.3742483051510497,-0.3831678176833173,0.8179445700979564,-0.450664656718351,-0.977032264720553,-0.8498400888114505,0.7369028746361777,0.2450698502999793,-0.5646944158385352,0.23089335381725573,0.917529407313733,-0.544401415855154,-0.9546013497081618,-0.7344606911216247,0.7068849732297691,-0.1420821578674133,-0.28260389808163544,0.9441942045883591,-0.6452070991432606,-0.9398426296238201,-0.20344711632639456,0.948011635120994,0.502678197640714,0.8913684761357616,0.26929888077896624,0.24563497851774807,0.5047716100468598,0.16478911574052346,-0.4700933549471856,-0.6439032450433677,0.7217497408779512,-0.24362984265342857,0.9182741013176419,-0.16482435604549595]},{"Num_inputs":65,"Weighted_input":0,"Weights":[-0.6444352103014688,0.14424589676313837,0.19271736979017096,-0.9128007799039127,-0.908551880553367,0.543978883460972,-0.010615996546070483,-0.9505161278765474,0.08170122601048502,-0.9241942130737899,0.17610993944802944,-0.9247403684764468,-0.8567494418566002,0.45905850565434414,0.2009675006780891,0.09360900390601956,-0.6725487559894316,0.8790687534372568,-0.4120239480732222,0.7512672086019974,-0.6573514762164399,0.7426060496913771,0.47175812541376927,-0.1873895603862744,-0.03515375790460229,0.6804426516125888,-0.8609407278923079,0.9727245663073734,-0.12657436976816838,-0.4431084096534328,-0.5982484997372157,-0.17218178322738031,0.6903814785581885,0.6191973850947114,-0.7562611437446483,0.5398558977703372,0.9295445226489178,-0.3913406200527585,0.5327555548648053,0.06416527973367647,0.3055638036798931,-0.04847137144335956,0.03956277938438757,-0.21111908277119928,0.34148019634965276,-0.9260812352585042,-0.23046636260713838,-0.8162471200405617,-0.920338204918015,-0.9937782894879964,-0.5960964215542933,-0.34998239287982624,-0.15900261435264496,-0.6810550882538315,0.4448470086660141,0.6031569510973525,-0.6243205807905167,0.5470820804603174,0.6372285026836182,0.872827618484038,-0.7345430972418054,0.46800818344099704,0.257518603133873,0.15473649726917316,0.817026748290945]},{"Num_inputs":65,"Weighted_input":0,"Weights":[-0.4012372775146006,-0.028376599347310183,0.012901446761216961,0.03499153229628371,0.3090502018354899,0.6841441951025655,-0.7203784497405123,0.05820895378818092,0.0339663481382233,0.827446690218248,0.1445712541934394,-0.1668257021705657,0.3500637150453292,0.1204879439525266,0.14018038459170112,-0.66084035394145,0.9113179242337914,0.3531970685401373,-0.16542877195784222,0.9023276984597175,-0.8379565077857569,-0.6035709680912855,-0.9090331789754706,-0.3032328207836078,-0.6042049402361973,0.10224517611432682,0.7446646927582965,0.8446495929333477,0.25832711547003595,-0.5693047728680115,0.7287925652275398,0.46789069064182987,-0.5274196997261691,-0.07202570432085653,-0.5729097642618699,-0.1328173416730094,0.28478154851980597,-0.5093246016147466,0.19610811415381035,0.2800626348147155,-0.718275292587657,0.20926681804055902,0.738571700961169,-0.3663450623338248,0.08691713841402726,-0.8791476789996955,0.6898677352720599,-0.2534260403157851,-0.6474912620655559,-0.5151433438785189,0.09711579059588371,0.591395208777824,0.5264040310297529,0.5429335036578578,-0.40717620700236345,0.802226097782438,0.9349247384023087,0.40562349980794,0.6321506344873897,0.6012508864002579,-0.60033957077907,-0.6592127176230442,-0.4405028040834902,-0.046085134814305206,-0.8175639705317789]},{"Num_inputs":65,"Weighted_input":0,"Weights":[0.2033541172159128,0.7393478537159535,-0.6990432814182399,-0.04184353154013121,0.4354293257765274,0.84059386697386,0.5929907052690635,-0.3313834968877405,-0.06255485850625475,0.8402759244979063,0.07882022465428262,0.615826248946737,-0.46610931644884424,0.061901539826959784,0.737359489882965,-0.24313720694173413,-0.8716401497682004,-0.4068197888731705,0.5933602398861655,0.5670784772284212,0.4835136652371488,-0.3542970394802112,-0.03787126526432749,-0.5784807047881858,-0.2082805859152267,-0.541540642965653,-0.974016679070095,0.2772870218407353,-0.2680795366762079,-0.2991470507727505,-0.623933932328237,0.2804662307006647,-0.9033044584487683,0.02964085723483012,-0.4910126919742457,0.7713593746642684,-0.8461516634124103,0.3591181140373505,-0.3260167265742986,-0.7941527439600885,-0.39306996645339654,0.4082459657257449,0.0916264234888875,-0.954838169988235,-0.09022919907221216,-0.025742915290119184,0.7513404820669847,0.3879048947071022,0.33270480405366754,0.42060993878879804,-0.46418981450195773,-0.9767240613040963,0.3853913800794564,-0.3696771685071788,-0.5573194567525677,0.8903666704434423,0.6756798986908206,0.36631962875807456,-0.7514734322193553,-0.1491759142952256,-0.41281584596232945,-0.522178707734501,-0.8687485547795,-0.3725246232485383,-0.3259273304122291]},{"Num_inputs":65,"Weighted_input":0,"Weights":[0.03371713124804465,-0.5790709822792385,-0.49600113952597047,0.05150501056356371,0.014010206234020384,-0.16330808748640258,-0.8374834716745699,-0.7198675561697644,0.686037048274835,-0.677461610320969,0.48803526664710595,0.7645453929163986,0.6273070811834829,0.44512853312342027,0.13183619910788602,-0.4296270717368226,0.7109679974324417,-0.022666223431017207,0.4741726846417922,-0.656490448105118,0.3146149747171967,-0.0501372243781435,0.3272840198747784,0.2428891914769309,0.4771582452045655,0.14287127274747302,-0.5094763384639953,-0.25261281132133295,-0.3502072538374691,-0.08506185690336932,-0.9218613724502503,0.7776487789867139,-0.880935752397317,-0.4072302094190836,-0.19162605602281035,0.12211595568686873,0.6694899649873096,0.9679669143773091,-0.7131864678511748,-0.052313712396706236,0.826519034257635,0.5398428071171244,-0.6435307667382788,-0.8690514813787665,0.2870108278292347,0.6026829360123738,0.6649510603539375,-0.1164326560078024,0.18838939409807032,-0.44370762865665936,-0.7667717470958986,-0.6128835572943987,0.32177781611115064,-0.6394954203732439,0.8284119108632828,-0.35995791830451673,-0.8843372586076086,0.9018599648006309,0.7653926468520351,0.04958617499117057,-0.31206607161841804,-0.7738728030550921,0.9184082472259278,0.8801426602301694,-0.9238561625264858]},{"Num_inputs":65,"Weighted_input":0,"Weights":[0.6424952739721446,-0.622824239755951,0.7667531825887721,-0.45770331368336625,0.9249488886943835,-0.838675373615536,-0.9299827905908801,-0.7640890908187336,-0.6495576771143947,-0.8775299584527327,-0.8064759752389132,-0.8717531926223641,-0.14238482648503403,-0.4591840098787555,0.0900643428789607,-0.5719696489984721,0.0764434675978023,-0.30048473828065647,-0.4783716966535406,-0.3017366413507928,0.5883687944281917,-0.11425586732683557,0.3582985609114382,0.0038207678954877977,0.9767056743794686,0.3429974919945449,0.992454097229637,-0.08553642313620413,-0.6317514064433121,-0.9313478641971993,0.6904128860145142,0.964032512144491,0.7143501243141317,0.32622219793772844,0.6213309788171568,-0.8590957675580133,-0.24771281509342524,0.7900659601439866,-0.5598679593534446,-0.5073505898700743,0.8150037038702822,0.67627131910954,-0.48286353762822887,0.5618055228550307,-0.6105030029701959,0.9716746057321259,0.9953761979311251,-0.8911966956379719,-0.045188552869334764,-0.1546439012563794,0.11454314164162871,0.9732326535827325,-0.3553642273236156,-0.371171427867242,-0.5355989274486346,0.5897496286213693,0.6493050216471883,0.833717764450639,0.6467568891068547,0.32502727615062565,-0.7352897957167237,-0.3266069180098228,0.9058422400231625,0.9449125623197558,0.043409105739073306]},{"Num_inputs":65,"Weighted_input":0,"Weights":[0.6231282357544792,-0.772465411314226,0.8365458186809998,0.1487257958959738,-0.5445542907960412,-0.7104695393822487,-0.5883889975950212,-0.38145198645063805,-0.06785486663133478,-0.9778665987887258,-0.4298268758427696,-0.9057818088397293,-0.9707904919049355,0.8479629042820402,0.5311587522486318,0.6684397102722563,0.8285424969054411,-0.2676883056034295,-0.550598562024597,-0.7064296524301557,0.4142811667029882,-0.8461539103660977,0.7913310366492647,0.5746280690547494,0.4023657129134548,0.3816805935906378,-0.1845806464985973,-0.6045165289015303,0.9923789388966926,-0.8200443315688744,0.3430280104200423,-0.6105369198525682,0.6480012245782818,0.8900466590266531,-0.3334335023368188,-0.869500586626594,0.5024301768129213,-0.8635566596526261,0.7743821191716223,-0.32396651936464915,0.009735974944745873,0.7999900947210199,-0.9771629251754926,0.9996382142035707,-0.06840819552030464,0.6767388241191903,0.8833638063526348,0.5727630558911965,0.695174414273924,-0.6480124654259062,-0.8045888661380987,0.48578586577933613,0.6447067227818675,-0.43012244154329715,-0.14550965984965247,-0.6679588462610249,0.618703919898306,-0.8702171989869744,-0.29351184904588945,0.9300243021472077,0.9414862327813527,0.5929349025151001,-0.6440289385939761,-0.40946982499352813,-0.25645342188541886]},{"Num_inputs":65,"Weighted_input":0,"Weights":[-0.7317319613606589,0.9507673700624506,0.47150649715573434,-0.6682737098718525,-0.9776822182797589,-0.012729615732331112,0.1495574859657005,-0.7053343520064501,-0.22162565619010455,0.724184319110633,-0.6477543670069426,-0.6242837590545401,0.7820114169304255,-0.27131561826901784,-0.1459793385593503,0.5835775974536161,0.08286539682764982,-0.19526954356714565,-0.07747396853569366,-0.7572122021414909,0.19744192883688938,0.5054726574835466,0.5850491893302725,-0.6646661691855044,0.3938734936695878,-0.6374788053097524,-0.4280997261967532,-0.0745363038695841,0.8467819418372471,-0.332376627724973,-0.667900196897027,-0.187610179035815,-0.5770389624493126,-0.24345622482088447,-0.14591796183288008,-0.2598896115147522,-0.740601601424191,-0.9292412977831634,0.6695933393083193,-0.18315130330315543,0.9916947023139342,-0.2520135358484469,-0.7326077632052841,0.4232501981715022,0.6148140067739662,0.6967050617973278,-0.7058376233367536,0.2960937723609267,-0.5107909976322498,0.1746998874412613,-0.34579010760065687,-0.4043513027353246,-0.33400608769613727,-0.7119091030944136,-0.504477730481713,-0.12213430484461496,-0.8692447114288324,0.5436346012232673,0.3617825150497258,0.24091915606198944,-0.4086325583900008,0.7673246006110543,0.4055918662855522,-0.22090186905938858,0.7211583827205013]},{"Num_inputs":65,"Weighted_input":0,"Weights":[-0.8696197539821899,0.521974537378042,0.06332636013961013,-0.3274885978966706,-0.1960506846050747,-0.551869892599602,-0.6332122571178684,-0.2511883932863963,-0.03573157159567808,0.33726140226282153,-0.470329669580849,-0.7455819109408639,-0.5541512632356851,0.14296900039087612,0.28556096695663813,-0.6025859917734107,-0.17728404742168757,-0.32725172269159386,-0.7164779704989642,0.6127870785083749,-0.5025413871040859,-0.1767083735532945,-0.9368878999209205,-0.9851048944283102,0.17090675845711578,0.4725927252812121,0.5925413409710973,-0.7151684585064919,0.9459460016327526,-0.144406792160496,-0.6191544317912618,0.20892047671512692,-0.6654332511512495,-0.551095795810147,0.6456706843719431,0.09476257011784517,-0.6407119574218594,0.8348961512929161,0.17251232438831465,-0.17129171814974187,0.3067766980450002,-0.4378318278177108,0.6756163602450551,0.593362584668023,-0.9318550377175625,0.5622093426762571,-0.9636744583913583,-0.8065167150197757,0.9827872709460006,0.13763803242364125,0.6235506980488381,-0.9680062608645921,-0.6186176248017154,0.8168347001398535,0.0024622563485374727,0.7886467465221418,-0.1672782928156249,0.2759312168885877,0.8352075989250181,-0.36548464915753986,-0.550227481703902,-0.5645468977643486,0.6878746405729936,-0.25506670180062874,-0.32635728088359084]},{"Num_inputs":65,"Weighted_input":0,"Weights":[-0.2904004588523107,-0.36743169336516046,-0.850184091527774,-0.005680267942802741,-0.2662465877641985,-0.5467881778781005,0.7896741332337416,-0.6982035098610615,0.866792193888368,0.4876569539859896,-0.21689522753263402,0.8810274642763287,0.3855094152236578,0.11154894579058383,0.26412316111173806,-0.6129296232605465,-0.49247991464455565,0.6479085125040407,-0.0595138613895273,0.5165593753314248,0.4283038180714207,-0.37106267854787045,-0.9674060164818882,0.09308382658592795,-0.9056881274550047,-0.46001644876325176,0.4290816412375904,-0.016618287841257295,0.6525458807581641,0.3442604714142994,0.8135938511014278,0.6073645842569844,0.22721513434326912,-0.5621822481802445,-0.14418636811321928,0.8481041329983945,-0.5254494822674716,-0.05925446329777473,0.21360832150310416,-0.30011514786982196,-0.17009747341669423,0.9964525448430448,-0.6569858032635874,-0.225863410247924,-0.10923205727892449,-0.2658670355934697,0.6428777012505618,-0.24410669313971212,0.7343820314905141,0.2687041534626564,0.5090591492473484,0.9056533451431998,0.3033214196277674,0.4175224058344458,0.8462825199215316,-0.349909017840231,0.6991410312840061,-0.24573252462432982,0.17171384333611184,-0.935757719475164,-0.05352269218034045,-0.6769114489905131,0.3645127018015659,-0.3167242945159806,-0.2551335212817588]},{"Num_inputs":65,"Weighted_input":0,"Weights":[-0.17782248993171768,0.09194764991303339,-0.07982577060185414,0.042832655789429186,0.49701246791373355,-0.45523779843715284,-0.04829832504582943,-0.3309391203320653,-0.44289166146459824,-0.08744797049213615,-0.54991214453713,0.430320017205045,-0.14444565291370448,0.0661957155851427,0.6134389535963745,-0.8990242221432921,0.9438602982474731,-0.10715613407721924,-0.336319785865859,0.5564013455947221,0.20947868634269518,0.373290292745196,0.4958900492597307,-0.030068335010311142,0.8220858902574402,-0.3318204875629046,0.5253053164706658,0.39451675999905067,0.01531299464430913,0.11940226429236023,0.13386000208885518,-0.7129424467285729,0.5636007967703058,0.826248155005505,-0.3709489307785836,0.051940717832024585,-0.02823598002953065,-0.25322792820977225,-0.6272089137355367,-0.5018999899334535,0.8121401927202943,0.11332606450636451,-0.7032886844490921,-0.637332672956979,0.7447847322420988,-0.8061665810946677,0.40270482644124517,-0.3148430883981238,-0.0362611327796184,-0.5329347722615234,0.7503238489517043,-0.8442804446145185,-0.09020159454679166,0.058339919187424094,-0.6319769660321539,0.17228856525602176,-0.24298918791894364,-0.6394507490731309,0.6277498107328048,-0.6810518256780662,0.8591036369001932,-0.7678839360776305,0.19829657750558538,0.9442263668893975,-0.02810944405141258]},{"Num_inputs":65,"Weighted_input":0,"Weights":[0.08538213853795118,-0.5771903545568622,-0.28921237554168455,-0.41468084311478737,0.9030319852359301,-0.45263050871101485,0.6811937017765248,-0.7852104501957604,0.9114056704583062,-0.028731960579562066,0.9125362890339883,-0.2526413422686583,0.24350707900014612,0.9036475506045827,0.5263758052082368,0.45036501635833237,-0.7628914284952172,0.024059633304958528,0.6828160961523062,0.13329512737469829,0.37994353805950487,-0.4486980586113346,-0.9671327671374208,0.025915971012240746,-0.13225543377771276,-0.5780618686506014,0.655738165565569,-0.20629682535091642,-0.880682816141928,-0.9041521552974484,-0.954697094696056,0.6518037988854151,0.7362280589428736,0.18789193770500479,-0.8417101492849386,-0.7398720124042018,0.9051348194898776,-0.05468790971292714,0.3919303991893306,0.8832605828953646,0.6921406691658747,0.5314702989064257,0.054232043438858346,0.9177307960742322,0.5776307005449655,0.8122974916574008,0.5144425807682664,0.2527980517735937,-0.8594985781919626,0.013794264713347326,-0.6596708279763079,-0.9727566755325872,0.30294817475706126,-0.771280678024586,-0.2238242506360112,-0.6075023176524859,0.367418865918854,-0.6529739511013364,-0.8391486548986138,0.731224408595547,-0.7227320339550696,0.4411854462021412,-0.25481597876696505,0.30237089242760007,-0.5672093851316693]},{"Num_inputs":65,"Weighted_input":0,"Weights":[0.35152714533186424,0.33912543328000133,0.004983207440508286,-0.02359477453340797,0.13174591877368114,0.5112739055801367,0.1023833589569958,-0.9377929983370152,-0.7345994607797615,-0.7232871540875255,0.25142488901155735,0.9465912276092567,0.2535075259301087,0.6994684977203554,-0.7429733619797132,0.9776741749110067,-0.7466746872340103,0.4239011276716922,0.09059922331071335,0.8577058236143869,-0.8319597502580238,-0.9253703629117064,-0.4775955858918379,0.24683372478471965,0.4109128456315809,0.7487481793142343,-0.0815030744070494,0.8865217103712559,0.37280633887340975,0.8870984800646668,0.18855803121180137,-0.31551664321555295,-0.043405710573454104,0.17764415814787782,-0.12258154775290442,0.9512085739154552,0.7342979857428733,-0.3098712413146102,-0.8603170266249551,0.7007823680219851,0.2151305396323795,0.2772712661765222,-0.2176663157540163,0.013152120598969308,0.2989750723325655,0.10197218046039147,0.5204234399795189,0.5694553396048798,-0.34282957191046626,-0.0267900954458149,0.1705726232110858,0.17705937406986894,0.1616764725332125,-0.11996813572427045,0.7435544629326198,0.40506498731376683,-0.22546321791325574,-0.4270065580447946,-0.6451064628579644,0.3492649986121805,0.6513684373857589,0.34962064979762286,-0.5107118282288896,0.017742732418597473,0.5000632915371641]},{"Num_inputs":65,"Weighted_input":0,"Weights":[-0.9102581614413737,0.24633671629069398,0.5971471916453792,0.009815816770490482,-0.3301939235540624,0.11718776146340759,-0.4884249580285033,0.5244964154450726,0.19326722973462496,-0.1396888245468818,0.2953600892002486,-0.4526808315254982,-0.5088512416929647,-0.3683688470376376,0.3435415737298262,-0.40086158975626585,-0.5620321359810756,-0.042309817647786296,-0.8680378381948786,0.8109060321045087,-0.7351432989692901,-0.581772626039931,0.11164394216901785,0.4985843384891715,-0.27222341617213375,0.9528973145384878,0.3781631205249081,-0.7592151591909706,-0.08339740123938633,-0.8749234239597465,-0.2839427488331362,0.6579510017717836,-0.24267479701568173,0.5677340420462471,-0.5646849597793477,-0.7970656566291221,-0.8651561619118534,-0.2358577524544161,0.9125591020606592,-0.2216104295803436,0.13779000097311722,0.4868171726056858,0.505388576924392,-0.6511147591438629,-0.11739528593769144,0.7007230398103592,-0.5251192477891018,0.5929594736677772,-0.26822313052835633,0.3662282067057949,-0.050465421943799216,0.6696898620827907,-0.7685918888488539,0.31391014585778265,-0.3204501941788809,0.006577005343525011,-0.587778637440247,-0.21822488565256537,-0.844133820111444,0.7160150278644197,-0.3836182093758851,0.3673018852879597,0.7817228723842913,-0.2915683638507691,0.707578393561547]},{"Num_inputs":65,"Weighted_input":0,"Weights":[-0.30155908628482986,0.08936889979172746,-0.2204821047273784,-0.3669543715728337,-0.07819524758126195,-0.4634653676439975,-0.346008562019103,0.03480214484424149,-0.20167950744832674,-0.10108700557564687,0.03696943529358032,-0.02761752416810148,0.23743738765881872,-0.5134598375247574,0.1331788479136442,-0.14027727347035213,-0.8280656755989833,0.09451988800505151,0.2426613624502425,-0.3702899651315894,0.5917626395770386,-0.590069304342455,-0.6791093502289538,0.06649111774401284,-0.8212276250197132,0.80671550297682,0.831721800118381,-0.7922751648226782,0.8547838202879148,0.7644810323113882,-0.5077094863926694,-0.5715378833387252,-0.9396146291922646,0.5643536536004956,-0.17596928435816872,0.04099795757625069,-0.7053630373350411,-0.46714935803938484,0.02729619085788526,-0.09456989617248879,-0.6990444745585234,0.3165415328905532,0.31489809692620696,0.7932520002979051,-0.22576158419827275,0.2940415742148672,-0.8371149660789176,0.43514047852898186,0.9238128059433115,-0.9194727420807204,-0.1329023786813145,0.18066244442925727,-0.45755626995878007,-0.008841543090655324,0.44684920137855344,-0.8518300338903037,0.3616365210443828,-0.7041189864093038,0.11104206823828111,-0.7273401434806421,0.9360354635883128,-0.9355265694493409,-0.039232835912309416,0.5941792787007951,-0.30666200897746654]},{"Num_inputs":65,"Weighted_input":0,"Weights":[-0.4701769902378219,-0.5821227717751236,0.2368747715023869,0.3706896829341908,-0.40365418327200175,0.823541917233745,-0.5169831514991969,0.6084151951293952,0.09921111983555098,0.7359474601389091,0.08809831720258643,-0.5690152485395599,0.462657881464404,-0.6604106658323176,0.5898057060443971,-0.06910918889586226,0.3136289446289111,-0.43661039727220496,-0.4141833267433819,-0.2055113397851901,-0.5177078159145807,-0.9135168044529273,-0.6500244388388264,-0.3696776446096095,-0.3658300581192645,0.6152665938401898,-0.4667279074605859,-0.13316891331131908,-0.07283343376481477,0.6828420681222847,0.9797414021465167,0.8235141743916459,-0.9465036365927966,0.8106605919878731,-0.4594127000697533,0.8300119091945868,0.4309303870495518,0.35516118282238796,0.8056615069658002,-0.3553198779910316,-0.44399235261600534,-0.21302304271866612,0.5028897531324774,0.9237290329701155,-0.4112474084174099,0.2507934278840833,-0.20731215114979296,-0.5296341550171839,-0.9553096112387532,-0.7674813564980482,-0.4840745013704646,-0.7682856046698077,-0.15823246842566363,-0.9085508867936277,0.9509844092416699,0.7881183899638045,0.8749815660001783,0.41581215052998655,0.8402153192233777,0.49095629386641937,-0.6728295669417086,-0.5665990104968648,0.6310602691152252,0.6820468903923498,-0.7806301064090011]},{"Num_inputs":65,"Weighted_input":0,"Weights":[-0.03381232843395343,0.26543657591452785,-0.5740701565355516,-0.3342902599463101,0.6640641961281926,0.5253563359180986,-0.011792462490000766,0.04576807848727449,-0.7708597827601785,-0.34529406681570296,0.8116088924348159,-0.9410572907591294,0.38816337497026976,-0.40461904285855277,0.8185899296298185,-0.8756139021204378,-0.7316108547821449,-0.28061046228111763,-0.01428515973620359,-0.6362560320058381,-0.8024979360356602,0.004415965145637912,0.19587751610304616,0.37221781381879016,-0.2913591682403709,0.3270872147694399,0.5207152245088111,0.8654499446440294,0.06832830217804697,-0.3331853813989686,-0.269781239040752,-0.6938972038722211,0.26976771658614584,-0.7272013160397751,-0.3945638286846568,0.90973114104657,0.807300870443427,-0.8003118814187943,-0.314565876942944,-0.5644190043699506,0.7784194183640059,0.5510544723461126,-0.1860233809735622,-0.2129266825400078,0.3357367244981564,-0.09109446955901757,-0.7481319008215854,-0.6825216305716324,0.9168035733783186,0.3714078052120391,0.9248020975143456,-0.532243222088594,0.3130624660360619,0.40037246576071706,0.12391730009025936,-0.8965579979343097,0.4388811011067515,0.31433342696595035,0.2027135697458311,0.3021317268454182,-0.4161084358858229,-0.6072254081371344,-0.12191157470855096,-0.35142914887247667,0.4877096064052229]},{"Num_inputs":65,"Weighted_input":0,"Weights":[0.296011035614808,0.894068508589775,-0.14088298519531262,-0.5053254961297329,0.9492855086696816,-0.7416603365992909,0.3847917940722476,0.27325760562023715,-0.08921877391177224,0.22598848887400824,0.07633382722372906,0.05310470291325764,0.5924402767930066,-0.2291358878388312,0.09318076707872702,-0.6663549453363308,0.6914041992661439,-0.5679482754068137,0.4582626489578243,-0.45360327855339244,-0.24681559427942001,-0.5459031826474389,0.7288051031063423,0.5113100020842889,0.9730444139103247,0.35052441110929466,-0.3881199608788669,0.7704704751689628,-0.9289334122212622,0.99922037111008,0.8080095214440943,0.6570301242144763,-0.5188656509912775,0.11425916341317599,0.44462863169786293,-0.5070452102594113,0.8280612338424649,0.6711406868775589,0.2336308856390612,0.8187071110265118,0.7535970064474624,0.288214522174687,0.638898543879459,0.5063025557478964,-0.8599943847968669,-0.12872223543648087,-0.26424035794775735,-0.0992109700687781,0.6018432797880644,0.7615071866523393,0.24259100036941206,-0.24001791649315474,0.14686851489473862,0.024857465523274724,0.9894362518623707,-0.1300508466280088,0.09745145931617505,0.011232961132611852,0.5515080325425086,0.07464487506290385,0.2322584753711472,0.6092434458466651,0.6865647756832172,0.4871420277666585,-0.5089932976762332]},{"Num_inputs":65,"Weighted_input":0,"Weights":[-0.7101664731043489,-0.7020472063845725,0.4227521720420362,0.1214577100291816,-0.40646851821507257,-0.26330296910661555,0.8332397145790345,0.6813075722435291,-0.5311329747426303,-0.11926634483183562,-0.12036113483141209,-0.26420271350403257,-0.03977832390244129,0.4132090613299624,-0.08004120368673451,0.7716763040383834,-0.626363119201969,-0.7758267786076724,0.966893630930763,0.7615568780754283,-0.8742244737238407,0.5291560420148151,0.4216348793660034,-0.5507143093154463,0.13876637109482926,0.35477782786822964,0.3474910830875908,0.8533696144550018,0.8218818928095717,0.5031003820828064,-0.1539404392064586,0.8963289732352093,-0.7859491299458661,0.9656455870162912,0.5725226366257714,-0.5811192852874435,0.10665932864085126,-0.9475714156604249,-0.014010228972800687,0.6795372718263659,0.10023635858342295,-0.3777115098244256,-0.7044451128695848,-0.07928532938499488,0.3558504190211398,-0.4101264815944716,0.39710759152283015,-0.21962897185991492,-0.9879703793510719,0.7083887735125669,0.6570920594865044,-0.22886260074727827,-0.983452878680447,-0.13772096977936898,0.19388179086114543,-0.1576039615623771,-0.9275500770111985,0.7355705083632731,0.7460847281109584,0.9057852694885635,-0.17450973083388155,-0.2848747378266199,-0.7343097435597732,-0.46098126730395883,-0.3333951653094255]},{"Num_inputs":65,"Weighted_input":0,"Weights":[0.08943450954959364,-0.5897316012933973,-0.67982315426243,-0.9785960506403388,-0.5780465092635834,0.18185185244138924,-0.23069547157679926,-0.055161503742688245,-0.6207880387944622,0.784021654161515,-0.24327784033720212,0.23181567434889971,0.588704450218736,-0.5670380289388954,-0.41871678775087773,0.5586575565076657,0.4536282546518531,-0.9188841568723335,0.17603236527770716,-0.714593629816554,-0.5019053508542356,0.8217991013588453,0.9935611890969194,0.13043083805645694,-0.4279709630417202,-0.6260619036112963,0.5018936323783882,0.9863722635950687,0.34395600790689174,-0.28517970922276936,-0.9107286471521494,-0.26073778324368313,0.34481836549230205,0.12626730925640128,0.5560414612451459,0.9077623695135277,-0.5009922776600401,0.9996449972736963,-0.6813393629405702,-0.7209869190828954,0.5699820657541412,0.8851085990053877,-0.2742247872352318,-0.6190762850834954,0.06571468889375853,-0.8487324048946715,0.0987192936272141,-0.1419128728820741,0.3005379072286971,-0.5403815959892497,0.9096955763085524,0.0520325038990066,-0.9902106880029089,-0.44369724224529117,0.8344882694391609,-0.6596304860687454,-0.887717988129524,-0.26554630831745096,-0.8895818871187978,-0.20100471239609208,-0.3692028279146886,0.3782562809554413,-0.1884898329722614,-0.21137693937678048,0.14490741334512158]},{"Num_inputs":65,"Weighted_input":0,"Weights":[0.5227104585221714,-0.6535270803651849,0.6545963616097867,-0.40625610123828726,-0.3135618641734872,-0.07992449149215075,-0.6305484431181854,0.5292934644149314,-0.9212697632451209,-0.5807124403090622,0.655965234664758,-0.010601708362642626,0.4735718886927289,0.44494568044380545,0.6400389966119109,0.8323091420000999,-0.19203162823479092,0.43442127307693723,0.6726919342170372,0.7367281500797003,0.942708941005399,0.4918099295875866,0.90497997797675,-0.5742203057047331,0.6917125697073554,-0.49612803953560525,-0.15919503916746147,0.48765186289991536,-0.5990207464039039,0.3291831911467873,0.3035505289443239,-0.764805457544626,0.007780664524739134,-0.7750540551478242,0.17398950247712874,0.2742166720588264,0.9890272976683114,0.8042859345393116,-0.7680751774110325,0.9325544509737187,-0.7527949236506137,0.7584496765283213,0.931474600197375,0.3281399212998115,-0.7106054964397864,-0.6153186479502541,0.9965566340647538,-0.9676315194333986,0.6184014207830093,-0.2795162171769855,0.13530351425835474,-0.4035588119818613,-0.7022907180953553,-0.2841202479737036,-0.6677760569899598,-0.07589616174624514,0.8292074629907038,0.43141009053835266,-0.08512680894882929,-0.8512952946258309,0.07529280253306303,-0.9393351039060297,-0.32712624245647803,-0.3022020106155229,-0.08706262341947568]},{"Num_inputs":65,"Weighted_input":0,"Weights":[-0.2554552982328019,0.5660766844795557,-0.29763105730550377,0.0465177761403861,0.7765012186705074,0.9498042265327191,0.2376699897586234,-0.931115010553808,-0.3900571668463636,-0.8334932390480416,0.15670501036994833,0.61152477323363,0.4316798493936611,-0.3365700984663379,-0.7589054425115613,0.019968359906073596,-0.7741010875341858,-0.7734465252853879,0.6995251096028503,-0.8700241846947174,-0.42437150195216267,0.34357184095655846,-0.7454963493434639,0.9740049948723846,0.8562429173035866,0.3845808320562012,-0.6932801644332145,0.725311967348595,-0.778843385089943,0.45552459756554264,0.9731545685724314,-0.5566552832090547,-0.1258078483346715,-0.6259133240658715,0.8170319885114321,0.44915233770434004,0.6289169631530469,-0.2572601304172546,-0.2117226552777337,0.4433008697648906,0.051110823911631575,-0.4766665121543163,-0.8163891646140746,0.4142800808701501,-0.050210158728525967,-0.21454950380186777,-0.3614055468205306,0.13477229059040718,-0.4956775275895581,-0.8974572674611527,0.16761687906750566,0.6494411222730603,0.7925253643934613,0.023627963276284136,0.15143359178212168,-0.7665200800016944,0.6672208511619468,-0.008607496325770403,0.062431231918855135,0.9254931961716488,0.7520116525572442,-0.09264457868448761,-0.7367107089335063,0.01713213896549859,0.17340975787450108]},{"Num_inputs":65,"Weighted_input":0,"Weights":[0.3790993153127762,0.36403875151536846,0.24129973135498894,0.7412204983199964,-0.8530735133054326,0.3761758776156847,0.7361513468888694,0.009277183166742642,-0.4035928532514297,-0.0033191417405485923,-0.20196171267942453,-0.12338198300537684,0.3761346455824468,-0.8247960532067822,0.1679595523980224,-0.7368187248831555,0.5134109750101798,0.4110440195434857,0.21373187952863093,-0.3954482186690973,0.8974390592922035,-0.4532817800638893,-0.14778921136999945,-0.4709025763926876,0.26700203592494764,-0.11231181625025466,-0.7824555044748362,-0.982882357515614,0.7279307236039172,0.8926729916892757,-0.9968279570488284,0.9310155756360081,0.7447963257496979,0.15993549330236512,0.4433970472959077,0.9865222003619489,-0.7034953259524277,-0.8654009963304562,-0.6345173157202058,0.7869954579394409,-0.10856526018672441,0.5684771917545948,0.6216472130030628,-0.440478962414768,-0.22286764784314417,-0.8168715044927585,-0.9677536149228729,-0.26360065708929825,-0.8235844860369691,-0.8433517148901499,0.8207841652701922,0.5104416070808402,-0.808483337316233,0.6297887227396131,-0.6887276109894498,-0.11796749307636878,0.005736490781698578,-0.19970733223099502,-0.8103036626236707,-0.8964269022904983,-0.5540001927343556,0.28559920263097927,-0.26492077586268115,0.6671582130458822,0.6307009234390815]},{"Num_inputs":65,"Weighted_input":0,"Weights":[-0.5265566080485989,-0.5923364114442617,0.6746017669016589,-0.22270234879820372,-0.5380507905419736,0.4645716980612775,0.18889977684447268,0.8490662465035683,-0.2101489113163183,-0.6529451419499308,0.9638700732319199,-0.5192091570483004,0.309124776188344,-0.04404685533446573,0.8682006099052826,-0.4539268775078813,-0.3997138700083883,-0.7796295382395952,0.9792624380324599,0.18315813556192606,-0.5597153191442924,0.09204704672325681,-0.7071036493650523,-0.4133185522743609,0.9727212832595555,-0.22176300515548153,-0.6404654645009894,-0.6187309838330937,0.7597861675350175,0.8141237532337098,-0.9177965488632344,0.7729393535765192,0.7040141643729529,0.24358292603613552,0.43687846134759734,-0.06732523291516823,0.058741329350550986,0.18996262596220537,-0.8330845438355214,-0.9329566981016101,0.016104371464142675,-0.18811680991364588,0.14991129116848367,-0.19440960949478114,0.10914592931335076,-0.11651936580916711,0.5025801838573316,0.4778939518223706,0.5040699614504034,-0.753382611742384,-0.8999063393351976,0.6219947886500987,-0.09125085198858074,0.6789699297318952,-0.4375005810406897,-0.13308673251542757,-0.11662140811364397,-0.1394251039605814,-0.41228547647412717,0.7375683622356,-0.5451343970173498,-0.9926232103980793,-0.43383116020416534,-0.9678385713912298,-0.03674705389530686]},{"Num_inputs":65,"Weighted_input":0,"Weights":[0.5402098634808679,-0.12305985441595813,-0.5960903171549867,-0.6005143448901787,0.43892832689355,-0.9550257844002539,-0.8076536287495574,-0.3633464680521564,0.912542781141223,-0.048646317993198185,0.26077875222418734,-0.08229369359192695,-0.9840780277574841,-0.6216999571679978,-0.5426682691845321,-0.970914226979909,-0.2567361003346318,0.5757186305896866,0.6689258644088916,0.8160320808093786,0.8257166367572972,-0.1391042474236739,-0.04769468993480819,-0.7522174806984416,0.6619809028023587,-0.6187389737593469,-0.2632315701901419,0.5938995965499532,-0.0534938054861559,-0.3802865321857317,0.9934144944347478,-0.9130891215857928,-0.6528245861375356,0.6717235170352795,0.9997273535424653,0.4446525401065722,0.13982198402145496,0.7290350148611133,-0.08779337092913597,0.7585794462846158,0.5966093519450901,0.41669121849255175,-0.45579669512513066,-0.05839981052751708,0.03295076552384546,-0.46865355926144525,0.6481971997624418,0.658764832075651,-0.17242064705982696,0.856238847273983,-0.6736175362244374,0.8275834797139923,0.9763662193545868,-0.1390310359391418,0.8255109159060041,-0.3393327211618633,-0.6119189067210817,-0.7960016353416426,0.5528747327251269,-0.603347400127875,0.20558369513697938,0.55455641986097,0.0327016143677068,0.26451374306491604,0.8820120845007597]},{"Num_inputs":65,"Weighted_input":0,"Weights":[0.9297711763800158,-0.866210038487739,0.6037035527325947,0.4402016186237996,-0.8807897010340247,0.3399427524596417,-0.07805757303538297,-0.4267613864459938,0.9690217966543471,-0.7882665687660521,-0.6641988303936721,-0.23813610392355233,0.7404367664865759,0.7623187966149174,-0.4298158862243413,-0.36949315857311726,-0.6324801299929066,-0.8828595733894327,0.5010812091117092,0.6061712771713732,0.5279318830648208,-0.34658462856227357,-0.5567080846592827,-0.3036517796693793,-0.9422624584653992,0.9862838875314932,-0.5352155513146832,0.10203567472982389,0.4453353128298789,0.44385547294450123,0.676782535333667,0.2367559872155467,0.2922805662021477,0.19713795986534643,-0.9734309686142357,0.19377853454577587,-0.23658888761932861,-0.8838221510751865,0.30352926887694487,0.29758437971378626,0.6380931332742716,-0.7564971707809472,-0.23545211938447075,0.11148294980388695,0.7978429560454932,0.7419861693852985,-0.8418075661024288,0.8082208546872875,0.5479508326867191,0.7234369271118615,0.17043563874293333,-0.8780337676144638,0.2862409859966242,-0.9025946623641724,0.17342513436092455,-0.08884274444282625,0.5502776726210037,0.26528354354809247,0.5673315267324943,-0.6984599974840097,-0.7473463878443075,0.21289078530171235,0.7165487278180889,-0.17948920457807072,0.23947223867127776]},{"Num_inputs":65,"Weighted_input":0,"Weights":[-0.6627069223150488,-0.4175145544189336,-0.9456707012886503,-0.44031020954279754,0.22242803454424176,0.6832847103909987,-0.3107905805962853,0.5160213150680801,-0.5917149359164303,0.210934523873882,-0.8643995305826693,0.90444461584494,0.46543181545196455,0.55566892303286,-0.761126345208653,0.6283032944814118,0.528838116543475,0.19701165173471447,-0.794913396025347,0.2591358099892116,-0.8157136320771209,-0.2440979196978188,-0.38787246586590973,-0.05102775132990223,-0.15407915424539664,-0.7911319171976869,-0.9682116191604621,0.7994027202861209,-0.07575308596968033,0.3468381674431984,0.019277261954345093,-0.8388763927477065,0.3093262821611069,0.019256253333333362,0.6138417720001736,-0.5891042724525872,-0.11371574972831311,0.0040069109421112525,0.2558068886503997,-0.5687045131834154,0.28959060647203416,0.29313541049583813,0.515341138055252,0.43467462020558667,0.10884749458136533,-0.6977781055820222,0.13763533640434522,-0.964666102129051,0.4055184961007088,-0.21501132264344247,-0.3815056216511671,-0.8511888006462133,-0.7030794835449313,0.9693312805413281,0.8271989427329987,-0.13020226791054845,0.46176546555079323,-0.032397818467395756,-0.42671235466539736,-0.7061947347904654,0.01308703027461311,-0.6854133395428343,0.103400691531218,0.9969091123226246,-0.2234137178482133]},{"Num_inputs":65,"Weighted_input":0,"Weights":[-0.3502383642488609,-0.46158171781902857,-0.9725786088052969,0.988510094498551,-0.8699743966652119,0.6125346806923502,-0.4957044948718444,-0.12298949782233337,-0.030752926025426564,-0.22684334947471785,0.5963093005868281,0.07201143422368461,-0.861598283702115,0.6626647760121729,-0.4554200938509062,0.8630293337964192,-0.6395981297178345,0.37904949389151366,0.8102597633308719,0.16686214092172058,-0.9797318095984291,0.11450280879470065,-0.14324292777496772,0.1566624952550948,-0.365962284203427,0.5395195038289262,-0.577416342555194,0.44260189937432726,-0.7250387560388007,-0.3503944987167391,-0.8988888838792843,-0.7832232056557569,-0.12815194561148036,0.30382437168559306,-0.508980380673061,-0.616560822230841,0.11464952724768995,-0.08903800018024266,-0.8780589993927703,0.10152066093133527,0.33595704631550505,-0.5792704374173471,0.4950800845255221,-0.15255498280661128,0.6367014699464126,-0.5525292070167338,-0.15053457870574516,0.718250664834944,-0.9847538302856006,0.9111746757559147,0.3292683770754725,0.1670541590680399,0.25392630246839554,0.2950737995000705,0.08439709738747192,0.493162943278757,-0.9030860003686366,-0.8736857207215258,-0.29969789184979734,0.3828151714097232,-0.48667180274349353,-0.23042821400566527,0.4258236399742774,-0.398784751627139,-0.9877053367913061]},{"Num_inputs":65,"Weighted_input":0,"Weights":[0.12061986802037872,-0.35370290696610274,-0.15166262515822349,-0.46524048735356593,0.7369682180248209,0.6062276254610217,-0.4683173195024465,0.5930871783520295,-0.31979007084799416,0.19325714407033945,0.9141098720299117,0.5430670712440364,0.6594852512674034,-0.6604183006483599,0.05488836935748109,0.9686659081280562,0.03375703442599498,0.7415380330506842,0.3681976534142182,0.2810988961039629,0.6168743644171197,-0.5324439674831498,0.7821324216763075,-0.4230213641230174,-0.8542970714081899,-0.2664206512952795,0.06484680461239156,0.4012935693788484,-0.6853563169053684,0.2502699452672692,-0.6157297439868668,0.8319677096667486,-0.6509738494866921,0.1445380253997286,0.8078739563041704,-0.8587617106967952,0.6797415276631082,-0.5636618353028358,-0.722364905555985,0.17296038732821906,0.4753964689852779,0.07377821623872372,0.0049599389175547515,0.45044056251232734,-0.463346829816048,-0.8679509484626374,-0.056088219123381466,-0.4835452594458114,-0.26259880460295315,-0.8709415070900531,0.5710197189022839,-0.33022878381956866,-0.6619696412228424,-0.7371661724487706,-0.6614041550800911,0.8208349194985245,0.11949876861020892,0.31561243048288357,-0.8113654026894297,0.1608608632742352,0.37989039849866013,0.5559226026621062,-0.3326904759844529,0.6147929230175468,0.32043410687209173]},{"Num_inputs":65,"Weighted_input":0,"Weights":[-0.5313811666679394,-0.23783305331894355,0.6646072318683165,0.6970014236823185,-0.5079112802701411,-0.4475252107421246,-0.34291148638349567,0.21513348112965902,-0.9306202504141874,0.5971113980129494,0.9844357057058628,0.19972936810339714,-0.8684346085776997,-0.367654371217785,-0.34331228456861984,0.2050346190364396,0.14830516343474542,0.09402206567398985,0.7801227122399077,0.5614167074636323,0.3265218291318879,-0.4656893854281662,0.8136505766752915,-0.025625023041791595,-0.9042755725878886,0.2557660439659739,-0.49723045183912373,0.44731864143551237,0.08995459886999235,-0.6421330154574807,0.7156586139656607,-0.338650206159373,0.4718187949480934,-0.7828276869006587,-0.14293062310699123,-0.1750848943864971,0.9615429127277835,0.01127286023148244,-0.04809313219121658,0.4084860652019615,-0.15831554715973029,0.7911175251577127,-0.9626729825219018,-0.5536835117926591,-0.4386231009538456,-0.8764244142291794,-0.873486351240908,-0.30621261314489245,0.7072316022756506,0.7649056042694815,-0.4852808618483805,0.8878191149469121,-0.15795842725114784,0.0402377149044979,0.4356109908585899,-0.9866659594910292,0.6096787269517994,-0.8147507209870428,-0.36468129351500456,-0.8882670142198492,-0.8567975562337758,-0.9951157623217273,-0.720590289407959,0.1754478425237771,-0.40799068695850227]},{"Num_inputs":65,"Weighted_input":0,"Weights":[-0.8919111363974486,0.2791956428996103,-0.5493324003431355,-0.6683914006350152,-0.6596739572055668,-0.8475302321567966,0.03087404241791214,0.462030436154796,-0.10110636824525732,-0.8015849471724116,-0.7423971669156288,0.9477830287055109,0.3946133313224627,-0.7817873961789528,-0.011196182040112523,0.6947612233336162,0.5711310466740227,-0.655074516926772,0.2568981258836154,-0.6445250920668695,-0.864250655509706,0.40670323833417243,-0.6271337507799892,-0.055484562440976326,-0.46568962563992755,0.04453934401912529,0.9649172817018854,-0.8411839678483355,0.11853171571461285,-0.08790135075117322,0.17566283820263173,0.41320298932063904,0.10862268293388144,-0.5173263783992199,-0.512475620009182,-0.1063466109868112,0.892108484661829,0.38408475421288024,-0.19424132004178962,-0.8712016421212299,-0.20476547155686387,0.8891322197092113,-0.545493375348632,0.5716781859705267,-0.06978427901374484,0.28389085047683604,0.23994110393593537,0.02706193990210326,0.865398806492031,-0.8645410878339043,-0.5267652479986182,0.05678714149000941,-0.4128464971684731,0.5391029922480612,-0.8381883562095164,-0.7185888586034439,0.027597371411779648,-0.725050073189345,-0.5674079083693988,-0.9651550992392389,0.4079425411256723,0.592822381681205,-0.06666789673554674,-0.19947083887352168,0.5576281082300552]},{"Num_inputs":65,"Weighted_input":0,"Weights":[-0.40684490860436673,0.31706536963893184,0.5318599382799991,-0.5259277437442937,-0.5151245573976381,-0.8745596127036216,-0.23177033377541822,0.69755738950027,-0.7631311584022908,-0.05251157947330776,0.9649488895518306,0.263067495271772,0.36242330135498046,0.5361229991093797,0.9865254007098869,-0.16641972916920122,0.8014751057638623,0.2913640641027344,0.23391373964671147,0.4830777592615694,-0.6964127847211294,-0.22057287569402495,-0.602041591528925,0.2723372672847486,0.7136462245260833,-0.7126748796725084,-0.48922387541122536,0.6716275788712389,0.8877722505671017,-0.27401937454887826,0.779919570153468,-0.6321698810775105,0.46885510634684824,-0.6163201620546378,0.8782676402741083,-0.4733031258373591,0.07848550853071234,-0.5022543861502549,-0.1637111551594126,0.3331649756163575,-0.9314229194138578,-0.06912269052849052,0.5297193319939102,-0.4016374899334413,0.3127444501875867,0.5576508562932707,-0.4384398515979093,0.5124849652335755,0.7211353758393759,0.745414670619468,-0.6609596756996814,0.7072239235854503,-0.5048284952897455,-0.8565858936526715,0.9721590678178187,0.347638860199313,-0.27745203902931537,-0.8801051466879711,0.6819054797740476,0.6580878694557712,0.45319809120158583,-0.3375048560167211,-0.7581765015889629,0.5304846481761689,0.1993046161097296]},{"Num_inputs":65,"Weighted_input":0,"Weights":[0.9704551624458175,-0.14150202396789668,0.8005114727533098,0.1816930521808291,-0.2988299217266295,-0.06223556471372382,-0.7079269569780512,-0.6625337657660009,0.9016738475684978,-0.5637035480720693,0.7483764955961958,-0.7412796944126365,-0.8378536524535682,-0.6794767638745052,-0.541105585184304,0.7832564177270065,0.12560527641731234,-0.30218538034044384,-0.8808556385780622,0.17945506408438772,0.08619100276409286,-0.3626998618644959,-0.3250580227720058,-0.26442889598469854,0.8100417355017742,0.3727630832653577,-0.4940332401880312,-0.9040625496466742,-0.5743581476449415,0.5768654186310231,0.8643931201062438,-0.03952458579173568,-0.5196020600890596,-0.6795294866854671,-0.2752294804232819,0.1886626234628066,-0.6416026441820301,0.5860031305344315,-0.6425655842775493,-0.8296393583243852,0.41939565168732096,-0.34526451915953793,-0.16950532205485314,0.14281353002406028,0.4880304799929467,0.213051172323647,0.7930609985037318,-0.2497230152278791,0.39170498873644877,0.3901800579168797,-0.48527070198995625,-0.1824762649513636,-0.9721291318190709,0.4201397864982803,0.18095440145535346,-0.21378008458624298,-0.7795036532242271,-0.720324311474333,-0.7263010670303742,-0.46554273988305517,0.5741130305532731,0.2735323859720209,0.4807308291033976,0.47748737222113324,-0.2802164213957755]},{"Num_inputs":65,"Weighted_input":0,"Weights":[0.4852871386435753,0.527594225036768,0.46129059749573065,0.22868737982203746,-0.18415457158139215,-0.7923395265441242,-0.5487233304312642,-0.5068091223304232,0.1566405220690288,0.25661522223118305,0.45135307738375463,-0.09360599039348594,0.20844747374056793,-0.8445327048662341,-0.04919413820441487,0.07747542415042985,-0.4167266110764827,0.001021686936680588,-0.34915928052062917,0.44166525500461407,-0.6328918131979415,0.2965497765748031,0.6775333337488803,0.18293897991730335,0.8178646287509863,0.09114739000027594,-0.447769821621978,0.7656985276113819,-0.8354005410691188,-0.22545385473287638,-0.5149215716398599,0.03281258475267901,0.6060551761531496,0.5038220667437454,-0.6347967850128264,-0.8768282858271801,0.7147520682049395,0.49560428298198755,0.7040188174792501,0.6803230475169988,0.27869650496056964,-0.14543851476052505,-0.3086940120927717,-0.6442403789981986,-0.5952549653965533,0.5876901070929401,-0.42193011770782607,0.5663812715838434,-0.18711370351200163,0.4007037217816929,0.610868046972519,-0.37190809716568385,0.5783235084985541,0.9928689595471831,0.10513664253824895,0.6993200991797537,-0.5381761083985801,-0.7789684153663406,-0.026109529247451246,-0.4991622244665287,-0.7875554576872701,-0.9064969488503334,-0.8883955217149294,-0.521386961128603,-0.9538018618649403]},{"Num_inputs":65,"Weighted_input":0,"Weights":[0.4424912727973671,-0.17344434977047885,-0.07484710977642184,0.37542960429160477,0.5175904890366834,-0.8255269653198518,-0.9618846603196759,-0.6520044168980845,0.9840097744307177,0.6853664761402725,0.09549636637202874,-0.9391791416401802,-0.33313869206324254,-0.6432414601103825,-0.5025818681349485,-0.13329689904612052,-0.1042539232913261,-0.5363218377589039,0.7228526657424963,-0.3421420441932015,0.7124139797270306,-0.8697084843935867,0.73100939982113,0.09668971110334623,-0.15977667099302684,0.04156658082533338,0.27178578751782156,-0.6199439825982034,-0.4855518447660161,-0.6664502772526872,-0.8999990411927599,0.3825746844514184,-0.741284839837087,-0.9012115887711849,-0.9597420464215571,-0.45581074210150385,-0.2838287209397229,0.3052895401266775,0.1411770695983614,0.4633524338992314,-0.7187007166363599,-0.8534303029805757,0.3998763910364056,-0.5739767525801666,-0.9992703900288579,0.8553732634499376,-0.8076352400483793,-0.09573346784991199,0.1594425624786331,0.5059694293088477,0.6343612050943517,-0.6425089589582209,-0.8454036468732808,-0.13750511865754922,-0.13207745124366332,0.7006928087519204,-0.24419490533864785,-0.5768510616916751,-0.15609678381275538,-0.871510005525883,0.7049450862768234,0.7284725146163282,0.2137210370048046,-0.9228385857826243,0.9227711879326184]},{"Num_inputs":65,"Weighted_input":0,"Weights":[0.6986364526354136,0.3369459482935542,0.903797813175782,-0.5603964247058727,-0.1641817739009328,0.8229007594973738,-0.8439709812575373,0.20528053950369451,0.5299087735112085,-0.12093663232217078,0.030737440900280744,0.9739542954874028,-0.5312146362127712,0.5289267811123759,0.8643538449321779,0.4261847600073567,-0.883164516920185,-0.5914529033852545,0.5301490400617115,0.9584619226262256,-0.8229407544889817,0.3999673200335119,-0.6910661676542432,0.7753814977916871,-0.8395111882428623,-0.33228035795791366,0.003587017279058413,0.9911928655259363,-0.7483972159082607,-0.7238676402381188,0.13920593239824175,0.13834750521443073,0.537548789807968,0.33088562041500613,0.33329050951761885,0.6669306225765002,-0.25725317577019235,-0.6601781971885667,0.04456071355206426,-0.4011019934005545,0.5053672857880711,-0.9212889021460968,-0.2771838255682203,0.5703527596174003,0.8901754433194091,0.6302148196001807,-0.47586970896051617,-0.23146447398156467,0.7236714769717736,-0.3098563862401329,-0.8681167379385902,0.44067103467498003,-0.4566992938121729,-0.877994913896123,0.17948538371941725,-0.35956440807223067,-0.9201493378933777,0.4191255246910004,-0.34214040076537366,0.9230355958065988,0.07623090865411752,-0.4025677280825669,0.896043714509726,-0.00954024391977426,0.9654603021940422]},{"Num_inputs":65,"Weighted_input":0,"Weights":[-0.9102384619628459,0.9424464012996456,0.9217118185048805,-0.03291159684028466,0.4995507828153558,-0.33113248532353645,0.5782312348608327,-0.8447227568279112,0.020459326656379284,0.8539384013564633,-0.7640172322051868,-0.1770770937809445,-0.06962841417011234,0.8621130753092647,0.6446954997569581,0.45043158281138873,-0.28354930377221454,-0.37469301794728027,0.3484162995967601,0.05896870772549301,0.4043807581840748,0.6978108571302963,-0.4043777444172514,-0.5358074898208327,-0.5553162400061438,-0.2727880072207727,0.6048373062575751,-0.40444912805109,-0.16284721534643387,-0.10808207120601654,-0.14023248576246927,-0.7483832930089294,0.9428845651347024,0.32436977592882177,0.8217833067930551,-0.7747120441154595,0.41651415241088796,-0.6672209900608014,-0.16715140712919307,-0.08349134805982883,0.47822677159718796,0.7532481711898189,-0.47311468926705114,-0.6256813142449082,0.561032977030639,0.4659161607690281,0.30343806738735246,-0.32170127201903365,0.6519702689258298,0.1824701980889556,0.5119319562721598,-0.7223235802755223,-0.20530405780758187,0.5896774614117928,-0.5735982579069091,0.42544088189217355,-0.0693277145354727,-0.4704017726104388,0.7895997193481239,0.8574795609989039,-0.9597465057216802,0.631905761056536,-0.7858555029981974,0.42476851180441044,0.5938692845231126]},{"Num_inputs":65,"Weighted_input":0,"Weights":[-0.08443771627472663,-0.7864251132729665,0.131026601464173,0.8016829118263629,-0.009335251087896124,-0.30288529893396676,-0.17947166593577635,0.32989550383768407,-0.3214710930526512,0.16327959344823761,0.4029776238200078,-0.3545129575125703,-0.6854692220564566,0.5822011382749388,0.6539085043152422,-0.8384072943540667,-0.38849744876823933,0.3291736256751143,-0.022767740549789584,0.8771003095430132,0.09440612604243781,0.16893518527772255,-0.13021980664121402,-0.19181951764448657,-0.1585318054081779,0.34040395364633325,0.13675540617132542,-0.6650662333459967,0.15320375545318332,-0.24864387089196716,0.19054346472865968,-0.8779913490788399,-0.9859531002086218,0.5246357184127621,0.7887053655181098,0.920790376936611,0.3350559484546183,-0.4227981792474578,-0.44305566259312856,0.34700841097042456,-0.35319909791444093,0.5895655880458699,0.86995867361304,0.9669691828843896,0.41817688297084965,0.7332836116596746,-0.852061377876358,0.6775857233074303,0.10549132159804842,-0.49653946826216155,0.5871948982954116,0.4104079757904713,0.9137399648148496,0.06762435362074126,0.7872468540705999,0.0656664333872945,-0.9666306458117951,0.9619982648778849,0.5100665156627953,0.24286255024307146,0.2030458531438959,-0.2795341744568196,0.656664631057746,-0.45802570357445016,0.8441527690004009]},{"Num_inputs":65,"Weighted_input":0,"Weights":[0.44009258522960293,0.9767244850983787,-0.7197062108693784,-0.035334066135462194,-0.34157248199824564,-0.8228668598142489,-0.6725989989107448,-0.1943481016143046,0.30462263540498635,0.7950358076162245,-0.5662485287113792,0.8576018299336803,0.9057181819190607,0.33544076952923785,0.9724203430009526,0.38084625106652426,-0.1134746762700568,-0.977554941469022,0.5191917289869841,0.6717656904099172,-0.017104420977167578,0.44807102108262775,0.19505972487270795,0.5210665851723006,0.6529192100210808,0.6037898350961874,0.18989893151006565,-0.4701159207055565,0.039011979182199896,-0.3557114877538684,0.45978598518544866,0.5310727525400785,0.3528778780567512,-0.6427318451045523,0.06430489427411179,0.40167154954424444,0.9822374217354006,0.02001213956975678,0.8091567083892159,-0.328264901782244,0.6980556764382781,0.9991811872169876,0.1931381377924386,0.3054164636773389,-0.6697450652106998,-0.4345170427453021,-0.7796361419829426,-0.112829753036921,-0.9130594796297499,0.9896018421280715,0.43431079741627276,-0.8471409660047274,-0.6333528984757879,-0.37372620013859115,-0.12802318087885167,0.025822635666844063,-0.5155984449507729,0.6053429081145423,0.9105045961932439,-0.6586749707703057,0.7198525322569254,-0.6590359730649187,0.6677979879399882,0.9186859933527114,-0.46421770812214913]},{"Num_inputs":65,"Weighted_input":0,"Weights":[0.6745364740460646,-0.425528919298919,0.47624179286564705,0.600071202861554,0.6697090496928431,0.33147532652805967,0.4115743221313486,0.8923934957005091,-0.416222611262304,-0.17207326857688643,0.961796042027141,0.5410678574808605,0.03201509049803741,-0.5818466319764026,-0.2843651111894142,-0.08891782906587875,0.48614837813543654,0.8772692092397338,0.8474455463583728,-0.5727228367093421,0.3960933345454791,-0.30965212747016835,-0.7110415920510039,0.1997057809076639,0.08201837361508812,0.24763037897964346,0.17050663399708887,-0.021977925670250475,-0.02322113498810907,-0.41166517020624516,0.6269919227055882,-0.7522047150779502,-0.20901571805420027,-0.2972539146501596,-0.9873660020948819,-0.19023351425972312,-0.6862674062087961,0.7449515452561339,-0.19964328570102552,0.34081928471939804,-0.01018966114296338,-0.008171523545701831,-0.7771871827461583,0.8083202169631944,0.02148542291761868,-0.8170534057242784,0.49531777922844267,-0.33875317342725886,0.5739915775184432,-0.4655660447047867,0.18322854277974532,0.9762349459067701,0.7194312665735452,-0.35003579210456426,-0.5819947551474192,-0.3452758664972677,0.7413583652123712,-0.10720301176313185,-0.23270983608901907,0.302816680410225,-0.27857480586119265,-0.12656151902921375,0.1520798810679338,0.6453435792751714,-0.6689207819148806]},{"Num_inputs":65,"Weighted_input":0,"Weights":[-0.8207630318842307,-0.897758077858759,0.05057964503728063,-0.9960816494822919,-0.25177040719339416,-0.6740970459339646,0.16626585648640058,-0.6904863057756621,-0.8936183077929273,-0.6909245564621984,-0.6281568090021294,0.5050833610624155,-0.68196256447612,-0.6736917407604299,0.5562759194126063,0.5477613604121045,0.8111055930041153,0.9707322558914264,0.5068897123620875,-0.36922319377852564,-0.4336787127859637,-0.3776045201890743,-0.4051205980873298,0.5567097314736391,-0.296954544375127,-0.3750167718700912,0.34939678719959777,-0.6324470096702944,-0.5146049778486084,0.353232500278716,-0.20206926633746747,0.3323950278520649,0.26372555224093785,-0.05964491687232398,0.517630020566539,-0.39017014828888474,-0.16446811569919617,0.663486565485474,-0.27035727853464186,-0.48590568483018115,-0.8678364131645764,0.981706745853361,-0.3195064904189645,-0.9201162471974748,-0.6994603099578969,0.7360906848774817,0.26730693047373566,-0.9405477147040727,0.30527408344692253,-0.014978102583426134,0.21663608413371072,-0.9853848337378476,-0.6257797620501029,0.6113453591616806,-0.17966018924680416,0.6414657780644706,-0.837237307053277,0.8138900676879695,0.2631554400203695,-0.4349762658764599,-0.25060047226170956,0.04797121273317306,-0.06072947090686398,0.36523466669213467,-0.3259566737508319]},{"Num_inputs":65,"Weighted_input":0,"Weights":[0.025321114013656665,0.4001280809729326,0.6943759201806168,-0.08274223165569372,0.7665609165044358,-0.1700996773601421,0.6177624407289439,0.684605302741168,-0.3680446676192324,-0.7149502818207564,0.5575714141953871,-0.3431368039363616,0.5572304793915535,-0.9991579976614906,0.5723351286842329,0.6095733024306633,0.9611604716843245,-0.8796708297864864,0.3745674187615371,-0.1815321281151716,0.7655380416627793,0.004647826802246291,0.9131579577066307,-0.36683585799370055,-0.4441209988617367,0.357636347416447,-0.8035093770684123,0.3710803360888908,-0.7056439851665899,0.989773723091913,0.4001200201454349,-0.9535656519615271,-0.1102124557992108,-0.9756550977406684,-0.4614212513420137,-0.7861440606234567,-0.1334356049590577,-0.6336054661005355,0.8688032835870441,-0.9663207614055784,-0.809307109344781,-0.8098742768121323,0.981194820738682,-0.00012475967027103518,0.15297813425887274,0.4148034282746489,0.3492054342676789,-0.7948028756721617,0.32336283868527604,-0.7512148754136838,-0.6748743867449873,0.4123977915588295,-0.5864645405480573,-0.9751022280249003,-0.6254899833646366,-0.0282269316853756,-0.9308712187877632,-0.9637160589214192,-0.7708359886056497,-0.29998956483428496,0.5304882107659847,-0.027554591052232014,0.8115956646157438,-0.02655232908749583,-0.006081628891092206]},{"Num_inputs":65,"Weighted_input":0,"Weights":[0.8797196764277277,0.43111680006906794,-0.9266846473221315,0.6826258911434462,0.40825738941476475,0.2459489432896298,-0.9804942190765769,-0.8078836555666025,-0.3009381688411662,0.26917132606202054,0.7326013752631437,-0.26620610299039915,-0.8972078638583422,-0.7569283252552617,-0.48026173263232574,-0.7877535249227571,-0.8660390605320643,0.023215192330838574,-0.24376967165975294,-0.32870087808347126,0.12447691356543666,0.5078948683230275,0.6162982409421491,-0.7852156633860569,-0.5245949668584482,-0.5900073844657556,-0.2712315627610885,0.7145648963262354,0.09604450603130199,0.2842566541299443,0.24495453541903744,0.6008887375960339,-0.8399567537111539,0.4946479370146657,0.5233749971514021,-0.8132634269602923,-0.4692794937156416,0.8889964072542635,-0.44243913365073084,-0.9693380065127959,0.8692507470611992,0.6853395229139885,-0.5774471254325579,-0.6959991635070562,0.9119980449470768,0.1863515227753545,0.2743816111319781,-0.18089027663379897,0.7235822202114737,0.3954996262922261,-0.19585297375301713,0.061710869976528526,0.2892157639285542,0.867425162619875,0.2812642294738523,-0.911752083461816,-0.23786128803052164,-0.7081034528113974,0.28348118669339306,-0.7633952282332854,0.9235022022868631,-0.72013245848494,0.05828520394438996,-0.24134449326636742,0.16448825433587366]},{"Num_inputs":65,"Weighted_input":0,"Weights":[0.0035867450172457627,0.6871904572659964,0.20821645371883446,-0.09881400813966701,0.8492049354040105,0.12575639491960033,0.8514537541004834,-0.9682518722557643,0.826555083487639,0.7179506895391785,0.17285029973797172,0.2926031094098973,-0.9668548327852071,0.8458339839855895,0.0372879206754575,0.9300786704175092,-0.9681907268031507,0.9145014113311905,-0.5041775808861887,-0.30309026070629785,-0.8107820623339212,0.8215086079579101,0.7981623669406537,0.17604071794607545,0.9284055078066031,-0.18682178876792765,0.9495267107203309,0.439763063125135,-0.2505679981724128,0.01170071594680433,-0.08012611127296765,-0.5152627425520823,-0.9737582781100453,0.20133522651631264,-0.9294453663221839,0.3555057599441669,-0.9699218366385205,-0.49009167580875923,0.9414556531710772,-0.021856713440803532,-0.32038697696712737,-0.2622693695207998,-0.3278013768802879,0.590922250694246,-0.4016795072355216,0.6696583342406446,-0.5819960166142366,-0.4434527564191173,0.395056498680028,-0.9413831233030379,0.45319975178910843,-0.10635966857765855,-0.08104201252271082,-0.2947284515265153,-0.7006194574164522,-0.36077157109487235,-0.5930278084604889,-0.6131422074482343,0.8946370578477587,-0.5216161556612444,0.4710491285938645,-0.27275087523200925,0.5263350564975411,-0.7710618110675311,-0.38690339174047395]},{"Num_inputs":65,"Weighted_input":0,"Weights":[-0.4984225282813608,-0.7008627145512571,-0.6264288662609352,-0.27053538124873333,0.7689408501721808,0.04411871543201995,-0.3409465600531739,-0.9826167996325349,-0.01822836015551421,0.5808537928237762,0.25358461942257504,0.9938241836856507,-0.22422236542152518,-0.9463064432300609,-0.2961843103232189,0.4291906525962981,0.7225392555258869,-0.77623593878927,-0.4778862122478903,0.7170398116083387,0.10162196210291352,0.5946360900221526,-0.33566428599608733,0.5589378229583006,-0.46575295125417726,0.9327805685090935,-0.9150081902991438,-0.5710497805412551,-0.8369145556373484,-0.46900116601795183,-0.39666674234431054,-0.10145937824544993,-0.9665660164687647,0.9652420864508313,0.6375453429043147,0.06866997300911493,0.35009417737823445,-0.4099721863528768,0.146263877409605,-0.30296276720658866,0.31300473393323913,0.894126238249445,-0.8791946101105835,-0.6031636630702133,0.6913731055166037,-0.09840442362727797,-0.6223189036997803,0.16490161324456887,0.9758672409478149,0.7593849612400567,-0.037838959293226226,-0.28636857274034533,0.6635441381986469,0.711315015612032,0.1394481044948639,0.04735407247963064,0.5334162968045284,0.46507762544825737,0.35037516881536557,0.918171690808421,-0.9780656950935811,-0.6531071665207874,-0.34507244900830747,0.8156273596070078,0.639270578540478]},{"Num_inputs":65,"Weighted_input":0,"Weights":[0.5668806564441913,0.32889648477947353,0.28442151301304786,-0.2303627332305216,0.027943343292075262,0.7728389418500832,0.9595947953610398,-0.4347993503049302,0.2315777557807548,-0.3142965027895833,0.1599794014537106,-0.16986801705678334,-0.7817515208014105,-0.28089879689806785,-0.8557476636356669,0.3864882774982481,0.5242570585104833,0.02097616172997152,0.21816949352789994,0.10543941601047235,0.1582967217223159,-0.21010309703959928,-0.5083846298940473,-0.10044724920510884,-0.025133643898582636,0.48182851729489906,-0.9124519569263633,0.3176047303328746,-0.3180393073495382,-0.38095697659702854,0.5015163237980127,0.8034310441526336,-0.7368660305229386,-0.6035771419123515,-0.24727674638005526,-0.7847291779695604,-0.9442755763334952,-0.8513588748044759,0.6775681591571094,0.7745869895425406,-0.36440367441480126,-0.2587780130169822,-0.2264649986210735,-0.13893925080700686,-0.8236195927256489,0.8575900942129615,-0.3910368836906952,-0.6766361647965835,0.07186278479796981,-0.9724442093863106,0.4176541042388737,-0.11420027484874717,0.7184661155184038,-0.19523550397030098,-0.6322488696723834,0.2516870429860858,-0.8911294579066582,0.5963305454008421,0.8965191650815965,0.1997152180614894,0.19261501353654498,-0.19703823972282142,-0.14103609668814032,0.07183823411018597,-0.15693174660877052]},{"Num_inputs":65,"Weighted_input":0,"Weights":[0.13338444155000495,-0.9479068974279992,0.6963971346469024,-0.37389801526059585,0.6614207545903328,-0.6915775404182682,0.45197001881870014,0.7893660843736723,-0.5025936346617792,-0.1674577915419615,0.11618595785533592,0.4238860459564713,0.8901728155842441,0.5823590052032135,-0.4944254265588295,-0.20287738293437008,-0.8380672583291262,0.16481068945600352,0.06109783441984762,0.5543008936190212,0.11173224283829208,0.5225416591635146,0.7041453758003384,-0.5528870654345996,-0.6434432936293706,-0.40194682864112796,-0.05796687176526372,-0.9678431827059211,0.5610759606709923,0.9026397462507165,0.2039358127762354,-0.7325065486835045,-0.45606219993091834,-0.015305662035014267,-0.9846767147457223,-0.16827712161926,0.8585044791094341,-0.9251657623203444,0.4171986071798819,0.04986301876426835,0.3657873153358209,0.8145048458707458,-0.6397938811761128,-0.6977261315795729,-0.9671316204584722,0.16275233318874127,-0.491264537133954,0.8203859740189918,0.5736091744945995,-0.7568947886035847,0.38425557888146744,-0.5907049289172093,-0.46674509037801737,0.8100260881498875,-0.7764708553240012,-0.653675333469319,0.23124608735923236,-0.8485051601038212,0.4653930318401256,0.5085199218257925,-0.28413588153790714,-0.8167938110607783,0.7998190636697808,0.43566145063148864,0.8342175236888343]},{"Num_inputs":65,"Weighted_input":0,"Weights":[0.19283790498936226,0.7066721950603112,0.04962967488855052,0.08765492204608094,0.9178923611850671,0.48740611906281517,0.250543680458682,0.6378642747093342,0.45693009082237657,0.5630899743021147,-0.030030318813693113,-0.9291900747288782,0.3711130641977707,0.46903398276073593,-0.4336647761523321,0.7644250267574513,-0.3801517302132087,-0.24610840329389116,-0.4000997129411027,0.7087573207331936,0.29827204727025336,-0.2174014163417186,-0.25172570447699294,-0.9433296793490196,-0.3367325829526143,-0.9392838320215297,0.7482914387588329,-0.5021715435816132,-0.3320826508306908,-0.19177672462036366,-0.40883670724530197,-0.05045900729928676,-0.5485405994854806,-0.9402499503849198,-0.6351530078834258,-0.7901548150998956,-0.7676988383530327,-0.6075688566388657,0.6785545922329888,0.42591935591672714,-0.5752285959012459,-0.9851157556029342,0.21383231197981067,-0.10489614142882187,0.6800461479390254,-0.90538404272033,0.3913633227302198,-0.31536060877728667,0.12184208167278587,0.9336934747837264,-0.8930766012102147,-0.7734145180108984,0.908546092633459,0.6607218901911596,0.27679690347818897,0.05707180508812826,0.3373724697373581,-0.8592820783123208,0.9947771842800688,0.35782525930937203,-0.18089169388909265,0.6053596326986592,-0.6513853864921137,-0.8177554275352867,0.8191145821228318]},{"Num_inputs":65,"Weighted_input":0,"Weights":[0.9882888841439241,0.6652746879771649,0.8223382242358188,-0.15247254908388763,-0.7628612718904778,0.22520790314932926,-0.3363405046292337,-0.1874100511489094,0.593909536073814,-0.8307316013165034,0.1604134060868776,0.2371646495725841,0.32018759312962297,0.8071097040461617,0.934804357773243,-0.9317190060307052,0.2843429230323735,0.638743915776677,-0.6799658122336507,-0.7122495021852885,-0.06464808491193852,0.4142673357889397,-0.050800556855999934,0.7867399818398482,0.7757039025274945,0.3756799015418182,0.24744489130182523,-0.5022610068065587,-0.9897582953547415,-0.9640428004025673,0.19009222680311866,0.14308834671205295,0.7024639079702302,0.5255966515100399,-0.6051030659490957,0.571787442218954,-0.0556452253825509,0.0021222167345489318,0.7798522278905666,-0.7992039279034833,0.894746995475094,0.5265438419338755,0.5860053724933476,-0.44970901885081915,-0.5648968957571995,0.3779817356374935,-0.408140276305748,-0.5962564657921582,-0.9282241643384779,-0.5674441720197609,0.41267370010921134,-0.15022102343097976,-0.6492891561249363,0.05922205758345345,-0.7951857205758055,-0.7042478500051451,-0.20405142262409348,0.683647944180849,0.04504030390051539,0.509362238452665,-0.5074321863397289,0.560959954437573,-0.12581574779171323,-0.8780454992985565,0.8633207271929983]},{"Num_inputs":65,"Weighted_input":0,"Weights":[-0.3418769990115065,-0.3316854047512401,0.4072735434432653,0.9920596847402163,0.8642515725662232,-0.38681141934857366,0.8645220264068281,0.6014717828756595,0.5814894462625899,-0.8831003400620243,0.7594906761642779,-0.28871966404724414,-0.33146641846669334,0.6247577960524096,-0.8872746828879285,-0.19325518272494224,-0.3221476879781575,-0.3977624507312789,0.6253087767006267,0.44497293756404277,-0.41378386853430915,0.12675541510710264,-0.19931761063122966,-0.7877997914561573,0.2935082171394696,-0.9013748249377058,0.8260138051106576,0.42877666754736454,-0.8201932111010297,0.9205274063184636,0.15399421187409823,-0.5972447317231402,-0.45941387723174054,-0.6894318784069748,0.03676834655099892,0.23955517759232703,0.7429538021656079,0.5292903529625672,-0.8437289239108148,-0.8293735419457573,0.8921943917826849,0.6743011088980992,0.7997012317065983,-0.12335528996374212,0.4839069441203179,0.5826385725510363,-0.970110828552116,-0.3295745504927299,-0.7745319993325857,0.6881716269544904,-0.5830461606664376,0.5212469646839522,0.6838500939880889,-0.2816369310040293,0.11075813775945043,0.040943053096769155,0.30949749105133484,0.9541054383702807,-0.8587964236978407,0.8422308913975265,0.7197383257953016,-0.9551293173441926,-0.953690873786423,-0.19468536949282078,0.6817777947013848]},{"Num_inputs":65,"Weighted_input":0,"Weights":[0.9609108128919248,-0.43346781900745657,-0.7385824948889161,-0.04367709469805092,-0.9387930148469114,-0.5224959113389973,-0.43759490351053454,0.7734951922490947,-0.9973488860651507,0.08539631595548025,-0.19360734068710306,-0.6107319047408448,-0.2809300190839592,-0.8689186658821665,-0.5629452772808119,0.18825940607351166,0.9390810945423005,0.638234489820962,0.7785872951944726,-0.3346384004016678,-0.9853777962018545,-0.424196485960027,-0.09731679513748259,-0.5088509740548937,0.1727601414278348,-0.5843509790966438,0.21182476925262517,-0.3947328549496717,0.5253516021172053,0.06622325248623273,-0.7732284463822643,0.3437453227146545,0.6164078444110603,-0.11578310086371346,-0.011737470106546355,-0.6443275268005353,0.5265423100541424,-0.5255051820195813,0.8246510045882658,0.1393280922074036,0.02662472250407788,-0.0335721265894271,0.18635428786582064,0.7227515949005026,0.5720842575429306,-0.9534093081636553,-0.04307178153795055,-0.7592098253944344,0.5152708311862051,-0.4928556993091464,-0.705979745489766,0.6669801907913229,0.3184898322480578,0.36061359878798016,-0.715305411847,0.04124541237959223,0.4855845397034886,0.33880187678550366,0.36427165992386157,-0.568792636818444,-0.5856544952238686,-0.150555243591749,-0.07502903412394246,0.3585880409655473,0.5237475136092311]},{"Num_inputs":65,"Weighted_input":0,"Weights":[0.11376105488404087,0.837863298304802,0.9065222240379394,-0.2230145321304029,0.5417053417454769,0.8238461615573169,0.6572730760579286,0.7496088787962962,0.405736318660358,0.8661512108020861,0.7208875298860447,0.5003115643503275,-0.23477100503323012,-0.7627268781877395,-0.6413199623858009,-0.07904445955942563,-0.08117334668586162,-0.3194143451337378,-0.5941326739694992,-0.04802147191685224,-0.2925192803589842,0.4553083006669376,0.06562964964767692,0.5648495558326831,0.8056698972153917,0.5294316518169762,0.007153504279225453,0.5271229430308666,0.628630208240607,-0.41321911496385344,-0.6308546894029469,0.38848337913396236,0.9422953685715605,-0.4761978478232901,0.5789688431907904,-0.30035732515436053,0.3917124368790259,0.4038150436541543,-0.3665395896084971,-0.7263016554122805,0.6020423142866449,0.8088775254183831,0.14743057085719236,-0.7080441999345677,-0.8009372671934855,-0.34394462469128884,0.9729915816488026,0.17054304806469545,0.9305345779892586,-0.3791437824674223,-0.6701643203111332,-0.05564541498556186,-0.44074196094056817,0.5878595902814958,-0.6305439047697063,-0.11890041974596555,0.3750858789438367,-0.8831000837377007,-0.9972125979779181,0.6224151461585039,-0.6574216668025288,-0.5354464734338912,0.6217109120124538,-0.683594356325594,0.04827443010702037]},{"Num_inputs":65,"Weighted_input":0,"Weights":[-0.6429404389944432,-0.7341961099903871,-0.055493546883340295,-0.3917542062296351,-0.5344725967443881,-0.7832347309667502,-0.9682987020481805,-0.3948234322338803,0.8942371597480301,0.03480169483115181,0.6608697293460739,0.3903022601981416,-0.007042526150239481,0.4331338632220014,0.34333679610628787,0.7301977448754366,-0.17562525109553606,-0.2437912647114988,0.40902662706443516,-0.5325621764641557,0.828826063990826,0.8670980181610961,-0.7936108897683964,0.006559905333356042,0.267050578088039,-0.6226044294484214,0.9145556040610805,0.5836328673661588,-0.8372633067260323,-0.24680020715229722,0.1953986008250801,0.815285111089608,0.8623570772214695,0.703278446921934,-0.5958913161135189,-0.8357509295109242,0.8147277343981947,-0.09006422932315128,-0.11321780854531815,-0.4154286395672204,-0.10407004405985953,-0.6846722014019031,0.8355228821723464,0.7225491085324864,-0.21522867010123026,0.7213785415772136,-0.16694856135888292,-0.7697856515153604,0.8422161804028827,-0.7113303363492341,-0.12059231190927766,0.765000410650641,0.7752562637343763,0.2063251037758982,0.048819054056502775,-0.8689251749489451,-0.30511289665640773,0.6300065532080068,-0.5692153283996373,0.36425577800662956,0.8263570596749545,0.49902329460401407,0.9979977147492949,