{"Num_inputs":65,"Num_hiddens":130,"Num_outputs":24,"Layer_hidden":[{"Num_inputs":65,"Weighted_input":0,"Weights":[0.15362097847318257,-0.6871618915627828,0.6516777259265056,0.7030959252090621,0.13898090934750007,0.5394612343290355,-0.19541635705784766,0.8969982296696981,0.34896120029824806,-0.10200599804767296,-0.8468500555756604,-0.9699589736117306,0.22799625715409855,0.9755064046093611,-0.3420929377994659,0.8997952573980696,-0.14559831847420646,-0.3367993681224495,0.632346676482334,-0.5828696081621492,0.9398595067074653,-0.5824987695735444,0.7035844673769529,0.07440677070787349,-0.6779626884436857,0.4723952827304958,0.11952161484194712,0.6189446899262541,0.6438744147234212,0.44137838050270406,0.8607811853464498,0.3614846823523319,0.28627246504770065,-0.3561436997980445,0.014219925864097593,-0.33418758883341393,-0.5968133764386317,0.07814317785182334,-0.3499889717737076,-0.014032629013747577,0.9934196275866103,-0.594057751571635,0.9524588634127864,0.4353929863732,-0.7068061212426859,-0.12161269291133003,0.6286979317508754,-0.36183983649680773,0.6087817082928648,0.9303578531562253,-0.4799684457214929,0.047797668678692506,0.8800391877600369,-0.4226908655329732,0.21288222289447223,-0.3305624439255136,0.4247403863587682,-0.8917067203578053,0.8985628576751963,0.8910676766262684,-0.9610073989811214,-0.15936427234629114,-0.28638313117048875,0.2560377280487012,0.8370609881270719]},{"Num_inputs":65,"Weighted_input":0,"Weights":[-0.1398282493812354,0.8889320321131888,0.6382719592093569,-0.8010678668825995,-0.17225012978814946,0.9181106293638375,-0.8051896474452278,-0.5499475825488582,-0.1424900631468654,0.15581585872567905,0.6828366320317334,-0.13544476397930294,0.32417787866769543,0.06690275803039403,0.04011389620942207,0.2234573659381318,0.079674058900429,0.06310526758207335,0.9183065924262923,-0.723124720514551,0.5678198403792791,-0.2552376309544009,0.6807984475716207,0.8762735268642363,-0.9159316334752184,0.1263293187251735,-0.7283090644957435,-0.6402414474809482,-0.25135443376344035,-0.58249737550118,-0.16455536731148923,0.905132085857133,-0.2591420835573701,-0.9911003109913936,0.6641247695022825,-0.5660491162410424,0.3322817451930573,0.05286909501420811,0.14636950378998015,-0.9052187600053471,0.5521735151890288,0.8168138353252983,0.8415996301499287,-0.29962791803505295,-0.4634148799796698,-0.8086864220754812,-0.838165975121407,-0.05925246102469739,0.9722181467693884,-0.5319982826325493,0.8360187853576044,-0.5136949119342981,-0.39191866630853034,0.8625461528904352,0.8386754878907337,-0.7687425657116135,-0.3239045475584591,0.16241564683478193,0.34903321255553843,0.7018737401022346,0.11988284273579053,-0.2808164399022033,0.12384142217025107,0.5953714188565475,-0.22700487851151263]},{"Num_inputs":65,"Weighted_input":0,"Weights":[-0.629191949793017,-0.7836678332015385,0.9325276392077921,0.06760302327200196,0.9308366687642513,0.4528088892296158,-0.9745926001696595,0.517871949679142,0.6021807947945907,0.8139113774141795,0.9033081478144893,0.6269083301069909,-0.809507589730236,-0.4421119412871385,0.3483776886040404,-0.09378004649855909,0.45476592702467933,0.8188103738131449,0.7738999638574957,-0.24122522264513147,0.7651819124706953,0.664091085043184,-0.017695543052223872,0.5423181081113031,-0.8910154893225192,0.38216318150865924,0.2870600371344929,0.22258203137288946,-0.1335632155380233,0.6124769209381831,-0.11761711248103157,0.28512778034494346,0.3092058925602257,-0.9708438459593653,-0.43107913732008774,0.08817611224675104,-0.5863904771773367,0.34528095292875793,0.4376876936305165,-0.16298095018571424,0.7137418594653258,0.10822411162728063,0.17015855078206288,0.24627289091596571,-0.08238747747279018,-0.41453769866235923,-0.5577709491550473,0.914620680709884,0.10146810417671204,0.6364960404162943,0.28153355603798125,0.8782746379174993,0.49155207786795163,0.7272898145892075,0.9181033919474839,0.923139176105072,0.7475698449838764,-0.8076785359787512,-0.5774865576606536,0.3452786708360993,-0.7880663357635954,-0.270613510895903,-0.4643812877129224,-0.10506998349066743,0.10172333608304829]},{"Num_inputs":65,"Weighted_input":0,"Weights":[-0.02480319774731843,0.061320932156840646,-0.8427577360660053,0.635086578899916,-0.10008827674884979,-0.027823918326033703,0.49002317915637383,0.8358035561439685,-0.021299890393229437,0.8987124166686011,0.0600244311642415,0.7664803618490215,-0.9707066175826242,0.6557727097297321,0.8559217883741694,0.2037778478513823,-0.6297788744066201,0.4781737744332786,0.11922572294836908,0.2785185354278299,0.1786299923716248,0.4438361198828349,0.9385626059926238,0.6290380977091861,-0.7789910948262829,-0.39748638707319117,0.8132875073309462,-0.24892617273638806,0.07721760781436471,0.019650303448692563,-0.7444597320244545,-0.2803997983793254,0.23881304673632564,-0.9281417389715713,0.5948595365683933,-0.3520822791426024,0.6992222550173248,0.3056479155632206,-0.4039142875737528,-0.8972265557650649,-0.03221037839819996,0.37684491433242195,0.9745575151370363,-0.11265297433609511,0.9532679207598653,0.44139371564949514,0.8554644249805985,-0.616921453402985,0.030566591272137345,-0.2356965092685347,-0.3580952863859036,-0.06994555216707266,-0.9006725114365531,-0.23290815240256113,-0.3457681420094728,0.09642655674829959,0.9251671363418514,-0.32107951470328433,-0.8497146618170969,-0.6076697382772531,-0.885087222297383,-0.49466679666974167,-0.1320214166554493,-0.5741827286084442,0.8736654298557365]},{"Num_inputs":65,"Weighted_input":0,"Weights":[-0.7451196677327703,0.38396134766800905,0.7003426083399553,-0.5138747258391946,-0.5176596478474875,0.5895566201687554,0.1048039389599329,-0.8960693111601289,-0.3287360813431611,0.4664781179130457,-0.8100304266926812,-0.025838639923936868,-0.11653331317175142,-0.797370171298104,0.5916335530547889,0.880653284694783,-0.9477714330707275,0.6683374362632646,-0.08245565471194372,-0.43169822593851637,-0.6577439995932295,0.10863194027443157,-0.29038351741516144,-0.4667761444445153,-0.9212628483764627,-0.612523005109668,0.47216713339203364,0.1447585065719259,-0.6579165243430659,-0.9094925858233831,0.25868213549607777,0.228685265452244,-0.8788520125416204,0.6239113871846067,0.47319581498056906,0.23696859919262847,-0.12670127118608987,0.19034598723230745,0.247106286305796,-0.20379618747280548,-0.5454441901954993,-0.5349126928565138,0.1399368335592741,-0.0921245323190596,0.4028020183253447,-0.10348528056010886,0.135208731737265,0.009352226436777578,-0.8475268774114184,-0.23075101284947874,0.1311172600394228,-0.7850885409109294,-0.16464322622733596,0.8216431655854253,-0.2519894283943003,0.48079748470379524,0.12680007472970978,-0.7271735431126436,0.02429237310318788,0.8413096863764391,-0.8974556314407852,-0.8279995645637679,-0.6566775445842565,0.14478327077842712,0.6463029423314888]},{"Num_inputs":65,"Weighted_input":0,"Weights":[0.7706427290197013,-0.11100977827986336,0.09972509281915465,0.02966060146954752,-0.20211753275216626,0.924712255424943,-0.08089980570828126,-0.1348853255815735,0.7824173623654069,-0.3718175078637631,0.07807279884864271,0.06662102067008413,-0.9084753569710377,-0.441091923696053,0.9486608243084957,-0.8244849815419792,-0.9052159455082267,-0.2166248214548575,-0.9157311918183838,-0.2208642404904505,-0.32347640200699435,-0.3593639617018186,-0.20224257723256978,0.8483761706799011,-0.951947626221345,0.8677906486634888,-0.2765359327696342,-0.609153664959438,-0.4505105762312439,0.012487843412205324,-0.28540359579433594,-0.26442937049288207,-0.9513755703417044,0.30865509391284984,-0.11555391349741184,-0.4232635109559496,-0.5269157377191924,-0.9176776236845281,0.2317429066029859,0.6567189158363544,0.8023589261106621,0.40825173138356163,-0.5703419476533871,-0.8036595699747915,0.09051418139139367,-0.02852124523477295,0.5161058044880724,0.2441194657546415,-0.9963576446059518,-0.03137518753626456,-0.4544739782308159,0.7193382574171476,0.9197233411291055,-0.9719172940095764,0.7289870632258275,-0.3005883070360009,0.060079197373035464,0.9650322660851576,-0.6508079740587132,-0.10724446673413135,0.42805519756239985,-0.899756820723787,-0.7946165597961303,-0.2980043147469006,-0.9141877621805679]},{"Num_inputs":65,"Weighted_input":0,"Weights":[0.3179223138449305,-0.9749550673168327,0.870962044107112,0.6626846699115263,-0.493161574422163,0.15278211977331302,0.008100505430761018,-0.1696053248814282,-0.7141663416397329,0.32831759983247766,0.3887523306933216,-0.49088769263905496,0.1388424852142811,-0.7177524978369985,-0.04524360186593179,-0.2214177669109786,0.9403243556547136,0.6987504888322698,0.016780185363882483,0.16883389419762485,-0.7158413354001789,-0.4905001646308984,0.7000155807214836,-0.09690041231925617,0.5466981025996416,-0.22278227899738678,0.8191041995337596,-0.522579183780256,0.5302734041218164,0.7391721631148525,0.8167926783857986,-0.8919285960152983,0.570350500872189,0.6722202506611374,-0.49608688679027824,0.1973202354352408,0.37584514178514583,-0.6159254671003868,0.00992381596394254,-0.969589293229881,-0.7862174332991787,0.9165459079566836,0.6290472575755643,0.33782899005923506,0.5379536584091482,-0.5200634251385745,-0.48341505151339315,-0.47040485616410443,-0.7005075404004073,0.4594700169823598,0.4164406028395147,0.6312623621960927,0.2865340634636344,-0.0023616942628434945,-0.28965543641542457,-0.06325749260672964,0.7540694371214289,-0.17872336370581554,-0.6341097609100415,0.11758693526640274,-0.6095246264324823,-0.9863857554741272,0.07152338877351538,0.41404512272501637,0.8790202904104119]},{"Num_inputs":65,"Weighted_input":0,"Weights":[-0.6657351775101947,0.6264972803071589,0.8509554798990009,-0.5779335854252118,0.7139487625897971,-0.7698341081736402,-0.6600207521904786,-0.5364273636581314,-0.4467141857829432,-0.324629768073603,0.7432330859561505,0.3755615898367557,-0.6185745384892469,0.7455103286214224,-0.6539517137229133,-0.9968208364365052,-0.45836816305319894,-0.6593050502166203,0.8085921448682745,0.08702104796210053,-0.09353850821672038,0.09619654451939175,0.04462197918721089,-0.6785990295742119,0.8767211051696691,-0.3923270836737949,-0.40304832505694976,0.9702168892732608,0.15531617817824883,0.797606960305653,0.09994183808512669,-0.6997738104858102,-0.05367945652822215,-0.5251423182649898,-0.3596643410214516,-0.8521333286155369,-0.3994327709393243,-0.1790853446395051,-0.138782745472126,-0.5746392111605622,0.33748067715316665,-0.5592858198435418,0.7727092426058817,-0.1626846910820613,0.40929331609552366,0.4521883846005128,0.2392481724866633,-0.9140636398605554,-0.8243628733057993,-0.20052873280337702,-0.17597385015987144,-0.8375636250410088,-0.5324615776295032,-0.5287619330100661,0.3259730358224584,-0.47189397147146883,0.5213756896398429,-0.26285412468174063,0.2878299930014372,0.9732657980119181,-0.5896199682189853,0.4160689100150272,0.08828067317420496,0.3388652201436093,-0.6316704656036523]},{"Num_inputs":65,"Weighted_input":0,"Weights":[-0.05576158351371674,0.2588420685889081,0.6463619056684364,-0.33329181790673035,-0.570047378492315,0.8364896314622263,0.42003378344267617,0.7555387524242161,0.4005282280473641,-0.3076722515315873,-0.63142351654018,-0.27181222130016625,0.847871600807452,0.08254869104043627,0.539586122997824,0.32061261877305514,0.7619113727192999,0.602248169778254,0.7140099266049655,0.34104390215790614,-0.9158701969652494,-0.12278183277741828,-0.8587019610411436,-0.7962874118913017,0.5164676158133776,-0.22128000687060834,-0.47452220109825405,0.30695324890398346,-0.20788509231424723,0.37788427904468413,0.0434937914435356,-0.25980691055825345,0.18710221961823592,0.993526702845057,0.0046985639888212916,-0.9410566544422615,-0.6874727712919083,-0.4748496740114758,0.9534451839206708,-0.8754232821862438,-0.024756752184003084,0.6228836675805209,-0.09677968083204558,-0.8953004045364176,-0.5904809203815335,-0.7437956060177338,0.37361976946098796,0.18689010096172276,0.6924989126408696,-0.49190073535277723,-0.4710375296473235,0.9627119772201114,-0.10965188404567172,0.45053278286592624,-0.9622518257221513,0.6898592484956638,0.07435515518601465,0.3971911204873393,0.15915711239768737,0.4536166719054293,-0.7692668229365327,0.1593082147905247,-0.23915592602807634,-0.04453843476019803,-0.959856657939496]},{"Num_inputs":65,"Weighted_input":0,"Weights":[0.14930148585857395,0.7898488354442086,-0.27926831641385685,0.09449889322526861,-0.03255906196743086,0.7268501680407513,0.29018583732172143,0.1595143797070322,-0.9464424501200849,0.13626361459389713,0.3222435742309435,-0.3403755550968546,-0.5330503815015931,-0.9968465377620851,-0.2729720268093093,0.9066371331328476,0.8419156639331862,0.7857988187945966,-0.42112248373510297,0.8144515266117676,-0.9999465855284648,0.39069018656408905,0.05195981559267926,0.0683097652103386,0.20203820744428036,-0.8762610687030467,0.7204367461210246,0.13849610174081306,0.782175275055224,0.7174730039785788,-0.03520111911423207,-0.7027784654308189,0.3566473402444905,-0.5285165844269759,-0.9782805352994542,0.058612671006561534,-0.28592884780420547,0.14900676748033437,0.24882433195613074,0.6701784415446896,0.4848594395093786,0.6335132787453204,-0.869760122552267,0.34662558545958966,0.9690981441723923,-0.4137262036112216,-0.23989425287874222,0.5504013019997778,0.6709159375200544,0.6544265541353145,-0.8115979279214534,-0.5784284118420476,0.6404014663643287,0.8589648608687646,-0.4434991048750144,-0.39318932278868524,-0.7641622073370128,-0.4013236285330257,-0.7871161335628494,0.050122054723602094,-0.2039942520567023,0.5839560876673264,0.8266002546661324,-0.0849445307756812,0.07316722191815161]},{"Num_inputs":65,"Weighted_input":0,"Weights":[-0.5717989773554195,-0.7485149953483692,0.2931366020756616,-0.04200162726451917,0.7757792859168398,0.8805449636902809,-0.8355587896385865,-0.5054952164273954,-0.7894806003370897,-0.9551925148001568,0.6351683402314057,0.09547689911098622,-0.18308873251329072,-0.5381232658699515,-0.934315686807077,0.3082051261944718,0.6818103838206748,-0.13272873614856562,0.9007125561449885,-0.49997093314037333,-0.10887274132400926,0.008367660131008092,-0.9540035318535481,0.3724658709722972,0.5597473383858038,0.9324195452003818,0.7953693721159063,0.9977461782830073,0.019620416411943342,-0.21942335920201894,-0.2897783490323349,-0.07385567226015954,0.4017859340035821,0.6254572460694812,-0.7944334971172329,0.4848352862948573,-0.6006630667665355,-0.661945254964053,-0.29569846310358283,0.9791838262638071,0.4903258619583466,0.8374950680538074,-0.7782793184179544,-0.0977894358551109,0.0281891685097182,-0.2725772662980208,0.6291256860930086,-0.9274576523610305,0.3169757775015378,0.5402389129923475,-0.5413623117469414,-0.4403551831239374,-0.9748421770663555,0.6836545182218927,0.46860200182468636,-0.15372317190884488,0.48869909834500547,-0.13069596664346683,0.8841585465679236,0.7725510656056283,-0.43660835243468543,0.047552653357314734,-0.8391623353013529,0.3887615828496449,0.2869389303438865]},{"Num_inputs":65,"Weighted_input":0,"Weights":[0.8395377095154308,0.6217813083156263,0.9358260754792789,-0.9782091557053785,-0.9103194442235135,0.5224037031274791,-0.14312372387628536,-0.363818701159324,-0.8211340503092408,-0.9038373019815688,-0.5523152256302711,-0.1396279903860954,0.3663562670139058,-0.36533828727561757,0.1294019151265955,-0.4723187213976582,0.26521478428175693,-0.3744098538050401,0.5728051090892836,0.3470798572095253,0.2942851713044976,-0.02685408074740614,0.2809083912350179,0.49699317439532686,-0.6818680232768624,0.778204517318404,-0.6077680742958703,0.7686215654664046,-0.9286680979952533,-0.753972854521125,-0.9265843198270982,-0.780521821202859,0.3149923616198753,0.7508671664144313,-0.7925239779181275,-0.7492513216901953,-0.5617800054075113,-0.05885488011861506,-0.10816631434903567,0.4594666505460574,0.11049813397457942,0.052866147813945163,-0.052044610770062616,0.5243163874707306,0.8055362821558063,-0.39630848843105104,0.1786441823531042,-0.8419262977968516,-0.3729023216962165,-0.8752584219755364,0.4279705004682446,-0.8010339548382586,0.35820089105995856,-0.6585403603478297,0.5750662477438893,-0.05277354239344312,-0.10122288226398957,0.19270744571564902,-0.2736729522149971,-0.06559101353477981,-0.5383308176692577,0.431194990103851,0.03752206459329388,-0.7638232197229943,0.5678537132419292]},{"Num_inputs":65,"Weighted_input":0,"Weights":[-0.1267489255065244,0.8175975068881105,-0.8184207977575017,0.742227682089758,0.8791999750483583,-0.08394662505018013,-0.33363148056484615,0.8410506653379768,-0.8241029888879156,0.5411826599057339,0.8134912361751101,-0.6184248649405812,-0.0304140900972526,0.18266970178288888,-0.2729622517080016,-0.12326610768814372,-0.10489054409877785,0.6971817444170183,-0.7382888186194286,-0.05803801953869392,0.16954595208926504,0.4989482832663763,0.47543504193536923,-0.5939451444955525,-0.7178261127138299,-0.38305235344933264,0.3406390620714448,-0.5045182293609156,-0.4214848764357332,0.3535195558982387,0.8383705752919584,0.2383607259354621,-0.91493791879789,0.9729637461075462,0.9566862407040844,-0.5980420153014016,0.7485294938307621,0.845714064533009,-0.2214496175187718,-0.9066434336364307,-0.6354533249370502,0.602461163155021,-0.5991682229541825,0.7458425688876533,0.15621228654039965,-0.8454859523970703,-0.3854159796654927,-0.28683884726901554,0.43243582726676855,0.28885033455344655,0.867243359366408,-0.46668293212493095,-0.6305432909896713,0.15668689487024468,0.3217561204651447,-0.4211053066955358,-0.8090087521044573,0.9570804850574195,-0.13861445531468353,-0.7066497230341532,-0.7632682122391178,0.6640378557263482,-0.3105892598424118,0.5265783689932564,0.21659789574511268]},{"Num_inputs":65,"Weighted_input":0,"Weights":[-0.29153703921537744,0.11663772264681982,-0.059921592857437145,-0.08948187544509556,-0.9187638433337054,-0.30283551940130626,-0.8570949080315634,0.012156447517095215,-0.356073011825626,-0.2098481606911039,0.3962941878731321,0.2333954092004562,0.7760908001560356,-0.7670907800582139,0.24309444447261508,-0.8487403399803216,-0.7514146353555178,-0.6365691664846849,0.8512925559371769,-0.39117012837269105,0.23830494186202267,-0.026508670548628932,-0.3790653810997585,0.842281442320667,0.710448824596124,-0.06909279303455007,0.749120512390582,-0.40930905614757707,-0.3118793993170339,0.20725583922573976,-0.6887132535911116,0.1389809296440625,0.7557451921797846,0.7079771928156326,0.5089549915510343,-0.4476825576978397,-0.06212359222783159,-0.09577508814142432,0.6073838286268223,-0.0980514109686913,-0.714394798357279,0.3593284201387883,-0.16465730245298993,-0.21195986662564303,0.6597572697948013,0.11855112886521413,0.45519465615615506,0.11593882386391252,0.9257853322432867,0.13099965485085674,0.9162468010366431,0.3310436861959849,0.05603762487027031,-0.48629725670990087,0.23219911220115508,-0.04552735690588583,0.90618019748602,-0.38435406898246827,0.21568085322187813,0.5091622294455578,-0.5528633286665925,0.5330550884642917,-0.2078703018269551,0.47864853834149224,0.40561061564403555]},{"Num_inputs":65,"Weighted_input":0,"Weights":[0.3737386406515799,0.3092609035092695,-0.3911716307198535,0.501794832771262,-0.3780221697832835,-0.3973014607802686,-0.29825323331158315,0.08496291851841864,-0.14456922296958075,0.6746810705812754,-0.33383952071346545,-0.7917607960444445,0.6150409661506087,0.8399578826034164,-0.8503477027224784,-0.6487415357939434,-0.9995597032467727,0.13059063548978078,0.4816841882256715,0.9638455244122062,-0.8846981553641817,0.3235687219094949,0.3082409769930383,-0.25707921174634574,0.027506632216570237,0.12131411252506497,-0.6121651114704609,-0.46689014273863805,0.9525202278614007,-0.5711310426690397,-0.8059690700977991,-0.18059796977961695,0.4618169647325945,-0.5965198502433651,0.7005430469092113,0.9977724644748069,-0.8220849861948722,0.7198239456912101,0.7540450788577651,-0.6438787568542222,0.1444031661523617,0.32117516189763395,-0.557519080286565,-0.23003603616235868,-0.606958383772063,0.034296504624718116,0.566802976255081,-0.42730750089952363,0.7752212939249881,-0.7226079735681372,0.4342091408599724,-0.7415947924730725,-0.2820072981763462,-0.6194197150838361,-0.6444878105757026,-0.3166092117925764,0.3314512493795434,-0.721618997789516,0.9652202004126404,-0.904911065326861,0.9703056558231891,-0.07004974971795908,0.4835074028307329,0.25222503220237935,0.9436967354616195]},{"Num_inputs":65,"Weighted_input":0,"Weights":[-0.4285658016378566,0.48475734667459536,0.17520505958948474,-0.5093985338297351,-0.8574537112872078,0.08347908486259059,-0.6641147815850118,-0.04918526912220167,0.9118292776631562,-0.3470020566803592,-0.4681341117630048,0.7760701852353502,0.7587275700592775,0.9276948045791691,-0.9295471507172856,0.07141024176555888,-0.7221488366429536,-0.8693800818359091,-0.08255823685644359,0.7753479283875262,0.4067115164850834,0.5918638996752486,-0.3783717625614147,0.8056533541857109,-0.799404790981832,0.5591731940003637,0.39851800004363924,-0.26971962688213136,-0.35107712164039273,-0.7318698980532636,-0.9029796917870246,0.06060718316165681,-0.8626809313002397,-0.9244486896629066,-0.9925763986238082,0.08582630565132399,0.539088967300611,0.5129114622913109,0.8775363140193038,0.08370224995785325,-0.7687870586409996,-0.46345174672020706,0.3958852340658989,0.4265300438868851,0.7753524049918956,0.7419835928843634,-0.6300602979927981,-0.4856558065064218,0.1826628626892799,-0.569000125846264,0.15772285345603865,-0.08452786149066582,0.6929006256007506,0.7979001731840518,-0.3929380043806424,0.5830512401729031,0.8182157254256566,0.408475578840628,0.4256856866262113,-0.9326105135393153,0.7726422826285682,-0.3378268465730244,-0.5916288026681149,-0.7209542500204964,-0.01816248134604559]},{"Num_inputs":65,"Weighted_input":0,"Weights":[-0.7162372326594301,-0.25690140418589613,-0.871666454178617,0.4876848294168403,-0.4769317376060238,-0.9971892935175983,-0.18883523866868557,-0.9041707773898825,-0.7596218532206356,-0.18765580681856264,-0.7756996924833628,-0.22912729413391963,0.8152716425879634,-0.21774059853751693,-0.38448224360575367,0.14689304293108685,-0.1482590048391791,-0.8390824083221892,0.7740318025874131,0.1521286392540162,0.3710444628591545,-0.17012250754151825,0.5364792069328912,0.2220730110904403,0.6972216040882602,-0.22944722984763188,0.8767590039231952,-0.04458170242385395,0.9660866631815883,-0.5196418834935359,0.24841632261065105,-0.8351568292587892,0.17682060292542845,-0.4878899508925907,0.43884927252437955,-0.772208380673333,0.284919437777055,-0.7313431614114612,0.32200745037044376,0.586407942869148,-0.6813682954873521,0.6530225634741305,0.807331193836816,0.19428410298610888,0.7260873262635168,-0.4610876396429803,0.06247896604887093,0.8587955702778538,-0.9623943193069413,0.8943720012901046,0.3014725160059617,0.6238188242522451,0.35102864530987143,0.015210679420648354,0.7579224538165261,0.25772760223884705,0.8543229596134658,0.698633038809441,-0.5675162109979215,0.2206859491083497,0.9826924412300893,0.5046059908857172,-0.04519835378888615,-0.8422030831117732,0.12490603729058969]},{"Num_inputs":65,"Weighted_input":0,"Weights":[-0.20528306371088334,-0.4721136751358699,0.28027520360958924,-0.9760235482501731,-0.35410231226277555,-0.04828595618646814,0.8556723572318115,0.6244462007928164,0.3517336794034607,-0.09457027830960951,-0.7503742082263436,0.49464551795108713,-0.8628952719223044,-0.4511272447154079,-0.3311085081676637,0.5041979475394529,-0.28964778910204647,0.19935729370443633,0.6777073606730777,0.24048449450765985,0.8782366266985107,0.7188295608341566,-0.41114160917623555,-0.49924920216052904,-0.343837444669289,0.8701925411408487,-0.5763489565065079,0.5602816917700688,-0.49997202079903735,0.3529374721979792,0.41539529848695733,0.6529543291792379,0.6619937700748377,0.9860347284321229,0.6819327483854307,0.761141988622489,-0.5964050759269165,0.20628796979928232,-0.4896273140782621,0.2885104723183287,0.707596087703747,-0.08850177573546858,0.5622527387558016,-0.5062079615400186,0.5454088287830712,-0.49053216370457065,0.6754071768364234,-0.5232351013381079,-0.0659638931354648,-0.4092528037525621,0.3505105390002383,-0.6736216929102926,0.5738218465660467,-0.8210627249573981,-0.5958454872029673,-0.6914796452563248,0.44169037782552034,-0.25890280250933817,-0.3067758787133361,-0.5487451781678541,0.028454835819969437,0.35570659431476104,-0.13894152131955084,-0.035320427198759274,-0.33835146965901197]},{"Num_inputs":65,"Weighted_input":0,"Weights":[0.38332520802546677,-0.34964072698177295,0.5850124571200548,0.7881348499376082,-0.8820118638473511,-0.9340017620236711,0.5211375608246998,0.26789122088952544,-0.2914655048994642,0.13455031734952527,-0.1954770515133606,-0.762382565716905,0.4183403339088674,-0.9425096081033588,-0.1281388743337304,-0.9945230628259888,0.7839851113570262,0.4615373232963842,-0.9699424498558658,-0.7516083746619486,-0.005949348644562313,-0.3868810027875563,0.4419673234350099,0.2436502504212319,0.11946677123704941,-0.3450316353134112,0.7318983075430039,-0.8860216794678113,0.30348977081548556,-0.7955319388539992,-0.24112679778778756,0.43581617607833256,-0.23733029060233124,-0.1346094160555087,0.7906050819175636,0.8388533528163322,-0.3048223388380268,0.004302824145699047,0.055932315357865026,0.3061681567392325,0.2942021420850034,0.31692434292149607,0.697348577871318,0.38688699005257243,-0.29730042124488965,-0.11968817055718306,0.8848290225910633,0.879880121971987,-0.6467911969984512,0.6731880520328426,-0.09575499377787589,0.3376041591316603,-0.7786748087513735,0.3456268620931098,-0.6889001003749742,-0.4502522993505581,0.5573041639776757,-0.8086606525936545,0.5060837337808128,-0.2230772680275721,-0.15230999763128528,-0.6901617752971605,0.42420093839954287,-0.554279861684414,-0.7917102654925122]},{"Num_inputs":65,"Weighted_input":0,"Weights":[0.3897486757132016,0.09337596043962737,-0.13963130221750575,0.13015776283985248,0.3274037779928656,-0.6032604959943196,-0.6538759930976978,-0.2600455239621635,0.4164406941838501,0.6426869865600611,0.17378812150927891,0.08639256435257292,0.17569666272075923,0.08820759003519707,0.9979574892076373,-0.41196033061316684,-0.7481270466992501,0.788651697341896,0.6767239544196311,-0.7987976561358535,-0.44706773343289496,-0.8509923726291135,-0.8439431462135683,0.8356948225429033,-0.4308172000292656,0.13835859005250928,-0.10091067207297477,-0.8191824688361943,-0.27076545822094855,-0.1672899444863437,-0.2795329644282073,0.9488694758513812,-0.2968790116099428,0.5918200006139327,-0.3885515021917263,-0.8874891206500028,-0.615277060184626,-0.015251848371179988,0.32445368849728307,-0.8000879118898513,-0.46890816691769077,0.7698965149259651,-0.9261659931887797,0.1577490794649432,-0.8406997172634055,-0.2833709511962188,0.33306745842617613,0.556648950914896,0.5940970669794627,-0.5390307711911705,0.7802200142097873,0.858604177117603,-0.9793304420103267,0.49207904407212677,-0.6509600688098723,-0.7631471246020204,-0.019632779584756288,0.9946415584143851,0.45872577472616505,-0.34080462569713843,-0.44938355598519486,0.9822260584151967,0.5045601969454276,0.6701674116163661,-0.7971279734043161]},{"Num_inputs":65,"Weighted_input":0,"Weights":[-0.21563683946530288,0.8483902255438556,0.7662773983685955,-0.773725298600567,0.6665722051226386,0.601579286991363,-0.4149813768086389,0.11255402240830392,-0.44696984876791923,-0.562310714652437,-0.3159471559446587,-0.5032965951959141,-0.030221680530693518,-0.8474726075139984,0.3732998741705773,0.5419904828083064,0.21924635321966424,0.33938757317335955,-0.4502168981865804,0.15505587474145144,-0.6727511063333095,0.23228802790163727,0.9736793753698554,-0.30287369439616985,-0.4131649565656792,0.17660935373980458,0.0526290550426709,0.5337540552876787,0.07685000009756604,0.5334947904298832,0.2560307112166602,0.7814630944178711,-0.7434973735728085,-0.47527271065124665,-0.14867749546705888,-0.18153050945677263,-0.01712098785125149,-0.045602755223424274,0.4188134794604157,0.5989712529912046,0.4128803563442216,-0.5511133042913168,-0.8541124172286652,-0.26814299056688506,0.3015622750253466,0.5981283053298772,0.5657447339691908,0.1090592828405168,0.8185720103277951,0.5182193909837589,0.6818115429778278,0.8517535879023594,0.8680107744394616,0.4024918026579649,0.5153226075873991,-0.07451342580273868,-0.7944038681954477,0.5168066271815812,0.7488939156584276,-0.5532034968149422,-0.6238053556125751,0.8892148891138396,0.6948195306784748,-0.6042450261794367,0.749059186009494]},{"Num_inputs":65,"Weighted_input":0,"Weights":[0.901190373254841,0.10636399670794061,-0.5577833649846702,-0.35370743416075534,0.417207199693288,-0.2759488982098157,0.8907453769972795,-0.2153011815044933,0.5453540427110415,-0.510576749109819,-0.6473222188704049,0.975930520054828,-0.21734028463046018,0.9242086176630446,-0.4038785878402644,0.870999450218604,-0.4821679675607633,-0.5938407055824213,-0.5161319192055387,0.016363056836645296,-0.4431819152766574,0.3769317564213197,-0.8778423786716811,-0.7414000499781415,0.7475228285145998,-0.908436962306948,-0.02742746652018513,-0.2791757353634249,0.9580691073292598,0.3725420914931521,0.7592606320106718,-0.9029998830164108,0.8314848908728776,0.44198604809958586,-0.985024054631052,0.2605264094417936,-0.16880245116035086,-0.31628242862606193,-0.1579322911778973,0.10928234037504425,-0.39197053826323935,-0.7493460195616927,-0.31584754698170814,-0.6254143588853478,0.7366288579654163,-0.48651427004770753,-0.3983642669652949,0.3685142914243682,-0.45033007109153245,0.8019019670472629,0.7463901717214281,-0.308895804168985,0.5094748879625914,0.9396727748018712,0.4041380799020453,0.8947998371010075,-0.6822002082229399,-0.9539140027232764,0.07938553429049966,0.7290796062519926,0.3800764326257531,0.9265139876679258,-0.8324555531734978,0.34102982362346856,0.4568076799961778]},{"Num_inputs":65,"Weighted_input":0,"Weights":[-0.6370084511534697,0.7886563448516684,-0.2760783938352154,0.42750123719616107,-0.5855819267310154,-0.19842242848619474,-0.7992622569427021,-0.49085509931166527,0.6519352410295043,-0.049319817401085486,0.32576538245594233,-0.8486137098122318,-0.1759071633584185,0.6643657968924102,-0.6817343771773241,0.053586957816285086,0.23753292793332137,0.4008060038505721,0.7767173581359657,-0.5177312700970472,-0.21298621422257757,-0.029677947374023184,0.6755022947480662,-0.978231981244749,0.968825366888028,-0.6665603064352672,-0.7485423387523495,0.6533487083433527,-0.521594259609885,0.9100215710274555,-0.4489466550758453,-0.4998477162624755,0.8063563337854578,0.25172416845141665,-0.19973431051948098,-0.21004075189435234,0.8654735188548086,-0.9812983420365532,0.19782645608143157,-0.722608249837921,-0.13869532419251873,0.04181404879526074,0.05086015220283957,0.8641107001869095,-0.37256459724774527,-0.5538171409911801,-0.8863774532778268,-0.3182338120831366,-0.11661331072462722,0.6047524559825432,0.3890636743217748,-0.8358317254741491,-0.48389522214052094,0.04593591867620739,-0.748765889784824,0.3406825383720469,0.8687978402752656,-0.2333858132211124,0.6563562665072316,-0.2750551256880578,-0.229994758535234,-0.4565813044337089,-0.7404829285092691,-0.38215063981623365,0.042680303791930996]},{"Num_inputs":65,"Weighted_input":0,"Weights":[0.5149645732920558,0.20023605801623812,0.8641563997820583,0.14709628287397036,0.9244713329371661,0.6121043551979846,-0.8229607818563626,-0.3409152438607743,-0.5306962626841626,-0.1382419573462792,0.5087814985137817,-0.3930593397132204,0.22082387186366192,-0.6583695179902821,0.17465893361939244,-0.18545583803715748,-0.8325398575898862,-0.4916271656076615,-0.3480200570224733,-0.8850180197714186,0.39356652771546075,-0.04449341940294338,0.2688367762649344,-0.044328894885564574,-0.19803589842959313,-0.11857968119902296,-0.9005710272980714,-0.5757427609314536,0.9715902508601053,0.3649184280188107,-0.6966496873822228,-0.879195068729886,0.4496808008637809,-0.024820917883623617,-0.083316866939252,-0.036835801271817625,0.8547658288107645,0.8890126136839995,-0.7376927671920673,0.3758359852276758,-0.6325985289889102,0.13446384271986989,-0.062298543057213385,0.37871684536799854,0.8233687259552094,-0.06085092698842076,0.5448273978802196,0.4128065267679468,0.10597528449304372,-0.4369399177932821,-0.05906421486497071,0.8585443003286872,-0.35808070797185654,-0.8205174138602442,-0.3806705422456047,-0.23452492619523102,-0.14538605342135258,-0.3380462123549829,0.5845095636818851,-0.9006548462502023,0.28195749633156253,0.3402454383359754,0.4893378150509453,0.23021952456051542,-0.9407299114923745]},{"Num_inputs":65,"Weighted_input":0,"Weights":[-0.6354736424855509,0.601925707146928,-0.033154684304050885,-0.2907118487950825,0.13683349423373747,0.2229307993217109,0.13136507291949395,0.4577852661752695,-0.2851460789587871,-0.9065723839944878,-0.6808258684541468,-0.32931279943098024,0.24196485774843723,0.31357027062623066,0.2300655962896938,-0.08545222175437928,0.029861222727285863,-0.07480072822609118,0.3498591137716416,0.28211797333569977,-0.30848457729401957,0.18796233534362417,0.09777901810626188,0.2986663495434414,-0.06949181749664535,0.8753589435898448,0.016815102970413776,-0.2727985311917286,-0.14314696618409983,0.15865077717447673,0.7133548725016325,0.898656526268846,0.33740056932280815,-0.2910770046218375,0.2589202597038487,-0.25319705365926704,-0.80042025228865,-0.3772675352164371,0.9209627998580756,0.4542448156812209,-0.2623332811744137,0.32001983079398943,0.1682221619003481,-0.0027661774749506707,0.8010891435709899,-0.22435240059697725,0.09838812241481465,-0.9201668165897181,0.01479680860953847,-0.273927075451582,0.6311090720035881,0.24288763325663054,0.39100961765750064,-0.6242697042763826,0.22913390228432773,-0.7096231421138959,0.6507132824119,-0.745997818103491,-0.046904921965969404,-0.41327292528524384,-0.9743791799912161,0.010141023985512865,-0.371017057878102,0.25690903347493554,-0.6250548404617737]},{"Num_inputs":65,"Weighted_input":0,"Weights":[0.9600356253205959,-0.08156644628326193,-0.32602900815348435,-0.09051206611225682,0.7782729636100998,0.6982946294162538,0.582104863095416,0.9636763452109731,-0.07941240833882668,-0.3890332421854511,0.9975107957441995,0.5341524825258512,-0.2379465652761934,-0.49840471666218356,-0.8716566083128985,0.6903534458216072,-0.014321820328964119,0.7077079547493768,0.1747639053609682,0.8060181891875471,0.7426066409550363,-0.7712725643741253,-0.010654300184145926,0.5223072922455412,0.15318915873005023,-0.06131998836914576,0.6313153915759138,-0.3087510178579268,-0.2168527818375745,0.9097303530532093,0.4064384210136107,0.12992653984964342,0.7893345736187818,0.6356951019521611,0.9424869103579598,-0.11147683130833519,-0.5623949727008976,-0.9758239773540525,-0.5199266008594384,-0.9404941134427263,0.14745735046102504,-0.6387054750065878,-0.9316997902010679,0.1664477550768313,-0.22328608987596021,0.8797165477316182,-0.2942701521118428,0.38457347996536484,0.5147126889162483,-0.5725336853423107,0.09576053614244229,0.8361726296840526,-0.7704409113758267,-0.03057348341844468,0.8106383910678077,-0.32813972220078724,0.12195458746094201,-0.8191081425113454,0.2672882364628566,-0.7510604305855981,-0.9986862568891633,-0.12653492390356613,0.5648272976164976,-0.41197987303731076,-0.30616336988933546]},{"Num_inputs":65,"Weighted_input":0,"Weights":[0.03371713124804465,-0.5790709822792385,-0.49600113952597047,0.05150501056356371,0.014010206234020384,-0.16330808748640258,-0.8374834716745699,-0.7198675561697644,0.686037048274835,-0.677461610320969,0.48803526664710595,0.7645453929163986,0.6273070811834829,0.44512853312342027,0.13183619910788602,-0.4296270717368226,0.7109679974324417,-0.022666223431017207,0.4741726846417922,-0.656490448105118,0.3146149747171967,-0.0501372243781435,0.3272840198747784,0.2428891914769309,0.4771582452045655,0.14287127274747302,-0.5094763384639953,-0.25261281132133295,-0.3502072538374691,-0.08506185690336932,-0.9218613724502503,0.7776487789867139,-0.880935752397317,-0.4072302094190836,-0.19162605602281035,0.12211595568686873,0.6694899649873096,0.9679669143773091,-0.7131864678511748,-0.052313712396706236,0.826519034257635,0.5398428071171244,-0.6435307667382788,-0.8690514813787665,0.2870108278292347,0.6026829360123738,0.6649510603539375,-0.1164326560078024,0.18838939409807032,-0.44370762865665936,-0.7667717470958986,-0.6128835572943987,0.32177781611115064,-0.6394954203732439,0.8284119108632828,-0.35995791830451673,-0.8843372586076086,0.9018599648006309,0.7653926468520351,0.04958617499117057,-0.31206607161841804,-0.7738728030550921,0.9184082472259278,0.8801426602301694,-0.9238561625264858]},{"Num_inputs":65,"Weighted_input":0,"Weights":[0.8956669124742529,-0.28219876681931255,0.6350574761507679,0.856896713788142,-0.05804268103684074,0.026689294953838427,-0.5989200799615417,0.09666896694081761,0.4808684228609277,-0.663775425400225,0.5045041607417686,-0.37220810048663333,0.4766953843871662,0.2769604758771236,0.4781597745030348,0.6328618342018719,0.5515407122695997,-0.4639804517650741,-0.16820573985398524,-0.6023231220959806,0.2427898200077614,-0.3585213736346121,0.2020062973373915,-0.039703347716534054,-0.5771246138203611,0.9978461380679777,-0.6361040726063482,0.03664189320591027,0.7904114486149851,0.46507419338024447,-0.8235921804441291,-0.8212048805820746,-0.3314940159792418,-0.6145870515897827,0.5523892888788944,0.02659773295680412,-0.6539772708483207,0.498897400906426,-0.00991381853991824,0.7815289788667836,-0.12780799819548383,-0.5141372650556755,0.10031886227231346,-0.09676176046066909,-0.935145887662019,0.6573622540813053,-0.1313187887353654,-0.664146638073142,-0.45491131575242405,0.5464745915495932,0.1567261762054688,-0.9022980175370321,-0.042028170544544996,0.18867104844513993,-0.6062137196640354,-0.05987154833401498,-0.16272220750324895,0.15339065263630314,-0.18490769336036406,-0.38478652350328557,-0.8840227785568595,-0.1284779992260331,-0.8286300633092829,-0.9271269136228902,0.03349739804251173]},{"Num_inputs":65,"Weighted_input":0,"Weights":[-0.6767974633774775,0.8579497587450766,-0.09455552287065616,0.9151494756197518,0.3155758840244174,0.8688044690229173,0.049229866071183626,0.7521799367900659,-0.22384780920007075,0.7440765568969787,-0.5916936234631132,0.6794246814444993,-0.9760391971187504,-0.9882621894087553,0.6464533909397441,0.9354593573888299,-0.8968921518199231,-0.17788825860474256,0.9608562547627262,-0.1262350396236117,0.19835255924109885,0.8999318710317301,-0.29564463418445386,-0.020352662690430567,0.5019594320225929,-0.4662327700313367,-0.6612783912984775,-0.6978485716406974,0.8884056337946675,0.9939772073950182,0.4967099232907153,-0.38922257968458207,-0.08256592429071186,0.08756818301104552,0.11829458978496765,0.27397554381734857,0.7241407996770364,-0.46442186165893895,0.8932245465470521,-0.4005870920572977,0.9896741342569286,-0.8561559262443373,-0.1262001142633118,-0.3031192311301737,-0.010775952715022186,-0.2019815415426255,-0.5913915164329417,0.9948882890221353,-0.27545350746495756,-0.8854258777703905,-0.08017879173425335,0.16552577691819592,0.5714701925257983,-0.07836091742466689,0.8476658081091972,0.31680107693347437,0.09768394523552226,-0.9631988940951589,-0.5656118333438804,0.8439491371328716,-0.8022199007080041,0.6545675849718415,0.4616505723536295,-0.7049391749864895,-0.7687904402463284]},{"Num_inputs":65,"Weighted_input":0,"Weights":[0.7309576506887248,0.32056978002130965,0.31324128401915297,0.4838344574202662,0.6374901806435573,0.4547044854611164,-0.9031866006625777,-0.8210241941254159,0.813215616211842,0.7808229202381685,0.5498428502754122,0.15897201268104988,-0.31957771550890557,-0.17763551440411818,0.2920638456316196,0.9315971193393695,0.19384691354614203,0.6741074761443515,0.5257224269103946,0.8320686209061294,0.15559031168568205,-0.10382350367407756,-0.2344355298764217,-0.6716552853400208,-0.4629784792173862,0.5647259708868875,-0.1787279810119402,-0.39072240966642213,-0.9976008691115635,-0.4023521253523288,0.11803445169334914,0.9600078868434943,0.2550541465726017,-0.8893395310792646,0.9669892079805722,0.5318377067545068,0.6733888509145247,-0.7729803819596837,0.3122595533661183,-0.6562278299416704,-0.08108498595669322,-0.14645288573872262,0.7921228919140428,-0.24139117900642992,0.9344935604499243,0.18678746908221533,-0.47956321065400986,-0.7505126837309647,0.4522504885298988,0.2934620251766358,-0.39436129439459944,-0.6123209475304091,0.154260559254211,0.7730534007308618,0.7099224096229253,-0.44725217423903885,-0.09509823053811461,-0.298746202081988,-0.3773671921565901,-0.06876418083152325,0.03193682735225889,0.24864969006014492,0.34963280993431,0.21491238659564527,-0.8668528792919131]},{"Num_inputs":65,"Weighted_input":0,"Weights":[0.49794569096491426,-0.6574874724457388,0.8518249198625842,-0.2310342936763251,0.3855204155299574,0.3310782325503685,0.5671706604252829,0.7035540816024055,0.9433085122724558,-0.43502651353505717,0.4179719157860713,0.12911645189258292,0.970102111160253,-0.6644014829616913,0.4940088222035546,0.8418223592160403,0.563170974262436,0.13771853930981837,-0.29308380888626895,0.40212066795900303,0.7019481265954837,-0.7007966791761733,-0.4214569763427386,0.692589065801049,0.27729207406583756,-0.9803112346154254,-0.05668983081953649,-0.7048248118651537,-0.8092701624832755,-0.5304359590987026,-0.35768673100660575,0.3519514045457066,-0.6041893836322003,-0.3761124353502572,0.42353978962368877,0.43069071547325155,-0.48394126976125684,0.2994048348615921,-0.13078482840406724,0.3072887796999435,-0.36105961070169945,0.9863561828138321,-0.5211140743646794,-0.9479659466966176,-0.974467797967762,0.9273503037054229,0.2890715956825587,0.9337062712151063,-0.34208381953330247,-0.03568909552606514,0.7869124469806645,-0.09595951287687554,-0.3132845559798795,-0.27428960940061153,-0.453218604482608,-0.6092954295232005,-0.08623125247779229,-0.11668542520929959,0.899980103308962,0.8051315956420921,-0.4709484482168861,0.3749014543886122,-0.8301716510404062,0.3129825083894666,0.5680240831154355]},{"Num_inputs":65,"Weighted_input":0,"Weights":[0.011976238683928164,0.29141661469913815,0.5492267557757953,0.029924145035788108,-0.06375361508755117,-0.6499602233817791,0.1798337039048743,-0.34754987294442796,-0.5859373723680192,-0.6615104398172003,-0.42174288171189844,0.9435316319722695,0.009917065767404365,-0.6624021610526416,-0.14898488954739308,0.3593636782930305,-0.3905776811856675,0.7313355133563353,-0.8502418082881704,-0.8576011094814158,0.8663432164924532,-0.6388822694880574,-0.421282548654473,-0.16663847145694255,0.5673250244267432,0.645407927115619,0.6419241016402912,0.9137346586026083,-0.5257662327497027,-0.3066135747873592,-0.7374888744554614,0.9583592372601659,-0.834488229171299,-0.7527210081171223,0.2869463741009033,0.21197786466837365,-0.9860239310692176,-0.511434892755198,0.7719697950188864,0.9760355817328608,0.9054174848854453,0.7011358656744131,-0.5615606083111719,0.8642429464596837,0.6147040472625764,0.28215730848224285,0.7884247953252173,0.2621161521654167,-0.24692552056138273,-0.665647277117497,-0.014951904264159266,0.22730208326586832,-0.8354670736969237,0.6907721805637381,0.031172440394926948,0.7599228991878153,-0.9328305313272384,0.012079923915752966,-0.8518243178973709,0.007717018058201575,-0.976782976086428,-0.7897842780276663,-0.5399305282926101,-0.9073337272107156,0.6528867865434822]},{"Num_inputs":65,"Weighted_input":0,"Weights":[-0.16378597315736587,0.5772114824935912,0.30634369052142607,0.5594928563679009,0.1272416026797163,0.5229068869722251,-0.41054190879305275,-0.4579572630910759,-0.2471943436332048,-0.20054859366568378,0.1506632078003416,0.046881786098446065,-0.24514453833952699,-0.032454674696119956,0.012743214517721757,0.6124546947576737,0.0485246472473253,-0.6785246657702813,0.2064804676100389,0.18297038208561944,0.006840376170779372,-0.0003249131931710725,0.13146590911287603,0.15901787584969407,0.2738036335319529,-0.7576901319054442,0.33514181868587034,-0.20067720516139298,-0.15911406258982996,-0.2686060869153918,0.026048951092254358,-0.6985430836820119,0.4483647048385615,0.829173337679598,0.4607140449619114,0.7998643865501596,0.4906227600513806,-0.41884920438792417,0.48565094045679014,-0.19213365955753436,-0.2617957688075918,-0.0948351808405099,0.6842472667244437,0.11881014263787537,0.3668728138621167,-0.8966461595644594,0.19674218113479447,0.7637945627877465,0.32995490628149593,0.27875288100397033,0.022401743206615254,0.6674475582427,-0.2500124818709749,-0.6908546755792824,-0.5870144994324848,0.36329139151230017,0.9463740655589947,0.6869278106424603,-0.8074922694165382,0.46279716779897795,-0.6168583669695014,0.8022777764402769,-0.5374036079522566,0.35708288475056205,0.1474294287364597]},{"Num_inputs":65,"Weighted_input":0,"Weights":[0.23388932682566832,0.6400532698511057,-0.5296523716998047,0.1591274191228551,-0.8342250787114762,-0.25721870478761855,-0.5302508477226631,-0.26533712127835474,0.29413900046701014,0.8575344234850155,-0.7565546528486099,0.2090077808787456,0.9447057639763212,-0.11302353542568688,0.4862976035042912,0.2014500117896305,-0.9075986999007589,-0.8078469501319488,0.6575671600843589,0.6802648583787116,-0.21084422161422234,-0.8236403430397748,-0.8385064765040523,-0.5981756820155824,0.8565165504807271,0.7031666141236015,-0.6193079177089602,0.6366976019288872,-0.7490677039863549,-0.5678236841910032,0.44904389954993706,0.9372881979191041,0.6402174845052893,-0.1861893159307253,0.768859662063784,-0.3831367209783937,0.15605661204135535,0.8572003396436108,-0.35768791460025284,0.5658349933445186,0.17344878582751178,-0.8048075568314996,0.4046394983821282,-0.08672072342559922,0.5264775425924162,-0.7444873017655472,-0.10048388693782662,-0.9773775424896397,-0.8178876284432836,-0.22984039626644737,0.12664618859688948,-0.7694653178612278,0.2827664949807722,-0.272369018089067,-0.4912932194882612,0.40381253040392795,0.347525727766389,-0.7220197161092954,-0.5659399529655884,0.2596390911894071,-0.5677523648670586,-0.2098178637811664,-0.3436508128663208,0.44959462407258877,-0.325619616948571]},{"Num_inputs":65,"Weighted_input":0,"Weights":[0.8670905338514745,-0.41768992433614593,-0.08862613370711114,0.6948484131539658,-0.16161852535097065,-0.22230355850481465,0.8350027085588321,0.2736740391225372,0.9925137217110778,-0.546456140770698,-0.9041821627433407,-0.5912841261052133,0.162343828395195,0.14558761875797388,-0.02856416019599961,0.3451215476583407,0.05846220908114286,-0.975185377249755,0.9897248591863326,-0.2685754757125782,0.20953676148171674,-0.7454834143431326,-0.7551963843220991,0.3057190975046915,-0.8566026014653957,-0.4347776895391363,0.854309499472238,0.2484620965594897,-0.817498425982526,-0.5452643456625055,0.2126564669536246,-0.4437256600799029,-0.6345724790728958,-0.7952423981373056,0.28915244803625617,-0.0798560862609623,0.4815518860803134,0.8271299537180365,0.10662351266603642,-0.47999706673733933,0.4966935004385793,0.9709946908867229,-0.04165229427419026,-0.06377567458844169,-0.9435691416002235,-0.06632752482815907,-0.07614633717528585,0.669481136644565,-0.48443674687420435,0.9543060293233194,-0.9912789135980938,-0.3670408761146614,-0.4656567645730124,-0.7947619495723796,-0.6367267463110691,0.3024433416748933,-0.9783965593140794,0.6474732435600847,0.1849471012367574,0.87099975610833,0.3439140582738365,-0.7248417282560992,0.22469247809964799,-0.8703877163452274,-0.48268396245655765]},{"Num_inputs":65,"Weighted_input":0,"Weights":[0.3741647975027069,-0.9818445575961992,0.16200780601392917,-0.005431615632561004,0.7893794018074638,-0.9730916256521738,-0.7706426850271626,0.38207639151294703,-0.16338537700751032,-0.8348683027096513,-0.43861991862061733,-0.5721963412766962,-0.9601166016306191,0.05509019604835186,0.7960670215843941,-0.8374877593796745,0.3646952517960713,-0.4269325902613157,0.815421158850528,0.8218806184196219,-0.5972832822582936,0.8250310317774792,-0.6203937828191433,-0.053234292364803926,-0.17223129925828218,-0.7203679719458356,0.424714246622488,-0.17653932516757787,0.22794359440646406,-0.1295746518257923,-0.8213254756777209,0.49003529184016004,-0.5928695017802375,0.14484627355445823,-0.9784621012126625,0.9880000346201723,0.8440073358120506,-0.4167225245521968,0.4378100389729429,-0.81547466429383,0.3179760224199004,-0.6564758564736106,0.9893538635832213,-0.15414395800702785,-0.8522590510137132,-0.7339695848208359,-0.07424510577437149,0.6475602178205768,0.30305013332050645,0.2803858766114098,-0.21224356958589974,0.7782743262472873,0.32138710371305,0.9496643997025316,-0.39256192900809617,0.6878218340539048,0.5059029401234019,0.22586955983106405,0.13188223813072786,0.39225049283457647,0.6054329431864081,-0.7652452205057396,-0.25834686552561736,-0.3655747033841539,0.5377093251363898]},{"Num_inputs":65,"Weighted_input":0,"Weights":[-0.30155908628482986,0.08936889979172746,-0.2204821047273784,-0.3669543715728337,-0.07819524758126195,-0.4634653676439975,-0.346008562019103,0.03480214484424149,-0.20167950744832674,-0.10108700557564687,0.03696943529358032,-0.02761752416810148,0.23743738765881872,-0.5134598375247574,0.1331788479136442,-0.14027727347035213,-0.8280656755989833,0.09451988800505151,0.2426613624502425,-0.3702899651315894,0.5917626395770386,-0.590069304342455,-0.6791093502289538,0.06649111774401284,-0.8212276250197132,0.80671550297682,0.831721800118381,-0.7922751648226782,0.8547838202879148,0.7644810323113882,-0.5077094863926694,-0.5715378833387252,-0.9396146291922646,0.5643536536004956,-0.17596928435816872,0.04099795757625069,-0.7053630373350411,-0.46714935803938484,0.02729619085788526,-0.09456989617248879,-0.6990444745585234,0.3165415328905532,0.31489809692620696,0.7932520002979051,-0.22576158419827275,0.2940415742148672,-0.8371149660789176,0.43514047852898186,0.9238128059433115,-0.9194727420807204,-0.1329023786813145,0.18066244442925727,-0.45755626995878007,-0.008841543090655324,0.44684920137855344,-0.8518300338903037,0.3616365210443828,-0.7041189864093038,0.11104206823828111,-0.7273401434806421,0.9360354635883128,-0.9355265694493409,-0.039232835912309416,0.5941792787007951,-0.30666200897746654]},{"Num_inputs":65,"Weighted_input":0,"Weights":[-0.6838171036653987,-0.669887575855358,0.210522956289108,0.1071845006622707,0.18994218965390441,-0.6674812948036996,0.9762962789321177,-0.0701835921672842,-0.7385923630451868,0.3783874905029696,-0.8975477924522394,0.2515842186771513,-0.24872265436031504,0.5832420904052922,0.9103652653339473,-0.946142652704003,-0.3974387284011446,-0.5347432852627059,-0.6208557302232383,-0.28576980347677483,-0.16332389401466507,-0.39705882832395656,0.09023163024965997,-0.8790642454314939,0.8005306935120788,-0.4613758363501306,-0.9494939900239608,-0.804984211788015,-0.19763996885411628,-0.9185684812345383,0.8521148750382133,0.6016252117950027,0.6778791584412891,0.5219274331040551,0.5167007413868137,-0.381651295621965,0.6401025145614871,0.5238610429530572,0.9524484727635003,0.5489193251635782,0.6082609680157984,0.9936267495433602,-0.18469256388161992,-0.2535497333889657,-0.6614148397607683,-0.378683283923138,-0.65087860818865,-0.05929903590498942,0.2500008549414179,0.1762746157303643,0.07711762492657037,0.02958207418739356,0.6679958995135589,-0.7793087880453786,-0.5197571329958988,-0.8424501070080181,0.24933418780890992,-0.47982669265818234,0.527936511603212,0.6414978445661654,-0.8749024287593956,-0.8235399524102857,0.36195421098677016,0.05991430834408451,0.4741987758178643]},{"Num_inputs":65,"Weighted_input":0,"Weights":[-0.09094981241322342,0.18112280123810498,-0.6956377695449255,-0.6180848459158199,-0.5091777745395827,0.45722047805668464,-0.8583430438703478,-0.04636583833161401,-0.12828538662364053,-0.42950061684186835,0.24952753034352204,-0.11019960471725043,-0.7510683733144666,-0.7908826920100975,-0.9790680598088302,0.4261472379840041,0.5091872797652472,0.6683543799493727,-0.7863863770261998,-0.8910857930339335,0.9730075718247073,0.5187116879818419,0.3149349714612826,-0.3568134039545565,0.12432248390042422,-0.5946384971270351,-0.6113843177792497,-0.35361669320523403,0.9723116573075352,-0.2052124252093367,0.8723067564354678,0.81714073393255,0.9292775787216501,-0.7841077521263662,0.49902476848727706,-0.9952267247286254,-0.3366391791408334,-0.3121424555320097,0.44144117223218426,-0.7402066570524806,-0.5864164741472093,0.19762940884912283,-0.1598313376334365,0.9145240355341153,-0.8204424501966088,0.6475680033468172,0.5583992645868199,-0.025456680850624802,-0.7258571969831914,-0.3150823642506143,-0.718004809798256,-0.05342230223143252,0.1014657130968244,0.42196128649396636,-0.02012446940656798,0.805983878993977,-0.20115957499785198,0.7518290147116211,-0.2448870996913768,0.06857408101769136,0.19369000337116837,-0.5454076600386519,-0.5924397379195427,-0.04241714644251582,0.6491874193394696]},{"Num_inputs":65,"Weighted_input":0,"Weights":[0.9895789412981333,-0.9311575118803904,0.34703129715697734,0.9590590976466202,-0.30298455119803236,-0.6098053877111409,-0.22531872797918873,-0.40607471927578076,-0.3611667596708722,-0.7180186688136785,0.8601625849232866,-0.00464046626966641,-0.2693556321415518,0.9792933320681196,0.8808077500820475,-0.08915314251181472,0.6236127161610829,-0.2698408986704667,-0.05904353057512102,-0.8997145358573799,-0.5529308382339602,0.584360049915535,-0.772164442831496,-0.26669895910915453,-0.16345594079343395,-0.8849432290064686,-0.7203695932161687,0.9812894916341048,0.7368048769956745,-0.49633180768291696,-0.12153678812645974,0.28220381000415107,0.7962195356935917,0.9996613314395733,0.45284376343786303,0.1521323493629516,-0.007780331281427966,0.1773731100531366,-0.5875004442067291,0.66838203260508,-0.8764078830312845,-0.22516300053394067,0.05395154655795964,0.5540887940423393,-0.2924828319422923,-0.6998697411778603,-0.7166179398035684,0.5442017138578592,0.4005288822332469,-0.1821672553167284,0.33724982482596877,-0.05281817416636447,-0.4272790769630036,-0.6395852343696108,-0.7444406058325433,0.12813249940266447,-0.512007500058602,0.8124163104089361,-0.6723495213212496,0.4946431323339886,0.45563395226515446,-0.6369576788603655,-0.6100990852155632,0.3046187262089759,0.7296098206022215]},{"Num_inputs":65,"Weighted_input":0,"Weights":[0.7382077208121449,-0.45523851643666924,-0.2690584749629611,0.2963182083122251,-0.9779869392471254,-0.4119170787002219,-0.12791325301379752,0.7608638530259009,-0.9887850716581643,0.0392926146026491,-0.7046986462077774,0.35533716778905244,-0.9068054712491997,0.200480165041371,0.6051124674396506,-0.21028906028688787,0.7306352505174987,0.26430999724100324,0.4352352365429635,0.14313706982552654,-0.2826594175666768,-0.9445026865005546,0.30358399230945854,-0.4711365807641016,0.8796054657919867,-0.3983539276768895,-0.1670353997285,-0.06904062857597659,-0.3812918176225525,-0.5284337143420552,-0.412984224636599,0.8945705323000541,-0.7458231309488732,0.6788234984546846,-0.11515685512431328,0.07079540803067563,-0.39928326122435887,0.6529423180256482,0.5279576507586123,-0.80531949289417,0.1873881323557114,-0.9971219129859048,0.0257892802234001,-0.8895583172016277,-0.36400747938310773,0.054819337867354045,0.7940984638981501,-0.1979437960096554,0.3942605760757951,0.40949225682269086,-0.7340705938653805,0.7210852231929705,0.19811537633982823,0.3649368734360159,0.979928244222579,-0.3181183262791467,-0.6962839621557647,0.4858363022529586,-0.06246362483280987,0.20957125523055464,-0.3206234887980234,-0.9847704848954948,0.6044445842460093,0.9580775041181389,-0.5988107799532196]},{"Num_inputs":65,"Weighted_input":0,"Weights":[-0.5672736806456065,0.6373383033048037,-0.6678739942510403,-0.9875917955259511,0.5526317345255498,-0.46830294331312106,-0.08762399166900148,-0.3679726761901735,-0.010997774069184674,-0.03208304766090331,-0.46008249299555837,-0.46346739567955686,-0.5765109428035651,0.641437390591439,0.7229472109830308,0.7596540540300696,0.10227793429983234,-0.35866732239933763,-0.1367909125079595,0.5852126735084786,0.30727666074167215,-0.5246719011627878,0.293447803868494,0.7917208929679886,-0.5113724678946594,0.8884599600553709,-0.6004080763863893,-0.6248335747368382,-0.7339083165888409,-0.9888505498175784,0.9165953489464469,0.5371604718703398,0.25788283538810575,0.5999782213005922,-0.6967721392412514,0.07161186147000875,0.4609158132493052,0.4837227202029635,0.48823381709197977,-0.7185151130149411,0.5864575125498064,-0.05440268415182137,-0.45540547110015783,-0.6190025792137122,0.9670516270141294,0.7704645534316632,-0.6189929027564296,0.43515709888716403,-0.2598729626024733,0.4978468698544012,-0.878522218779487,0.391123604749261,-0.20471464753728263,-0.44082806033278665,0.5030269134772334,0.013887601848221465,-0.7150119695766615,-0.8701594752842859,-0.20086602596987235,0.7639035204203313,0.538027319957314,0.23760204583779343,-0.46436329928513786,0.6084548514790087,0.23689024389477065]},{"Num_inputs":65,"Weighted_input":0,"Weights":[-0.7156906782139772,-0.0233074304099804,0.2021314928461544,0.6851398704305232,-0.2948631380175586,-0.3191990611203679,0.8396470639443034,-0.6698730822192486,0.07797249035594644,-0.6733265197025632,0.20356499295839714,0.09448660114477891,0.4629072715031697,0.8170271669641085,0.5327809498818372,0.9533136653326426,0.592502648881404,0.35425435796939286,-0.2048727637387563,-0.9493469564503476,0.9672814427657437,-0.3613866029325812,-0.4516441925288064,0.2468236544658473,0.7193466087014637,-0.4588002224055695,-0.3245610626064982,0.17109785082410478,0.26915563626328676,-0.5345916008497964,0.7237917548994595,0.25013098181939974,-0.15813188172997739,-0.7456762054910415,0.6660606789441805,0.9134602049079259,0.7431340424059498,0.7784368936880532,0.18724468474326184,-0.759551766437297,-0.6393984967773749,0.2400058949896915,0.5448468165677347,-0.9700145632440293,-0.4989299093952586,-0.1780087304765844,0.3115318374958358,-0.2698509576665722,0.41004475471527324,-0.006899886020726442,-0.4000132176819938,0.9307370918812341,0.7492453863253354,0.5527737646966044,0.29257957700669457,0.5406490710838954,-0.4409947764269593,0.8068065197574203,0.05708473867310726,-0.49644924262223733,0.42357386102181094,0.921576281393234,-0.9402542341938412,0.6834417997045228,0.741070785111388]},{"Num_inputs":65,"Weighted_input":0,"Weights":[0.623755976059015,-0.7177867257376482,-0.2724056534309359,0.7460134976261803,0.6322342727733048,-0.22187237934509862,-0.14571647212349614,-0.37789515404631413,0.21452647885646492,-0.5687644235259118,-0.5884112795021497,-0.555319744771808,0.45199155143456005,-0.8822661157521784,-0.22174761497629403,-0.7648345197727624,-0.7152616845785393,-0.5349240133429771,0.6041450164445248,0.8384805051722024,0.8640433704000179,0.8310717380432644,-0.3332553839140424,-0.11242634068844315,-0.07998526305108233,0.27593161806989364,0.6986797736690995,-0.09532972352136437,-0.547452976239478,0.6270829278432244,-0.2593470750361959,0.7278837861651775,0.6939115612968181,0.9772306398777004,-0.9481622117211783,0.4835066544783273,-0.5233931536990908,-0.3097144834514114,-0.039349125265567775,0.7205502702213182,-0.8198555606742874,0.44883290752986094,-0.8674471994886873,-0.426749779186959,-0.30516413850138735,0.6795825405127838,0.1021973959886977,0.36219857560876645,-0.42348955946618994,0.8070640404955374,0.14846754800505568,0.4382132087430184,0.21000720818144636,0.9692745651767349,-0.2072010773289008,0.8544922277495985,0.08893570076693913,-0.5465507403355127,-0.8604596217975509,-0.48098353708604935,-0.5203616908385713,0.17217245154946959,0.8823933065331899,-0.913002286092853,-0.8235592491190827]},{"Num_inputs":65,"Weighted_input":0,"Weights":[-0.2827367995390332,-0.5501422966276577,-0.5689472592788466,0.7907894679806029,0.9484571363414911,0.7662616307439296,-0.4474060872273955,0.8813562374836035,0.689793116112148,-0.866774850637682,-0.784493673096939,-0.7840432155365721,0.024663532660393006,0.9069941045741241,0.6846146856554816,-0.6055431058895477,-0.2981141514383182,0.42533896294491225,0.6661364477654599,-0.15253820926727746,0.08044482414784393,0.11149485871917642,0.5386395536449757,0.24847489143587564,0.7378426591866314,0.5129452370681233,-0.09245928935342829,0.5270428213376648,-0.6328202019585605,0.7747171175120373,0.6694698622470161,-0.5398940752997001,0.7893955106190804,0.5192475532003125,-0.04958695014061476,0.8607338861642628,0.40170172620917,-0.5759661691362665,-0.4104023338006104,-0.9209609539819235,0.2440597545580232,-0.046684498929631446,-0.5338801567011187,-0.6904994116512325,0.6012077074613127,0.6267035899580913,-0.4616509099932654,0.4550518377680435,-0.4291926845698455,0.5506292988616035,-0.7480578315804831,-0.44062437282837896,-0.3467423979254687,0.033724043510218404,0.8962641454511497,0.9585227326593277,0.9463088622195854,0.10748500571073039,0.4624327771433516,-0.8138771686507932,-0.2742655000599029,0.9961301734849561,-0.06896689343720075,-0.5567374838123086,-0.18112512639978295]},{"Num_inputs":65,"Weighted_input":0,"Weights":[0.3350158530236642,0.3796907529176321,-0.09613378363343139,-0.06656230185748879,0.49363918019883757,-0.49538622846544267,-0.5105350525544208,0.1057723881171928,-0.3647028243112982,-0.5724697503068543,0.11667215534523945,-0.3605791576562529,0.37972063934796974,0.7780278197892039,0.03429978807050049,-0.9329202053238038,0.8500919513813241,0.8006687641461605,-0.58486548111967,-0.9010616177079639,-0.627818059856347,0.061475620077700244,0.16554532574919123,-0.7149951109958956,-0.8848080682951313,0.3027388856451252,-0.953980277864608,0.0015435895438762337,-0.29273164319359746,-0.12288653138101824,-0.3618489620225649,-0.024423812560262936,0.007842196213614372,0.8015439136890585,0.842606307073168,-0.4166855271021962,-0.7776091339559412,0.22440633837380708,-0.960726811151067,-0.7591986271593055,0.18482943509303174,-0.19438616443601886,0.8393245407085916,-0.839835599907963,0.7656194646265508,0.08623884926167902,-0.009438328751804614,-0.8112464241401287,0.8130907127263358,0.5343015279564542,-0.47253583068313154,0.615077522047544,0.5301267197387469,0.15503210336949413,0.21693855119360617,0.9570640942643365,0.7003792371694921,-0.7367885118811204,0.7472439601264205,0.5908555973154195,0.8988951470440218,-0.6028707345743134,0.6612510558190576,0.5840721628399843,-0.052577482588682334]},{"Num_inputs":65,"Weighted_input":0,"Weights":[0.009683610483702587,-0.31174398388732394,-0.40038988505751627,-0.23094863955014588,0.45027292448496925,-0.9240203527688682,-0.9796720646210446,0.14690112888857265,-0.4196001935327833,0.8571218875556212,0.35897156488257087,-0.09849944430672586,0.33130712741575663,-0.2842240586624345,0.2258995512186437,0.7229473331645013,-0.8264345472020984,-0.8314257060530114,-0.9314660198088807,0.5359036684599909,0.06432179615796829,0.8825193866193091,0.36238226287078623,0.9274847620774116,0.4524250828625216,-0.059606280436957815,0.2874347999640272,-0.7189958227139661,0.27258970430045903,-0.43648692697379,-0.6188125894457495,-0.8548150363219583,-0.14150018256140862,-0.3513514970169671,-0.9527851904405642,0.4938431232067162,0.33761979376437723,-0.5353944135210016,-0.07176513915191596,0.8425595813228546,0.4451202784040287,0.694021620459643,-0.3269478765809525,-0.9389218361723343,-0.3537807661224066,-0.5232231793519049,0.2771463513120933,-0.29708114830507426,-0.24107275029912056,-0.7410957122655122,0.41442504128164903,0.3916419006011189,0.8542045361724611,-0.9477913325669145,-0.9102126135076121,-0.7258215660865739,-0.7152391469958062,0.5389849423635369,0.8044682800914471,0.24462088004840243,-0.059539342080773494,-0.18341442489032878,-0.9189051352701499,0.11728380149369166,0.7399493938100048]},{"Num_inputs":65,"Weighted_input":0,"Weights":[0.0843356580165262,0.3463199907556065,0.362020024688974,-0.12277817520631562,-0.7738083011089706,-0.23956756832474957,-0.05113910259515564,-0.43557053101894294,-0.06696985244335896,-0.047503654434067566,0.3745538651729494,-0.1453837702800551,-0.851197349980885,0.835483518593225,-0.4664519600578295,-0.7870722684398299,-0.8426295273240559,-0.5643591131553805,0.9664690488320771,0.41875785185172076,-0.254629357815245,-0.20912420671427412,-0.020042313418841884,0.05523124532527102,0.7864811745903639,0.4900646193261591,0.6522399422526128,-0.838859779020178,-0.5097127029018079,-0.4096754114380997,-0.36883556450061916,-0.42636250857561875,-0.13267173693606926,-0.7191764177539584,-0.06377795258810326,0.5916605566459756,0.391427101780905,0.6720635070291157,-0.09021708179997767,-0.8203265810295152,-0.37060506627514234,0.32679588482734756,0.7675774676965743,-0.8762151712775811,-0.3858661360189378,-0.2044341616152252,-0.8266239290162849,0.8858809020266487,-0.0018613632093259502,-0.7937797301200269,-0.4977216043755396,0.06801133164118056,-0.6471360572684753,0.9991327034669424,0.09672570619883825,0.17763159807545192,0.21353054286795037,-0.2426300497073831,-0.27829833699597395,0.04275317327107242,-0.34635722145450576,-0.6466102529586186,0.9582756964900456,0.6910284665780935,0.11704834651615137]},{"Num_inputs":65,"Weighted_input":0,"Weights":[-0.7006285147024296,-0.1564536075840478,0.9360845056709435,-0.07630401618244342,-0.2645508907488624,0.4000133707972242,-0.6840472114645917,0.4764757965824056,-0.9088302186739492,-0.7372857894902181,-0.6054189329131676,0.015059703221284915,0.9285611601200172,-0.4417004032591957,0.09318945980377613,-0.6639184196602912,-0.3342078247262905,0.08996736851604803,-0.39621036666639275,0.889102844915933,-0.70519506036734,0.17828580044743303,0.7171201227626709,-0.3605869308548829,0.5727737166858702,0.17863264774530863,0.5147863641900341,-0.16734438884743397,-0.7957434021176157,0.5284958411502088,-0.5051639244142465,0.26315795292051036,0.32354913266900454,0.4569077720781145,0.4264569572707897,-0.1271726252265991,-0.03762033785375818,-0.8038010460940622,-0.8203924659471888,-0.5895467449593172,-0.8512067307558456,-0.41308430684781805,-0.5643560397158742,0.7871246359310395,0.1579551681135405,-0.12237475322759539,0.04387478503444231,-0.392883095737283,0.07685200309426898,0.9575651953470024,-0.5118813563163731,-0.3523064640249438,-0.9820306624502867,-0.13279916328795405,-0.8096078194566823,0.26748024608703425,-0.9427177152007152,0.19458445729484497,0.35152497105426317,-0.18213999768467692,-0.12914731677958768,0.40955759551659376,-0.7470598018534107,-0.5244818849890026,-0.7383515435949375]},{"Num_inputs":65,"Weighted_input":0,"Weights":[0.7490436698128287,-0.12947915662844411,-0.12916805751681637,-0.6925306365356529,-0.8348782382208648,-0.2380892964647373,-0.36155792847229085,0.8317357895495927,0.037716043697470614,-0.6738350770876336,-0.8208067496102479,0.6699876277140024,-0.03892185093089273,0.8666910600921989,0.05808943562461932,0.8045662931602715,-0.7464887396881932,0.004192453900995652,-0.671891218443569,0.45223607352224593,-0.02355948275576547,0.0521005895479032,0.3811715559280313,0.36629537749847985,-0.8236654627988808,-0.23799105703277534,-0.5795022969467436,0.2801407462159118,-0.9797393649761889,0.9363034019091074,-0.12852120261063116,0.954989318667602,0.5312902854470425,-0.6481842413732835,0.5282492898202138,-0.2550202906541237,-0.3650606960046109,0.9052325499912219,-0.37268898556598395,0.46937716140159136,0.4718529264226292,0.24148355934619525,0.662314233485374,-0.5067702063253976,-0.9803137973370888,-0.1255426301743633,-0.49857684402570834,-0.07946012704487959,0.4961341344762489,-0.017201805441037332,0.04119387543260222,0.6020107882203221,-0.6273885953846586,-0.20944514784880153,-0.3491678871789802,-0.6445106710550579,-0.567056594077761,-0.9077007787686318,-0.7531404528696959,-0.22918496858765935,0.8071869763244814,-0.7578061366520003,0.24780033715813876,0.6948602182544734,-0.6934038854545023]},{"Num_inputs":65,"Weighted_input":0,"Weights":[0.0991316707209513,0.9384973366203764,-0.04051178481264528,0.9311180174869045,-0.222083689320273,0.492581152660974,0.8121217835370866,0.43234398781354044,-0.46369651350600527,0.6503212735199826,-0.20427617091655637,-0.8042612697420294,-0.5989912269753397,0.9800000257874213,-0.8578568127089304,0.20642356554960295,-0.8754383472817642,0.24260761996186453,-0.6860142364936203,0.34329375274505325,0.6997913318112203,-0.06819832637488821,-0.994374018544449,0.11437185998151578,0.21624480177395577,0.3834271459414951,0.956285259407379,-0.6293431314877551,-0.567576117137626,0.4564197055576513,0.6245741049067528,-0.8830056623738406,-0.7281548230256543,-0.9911230586822999,0.9717356969356685,0.7587786715246476,0.7849962827070585,0.1577355367866371,0.7649435574111751,0.01198692220088926,0.0909888232911591,-0.17493219747647937,-0.6858056086395053,0.7101659479569196,0.11748908347962805,0.612559782061785,0.26749646190579823,0.7383846399597267,0.004031301733384618,0.7642492863997556,0.597254017295058,0.8499118953250047,0.21424772660673486,-0.7822507100488386,0.698623368004043,-0.25347214245210137,0.00896745421174261,0.21458284309982534,0.43641193992063343,0.2647432695986067,0.39601603446379574,0.8143212066409475,0.8718195945702365,-0.8372404783351278,-0.7499974721083127]},{"Num_inputs":65,"Weighted_input":0,"Weights":[0.6306776595410186,-0.9335423299807317,0.33171040089252735,-0.4489349392166412,0.7081481661361513,-0.8556245564390723,-0.6745056598461462,0.14521992018670926,-0.22402238075308623,-0.4004314475810399,0.23339322926293193,-0.2094983687355192,0.7465039042351544,-0.376458645346483,0.06664637255337236,-0.8373803020950226,-0.12594541316219843,0.9184377106821486,-0.0018869973328002887,0.26878048989474235,0.8798528380926292,0.11233125751418704,0.8540564840517144,0.5277901531118367,0.3741238127078177,-0.7162663813035044,0.026211960446583804,-0.00644923459330482,0.7084529346775235,-0.3837800339478896,0.292659935608516,0.2160047287727156,0.49445410505962384,0.3381274523868776,-0.6812525717113347,0.3197572118598293,0.8997383091798987,-0.8110944069822579,-0.52010817767415,-0.4508978834067965,0.725347243174919,0.9793595391911094,0.8310714423468906,0.28438287431005893,-0.4446235901256196,-0.173427388768847,0.7623287407060848,0.3539890269396624,0.33755202698958753,-0.0983222199754068,-0.6958645425099426,0.03730888384347786,-0.9542130774937874,-0.7169973106001093,0.7564515675841599,0.2715323629008215,0.6246253930185546,0.29799067627002507,-0.041382516402884706,0.7034489787054226,0.20097394017422432,0.9513451393014944,0.09780830663302931,0.9987591550388566,0.5538017088638154]},{"Num_inputs":65,"Weighted_input":0,"Weights":[-0.481389467195081,-0.12585196654406372,-0.19593184620269644,-0.6733007156846267,0.41954796329514066,-0.8591701104083913,0.8736504814180828,-0.07968453093547523,-0.5924633106555446,0.8893830634214595,0.47735049046739153,0.6027989149405133,0.909434944228009,-0.4356103707201542,-0.687105161987628,-0.6776531583134522,-0.5327531525502381,-0.6632160764164142,-0.8310170748582331,0.6934011813736463,0.4037731052036837,0.2231034669821601,0.27178147036468525,-0.7200647191763443,0.07942313835351111,-0.012682102242959958,0.7523386161087382,-0.2581824880528003,-0.841392426652738,-0.9702172985387923,0.7876942433923604,-0.3485741455375193,0.2614480407324107,-0.8675908941153194,-0.7822990088373274,-0.5037315112244044,0.6895188626873394,0.6411270689517496,0.4741291448960354,-0.07237780709364505,-0.32409733106726535,0.4825623457183845,-0.4901609254811671,-0.5531530743090838,0.8372833169630114,0.2617390568254008,0.7988343100168744,0.39955769636637606,0.23177413044468786,-0.046567434437174926,0.9423281857823091,0.9237745323423603,-0.6527740255835807,0.09650981549117654,0.06439243393662664,0.3476855337605482,0.014793219070718289,-0.22968983807252108,-0.7344389840116953,-0.043607206830103884,0.6451376664628126,0.9031368225492096,0.7806657882987338,-0.28156388323319115,0.2939865399100481]},{"Num_inputs":65,"Weighted_input":0,"Weights":[-0.980808038304743,-0.39181693613343294,-0.05062433065796612,-0.3500481131998966,0.37651130972256897,-0.7555649621657436,-0.06972472975088528,-0.2185392949075433,-0.04196420717048599,0.4453211514525395,-0.9028585278011761,-0.44377625682857635,0.7325252087098524,0.7003925483647684,-0.8886514441854368,0.3590769830599718,0.14392313106992827,-0.8263592868511838,0.8848930498725114,0.19983223472377087,0.7786883816381072,0.943657421981045,0.09494844101901223,-0.5309611872742759,0.17347514778774542,-0.15217702384315102,0.5350187360849645,0.062308480248269627,0.4320575678120069,-0.43767006976621314,-0.12401540038943715,-0.3243254103210441,0.8231968067571596,0.1546200594678504,0.01843749178855547,0.9730834654273712,-0.3041167164859895,-0.10395245880335557,-0.20346863831604745,0.7948831438154038,0.403848793241423,-0.9766606884188037,0.13680298139330116,-0.5677552473107502,0.21023124983874952,-0.06453117830318011,0.6845206840220415,0.7188529670669928,0.1665481794454342,-0.5596036736988499,0.8048512592949704,-0.3536920580901004,0.17659783286809372,0.38423498372302056,-0.5076384475099651,0.86766569379387,-0.35161966297011815,-0.861382553144258,-0.5963002486434922,-0.06911416594839492,-0.420538186794146,0.2567505247511317,0.8162936042976578,0.6750790657186934,0.02198905639046589]},{"Num_inputs":65,"Weighted_input":0,"Weights":[0.90869053782789,0.4488554413074197,0.7118337433660635,-0.9759359941648704,0.21720322674084458,-0.3643319342973751,0.5158777408129491,-0.15038679939462174,-0.44431649267489315,0.20893336611657798,-0.862711212463851,-0.611900349132597,0.4420577333089135,0.2558752795835304,0.0179793415934022,-0.6091227709529037,0.8470332718848517,-0.9913808081717655,0.059784842734738275,0.2926497840825266,-0.4722537851201115,-0.7438375971324713,-0.4681113816683803,-0.9916436930762492,-0.7384615621927129,0.28023723205995665,-0.7515059831882839,-0.7235213418312056,0.7043648775428744,-0.02702015343330111,-0.16018403348928834,0.9537679148414069,-0.4108303456726987,-0.11097094498068638,-0.40295438847887577,-0.03367419989282816,-0.3898423527823712,-0.6482819816247303,-0.7644148203453289,0.7715361474303912,0.6199907279643284,0.5011288610136273,-0.17775279425065937,-0.9238286416191452,-0.4463055707258554,-0.0754127654657134,0.9069561809713067,0.2349866746730669,0.2656910708772191,0.9090517238253664,0.43361859420402893,0.6215429982178131,-0.4629122781207361,0.15777743147195977,0.16268799200299022,-0.6628570652903043,0.8302343853811534,0.5728703359950778,-0.9406196096175388,-0.6952357576924395,0.13701220595464547,-0.5993246368162125,-0.7013704067511377,-0.9117143282178625,0.9719748102791563]},{"Num_inputs":65,"Weighted_input":0,"Weights":[-0.24381312619560147,0.984134654486269,-0.6249196780608199,-0.3067376187705182,0.07626722069690173,-0.748837731714141,0.9706023578482343,-0.9832560211661703,0.649184556902725,0.699822478629176,0.1539525318963948,0.49403005930109534,0.3135977218646999,-0.7981362749591944,-0.7894627517931828,-0.8905206502184313,-0.44894881060042513,0.3148377859958724,-0.5212489859422083,-0.39419594313193085,0.45351899377106375,-0.9351865897117555,0.44563654957748855,0.9287012769382623,0.8232480073795734,-0.9809973585530524,-0.5499068713516718,0.6142216426222555,0.5136181638264878,-0.0020279127520719253,0.9586282637082668,0.7251863730618644,0.9077313851711022,-0.6215784075290005,-0.8871077366620855,0.708602007419078,0.12161734612878217,-0.15085452444658176,-0.5529191021010158,-0.24611913838258426,0.4062883109090749,0.9039935217237118,-0.47733887562213206,-0.9557933559363953,0.5330456135559591,-0.9639848543659872,0.7069245263939747,0.029070894239763723,0.9945015082237809,-0.5123315426064432,-0.23424185499390615,0.6318858391858282,0.9720744736490605,0.4924731008345089,-0.37559507297296413,0.0376821837170358,-0.7077897392717236,0.2577284576875667,0.5206134358789898,0.9483000882520944,0.3533391741148948,-0.2689538129654476,0.23336191687533092,-0.904851317103917,-0.7374905626295581]},{"Num_inputs":65,"Weighted_input":0,"Weights":[0.756695406937945,0.2514755825446515,-0.8860097993288819,0.3764100411891611,-0.40696257103045586,0.7796993307544327,-0.21703317677799117,0.4988054692650974,-0.11811083180184256,0.47405111533438915,0.7520436768789571,0.5506739937763676,-0.8129192056520763,-0.3101148213189441,0.9760291233533245,-0.05443083527495329,0.15144408100411977,-0.5838214036639509,0.9860861742310763,0.34455211149091736,-0.5026584211722642,0.07461881119953939,0.6061378206459849,0.2853844148948368,0.23561327088715656,0.9478928190702316,-0.5673395822688322,0.4396265169831013,-0.3088926589060287,0.20944030202958008,-0.14900921702680525,0.280674071372357,-0.4785025206618414,0.149618812027287,-0.9804161733923211,-0.4387833903356241,0.22140485834503543,-0.15719849340982273,-0.31066717580268066,-0.20941951059743624,0.36544873489077934,0.4254773001736474,-0.07676458053506041,0.2191980539727667,-0.7357569725402884,-0.37452010525925894,0.5621904466700869,-0.2280003961262942,-0.637052763650418,-0.16451259923295403,-0.2229908177919574,0.004456872115815136,0.6120397637349213,0.8629109808284046,0.8873108160045013,0.6947903748145652,-0.3348534743089897,0.6322595755770537,-0.1794485660744387,0.23892907079011994,-0.01682574025389072,0.4231137199710233,0.09919136992442845,-0.18291553076372558,0.048180790540817364]},{"Num_inputs":65,"Weighted_input":0,"Weights":[0.49159710578566274,0.4117119567519074,-0.036508617710093394,-0.32596467619234093,-0.9646476438421987,0.6437576792871973,-0.8923326194089358,0.2667466550187818,-0.9806143731796779,0.7079235920207028,-0.18266571544329924,0.1097543929813003,0.287609921959767,0.5823031308562794,-0.10040575472111835,0.5380662666361085,0.01653190268231919,0.01658933652788175,-0.3525876535125103,0.7695607115458505,0.5657679746033926,0.24967207443294392,-0.8109966272445843,-0.24643962442893874,-0.9370691555729502,0.7346830760920346,0.20149271876519093,0.19391928356047483,-0.4914709362796721,-0.21106261503205936,0.9412665599100312,0.3959988007678137,-0.5677829908863095,0.7949445594552276,0.8045324202489201,-0.6274532038851184,0.5751795244946314,-0.689111936693935,-0.9015446664089042,0.6655696394909778,0.12047735146653005,-0.16290140205935133,0.13492413050824204,0.9729283161185132,0.3089261072038081,-0.14910056146161044,-0.14268792761862048,0.9084804581570678,-0.8918094825783023,0.3803799498872582,-0.7338662839879183,0.5885884435870996,0.5996793915983154,-0.3250176853561403,0.8151695880895884,0.5896653210203961,-0.28053664432697556,0.04794767694606206,-0.8664870426835618,-0.13480302948941247,0.10021211970597399,-0.6255755123004394,0.25898521412218,-0.033104103194179446,0.1161981181526015]},{"Num_inputs":65,"Weighted_input":0,"Weights":[-0.688762324556121,0.3831743308241582,-0.4977534383591794,-0.7861738834187606,-0.33119163821384723,0.4746450685113288,-0.48127147827520456,0.033822645068231294,0.14634355025986823,-0.11618629159538696,0.34347436971392353,0.9059060311085836,-0.0667261796126245,0.8472500672926322,-0.22930700276447413,-0.1283090770759382,0.3588156584721707,0.8700196850297388,0.30383065546776367,-0.7161131107685685,0.5036553094259357,0.87758287996399,-0.6178118955212153,-0.32037390959939227,-0.10900789682442869,-0.35611397111752774,0.2684229739147197,-0.16041956481021358,-0.6960314414747608,-0.19056925917191558,-0.5959238378766476,0.45334893207291294,-0.27473564080510926,-0.5882307914130858,0.836603792394768,0.8162718695866991,-0.3334937228206447,0.9212262984018222,-0.3506688558880786,-0.7444051817839403,0.8981509868214079,-0.1837793229378799,-0.24402446009576362,0.8507012508255545,-0.21069121474965402,0.8235066191196896,0.6425042583352929,0.32807169201626296,-0.8581130735732019,-0.06492138313297735,0.2753844273714492,-0.13741041451897562,0.03164943664583775,-0.004661564631462278,-0.6170025176878163,0.3728535772215582,-0.9929350583951421,-0.47069408599853646,0.7790410331338522,-0.8707310374431958,0.4202106192663704,0.37337999993222537,0.6075124773139355,0.2271779757460619,0.7353034807674925]},{"Num_inputs":65,"Weighted_input":0,"Weights":[-0.6421911389326767,-0.6212584687835736,-0.8200157341033376,0.09313569073917427,-0.8627217602411343,-0.06729339660374312,0.5160532841581245,0.4222770785376526,-0.24524156606784386,-0.78557609595027,-0.9382288199868849,0.8415643291228092,-0.4109357321502376,-0.85980102763545,0.0834518341129522,-0.49640293035387706,-0.934417705402106,-0.5341143581752432,-0.48195020233627417,-0.35884947014293556,0.33480818794360556,0.8892948755141745,0.001791188113960951,-0.8873781277935677,-0.23235750158924462,-0.33733610456059215,0.4807747043716535,0.051628616753823575,0.6621095222096005,0.3882740320279623,0.24637878712046302,0.5485805032758362,0.4861927746090906,-0.5675151121406511,0.3392994144939645,-0.29648363105175435,-0.27850276447398414,-0.3375548529826614,-0.7184885933043665,-0.6154869454800714,0.4213259419073976,-0.16670470065264698,0.5110221925111367,0.5977598082627815,0.3701160416426581,-0.6918806661575005,-0.37770904779488956,-0.8421549973781097,-0.8682198341178224,0.3499980189879899,0.22675173032197637,-0.3777248967923533,0.7163900787884263,0.29572458828674697,-0.4377077525432468,-0.3465876102109704,-0.5821502365619922,-0.09421409309606299,0.7913958424577783,0.9848752593852914,0.899297763622531,-0.5168831922385375,0.037441789310255436,-0.49255601259758997,-0.4659194490036559]},{"Num_inputs":65,"Weighted_input":0,"Weights":[-0.9612257074023677,0.5957289781254471,0.7477656447875711,-0.1736565151031002,0.3284765990493923,0.5057275528227771,0.8392027517810352,-0.6714437863083038,0.09522850995780208,0.03985294427523578,0.27334038020303764,0.1636160082651419,0.2479764855552422,-0.021529125147581096,-0.2501987611886969,-0.7489426015847964,0.6479090807095267,0.5176919087610592,-0.9394372065447834,0.2649575071149579,-0.7752980775216032,-0.03291369229186514,0.8566356996037492,0.40483059065185945,-0.8206047677006673,0.11033477590524776,-0.08726881843347722,0.01479089039390069,-0.754104961545899,0.16002338483022216,0.06512995800265609,-0.5369275848767512,-0.8136526233667069,0.49247349776975025,0.1386494872754629,-0.0328643358036399,0.38543642028302116,0.5182806006104863,0.21065251691884845,-0.47818077265451864,-0.736984451187233,0.4106406254014181,0.7364251433651581,0.1311172474846567,0.13415017007724295,0.943661909076231,-0.30482738089379,-0.6248932634551159,0.821295411750741,0.10857972933569249,-0.18118609121388873,-0.6610885015374004,-0.6352529436279046,-0.08165172121465092,0.3675610471397146,0.7917960863983613,-0.5812462910213466,0.9243256056879245,-0.6614005455932854,-0.0415133535176595,0.355068382166289,-0.29381827042769637,0.280142012571331,0.7091711953004411,-0.14731094177640291]},{"Num_inputs":65,"Weighted_input":0,"Weights":[-0.40438889431832037,-0.11670771342841657,0.7876103963080505,-0.5611172722757771,-0.8477078184102715,0.7831877857542686,0.3098960706582703,-0.875162464280837,-0.9678766150450305,-0.21680961034009927,-0.8067258385396919,-0.7527495855809085,0.7685545616056724,0.4175640140440007,0.36631179432500094,0.8551757092092303,-0.9374858175054392,-0.409448289841559,-0.6301874059114175,-0.4420409223485403,0.5596732654881715,0.30812272268883945,0.12773710410506123,-0.4203962886350302,-0.7052851288989658,-0.7551167246455401,-0.7238230998107869,0.3324873699877777,0.3722216307009645,0.5262242514013209,-0.868320043036207,-0.8809828717490096,0.479308724272995,0.6657850142960797,0.47433267605714935,0.33602453158041357,0.37753425804753404,0.8388310660656553,-0.16959240311584267,0.8629679920401208,0.2988522158514215,0.3652372341622534,0.8026621512799028,-0.31889850616793103,0.9616100906593437,-0.9666631045898221,-0.5728503844677661,0.6714807565843828,-0.8465402787766347,0.5528309425077547,0.7227016353256044,0.26815152267046294,0.36348718913574807,0.3397617607093517,0.655545575565289,0.8597606602305712,-0.6070111500944568,-0.3750865440282155,0.8503613986610081,0.9311008623497163,-0.05794589821200824,-0.5186822218933733,0.28979779805642414,0.690325228975206,0.5846161899283773]},{"Num_inputs":65,"Weighted_input":0,"Weights":[0.46239765924079057,-0.5639633184400358,0.5277582791847517,-0.061391170787365223,0.49306165742425967,-0.29546535303444366,0.09407347511278741,0.7052833088320929,0.9557242470774909,0.9851710594244667,-0.4301749904440072,-0.74470527327577,-0.016785319888830807,0.3661168581996799,0.6418534782259919,0.9402855926307971,-0.31014885448965657,-0.7222444571101069,-0.9207924157282423,0.2643266236782995,-0.17490682074869934,0.29473850751514696,0.1448248547819817,0.9590188508495263,0.12745198080680376,-0.11282254088133692,-0.2644311631296138,-0.26710842839047144,0.014770831755661407,0.32676574779898626,0.022623724846570825,0.5433649985566948,0.8080425105086557,0.6423443848524815,0.3351830199262251,0.8572166395611007,0.08290616964742448,-0.7805716535093504,0.592417760216575,0.05930349134414992,0.9588780099499303,0.02506854280978832,-0.10874870456659513,-0.9951049907961891,-0.9643432441780414,0.7192941006482265,0.6977459510542965,0.6820921270139597,-0.0871732516328485,-0.5250447544522134,-0.24323059316739792,-0.9589863613673525,0.9396013980992248,0.40342327064976646,-0.196987920974654,0.9762606214933012,-0.37676470383489924,0.5289106713763698,-0.5089161556342114,0.13011781579496695,0.540600061337585,-0.8977621309326383,-0.14485074031755896,0.9240394315013327,0.5282755922283149]},{"Num_inputs":65,"Weighted_input":0,"Weights":[-0.486498683394855,0.9875689082306791,-0.33283249272299986,-0.6877954416887913,-0.742362640342836,-0.9543811085709953,-0.439326555092849,0.12599257508385042,-0.7276917665882634,0.30012854794187827,0.4461589353376927,-0.32073680259906545,-0.28455012512346967,0.9829035802709369,-0.572242960032108,0.294317516267512,-0.40572449792814747,-0.5397665201739248,0.5977291726487919,0.9820093987801908,0.6055422807440645,0.6798973770911989,0.3108456337803991,-0.8272727825298714,-0.45678910953256446,0.4781271407933665,0.12921738989362597,0.9716419808432215,-0.2872052414421028,0.5574175038994174,0.6669991432716056,0.17612113438657384,-0.9328599089647417,0.09412193247119127,0.5054318663371637,-0.9229357405627961,-0.09348486088979402,0.27121735363891997,0.8883555389391442,-0.48291463090392983,-0.19754491905773974,0.7045494750246244,-0.2977985960975925,0.4413051974874378,-0.9515347583145213,0.4027609903988716,0.06736071640633035,0.9735297304539601,-0.35311440273174766,0.014916833892022918,-0.4082303463210504,-0.09172080307268449,-0.7505709665474217,0.8412067947591444,-0.4118047112634723,0.8658444789340365,-0.2433380967370854,0.27668531606431657,-0.18062551458899923,0.8232416552928479,-0.08356865152707793,-0.996894739950916,0.6672331060425034,0.22980119493905327,-0.18557326258324158]},{"Num_inputs":65,"Weighted_input":0,"Weights":[0.05337636876014429,-0.6703115513673441,0.7685217183132642,0.7838781520482829,-0.9028613591549347,0.48883069832652515,0.36664686523118695,0.32401831604222164,-0.28139656349928177,-0.6523041248458168,0.3964971178637706,0.8129708834734357,0.1257930857612266,-0.9108446016116386,0.7873217740529954,-0.4073605327591566,-0.927261295659898,0.17804198311778818,0.7282357697746358,0.4806727536974873,-0.6318916270863307,0.28761394216212954,0.29380116289007874,0.7737422229819642,-0.5092425001013553,0.7970712948959708,0.3586546121045191,0.3908883132483314,-0.5081411145000139,-0.31693242918965014,-0.9923472313645088,-0.8752577164177068,-0.7694178019233768,0.5866211024502419,0.9464251617183539,0.7765313856869049,-0.12737042216463212,0.10066073057299207,-0.38106746944408687,0.21248025336287002,0.09564949076222162,0.57552941652692,0.41136999153523734,-0.34256713727071864,0.22780806695098943,-0.8966674520592144,0.0735367579018753,0.7879250523518433,-0.5085271571298804,0.39730525962679275,0.07717315936398284,0.5926493679192129,-0.8520431518176868,0.5767069203375133,0.07268346774127954,0.6106498870237904,-0.7137326273712289,-0.1968826341044938,-0.13499064343988587,0.07182402499684404,0.049654826176614986,0.2770579248034519,-0.5907255949826294,0.05013236240284513,-0.2707897628919763]},{"Num_inputs":65,"Weighted_input":0,"Weights":[-0.47167798782987946,-0.08300521376920833,-0.9068726578501709,-0.6437836344337629,-0.17800604733647873,0.04587372965337155,-0.7787146666875165,-0.8423528563904075,-0.8516836678123483,0.31937952464694486,-0.7201792641910792,-0.5250369215601908,0.37241324330742276,-0.13051187551038734,-0.7030186800855083,0.6789421194169587,0.10663235003861282,0.029278358971863483,-0.6203427754954745,-0.4513514973112793,0.6181894667463437,0.7028651256619753,-0.6655576552191489,0.7936399613179317,-0.3250784614589377,0.42117640958030655,-0.9651607867657785,-0.11565163954736013,-0.19318382205118845,-0.7266389986189765,0.7668067348041085,-0.9734412055766579,-0.5468016570373853,-0.2167828027996771,-0.45286074821226996,0.7463244824823754,-0.17232061430599022,-0.5694967776028179,0.9806379728076187,-0.03315431101549415,-0.13787811335571554,0.31987989204369405,-0.47980730223965995,-0.7164700118455347,-0.44824361377311983,-0.9900328728338376,-0.7687627588952748,-0.18542805270703622,0.4441451309272324,0.6757546590643255,-0.6296649518288711,-0.309004148868555,-0.6771230487128643,-0.7705832884353435,0.6202817055314069,0.2361925948261352,-0.5566350021472481,0.5864967256520361,-0.872852077958219,0.12386074505788369,-0.9360612418906489,0.6921031543380205,0.9849189527247293,-0.11888419819474239,0.72812597065512]},{"Num_inputs":65,"Weighted_input":0,"Weights":[-0.8715775137329155,-0.677109847936504,-0.6606104246487914,-0.8055098111066727,-0.7651104339487236,0.05049335773035035,0.058615880614726334,-0.007322302345754372,-0.20730877591069719,-0.977264871992206,0.3196261761429633,0.860331138536097,0.2876100249602038,-0.5464239132849165,0.5973872251401873,0.7412540709384552,0.7126703073120193,-0.9201046146970442,0.442453418495089,0.7107565726455898,0.7841734168846903,0.012984533267335063,0.9421113716883194,0.1624811211042705,0.7363988102000383,0.012239776068533992,0.5728924061280483,0.6399785901219368,-0.4968296507080844,-0.802161974471475,-0.21318815007689673,0.43305631362350305,0.3707680911090927,0.7680555326991338,-0.7601777689039066,0.8532344660941096,0.8259336596494204,-0.31545198614808423,-0.8831250234185852,0.4329163715970554,0.826216202475647,0.21538006868888204,-0.5035862266396283,-0.6725032636493589,-0.1098916298935213,-0.23222036923303802,0.7728019896515492,-0.9936338921512976,0.9951999804623899,0.8714827771008529,0.40341139297187034,0.6329131515740731,-0.2694061068976007,-0.5002956862448097,0.8293818402128894,-0.8050291989288575,-0.42649355322940574,-0.3126198020657933,-0.6857137660283903,0.5324128739571072,0.7963107918295398,0.08417848975761211,-0.7659450246153088,0.4123449209507255,-0.729911207153904]},{"Num_inputs":65,"Weighted_input":0,"Weights":[-0.5994346263943069,-0.0359372408890537,-0.7180581901730043,-0.5182400953627047,-0.5684993789177437,-0.5840660089253834,-0.38221009322392885,0.829895331176169,0.9072759777670951,0.4937973303198886,0.9259959688758053,-0.18593956315455007,0.30265841163750484,-0.9052911715168748,-0.49758672135177495,0.5144939489233142,-0.5816596614973908,0.5380760516164518,0.532873318509796,-0.743144253605492,0.3170375352284571,-0.9828003806088724,0.19035753439431646,0.49468935587387053,0.5414679430219957,-0.2836398898948894,-0.5297946384098535,-0.9398750820539076,0.17692667929811923,0.9865156286132306,-0.10954309736480472,-0.20291891381600957,0.6937878846390595,0.32736560050711794,0.2166896166586627,0.4823421212515375,0.7390960980212382,-0.9881800695066598,0.439685547457074,0.8428461336221884,0.36157020997590394,0.753636199342411,-0.1912361503238702,0.4986265913305459,0.7726619211657209,0.49700843046556575,-0.5886667302235242,0.9070501025145525,0.39411212604680235,-0.609673947107474,0.2576536190837495,0.6489761216303451,0.22724757407380403,0.7019690087771364,-0.41531707598831025,-0.2601221022218666,-0.23449345660245724,0.15677100762451834,-0.6992024491081869,0.6072062328971028,-0.8576565473025952,0.0737854288359705,0.5578461530026568,-0.3866465521116891,0.21767187496849894]},{"Num_inputs":65,"Weighted_input":0,"Weights":[-0.559548531827353,0.6300701001951932,-0.7590974935353185,-0.6884283854320954,0.43365104395091403,0.4874072709661079,-0.7542829845091242,-0.053500347622504885,-0.6122728456189581,0.7558787846205552,-0.4247579688886074,-0.13615623470344462,0.08991622254582521,-0.8886181095538411,-0.6815079836112634,0.1509756108706608,0.3784494633663069,0.3261568945917359,0.49734772224063595,-0.3406111221083953,-0.5360718923319252,0.6544944203692118,0.9854974400623371,-0.5786644219671366,-0.017594371472902548,-0.7476602331279696,0.48214532884070493,-0.11208584949902256,-0.15619598136180257,0.8626374642525638,0.6127139931594983,-0.5883386940234168,-0.3238664721840905,-0.5255870839191297,-0.24457756982243017,-0.19925950099793321,-0.5249974502911264,0.0607317600625783,0.5080575812903421,-0.652543425054056,0.3911662892655938,-0.576021574979446,-0.8353440447162387,-0.332503149286449,0.8365905065513952,0.04310017549067191,0.3152814378071991,-0.2764152615710782,0.698660065132156,-0.2424881134316368,0.2902910808513788,-0.3478539878867547,-0.2696560929583892,-0.5956136175709816,0.33147577249517624,0.4650982790956917,0.3545163669264155,0.9551285792300586,0.45769041728862625,-0.8485107483994998,0.8340151978774513,-0.838157933083713,0.7634141948189967,0.6750318042953132,-0.9947913463875839]},{"Num_inputs":65,"Weighted_input":0,"Weights":[0.8769531931647119,-0.5162084194860421,-0.6121906813353091,-0.18076177563418916,0.18740863622131232,-0.4343929162598791,-0.7689099643799526,0.3902822987969534,-0.5948113105355095,-0.7463790338172481,0.09348752021824258,-0.7742619999514045,0.7705697491623273,-0.6432291095426299,-0.07520215242508654,-0.5095323218658565,0.48627421566135975,0.8853171718375872,-0.20740654247545376,-0.32683805330835625,0.5109339951253349,-0.3655503186525494,0.7836885498581145,0.23796708391969368,-0.0433579470532337,-0.8405150594768318,0.010168911748201115,0.7174568006693032,-0.5277553891469476,-0.7974628913119681,0.45428776078900723,0.9227444380573673,-0.21368381890812893,-0.6055042628257539,-0.824373940341459,-0.9127880910108064,-0.21877700882940454,0.2143228819187506,0.8756387546082376,0.8055231784113435,0.2994727889661002,0.7969945264993472,-0.7233794251938284,0.9016034316377415,-0.17052889636340163,0.18156141932084946,-0.8361401331837228,0.8457819993442679,0.9663321203463127,0.4341791692734007,0.4894268650775946,0.804450549490298,0.21432294620385672,-0.8804018372467773,0.11217879671935327,0.0854014909630274,-0.015594303359115602,-0.562457900629569,-0.46596195235549576,-0.9567599588535283,0.5917384223298596,0.48208997372358375,0.2219737032773743,-0.40108578212505686,-0.1690480591516058]},{"Num_inputs":65,"Weighted_input":0,"Weights":[-0.7064851186884331,0.2827981996690927,0.8805632811605635,-0.18956577702514477,0.486426932038609,0.6082391304729939,-0.5699628373944969,-0.2596161147976346,-0.7517938148193336,-0.02418500086516373,-0.7267067524855879,-0.4898359764070451,0.6481976989522147,-0.3683453717867816,0.598202384703066,0.23873413858427628,-0.6535505318652608,-0.611115321792365,0.5282232956444013,0.18643326965661622,-0.2537228278385363,-0.8504164552619362,-0.8605482563814785,-0.6439138809150193,-0.4622724944005444,-0.9651102817368505,0.31218325512897915,0.3909382161943682,-0.02284505253707181,0.06513922510228753,0.009742482340355352,0.3678139774455733,-0.9819735850449143,0.524461159696513,-0.20768448748736423,-0.6199069429329314,-0.11880959114997247,0.004950640800647221,0.09342622051188854,-0.37695013690029766,-0.007308380338434617,-0.5785935802617047,0.9776474636622698,0.2800153343491225,0.8580347645280482,-0.8717308199707988,0.3590075888094122,0.845142582067689,-0.433062775441891,0.13217287744391437,0.3618916712337077,-0.6452357563867555,-0.6063871025883787,0.4149404727730981,-0.8772992327821583,0.2710201150296314,0.14113136087579758,-0.5384276595887632,-0.9240063899120877,-0.010799548327655284,0.2562441756714742,-0.3489686537344482,-0.7387502734809124,0.5033436956035056,-0.6244696525960656]},{"Num_inputs":65,"Weighted_input":0,"Weights":[-0.1278976500460388,0.8482825588738636,-0.3756763767930802,-0.9442541265004302,-0.01597259050328581,0.27927792042954525,-0.8322671243648039,0.7322408461176413,-0.03943056576805937,-0.4996355932787784,0.766710819190245,0.16892599794803842,-0.9880050012528757,-0.5490376723356845,0.0008848829643939293,0.38234638759760387,-0.6327603458217648,0.6985747424011723,0.12560172585544582,-0.02456943597186223,-0.7903221359406316,-0.10707437328644642,-0.5749881676665793,0.2603553731410484,-0.8090248906406449,0.5921022012274773,0.36276147825518135,-0.04692843748367814,0.861006580912961,-0.3133820996236515,-0.5891187295482503,0.23673087232019263,0.7785993491307497,-0.7694019258378257,0.15852326703890074,-0.6784008852711372,-0.6356831440478568,0.46357488053313256,0.6790305241500565,-0.74455916672077,0.6799420782197299,0.5481976159886097,-0.15704478641024655,0.5387802523940284,-0.2080556297581977,-0.8805499507680056,-0.5872621829923663,0.34926468259639365,0.8400152242503431,-0.7561456288288276,0.623336666906869,-0.6240133149644942,0.5647034290437616,-0.4660103717174323,-0.47519916562420317,0.9961205605409589,-0.48596113251248896,0.05237828231356145,0.6632247997574452,0.523238603674762,-0.5571102742982058,-0.4906731459949357,0.044321788087708036,-0.6197006755219647,0.4902577428731658]},{"Num_inputs":65,"Weighted_input":0,"Weights":[-0.6491473651403641,-0.2121706425829546,0.024619966512787528,-0.47764315226726084,-0.7471446966468949,0.5433289114331183,0.6901715976647371,-0.017125805330458044,0.42279448926991825,-0.8046888203465657,0.8198999383948773,-0.7510181219700046,0.21306150627530074,0.5263399265978557,-0.48477291584159576,0.45759840365788107,-0.8169490117639098,-0.041482186369300456,0.02384469729599492,0.16927123033803704,-0.7154058498206587,-0.8605708177149051,0.4029023254752566,-0.7790798232162836,-0.033307886649480034,-0.8525491015773358,0.26390402868882656,0.49232190867686487,0.36349069899109177,0.787681011356606,-0.17095866063969345,0.8085805077031869,0.8053176733235781,0.5984928210409743,0.8011553975741859,0.7102045394600358,-0.33067534909665375,0.5224196708175604,-0.3010652429724556,0.10493928991034274,-0.5160847097466958,-0.1470810263866168,0.1986427030549447,0.06777581544113698,0.8095349090351442,0.256283098355351,-0.30645014921911373,0.17568522700756195,-0.5253445720011344,0.7350491971959889,-0.9456039301955056,-0.48495906214532647,-0.9931428128284964,0.7105826934184079,-0.29915309658040057,-0.3343760142901576,-0.2904846315422107,0.47093575725696546,-0.6077981264834071,0.9620169123471636,-0.8389732811444967,0.046135201526035896,0.2971664104704703,-0.7904045762749883,-0.24271250124346688]},{"Num_inputs":65,"Weighted_input":0,"Weights":[0.04568382832770923,-0.13446924426765572,0.7415918711414391,0.8235226272878688,-0.29876543250118903,0.9714128317641009,-0.28128126902183426,-0.2503928399882097,0.38364404307038846,-0.5392828117315291,0.655765593414793,-0.7011481830529573,0.9369143936618385,0.35795634412044564,0.46939196991932786,-0.45702138871899145,0.6576881473890308,0.0196729306461787,0.03489291133414785,0.8124578874768469,-0.8056298512058636,-0.09666675061541563,-0.30800297617436523,0.829400782020197,-0.31107376075735904,-0.015973066357535592,-0.6057024842163903,0.9251344876117931,0.9639389607285891,0.9669240071583673,0.7609740667871432,-0.2631544702670986,-0.01905235508945924,0.3158628110093922,-0.6122519154321963,0.32676779087435115,-0.7146569574183574,-0.2906191192031504,0.6061784312813296,-0.30264973970476794,-0.07753672981286974,0.7833075124570537,0.4254657709577041,0.3338579032667266,0.9574296385303651,0.5811306279815225,-0.6943981755759299,0.4942086533214729,0.08545805898907322,-0.1372248430310492,-0.47705140052942474,-0.020108702492884878,-0.41732150320657224,0.36824454477737234,0.781874640317699,-0.6082360871047064,-0.3320284904937455,0.11432459878944146,0.8692035790688073,0.9480072747379116,0.3227697057653385,0.15774500674419079,0.903226189998598,0.8535135392123281,-0.1324440679610378]},{"Num_inputs":65,"Weighted_input":0,"Weights":[-0.3427564789763149,0.4361808247666532,0.3462294069236127,0.9017340365138762,-0.18520837133947443,-0.2875059263821762,-0.2589105729853337,0.8008751135505607,0.9762580848187161,0.02031600439720216,-0.45753183008409537,-0.06094986984628825,-0.9188563747644716,-0.38416930211979683,0.5129013473112918,-0.9460000457982066,-0.71547870647258,-0.7398137296949943,0.04089666626342581,-0.37840431793821505,0.9136631482444904,0.1572197805873783,0.5216670759245066,0.15536367752595215,0.3774534728233794,0.8568707850565687,-0.9989580454844373,-0.08724411436412705,-0.44933693303431177,-0.19073498246853382,-0.14652336603710414,0.15872132111056203,-0.05757631597300461,0.6909297464183206,-0.5408030018508462,-0.22116396381679848,-0.34578720483493375,-0.5519913938471552,-0.9290392569777346,-0.48906724279976965,-0.07236852470209398,-0.6284001198582452,0.5174426797036256,-0.5244393390246475,-0.0725768859875171,0.9428458753512892,0.3026054925685451,-0.6330805123909578,0.08068503086100498,-0.92105691885916,-0.5034369756740473,-0.49328964772619577,0.7115151671633295,0.8041941378250916,0.7746220556784804,0.0402561645969739,0.4999689905723679,-0.4231841758074414,-0.37177266195752623,