{"Num_inputs":65,"Num_hiddens":130,"Num_outputs":24,"Layer_hidden":[{"Num_inputs":65,"Weighted_input":0,"Weights":[0.4870185486739733,-0.2800314830528021,0.21285172466138458,-0.8583080171629449,-0.583107384363618,-0.8854054427268626,-0.10777096773464523,-0.006119292258394138,-0.30440737478083757,0.3929928167601371,-0.340287333008227,0.16172408001068206,0.28683293187214853,0.6305954179655651,0.7772168345540578,0.5884404490293582,-0.3741358004728673,-0.6094623200098429,-0.5774357681369489,-0.10832358125853347,0.08883452309274364,0.29252261472527885,-0.020485245675149866,0.3242062788744744,0.3327655453440568,0.21927018185292746,0.36918084490261727,-0.7163587521849971,0.9969100031739273,-0.4512347301659301,0.08964248107261019,0.0964721910039168,-0.11808712594685666,-0.303197005108371,0.438458909259982,-0.7948471717853448,0.6728846583770021,-0.2725371785063785,-0.7449350867545415,0.10539076071557907,-0.14897734974811394,0.8945437478178957,-0.7501366822425017,0.07371346894778985,-0.18384961667518607,-0.9021596277856705,0.5865731913305701,-0.8402652891815361,-0.6766245491442382,0.5596153892493814,-0.08865740807910749,-0.18350559930291033,0.276814329706627,-0.6754622031261461,-0.24053452794735652,0.22586646712666592,-0.037256166531105306,-0.16518076147707417,-0.1494119036725272,-0.10416877696907845,0.15543511721080328,0.2909696835981004,-0.041448660485358224,-0.9765603230180656,-0.2809643008685342]},{"Num_inputs":65,"Weighted_input":0,"Weights":[0.8544798838795165,0.6697899678813186,0.815353572908758,0.012669763683833546,-0.2936702107524798,-0.9881865847101226,0.39831770909627107,-0.17811194039711775,0.09197945572928257,-0.1779024907878497,-0.2510864058962625,-0.2107580948515969,-0.3031222616123225,-0.9991976640387437,-0.48484235838218304,-0.7556577733034631,-0.9163314238891956,-0.808125457760877,0.41394771828675836,-0.04582688330214135,0.0176265442434842,-0.7836747832549782,-0.376305109492429,0.7988504890614447,-0.4761252879206034,-0.7613477495600905,0.25666658111144414,-0.7755584822046822,0.922406841713453,0.9792551348763672,-0.5500762771239669,-0.5913815626579754,0.0026794246935828436,0.041687430322632446,-0.7007922462047127,-0.6337990202573145,-0.5212866746513969,0.0786143081901034,0.5505715950578789,0.30390028950326275,-0.9571281298829932,-0.37818086067854484,0.8518553970697555,0.6968813403579883,-0.7881210859507125,-0.6398167489174763,0.4308393603568492,-0.8933222683726243,-0.48636227955599265,-0.2655143502067523,0.9635232050590958,-0.7909042792367051,-0.859687504209415,0.33206512593393844,0.07222015333845633,-0.3962617506477769,-0.7032224904837681,-0.25768686479558633,0.7793182540893375,-0.42095783474898163,0.22385149562733142,0.7001673186636608,0.8351472372153173,-0.031613311990295045,-0.25233516604140194]},{"Num_inputs":65,"Weighted_input":0,"Weights":[0.4101364783302399,0.9729885093593549,0.7817939044067714,0.563252201623692,-0.808586995736449,0.6430987308382325,0.2815086102898172,0.23166218209789768,-0.9247341279764956,0.5367208531977767,0.9275237379181012,0.09541044743914306,0.16896102979859307,0.3694745681179299,-0.25176647931353624,0.27685534977241466,-0.7026180193204312,-0.5838624898435778,0.5639946419005708,0.10234773355182503,-0.956820607340936,0.800608689446616,0.0953686191337757,-0.6126885169432059,-0.45205297479644857,0.07954162495255912,-0.40394545530425485,0.7356985378344874,0.8629473016196016,0.8086486563220749,-0.032244900237752505,-0.5271122816282301,0.27092059880081143,0.5131815992980102,-0.8135722767176609,-0.9202863922422276,-0.26545170953590913,-0.7117425744779577,0.01873108408382662,0.2729931331143347,-0.9629258267368089,-0.6532028830324308,0.04023178232988567,0.028064220204684798,0.974277614373513,0.5398873268860633,-0.30268800569775856,0.3769419672664911,-0.9884631012019854,0.4377223062202271,-0.9048281600467849,-0.24053762726795713,-0.9277509482409133,0.39586340084426186,-0.16296580172814623,0.3595233355738072,-0.28951033077670996,-0.011913795548919137,-0.6991409943238494,-0.5597759617689431,-0.594309937030443,-0.24963485712926325,0.5308175155983981,0.9468143110642733,-0.25322153293268934]},{"Num_inputs":65,"Weighted_input":0,"Weights":[-0.5457224888569228,0.9869741011440065,0.5450286827602473,-0.8226817154564261,0.2882112662920522,0.5972017708622015,-0.9606242392037401,-0.38346203465672934,0.9394558315292303,-0.4856316563125831,0.45922780263413543,0.30748599351520967,0.21413456285045407,-0.9623176427185912,0.4489704749706134,-0.3978388498151191,-0.607239755070181,0.8926574521345372,-0.03569785927297986,0.18069569590507872,-0.016373776193083223,-0.6559146566227623,-0.4622777695177185,-0.09472828150871604,-0.29671499313900296,0.2535191665116532,0.5392665772297445,-0.06786675860467262,-0.11447078070514982,0.40998130728612514,0.1121182448442144,0.9249324468553037,-0.8990760452717133,-0.474956630895741,-0.16721611935692815,0.15122018323893993,-0.9292557722414794,-0.7287858657482399,-0.3054349420149636,0.8892942652664106,-0.4829963050107262,-0.6460085738123877,0.9340760552807676,0.0699219167967362,-0.46524243526089026,-0.8316797328674571,0.5410401315345008,-0.18884340496251495,-0.9498779442417389,-0.05931438893869323,0.9072464940873699,0.07784090342847838,0.30496926331625707,-0.3132094391956375,-0.055838663767497576,0.9089866046283794,-0.9389958922118534,-0.9738251923008047,0.7325224211000452,-0.267723505262195,-0.6637352669611443,-0.8094137715471823,0.24036910954627877,0.9029371129160082,0.7798751930256438]},{"Num_inputs":65,"Weighted_input":0,"Weights":[0.9341886827435459,0.6664836310563091,-0.3809030989453438,0.6117435350752891,-0.16534831561923524,0.43706089870554954,-0.18652644909921834,0.7916065354882915,0.9163527252051873,-0.9625735577206872,0.5833446181641664,-0.15289369222831795,-0.9696374455538532,-0.13460351984187213,0.8095524741314668,0.7114088291497729,-0.9141567156473316,0.31806106601550876,-0.3042819137398921,0.006973580097382248,0.6798948423411195,-0.9537808631789123,-0.7512729628009168,-0.4776487616235632,0.6698950129869883,-0.37039040808804935,-0.9846375870518238,0.7995002514350547,-0.2594649270989787,-0.7996011814611701,0.2864080531404063,0.5397781799661667,0.582250671323969,-0.4752361850585445,-0.30627223924148994,-0.5706925692461171,0.6441857943531435,-0.2977314006695736,0.19838850501176197,0.15670251386222422,-0.17283802404737414,-0.7602989821942738,0.8232274135831981,-0.8924288397885036,-0.5421648264788025,-0.3516520738772234,-0.29846974470567766,-0.3014225044514749,-0.39239574029126856,0.9374923199316234,0.3430531009216755,-0.5841137432536869,0.9262788024049409,-0.3955952499157327,0.615882161909616,-0.7318316744995164,0.8955205783891127,0.28172964233650766,0.9065175085007036,0.6197484518679042,-0.6368183064848725,0.8855147430747465,0.6624820710875354,-0.01063912843588044,0.7106206929538796]},{"Num_inputs":65,"Weighted_input":0,"Weights":[-0.8470622400927909,0.2736523547545717,0.6405422855543617,0.9607992949628299,-0.39299593180175296,0.43386458752417423,0.7608500379593763,0.7254221818942514,0.6167303434257267,-0.6298691117650761,0.49892097318283346,0.8706381683546602,-0.16654423854236078,0.42172884796358345,-0.45483259500844,0.7574861496349998,-0.7814918375711469,-0.6662886717742387,-0.14176390278988393,-0.08051276834077992,-0.7930296917187479,0.1316919834678154,-0.379649756629024,-0.28819970975125764,0.541759060344033,-0.19467342887037675,-0.49272474949046097,-0.7046535575221942,-0.9305713773200094,0.026511104313816647,0.9795642892127601,-0.5689410189793298,0.49396121784037494,-0.2869884422157605,0.44722709170227026,0.902999105441638,-0.12944527660969585,0.41435165451264955,0.19109234192649382,0.6494080014553771,0.2632874916628005,0.9644873500573625,-0.5820166377900791,-0.47663432571223097,-0.4941956705694939,-0.008650385515827974,0.8005279518212083,-0.3195079096238729,-0.644904442575468,0.03236074561670499,-0.007413339142052777,0.11053406994638282,0.48495959956944734,0.7429046765817535,-0.4320691290007074,0.5177677500964251,-0.567762120409413,0.5537159111169008,0.8268663354880257,-0.08565146717414307,-0.9769316010071897,-0.050833150630115176,0.03687671678505677,0.9739815635412563,0.6564424600353185]},{"Num_inputs":65,"Weighted_input":0,"Weights":[0.23048949234416072,-0.8900146833097746,0.5407684478625512,0.8311606310281496,0.11955184520814055,0.8104105819458063,0.12924622604196867,0.035084678538243264,0.9418228748477209,0.9107077559170482,0.1433413953479279,0.7079426583972481,0.2937127043886876,-0.3596744411084454,-0.41833149769369915,-0.9554432751925052,-0.0456164790503949,0.7158670219441017,0.31383218077777264,0.7465029479680214,0.09337962379643105,-0.22259165619835308,-0.6000120547082762,-0.25590279836552954,-0.8909448280025227,0.44873127842783433,0.26911363141407385,-0.22110165798268377,-0.8871392801132847,0.1463502656159894,0.7991249434322465,-0.34817585444927523,-0.13358449025957597,-0.5171507437996403,-0.8421784519663752,-0.6378392462757785,0.5729688580524448,-0.43790036225865914,-0.6744429344195602,-0.08493943795949055,-0.8681748482192563,-0.06988140290741929,-0.433426337257222,-0.3138614339696645,-0.9321924451891079,-0.7680780572646503,0.9136969091369009,0.2645493566747683,-0.7453030803311765,0.4261667978722494,-0.5066160552681211,0.42407384302926676,0.5958715034898359,-0.7297349663900101,0.9566634041380473,-0.5710494557403203,-0.8170480209949339,0.8124122766550963,-0.6999948098827293,0.38798408744831425,-0.6110555454175549,0.2673716801093864,-0.711415976782586,-0.810457453763235,-0.18494213003648152]},{"Num_inputs":65,"Weighted_input":0,"Weights":[0.28735638896405336,0.2468805772860181,0.3281211403867583,0.2034603287467498,0.5115812583371171,-0.4485012021388516,-0.9748261699363516,0.6835173484900856,-0.10521097621290487,0.0916287447709454,0.8209569430402517,0.365531998316899,-0.308264415242789,-0.2682355603949048,0.6605591744505126,-0.7629842447509798,-0.048318284765541564,0.886248271828054,-0.11657257368051654,-0.2389012069521953,0.8543254257160291,-0.4509656582501258,-0.39246153162687936,0.42842881331119864,0.6431661685551391,-0.4675908861759137,0.28351545397170463,0.8791915292934658,0.8683393787531359,-0.6853071637923469,0.900508919013902,0.6885876698543518,0.7772139567642109,0.7395220012002175,0.4627178540676564,0.39195532116631204,0.450793375909903,-0.24116844059711862,-0.4357691678626625,-0.06112262782601996,0.18221783914496292,-0.6693662511257468,-0.5211851286743812,-0.23603403724012118,0.013649488057635217,0.87108023811421,0.3971741034590801,0.46729250123660804,-0.5654823640126139,-0.08239554012469563,0.2875517195511783,-0.27647991093965596,0.8423634412501482,-0.792560566190282,0.3504061168970418,-0.3486690061493025,0.5143519461887844,0.5967612756398586,0.7662808923997211,0.07087803722063701,0.23806475742828592,0.3780388073352001,-0.8822146501640064,0.4498749128141042,-0.02326388918120048]},{"Num_inputs":65,"Weighted_input":0,"Weights":[-0.8019037542869856,0.8347882876969053,-0.35363107851880515,-0.8115810558481087,-0.9830674254115268,-0.8547527522639156,-0.073097439548933,-0.8115437079208003,-0.022226170649947474,-0.22967108798717106,0.32185765435491165,-0.9482284193668545,0.35721476767032057,0.9886747791250725,0.7443148455426654,0.840836842184526,-0.7345910080724943,-0.056244894549107194,0.050169063943299674,-0.09689544820877827,-0.7888045028364911,-0.9734549341841365,0.7496694501029832,0.3744125793397117,0.25596340684521657,0.65515729451691,0.26459413998485326,0.9585307209472649,-0.47180920071883203,-0.7162289567007434,0.7994091134022763,-0.2848395005831319,0.732996521320691,-0.5926881811217728,-0.34091628417884934,0.7359331385915366,0.49873979552321845,-0.9356754963450507,0.6780464551172756,-0.8343099317267221,0.7957153489509194,-0.4147144202123344,0.7855592862615555,0.6984666349908015,-0.21490825556613957,0.7799907398800598,-0.49396330483469664,0.28243596779935376,-0.667977086641544,-0.5537522699415601,-0.48451899033608015,0.7436260546410991,-0.9087865773835146,-0.4726561600645034,-0.5191225932890711,0.42834827756861915,0.7183502676076934,-0.06814358013637667,-0.07577959130682621,-0.6113577035440262,0.9135216873659529,-0.012705095983390424,-0.5039698653033603,-0.166186412524441,-0.05212152777841084]},{"Num_inputs":65,"Weighted_input":0,"Weights":[-0.8710026369291002,-0.9297687411837243,0.44304000732770144,0.9377001538349197,0.4240694087954213,0.8347334523335166,-0.595833985377187,0.03348557842677913,-0.20912700713464927,-0.8339064717435505,0.2960351997964461,0.522975839885651,0.8922544535700323,0.2726960132713696,0.1836179398724025,0.12345951729083326,0.016853620596783303,-0.8881352765141189,-0.9686777457952354,-0.21858766333608082,0.40767124584267855,0.5189036790792443,-0.43276642087356554,0.7197486773448452,-0.009880252518064792,-0.4382113420404412,-0.09270530812232758,-0.4680389256041859,0.6575259426432858,-0.7353435268954258,0.18172100452000595,0.7792764797942167,-0.3886873502794509,0.04108358819387492,0.8955911052783669,-0.392495751271821,-0.8387835803074762,-0.5831491902890378,-0.3104271204642811,0.3602969856088414,-0.775035781964782,-0.9333173077896585,-0.9532405444009417,-0.091120191432561,-0.8292064180639821,-0.5587599233343733,-0.4961073094127574,-0.3203252862243874,0.972424821214618,-0.19360276250873776,0.30358785273863553,0.11962406297894002,-0.11957183821056427,0.2166690035941381,0.26720464665615506,-0.5867273735392666,-0.7430310228520969,-0.17192630166608214,-0.615039514670005,-0.7115336309710663,0.09582079422171796,-0.12123828706872464,0.3701820196584431,0.2375855481270961,0.4171131784351634]},{"Num_inputs":65,"Weighted_input":0,"Weights":[0.28326742614270284,0.2084550948732704,-0.5940901925014603,0.35852736214867775,-0.3891522467690326,-0.737138105707128,0.1977741728447051,-0.17640985199598513,0.3026841243802523,-0.9940781340692936,0.1189076119541368,0.3847152277795336,-0.021719295110637526,-0.6862390452998959,0.9399940238990037,-0.1430973030403878,0.702354356688689,-0.5313877364574311,0.6486647676421775,0.6866157190765636,-0.9446934746061117,-0.8902115801909676,-0.3850135005804787,-0.3451906130472643,0.915801357759227,0.3688609840938264,-0.16811356015843248,-0.8621642466042254,-0.005198397510804642,0.3743263852752019,-0.3083091286605595,0.4756615837632059,0.7826770207448912,0.23720876796656976,0.2666713320269778,0.6712950197289711,0.8323145674217238,0.5772221889966818,-0.36208680178385233,-0.30656519325937037,0.8358236502584655,0.8556732624255061,0.6288669590101681,0.09677021840576683,-0.8923131845381118,0.3017349534053313,-0.8348182313354153,-0.04352802805157763,0.1448936942416097,0.40236352261712227,-0.05394780877678762,0.2747175438053284,-0.6327453699371676,0.6044477238620136,0.5552064408340545,-0.9753612451954627,-0.46138490848431435,0.5057326302020393,0.7415412735478628,-0.14574852020917817,-0.03824582989875647,-0.20701400760089128,0.5230220514050408,-0.791515729445377,-0.8881834098503205]},{"Num_inputs":65,"Weighted_input":0,"Weights":[-0.8863359568703802,-0.6392206225146659,-0.5184620062602212,0.3164022268463773,-0.16693456298133436,0.5437496946376308,-0.7415851991136257,-0.5950818397484281,-0.7976532736469312,0.5159079688907189,0.6200230756113727,0.027930084355441753,-0.628477056227509,-0.9750379233231434,0.08057743880281931,0.9540454052559035,0.5905916700294669,-0.026361385385018754,0.08150192327950001,0.9039193243262578,0.46880504399888445,-0.062451851250487134,-0.3496272576718752,-0.15142441477088742,0.08124329983166234,0.0830828588595367,0.2771101562365552,0.49297829477350397,-0.3013201274802251,0.5875987642325773,-0.6287886624553483,0.28462202408825,-0.40447025239414947,0.418618620149279,0.6678246469483076,0.16094165321515153,0.2884472748830995,-0.9602501617628185,0.8280543892581707,0.44565231437214337,0.31254737388856135,0.6858041303892661,-0.8013382421891085,0.9455955109795044,0.02747705659071098,-0.6500985879500919,0.7509085516946272,0.34245089392029504,-0.9767796678685331,0.5216491316900411,-0.19508255314908018,-0.8193349346297458,-0.19668832963225957,-0.8016573635533933,-0.8657432903957127,-0.6240127486643964,-0.07174054637988281,-0.6830592647427347,-0.43526890685204134,-0.8046737208339071,0.8521643825389225,0.8920913672244619,0.22104033759743058,-0.7019515303116248,-0.9538888888300641]},{"Num_inputs":65,"Weighted_input":0,"Weights":[0.4496945230011202,0.5021341899692726,0.8071497660474594,-0.05675923090656021,-0.7893461475116894,0.04173236320337792,0.18818962740053125,-0.6772266447699784,0.9999862560797412,-0.8328045325163455,-0.3185146647400384,0.3286785249426678,-0.25462461652757773,0.8103797947825784,-0.8425815014086903,0.12666529875253318,-0.1676663241592834,0.4746378034244947,-0.06637323869910372,0.44431189606768395,-0.3921240582660608,-0.42465192580872235,-0.13883667496509033,-0.9256235355040071,0.03732016565833973,0.5348775412185689,0.6676112957108895,-0.3557677224611868,-0.8248473385203055,0.9578254568200621,0.800252813906233,-0.46366402090356873,0.29928343062363805,-0.7227595905909374,0.1616098027291195,0.17132133251689008,0.10454523420530082,0.7600241304088198,-0.18991900587739452,0.19485724383540282,0.4472843106111639,-0.9423049192862,0.495130627180413,-0.4588930053662932,0.4624424129873925,-0.3900149654483003,-0.7189301253932829,-0.4229666974125258,0.5525615484891506,0.3889089479434982,-0.6605655549976954,0.1807495706031801,-0.5499235996332946,0.3546262306155461,0.252219759547734,0.3623679217857778,0.30439468685853543,0.48865679502268033,-0.3450935052845413,-0.5809683821290184,-0.7194859067555195,0.5627573167953734,-0.7356509874231142,-0.8340194472324857,0.3550711529893882]},{"Num_inputs":65,"Weighted_input":0,"Weights":[0.6260986253113423,-0.34391492633293974,0.6852293381163432,0.9940837969734249,-0.15475866623453138,-0.1288718045805285,-0.564949362686384,-0.36799329013286375,0.2628827194817924,0.1472705628369877,-0.3843405166384031,-0.3513219378768959,-0.676402135906778,0.9483841167735672,-0.05000196299848558,-0.5551644116918901,-0.6028619338310014,0.39555086305223486,-0.44916528966037395,0.6656429885585924,0.6862794887088128,-0.7205821220991722,0.7291459489745844,-0.9568880823125592,-0.2824535399174941,0.02430544402858259,0.12184738002322493,-0.09151933836807313,-0.21136322238819283,-0.28448184466448334,0.9454535474611179,-0.09604300276065703,0.5122782929907372,0.8874611117212492,0.6011752904270142,-0.09890085342455002,0.9921204923114006,-0.33888234402437345,0.6921971505438174,0.42655794681649883,-0.50824606015652,-0.4098382986988742,-0.7207451629487253,0.44005980982884485,0.48127372718435435,0.469638859570481,-0.35102993250901515,-0.24097936070187953,-0.07537331430163097,-0.6036439513432715,-0.08356570697640353,-0.6575241691706422,-0.2664702261537155,0.1459745125406251,0.7973935332205202,0.04224782041286157,-0.7511091132328783,-0.4996751565242711,-0.5104955632413046,-0.8202378804764681,-0.7217739327595896,0.85997111070147,0.8008908255862608,-0.2452035464316361,0.1902285088887965]},{"Num_inputs":65,"Weighted_input":0,"Weights":[-0.40679673576234776,-0.9921919372160555,0.9714510922660884,0.11235860564948807,-0.6123345054155203,0.48084635337155324,-0.6518716180067856,-0.8273832772434759,-0.21977834183532352,-0.15113623500645246,-0.17446153305906242,0.25836587668732025,-0.9186637778154566,0.9721436637138714,0.12713734450000946,-0.1591195716003052,-0.3042019757523168,-0.21832047441529734,-0.9212642470854024,0.44174327148026427,-0.10332959667280028,-0.6717985340961707,0.020232509754996908,-0.3359819462124044,0.024256934757623583,0.18078741748691907,-0.9434816722708014,-0.3323437622247124,0.42868206674910403,-0.9682066233651696,-0.38046185553768164,-0.7670998623004401,-0.9609469441576232,-0.21691722291256343,-0.004914913435446366,0.23730730653011056,-0.17801414864507503,0.1790270054762264,-0.8956645823593365,-0.3519406859520582,0.8803598925758511,-0.4635446188680311,0.8208052644510964,-0.7575018923813968,0.8588188036174405,0.5105003575460711,0.9380349883672172,0.2869916076410466,-0.3202852566451523,-0.9375323874208655,0.4052909578425934,0.6641342662102183,0.08043788379886196,0.6521547977126803,0.17078449103094573,0.32264712869035184,-0.46438532361444296,-0.7068037836208092,0.37083339300498297,-0.09452034521638375,-0.9237544684135798,0.7732645979967445,0.41753269808712523,0.8514554030035713,-0.7650281588630142]},{"Num_inputs":65,"Weighted_input":0,"Weights":[0.798858247711304,-0.9556854261921537,0.4423148740810867,0.7178181528921537,-0.06066047334201152,-0.44877945648978745,-0.39573933683060447,0.2703290876975428,0.13221270118269457,-0.2824334724112709,-0.9760943900820974,0.8736889483910522,0.9073150329995607,-0.4461840217517401,-0.4986595597131689,-0.6284657829680409,-0.2624914942039558,0.40693121190016424,-0.9527440903575598,-0.33303634052184905,0.709004053347942,-0.6488165585428851,0.9883676577223348,-0.9518052144700955,-0.029525994495855135,-0.08396324229768304,0.19536203497980908,0.8619525018694849,0.48563392844192865,0.48424313049869316,-0.8594075255506858,-0.8892376783920486,0.3161330468150956,-0.8510142789115992,-0.8376612717563292,0.008387513538072655,0.3342393727140185,0.7614835693087276,-0.28300093140210925,-0.878498352525934,-0.4072950792487031,0.6259045879318685,0.5175185713153934,-0.045170226999630914,0.6103421575912913,0.16558134009484782,-0.7810409786065453,-0.16251436493154248,-0.7658114039769017,-0.33745776994416987,-0.8673623949931328,-0.7674681899636362,0.43736330121270584,-0.5063211669080597,-0.5697301859475341,-0.4576492287097784,-0.3417419307548647,-0.8385986780287596,-0.3938245178349252,0.49089974744250653,0.41084387867598604,-0.39086342463898793,0.27629004573623495,0.8612722986126589,-0.2505893701901064]},{"Num_inputs":65,"Weighted_input":0,"Weights":[-0.08914041622634639,0.44959404875253317,0.9721674621593981,-0.3059227853837222,0.9167913935382728,-0.5563092333820987,0.6944904970693941,0.42316583779211947,0.7489108696774256,0.5468424435724537,0.44217156608677044,-0.06474171264316086,-0.515154203496117,-0.127227127231619,0.08475820005406165,-0.1123701516089155,0.7499089324324917,0.9294528662303867,0.5849260778098317,0.31492306814564763,0.5382630825218633,0.8960216836626302,-0.6361231840792646,-0.479170023617832,0.4155601377576672,-0.8267843004648616,0.7693488701884563,-0.6212959583069175,0.39730195258859635,0.36267958625826857,0.6428112235798009,-0.5118352735995595,-0.7518747828359532,0.3463765966201746,0.5732439528969298,-0.22599465792189766,0.5046346527417436,0.766409076452111,0.9141272304628092,-0.2157348281579875,0.8280166708770356,0.6851182670954346,-0.982426127570039,0.15465211422222036,-0.7000988543268652,0.8155157779244564,0.36022752517539103,0.9690140429958611,0.07998765142046738,-0.12062706912048171,-0.3178569416908449,0.7834418692690976,0.3689403502114048,-0.5008535475563529,-0.6623157718739305,0.5867149872641719,-0.13964058226254472,0.38652040609462457,-0.6125884383948543,-0.010572437241008537,0.8992753222568324,0.5921085983020118,-0.5047010069108144,0.5260628965629335,0.661011956654056]},{"Num_inputs":65,"Weighted_input":0,"Weights":[0.9183136193726649,0.24719881503197594,-0.9449332793585864,0.08670383729853981,0.9242910949828527,0.11596669307038465,0.9676025564668149,0.991649813604776,0.9118444396903655,-0.7889867093384105,0.6958635974192491,0.7973220604572686,0.4120008649101332,0.8657544117191363,0.0839337848108408,0.33995343261587285,0.045580747986345926,0.5582444607080297,-0.6919104328648236,-0.2978222321146775,-0.8221633224250476,0.12277306200364135,-0.45538664371009985,0.5405218859393333,-0.6770804212715882,0.9868654581861309,-0.01221631631821074,0.8396713524481634,-0.028379184343440444,0.1482168457664348,-0.28354867541982065,0.7346026212732979,-0.5547154257932871,0.6837307178179026,-0.43974942302747266,-0.6254490852507781,0.05686869612482237,-0.18566581126984205,0.8667357155991016,-0.06381890681183522,0.7724988336669798,0.6623815038869718,-0.18628055780407182,0.41186442604333506,0.3110168993085787,-0.5647950140311895,-0.19801002842024995,-0.6655634185165307,0.3022587447472014,-0.8648265740489608,-0.02908892594657997,0.79044162579838,0.8081222308545308,0.0252267756297615,0.07474575899203217,-0.5539360233056871,0.19755913192611896,0.9638609058130501,0.7246330469837523,0.6060747771418735,0.6224291657766823,0.113359723258049,0.747775517268757,0.6907421044534583,-0.15557596343675562]},{"Num_inputs":65,"Weighted_input":0,"Weights":[-0.22592758136312074,0.7343429631746399,-0.9500112166504977,-0.6946547010662747,-0.8198894866542284,0.982012528291941,-0.5765211047809634,0.8981562921436306,0.990938519792792,0.6955744332431899,0.22297479930661712,-0.2129146706011712,-0.3765179364750978,-0.5588880612689635,-0.6505366489421662,-0.39889901330036814,-0.24144855999554693,-0.8511796488977987,-0.6758838980980484,0.27007627563673675,-0.729805076705007,0.06289554447924117,-0.10246841428271614,-0.010181955264378262,-0.21006843823379528,0.7555015358001014,-0.8752270289640119,-0.8102217268058138,-0.36671798748003825,-0.7978288492336563,0.3943267173278997,-0.0903114303143081,-0.44953718231754725,0.6377637907696987,-0.36799207810348933,0.6329079405042137,0.8240647804572545,-0.07029139097749859,0.4371157243922845,-0.07933706014532593,0.7236897642090669,0.9333707201873744,0.25599319498616446,-0.024240362358887046,-0.5981294569396369,0.6751372671276412,0.3245859290045814,0.5087263689764474,0.9638137876424502,0.7363169986580429,-0.05858936836007489,-0.39557440407209743,0.6914411059183092,0.6209424870284899,-0.8202904631942299,-0.5694089506115496,0.12895298103821462,-0.21541118590632513,-0.04728038174388893,0.7461170231717331,0.9484890017190115,0.9165047836973559,0.6498447708510202,-0.6635260171581501,0.831570705983063]},{"Num_inputs":65,"Weighted_input":0,"Weights":[0.16928880150161763,0.17261764101765453,-0.22388116202057784,-0.18894873417574554,0.76770996118167,-0.956307432220085,-0.3991465878461725,-0.9929677533785366,0.4848263314594745,0.8994025704778614,0.8127531781264119,0.3842284530546547,-0.9437522894662947,0.4724713938699985,-0.2445276420566641,0.7475378258177179,-0.37511376813808095,-0.30832724064128525,-0.7097046896584476,0.8183465908779335,-0.140096368761656,0.596063510838825,0.2608059446472706,0.38445588175853995,-0.22163730672947424,-0.9939205807125471,-0.7620490722416274,0.9052367509408825,0.8132790521173663,0.3129222608234934,0.7895828669514182,0.21866976233080604,0.24353999997572728,0.8056418281906206,0.6655908260686654,0.3581365437611779,-0.5215811704778286,0.36948058706012143,0.6374484728603043,0.8316354254454494,0.9592823481692181,-0.947943199667856,0.34114659617311416,-0.010970872362778161,0.579075367884881,-0.6781895042819942,-0.7784132438252965,0.6569252188933077,-0.8606334824134999,0.22572587830291413,-0.29700100893451453,-0.7407772804946149,-0.728442696666605,0.8073022933603924,-0.07535226438627407,-0.5217432777975901,0.38957346865927,-0.40034219795401926,-0.6985718080703042,0.631159829205227,0.38065079758193376,-0.08398405176277757,-0.6233286243909133,0.8073116324141432,-0.7243370650000212]},{"Num_inputs":65,"Weighted_input":0,"Weights":[0.9916018470638239,-0.3063419544084397,0.19412528898041348,0.28010095878226093,0.8760003044508338,0.9741068148671048,0.8557521997612059,0.2662527900520226,0.9113283196819575,-0.7060267697442395,-0.5976061315677061,-0.9021201144169672,-0.9191712170161187,0.6491503534351197,0.5964580307093585,-0.7621385630988192,-0.6023170368976474,0.5123192986093235,0.5125047853886615,-0.8652011271498359,0.8338539582096489,0.06211226824358751,-0.16483378744615684,-0.8330143559447272,-0.9485427261834544,0.13642398527144972,0.6099213152921468,0.7318354410703432,0.7824075668118933,-0.969527613544096,-0.5365505340512768,-0.46353750089177603,-0.7826664301808258,0.343472263811496,0.9789839492291592,-0.4087345217726094,0.16490881076808783,-0.06829192403564333,0.5475626735441179,-0.2644671297202522,-0.5805850060064172,0.042260324178560627,0.19743880272352232,-0.18662198692199927,0.39239091899912193,0.17595854946206257,-0.7114610489719189,0.2375943301818073,-0.020692495959523494,0.6551123064525506,0.3550655835082246,0.3785500568463409,0.43359810629064466,-0.4746437056020213,0.5420273196114578,-0.5717962185297574,0.0022562832861021676,0.4325536147904556,-0.6203213416532497,0.6169133536826401,-0.39349999992341034,-0.09068432445476737,0.7864588349671306,-0.07389742490530204,0.9760143051615087]},{"Num_inputs":65,"Weighted_input":0,"Weights":[0.06350949995466282,-0.1165972482637222,-0.2919045763693371,0.5685295718831891,0.44728874439614885,-0.1332699896078705,0.08007227756103563,0.42750695251041715,-0.1623517189989483,0.8843295324160791,-0.3463925314923395,-0.09239924585177117,-0.6432628413283281,-0.8161980526267754,-0.09987839908030072,-0.8260643155792414,0.2465268299222092,-0.4577090853266489,-0.4325441095998559,0.8966791751693628,-0.9086345315771014,-0.32659716260475025,-0.31029725584913825,0.4232758816788784,0.9277780059444174,-0.4855506736426267,-0.004309240921947066,-0.24403762557259223,0.4393011286811581,-0.6097167324955312,0.06778399768009002,0.7650405671080305,-0.6328274928109621,0.1676981418075718,-0.2507547681113794,-0.7460472765136934,0.2733222632064882,-0.7577250892383557,0.14065979062806155,-0.6120606710799295,0.99085767534442,0.829458224808642,-0.2791350386083288,-0.9021230111803495,-0.9263280892480339,-0.24184123041096472,0.0003502437801266023,-0.9728669423526817,-0.562369075740134,-0.31376423880026383,0.2923644906490328,-0.10742470186558761,0.012195816478094201,0.4542521336102323,-0.7560769579507204,0.2453747416176637,-0.30419864874960556,-0.21803971927450239,0.17006084102796604,-0.9365676351934208,-0.5292735083055166,-0.6024588170796363,0.47744401743652953,-0.8669746157746,-0.21888932106262338]},{"Num_inputs":65,"Weighted_input":0,"Weights":[0.271378886690123,-0.03339242975468648,-0.8724703520404917,-0.8315564458251732,-0.9782225967834272,0.38615261559532166,0.9296197284021193,0.7170956895015475,-0.25704873655565863,0.7136452130671787,0.6202577561773375,-0.19702599915736974,0.19064392179835,-0.1789589295348789,-0.8388774946369377,0.5193804636911528,-0.08988859644426028,-0.22138922509441183,-0.6201694116039607,0.32827207248678447,-0.031073434810029,-0.6160007983610547,0.8043371679521769,0.42662064343121164,0.6624978612829182,0.33381050505062726,-0.8171675930990523,0.2701202578104729,-0.760715579986323,-0.8979582943085673,0.5810931104902763,-0.0471893072381494,0.29050164539965806,-0.2654586534573262,-0.3091445850812785,0.293407920655957,-0.7371099331376176,-0.6266218718209613,-0.163260097239448,0.04695725530156869,-0.9695245077610636,-0.5710686394368445,-0.49576540753164855,-0.4970875337237236,0.933437005434065,-0.4538705383653424,0.4592378370505017,-0.4559645055403647,0.9713970185637697,0.9645632199281915,-0.5801867705970309,-0.9134043442892609,-0.22204898266617557,-0.5178162503299739,0.6579358574506247,-0.1976274684384921,0.7631839339505653,0.9645924770056797,-0.9372129925094315,-0.9559002349815,0.3067948656125554,0.037037639675426615,0.005369243050936445,0.999696021853091,0.9725124416839972]},{"Num_inputs":65,"Weighted_input":0,"Weights":[0.18222638772562205,0.9901066916760444,0.9117046030526745,0.5265170351433623,-0.832763632801722,0.5783438372008403,0.491562867018124,0.8144606822296405,-0.5467768857991433,0.3661634161632832,-0.571108208263396,-0.9032261850016873,0.2287955043157981,-0.9268337227874751,-0.7334956874706746,-0.4605475663804959,0.8980334017797729,0.20991306861478765,0.5077562069926518,0.399860092864754,-0.19661172895149048,0.74028604038357,0.1576488595618344,0.7709576030168086,-0.49340547528339673,-0.3843955437994119,0.09176779388279077,-0.7667905748357515,0.005962792026875885,-0.25900550456125004,-0.1351189314504735,-0.03983392155409804,0.42208987623891603,0.23185072299845988,0.36881124420876366,0.827873256438979,-0.6408658519378736,-0.16622115863833675,0.23079555405632268,0.2235404544262778,0.4274229943550645,-0.9796210707973485,0.9819402586760093,-0.508203221132602,-0.9020257153242536,0.05247587872980275,0.8514113568728743,-0.6550624344425892,-0.40734279603877566,-0.37163763718803633,-0.07857390147517285,0.7814439206068406,-0.6000876362189816,-0.8408135614248622,0.4315921993006022,0.07803617828364517,-0.7470775246598658,-0.8878560580028098,-0.923058271145566,0.3275214255042289,0.3825095793817246,0.050279982626648456,-0.9543409117409395,-0.17833392388555502,0.08651150104462424]},{"Num_inputs":65,"Weighted_input":0,"Weights":[-0.3082481853339193,-0.17174523340592418,0.6826266241872898,0.9065026686462279,-0.7734707147232892,0.9081580313694178,0.03195385239829851,0.6598978763371279,-0.8969416774699823,-0.989281618427204,0.9541320924129268,-0.12139548721093252,0.12826026735762008,-0.48120688499036135,0.27087891728128843,-0.9176482922556077,-0.396989501732675,-0.21974162530444596,0.8775111717944335,-0.2745368414480447,-0.4009417672179757,-0.11874735946249604,0.0764408879516496,-0.3245550879151866,-0.8480666824688653,0.3708972891179576,0.8675964619820895,0.5783246442184431,-0.4424460671267463,-0.23192115126120683,0.98922249697338,-0.9249250880085753,-0.4321340715578563,0.1683656759974861,-0.3115687977342445,0.0606940033876473,-0.147216522986779,-0.01803735832811082,0.6624533531589876,0.8270521663476678,-0.3860033671866524,-0.960407483482651,0.8714353823564864,-0.051975638676706404,-0.5099171551363741,0.272934992137815,-0.8329419495054096,-0.227434271997631,0.7039785712376043,0.7842874490549185,0.7452392201930174,-0.6448969471496151,-0.6904544747253346,0.04674352646999824,0.6656291808249752,0.5722425984478237,0.7763390610242928,0.9560037287262684,-0.6585429653656323,-0.35646169870912714,0.40873038961943653,-0.2690446964278046,0.2162813891407036,-0.332402419528514,0.453343872779868]},{"Num_inputs":65,"Weighted_input":0,"Weights":[-0.38890889914969884,0.5692234067145372,-0.2455138570838017,0.3936716360572947,-0.5885427256286584,-0.9657519867410423,-0.2704580683786998,-0.5150187184512172,0.020737017947129344,0.41610170063522056,0.32555218662138863,-0.7859900147793285,0.6883589632938247,-0.0647394575056841,0.6697647251089924,-0.4304183337246683,0.6862024207087991,-0.7894796524063481,-0.8409906390450478,-0.4633453344238029,-0.8412343752027086,0.06182730181787521,0.3328915625196731,0.6878588937126426,0.3066454510846923,0.7219344161008949,-0.425944441116591,-0.4832386290903713,0.5184462330226578,-0.11439189465797661,-0.9815367272800966,0.5404589175183991,-0.8022108390883884,0.23585777561490495,-0.10128429764304336,-0.47349028134169446,-0.6112907530273624,-0.8411838028329073,0.9743202406787597,0.8225587732058335,0.32144708909941677,-0.5630299633393943,-0.9604699212599836,-0.4236899313215785,-0.8515792764936025,0.5697815412986427,0.7571725342344788,-0.4634187578954997,-0.034533401534890595,0.23708023970645908,-0.23469156251999745,-0.3931836065179125,0.7277066652399762,-0.6095878545688949,0.5665947138952563,0.5903925114832291,-0.019088380804948568,0.6544365299787991,0.2069548812741382,0.11205048678146623,0.375999490291516,-0.22320441976369554,0.39630223188905256,-0.6211641989542284,0.7109847044216882]},{"Num_inputs":65,"Weighted_input":0,"Weights":[0.9207483317372447,0.31130052102133643,-0.542853910559735,-0.8239435841847468,-0.36935044078188695,-0.9044889416699966,-0.674194281089043,0.6513431255369246,-0.24271784365376659,0.6180457710325833,0.2889532464589313,-0.7735020338992394,-0.20024502609083228,0.7039780374669362,0.892157399228531,-0.7706481927119235,-0.5112970612180083,-0.8797783679343185,-0.4985185871780672,-0.6996788023660367,-0.5407727630892504,-0.7766268468729397,-0.9499003426270682,0.06403409429773799,-0.5635138541660024,0.35594833991497254,-0.12655611303804226,-0.8576537731436711,0.46210942045507153,0.4657926725338435,-0.5471579443984347,0.1624093839127838,0.8740522032734783,0.6450308539456993,0.8907511020662227,0.06406186257984325,-0.11640963770927537,-0.9019260552011565,0.7248605305097906,-0.23829526411745283,0.030448323530005483,-0.700301147723019,-0.2476064737732998,-0.628045573571572,0.752608097787548,0.7474373565394001,0.25240930113772175,0.8221826713633793,0.6263944476374907,0.7094109704929454,0.2671790023176752,0.16160351399870088,0.6839838659388002,-0.6392167306084989,-0.782257989408057,-0.2835400031687092,-0.3412467889197398,-0.6314809011154194,0.9851024311643817,0.07029538476426178,-0.057375462282538425,0.38862024649144633,0.8269144990050967,-0.2836621434329293,-0.5778900556013814]},{"Num_inputs":65,"Weighted_input":0,"Weights":[0.43342643851629514,0.20981928750911316,0.7272161604041716,-0.2873830143268584,-0.4387242822613794,-0.9442899140664959,0.10684628085476211,0.915363457958994,-0.07864444893308442,0.9859776050258826,0.3797027842913787,-0.303984747661603,-0.757101962790461,-0.620214480348259,0.9539675974890944,0.6363376500364268,0.13259181228523587,0.7896655329749602,-0.30829643954111086,0.23933838428688103,0.505202786683099,0.2976471507641012,0.3972462441674447,-0.48763308766189684,0.2144946522216502,0.8390574586833375,-0.7802971891225589,-0.29384324730996925,0.3088724279470574,-0.6195691148529159,0.6891711762447041,-0.7783928077621021,-0.586490239089539,0.26146094307071643,0.5116819620138933,-0.019075095050907098,0.007201462427664396,0.35983965400802376,-0.6412641072424181,-0.7029004094746145,-0.7324365483886686,0.00439557490451814,0.1876038357445846,0.13469451543865563,-0.8282616669577316,0.487045398058535,-0.7716603334907588,0.22338345235983148,0.19781893396752448,-0.17042561227705255,-0.7610902717156321,-0.6955708769939923,-0.20798583519088154,-0.540909841732439,-0.987733020596712,0.8080545168490638,0.0668165776422962,0.6960076241352977,-0.013561450400278341,-0.09052730050760094,-0.6248676555829328,-0.6653287892974068,-0.26830352550892256,0.02685573282250897,0.4463272456779197]},{"Num_inputs":65,"Weighted_input":0,"Weights":[-0.26782521291807426,0.32706250441636353,-0.40384978408391936,0.8307540334217693,0.9098954096190783,0.5791479600648828,-0.06992923111894167,-0.14500790329892455,-0.20665936736436208,0.009466928086816928,0.8111789152802593,0.6465727528632534,-0.7308294037659473,-0.7359367869686735,0.9302293384920441,-0.24334972075141748,-0.7545085001351042,-0.49147184012939804,-0.9619578747469847,0.8559245066295675,0.9937919946407583,0.34673967059229005,-0.24902215026784524,-0.12095764812103116,-0.46904073766802934,-0.22445480620007252,0.3281104988768697,-0.603804106361178,0.09743854343537528,0.22376471473334925,0.4439481167734818,0.060580045217980105,-0.3828944550129023,0.2509515182733131,0.43819599294949674,-0.9713774306284857,0.07590497313877709,-0.2828832235009686,0.41755367535708254,-0.38601036289618174,-0.7377318871621661,-0.47432661176767266,0.8579432239010525,0.040141995310269074,0.7145839846470381,0.10335318051554365,0.7924793149472777,0.37953041787434527,0.6187063428499802,0.8263711256732873,0.5231085662676207,-0.5891301149148498,0.34092707885688034,0.678520480832673,0.18741056972694703,0.06878711282204608,0.9645087793674298,0.9329966917681844,-0.7327859681607487,0.842699969872788,0.7581717954859017,-0.820987200535634,-0.9959098777653768,-0.09276462677056918,0.738834624635168]},{"Num_inputs":65,"Weighted_input":0,"Weights":[-0.9577102243387083,-0.23321134070272553,-0.8734030273557503,-0.9183672950997513,-0.9615997491257934,-0.9271555418314094,-0.080974021108152,0.8946556426523413,0.8083676483294298,-0.26528680073574495,0.87053573224972,0.5406986329063248,-0.30188806445407645,0.20392624188816955,0.742382011377452,0.8465284550759771,0.360549552665558,0.19860407656918877,-0.73999688425549,0.4442371479978897,0.01078296317877725,-0.4185373301925035,-0.2069354423504951,0.7270191314702232,-0.24854027418178948,-0.06220863072111271,0.709067099368671,0.7683208537852106,0.849906432075848,-0.9662368508092266,0.7347406858402428,-0.8830859091330597,0.8638568314983903,-0.3396605271087678,-0.5627897662265225,-0.964858813765771,-0.562127921102519,0.395342579563982,-0.9206279291516183,0.918303064180396,-0.8972899257476056,0.2722990586147207,-0.21905898549958558,-0.6872247648487047,-0.7370354370853245,0.36531302653931474,-0.30433934374693816,-0.7335520053677207,-0.42451576593473517,0.5331872994587918,-0.9452989953409296,0.4771875861693664,0.11648067353622937,-0.2264529817015447,0.1624709651788574,0.8775987815221085,-0.13439753701242352,0.3254440160447538,0.45286975883187974,0.4694886094252919,0.9587407418324714,-0.5757166411552486,-0.924370390954727,-0.8724501170199331,-0.37738303184782274]},{"Num_inputs":65,"Weighted_input":0,"Weights":[-0.17752713186083802,-0.5427298857668,-0.9675995460099461,-0.39340311660641525,0.7986505909222059,-0.037299498069153114,0.4861458157974212,0.7251353871296562,0.10663714822508674,0.842910812744958,-0.2662549404272271,-0.47809216948206656,-0.3382365450541106,0.389387089926152,0.17757121192119918,0.05581217915345893,-0.06058044040681909,0.09745110000640977,0.743130952659895,0.8909253288592405,-0.7813063797472463,-0.27296741539180136,-0.15355327097066718,0.09582399088885452,0.7787136981773539,-0.37993240975762366,0.34032654966992504,-0.4656194728505252,-0.2966886137560587,0.14539194519561138,0.5009564892784331,0.30410680114198874,0.3196104715250505,-0.40578148081140974,-0.4921824185240362,-0.39805518212890567,-0.7046443992046583,-0.8229566999386929,-0.9386117718020209,0.9610913133408958,0.08210652759006765,0.12841110796338717,-0.9057695583854752,0.8649146110930093,0.49122104292550994,-0.6798622226511143,0.2071000334061619,0.7671953882020344,0.8937222576928496,0.5963925975838786,-0.6570602088044448,-0.27654574569692303,0.035849007505353914,0.7684119140182564,-0.20187401274765793,0.26900776388958203,0.3496627699476944,-0.4269102358061796,-0.3942815835266267,-0.5785328118403712,0.3924158808723226,-0.2620074075336415,-0.9910381003090529,-0.3084861653963997,0.8233200374804932]},{"Num_inputs":65,"Weighted_input":0,"Weights":[-0.4390446358175203,-0.6451230181636494,-0.6516110441305669,-0.9285433549700469,0.17373247478827958,0.14311355684107596,0.22541653913980886,-0.4502802878449943,-0.7677120216011053,-0.8452835359935293,-0.1616861256467016,0.35796816808287923,0.2379388350384808,0.24579411345975943,0.03208809455065409,0.4595504423963923,0.17616548650867125,-0.8315600925179086,-0.40476235119292114,-0.23275165927697927,-0.9792910814703524,0.11665080436025277,-0.5960721076761046,0.2819460272996115,-0.8220483840553631,-0.30443865117308555,-0.13345835715103171,0.22907027020592352,0.8522794252922772,0.3349861390932618,-0.961144289323899,-0.9584206680050584,-0.7483936153037495,-0.35149055898679304,-0.3552327566780039,-0.2322555765743337,0.46070581675329336,0.738130370440734,0.30051485913735876,0.6429732266621655,-0.5596877004502496,-0.00758953053727196,-0.07549147937642153,0.9780845986572235,0.704089029375091,0.09769154150971637,-0.8963960746518185,0.5677989266512329,-0.1751858861875324,0.9673582942203705,0.14079969864384823,-0.21038519680668777,-0.2632184893636702,0.4724512998254089,0.7060052586751555,0.6143667864421776,-0.8930231452237467,0.09804555743602927,-0.8464061366625237,-0.6968484674554689,0.30993318078751164,-0.7528105507411395,-0.1480831402401347,-0.22325453285571095,0.17308496660314332]},{"Num_inputs":65,"Weighted_input":0,"Weights":[0.8992712882378504,-0.04597048053239894,-0.026553085011693622,0.5558601522092219,-0.05984703163785621,-0.2457258643013055,0.010082819681855204,-0.8578682976250993,0.1973225552690112,0.12376582445969397,0.014221363138053444,0.610965974995608,0.29888547554021794,-0.08275513213462371,-0.8181269691006846,0.58391095914998,0.7690140396696654,0.03600719656673412,-0.1908203556768423,0.8320970140049206,-0.4418794718959531,0.020391621192540343,0.0874928966635995,-0.08207948756959671,-0.7555695983467487,-0.23930144012824905,0.7247758479840414,0.7902699104050277,-0.08850770362790106,-0.7385936507948784,0.2109819835207294,-0.2910795535218812,0.38064904199571625,-0.8776388808947476,-0.7218806828004274,0.6732967926560347,0.6021090208881281,-0.6134593254688612,-0.7213015244934706,0.06484834348984503,0.11069421414871994,-0.46786161722025443,-0.5762112237093484,0.5068422154173728,0.3575035498155532,-0.537458780422684,-0.5051978505307655,-0.1786059645631759,-0.25366451365365184,-0.4954260719080956,0.9241890757066513,-0.09452074517653064,-0.8991390652801013,-0.22827237094533326,0.5745186623356058,-0.694330303680433,-0.37201010716980076,0.4811984810349508,0.058062002517576206,0.28688597831338836,-0.5612962293856101,0.5982282568001318,-0.521167957151909,-0.5178048822328201,-0.059048302730219215]},{"Num_inputs":65,"Weighted_input":0,"Weights":[-0.21376993496398766,-0.18131743988096405,-0.29344597786165294,0.104566006536291,-0.16567841017858587,0.11927134546791573,-0.8292945993939104,0.15181853983166782,-0.7706116694232066,0.8528589013404617,-0.43197308100035114,0.450560464696798,-0.2989158633272626,-0.8881238292516402,0.936391044295475,-0.12103835480296776,0.7874870470107427,0.5565754334856856,-0.8250280638502359,0.34459255242057263,0.490953857246734,0.2317405487155766,-0.2173318990492049,0.4621713171146722,-0.43518700145955125,0.28229851793627514,-0.5349071032672156,0.5422254249470337,-0.5190661628028828,-0.8608715909624025,0.9993216467843093,-0.8457441090171511,-0.8517995641825771,-0.3847613162380311,0.3772150522641575,0.8436079971710475,-0.06546466788985317,-0.7951123487925924,0.5215494251207615,-0.26958988595484534,-0.2573124907332719,-0.026853518789460074,-0.16358007282923148,0.7536889229816004,0.9823521982188852,0.13347544460343563,-0.6179184183892807,-0.3659148784918812,-0.6936215002297161,-0.17310470313314852,-0.13406486720259503,-0.10249696464755587,0.1832705212063548,-0.963531882936421,-0.2701576245416043,0.31510848062273,0.49036062277102643,-0.620972459902706,0.8776194944916806,0.9259204710752635,-0.2504598428941007,-0.5182880778633944,0.08770500125370262,0.12057713941200388,0.6588710287134296]},{"Num_inputs":65,"Weighted_input":0,"Weights":[0.3994683514426278,-0.13249408615029312,0.10211132254981137,0.3653439526950777,-0.8833888438729149,-0.032361763731000526,-0.3578590149262113,-0.9084170687708818,0.5751715349072892,0.45590659879899986,-0.5206822046340516,-0.06902337325447183,0.9102597916603836,-0.007930834568376288,-0.09855811909667156,-0.6514643924898549,0.1111385457315508,0.5659093369379751,-0.398127540440541,0.9929801285711168,-0.1501878337373107,0.8346248142835049,-0.05313968916527856,-0.5031698130926949,-0.2905852594126971,0.04543295634744071,-0.9946286319900173,0.24065924559387675,-0.5833416665543059,-0.9009642020821,0.20334908398703289,0.08633781281375819,-0.19669148905592182,0.6865941421113,0.7102774564136716,0.18664514457389592,-0.709420819097946,0.9031275359304201,-0.46860389097921074,0.7208917626195597,-0.6123645231051174,0.8724797051117479,-0.5769086895047149,0.31142649933519073,-0.9901945531120948,-0.7033424776220643,-0.4938158301634048,0.7405200308903548,0.5881471626229415,0.31078341240578533,-0.9218574299394671,-0.9315065844041835,-0.01216542764798334,0.18246265900015723,-0.782163238911248,0.7355228511759984,-0.5045925487665006,-0.749828206259386,0.43819805540149326,-0.0315450102293553,-0.10829049616458009,-0.9356034277216156,0.04211819554094953,-0.47252142255693674,0.5316474429020148]},{"Num_inputs":65,"Weighted_input":0,"Weights":[0.33484817888364726,-0.6913753605339104,0.5573462150705899,0.06685424129461648,0.9237229810159671,0.7253791422153357,-0.9527927610818795,-0.7832927901483854,-0.20462095638860023,-0.6694543327806406,-0.15752337029784558,-0.6947397079337808,-0.8271961958050952,0.4619209813199865,-0.2667171999153325,0.8877156756519744,0.9148139371547241,-0.5065014730373434,-0.8954769622075629,0.23773728857095944,0.709933597156301,-0.8395165144881692,0.22189021949181353,-0.9305313105151322,0.5799558239746292,-0.8199118078715766,0.6392211016258733,0.8487245123946199,-0.21797743262964375,-0.04949479845013771,-0.7802384767390965,0.18693165570517034,-0.6841776017262508,-0.7144269152200107,0.2660215634722718,0.4333624954755704,-0.675193003958678,-0.18284063472464296,-0.9257168130971507,0.36122491820402325,0.7490408812392855,-0.941660355070234,-0.8110829215421566,-0.16471138513781725,-0.7422399827050485,0.08698726369625343,0.8958070365825983,-0.43830321738313927,0.1618814488262572,0.24402537424774717,0.0964085597279809,0.31387945751800217,0.8781483752681096,-0.015133158204752029,0.6430989898192601,-0.7090111426586794,0.1687350005393684,-0.6146207678199256,0.6038863749083343,0.19630639589908228,0.7705496659175599,-0.8782172206401316,-0.4248730402838815,0.40708647631394856,0.606982718673436]},{"Num_inputs":65,"Weighted_input":0,"Weights":[-0.35692601462957674,0.6653167460633083,-0.17596265291276425,-0.13947645116301233,0.6799980591042702,-0.7640779249481264,-0.8034568459326225,0.04231680281755268,-0.39006158367744936,-0.08018135509142588,0.813198006483776,-0.8890057954661694,0.2001094292378236,-0.09057878446149425,-0.5978352392716518,0.9613925411509372,-0.9108841600947327,-0.09817048232740222,0.7796684374368588,0.121060841662888,0.5641591653900824,-0.16707651072143703,-0.47222440304597924,-0.692782379025592,-0.9516347655178901,-0.4238626979686555,0.8195693100655299,-0.6691282369307164,0.33487143329533287,-0.2232662568593523,0.3681727192426718,0.5458675474151988,-0.06323398068534503,0.7948604817784106,-0.0020173398165439504,-0.8352422350602837,0.4566592471584183,0.13372390785867383,-0.2532526808389791,0.20110856727496418,0.9464139747803837,0.1409996186316207,-0.3844183152479247,0.7505705945366703,0.7808941888653755,0.2659191408314132,-0.5507770725564425,-0.5894481827728224,-0.6317543542084509,0.6902660385912525,-0.08153679131138458,-0.3107999914469226,0.15207569515876318,-0.2810311459231223,0.11532917914383822,0.16864158798510553,0.8355945396683162,0.1745263612695247,0.5953020852077542,-0.17025487943383277,-0.9242785177905626,-0.4570340982334521,0.20235046412965296,0.48189102959243857,0.3302901711861008]},{"Num_inputs":65,"Weighted_input":0,"Weights":[0.11808239480518323,-0.643171414236076,-0.777327101498416,-0.6271335963734563,0.4928243321047816,0.7674712963152099,0.6095760994734611,-0.10258794894151091,0.314964146563512,0.29647749921806144,0.664692468126673,-0.5432453066098888,0.8170583954673007,-0.7757206922702282,-0.5579014146648948,0.7789087693775045,-0.8133285139615345,0.83879438009133,-0.6883039137196715,0.13812222515298078,-0.7936073672754422,-0.45975392034806417,0.5908961880050054,0.6308214799305005,0.5853575916755251,-0.5745592272062443,0.3478075713150883,0.5400113265614026,-0.5445817893290672,-0.3282228991472922,0.8169917340223569,-0.658399590947897,-0.7211241067402598,0.12492133669067607,-0.02424556986382287,-0.4627858212549236,0.386015711437075,-0.6565577050070668,0.6675124865145972,-0.4768697360892551,-0.012496153591559311,0.9596028220102826,-0.3701376703555601,-0.4108352803752313,-0.9398275857777769,-0.9982753506945463,0.9157441750732258,-0.6564379093598304,0.6587134000341366,0.8767602510114345,0.6329408078526395,-0.04475367192047508,-0.5839049645524028,-0.9720259317047933,-0.6360459417225655,0.6122300046121916,0.1985097470085453,0.6439857588554152,0.513170985746521,-0.44878215778168595,-0.8590467567217246,-0.6459671503592821,-0.5504820526437296,-0.2490695937946914,-0.34488829710139546]},{"Num_inputs":65,"Weighted_input":0,"Weights":[-0.03381232843395343,0.26543657591452785,-0.5740701565355516,-0.3342902599463101,0.6640641961281926,0.5253563359180986,-0.011792462490000766,0.04576807848727449,-0.7708597827601785,-0.34529406681570296,0.8116088924348159,-0.9410572907591294,0.38816337497026976,-0.40461904285855277,0.8185899296298185,-0.8756139021204378,-0.7316108547821449,-0.28061046228111763,-0.01428515973620359,-0.6362560320058381,-0.8024979360356602,0.004415965145637912,0.19587751610304616,0.37221781381879016,-0.2913591682403709,0.3270872147694399,0.5207152245088111,0.8654499446440294,0.06832830217804697,-0.3331853813989686,-0.269781239040752,-0.6938972038722211,0.26976771658614584,-0.7272013160397751,-0.3945638286846568,0.90973114104657,0.807300870443427,-0.8003118814187943,-0.314565876942944,-0.5644190043699506,0.7784194183640059,0.5510544723461126,-0.1860233809735622,-0.2129266825400078,0.3357367244981564,-0.09109446955901757,-0.7481319008215854,-0.6825216305716324,0.9168035733783186,0.3714078052120391,0.9248020975143456,-0.532243222088594,0.3130624660360619,0.40037246576071706,0.12391730009025936,-0.8965579979343097,0.4388811011067515,0.31433342696595035,0.2027135697458311,0.3021317268454182,-0.4161084358858229,-0.6072254081371344,-0.12191157470855096,-0.35142914887247667,0.4877096064052229]},{"Num_inputs":65,"Weighted_input":0,"Weights":[0.04366531295590259,0.8399153787177738,0.7481795731987411,-0.6625140868422194,0.6568919922266041,0.3082922570197024,0.17443172866117762,-0.6259501442905478,-0.8561729614752854,-0.4841594376022814,0.41954126452703044,-0.6433450921449404,-0.2700666548974978,-0.4616164979951516,0.1907949517747045,0.13186463395156145,-0.434214737722603,0.05225878037034182,0.2769085289445439,-0.6157852170542057,-0.7839234114347754,0.7205272390569322,0.38282886546903394,-0.36451672616214525,0.18550903286263454,0.6438413454229539,0.5548988483415553,-0.5967929628934276,0.38585853596242137,0.6022273673215859,-0.5629896652766905,0.8277275173674561,-0.005095682163178794,0.1734992902971042,0.09358408546951247,0.3062620625318131,-0.5157397422168614,-0.12107952182103843,0.1893970887914218,-0.5211998741028602,0.9220101541958705,0.8660307746135558,-0.09141893572501447,-0.9359943800124919,-0.4487898821579499,0.7233334612051006,0.9278468568557985,0.0352627842855604,-0.9091301059189996,-0.4055318374163016,-0.45472511150279693,0.4869622804573337,-0.24428150788135872,-0.9292242750116035,-0.33261777198047304,0.9338604278356286,0.00620650500242248,0.6250135855469641,0.17301976726487545,-0.025418263269670893,0.9669484273160536,0.247216303469743,-0.5720617463163697,0.5589631704536433,-0.3350996763663838]},{"Num_inputs":65,"Weighted_input":0,"Weights":[-0.7892570013135101,0.9380241341844373,0.6011238789892583,0.561866095712056,-0.352353450364433,0.2883417368743775,0.7951762594014002,0.7613269724348242,0.9424182744059522,0.20597778652469012,0.6011156313330328,0.05426407241497255,0.6785963107989792,-0.5953618150382882,0.3373664826155125,-0.7954994241533815,-0.33996882635308934,0.312881070348205,-0.9900026211951599,0.01813401573713236,0.4641896285327469,0.37883568592714845,-0.33748303438526994,0.4844195696576312,0.22870363068979427,-0.5467155981013605,-0.3816714786288259,-0.7489967409553658,0.7692163579440614,0.6543192546483914,0.5961646980007513,-0.6587230093322289,-0.21055955204784305,-0.9331333673976221,-0.982206146328358,0.4695539922240144,0.28081062452211913,-0.0518090471376339,-0.3235943331505986,-0.3851034980700344,-0.1975938540990172,-0.7906111742401114,0.6110750864412617,-0.24918135861816215,0.5785993023337348,-0.21341158143499417,0.9857970691621631,0.45682462894453346,0.1453119399742806,-0.1569694599958268,0.837817781724191,0.9537510481458784,-0.5380781435671069,-0.2810375921635936,0.7795671822349952,-0.777484807434887,0.1007459967392601,-0.03174723493948839,0.20142991246976516,-0.26076372626636024,-0.9369742441852134,-0.7796718917893977,0.05888948019230211,0.055696525954610276,0.444739689099114]},{"Num_inputs":65,"Weighted_input":0,"Weights":[0.06250912877337989,-0.36701209122951806,-0.11834287031689794,-0.8345846640472802,-0.39819903356738584,-0.1536711217693656,-0.1531843781055593,-0.08962612580424478,0.6560661997675612,-0.5673751247066097,0.36660632423410955,0.7724594008385937,-0.24473368455997957,0.6860344768487745,0.34560224244582005,0.15824701251451012,-0.26389700421472373,0.5945917909504312,-0.9156768524448041,0.30032875665861725,0.23137069037442104,0.5175392157674934,-0.8813449907136562,-0.24335988196029357,0.3769289227882573,-0.1401089487432703,0.7212917756435053,-0.013139213102047687,-0.2693895556683249,-0.1442676342935998,-0.6040972813732683,0.22424811578819237,0.5882100806158508,0.6367126499296027,0.39580042673823135,-0.34290809640985187,0.244260433526875,0.6863333695322331,-0.6306989289587714,-0.759348562762131,-0.7963084593044564,-0.988180443734345,0.881255787195403,0.1902820267675529,0.8374904583118337,0.2488075582494289,-0.05299277305188377,0.6439339425732724,-0.9374805047842577,-0.21946752856387441,0.35875528963724235,-0.21308524919304273,0.6569902659996001,0.2745613996798677,0.5232036187805884,-0.543889515350055,0.2182157888461851,0.11211313205424767,-0.026511330724076965,-0.33748375313654644,-0.28364682309536704,-0.8431865898993169,0.6889004437317285,-0.25373312764099576,0.2519576436304327]},{"Num_inputs":65,"Weighted_input":0,"Weights":[-0.9577437175034422,0.2303073287722166,0.8826311991329365,-0.8632237799736475,-0.17615956333549954,-0.5447960348394959,0.28713779320066224,-0.24632394140000058,-0.14743680601373244,-0.4195137746898443,0.04858668032649471,0.050445880918357666,-0.432318330377942,-0.21126575436926476,0.43019061338912246,-0.9587335078155264,-0.24471500951261638,-0.18817481039097084,-0.9749470663694799,0.9318601219819114,-0.8148089879541233,0.5930164798096513,0.33187887235842806,0.19948811611916795,0.8194699036849988,0.3137442235810557,-0.8063576229138762,-0.2467279190933228,0.3763458861408542,0.27802742391883606,0.48749017723682875,-0.9159275076171842,0.9358333089926494,0.7889521330996003,0.6356086519170321,-0.984611736771569,0.048550612512127334,0.19412966340522764,-0.7683599171885628,-0.7065425663871259,0.8177576134424012,0.06796169897262705,0.39011971319955907,-0.4495395938219038,0.16154222235118776,0.5740995135811737,-0.1433045916931054,0.3982287559763962,-0.5670409337898651,-0.10998499908933757,0.9242522996554701,0.895666537994859,-0.34838187544666244,0.6791865451466668,0.46020135424924,0.7497954786039096,0.07809955799364343,0.27127452681382946,-0.0626066484550506,0.7645866018926337,0.9907202675963591,0.9998490181438322,-0.8495967166246124,0.5730891012014452,0.015952008205253332]},{"Num_inputs":65,"Weighted_input":0,"Weights":[0.786485809990068,0.48955034257820085,0.05079980715358445,0.9357260111672303,-0.06276700800373036,-0.5135421309739148,0.6870942613321698,-0.34436678327250514,-0.8046580539232073,0.18662451807616964,-0.4795316498314627,0.7868650606366574,-0.9247085267878847,0.7879272558255441,0.5580621018230376,-0.8686941376780488,0.9214116168114521,-0.5191701136213038,-0.8065351133535412,0.5246620347342097,0.8192372381656086,0.26737995557049565,0.9153089138403463,-0.7129528216232626,0.45876623040487097,-0.9047227022024201,-0.34500534186806653,-0.841566811956296,0.7740056190253504,-0.3426318064934848,-0.3725696847223692,-0.26718487225645626,-0.13646742168825743,0.14705321531075288,0.6307870307173158,-0.6251019690993422,0.5369251547411831,0.5340446403727797,-0.2450201088454953,0.12080818527953041,0.005079496666031247,0.3788386645335382,-0.5479604664157249,-0.7283648509931856,-0.22541217179782258,0.4917345047441264,0.882914030884407,-0.8609829581830469,0.3116334305417958,0.7249195033770155,0.2955788116246556,0.28843288670932177,0.6821492098841728,0.008347967009628698,-0.330660714442366,-0.4048247936137144,0.7742830764011797,0.737855262415946,-0.9860873578928454,0.8309743927862185,0.5666588933063497,0.8117616567005601,-0.017896360521418964,-0.5822454063910489,0.9100535909526188]},{"Num_inputs":65,"Weighted_input":0,"Weights":[0.7613885103130453,-0.7552403733923373,0.5045551045184662,-0.5719928756801994,-0.02585843062562665,0.42300251482680085,-0.7580755528465847,-0.13766313602263192,-0.9852427984840783,0.5853916483715425,0.3704930996922542,-0.40694600911488066,0.3148308748241946,-0.3947434943857857,-0.09266701890576556,-0.9353429856962758,-0.9740397822197046,-0.9627306259099959,0.630784277799862,-0.3537728681926846,-0.6848220900136264,0.38579011884566716,0.40090118582671663,-0.10201375634076737,-0.7740448165488751,0.27917131496339453,-0.5808070659196374,-0.48580712165955164,0.7351625232824761,0.8548718447213617,-0.8363161596138668,-0.4096062895697197,-0.9380397109458212,0.01987288815157151,0.7590087524634175,-0.9968903429637791,0.7317624455903178,-0.7206593480789578,-0.10011262517384467,0.37015846873635216,-0.500372376508369,-0.5504131834581721,0.16985479527722536,-0.21288842825771792,-0.9796106353389716,0.17149135638290502,-0.5829433723560933,0.34211340945632607,0.6416132344630838,0.5122798415858203,-0.2712474347592603,0.20582599718243055,-0.8073071966157339,0.42816813090745187,-0.6837007168538682,0.3793571004109526,-0.1250093090161889,-0.8949384941528942,-0.2110482403503663,-0.14609697375574837,-0.9501335719466812,0.41230600053422717,0.7702851290768249,-0.23216368511539742,0.18663726417490722]},{"Num_inputs":65,"Weighted_input":0,"Weights":[0.35857364688115667,-0.7813664957317936,0.5937673883634713,0.705820295050392,-0.8056442489343517,0.6406455972754119,-0.5386371354538758,-0.4604961295343877,-0.7886335955208764,-0.9299974483547844,-0.6850569714665646,-0.8460937203744183,0.9412826921461299,0.5307863958407513,-0.4096690593086687,-0.1234129412622762,0.11544594393381336,-0.3164738934644008,-0.5966700568452462,-0.3915952863062675,0.0870373635556172,-0.06501605715103576,-0.8796952218646708,0.47856445685118576,0.05964592606397123,-0.23361263857172454,-0.9946036155381487,0.6813016315651599,-0.8938003706390235,-0.10390628598513274,0.7028546289575826,-0.03312882338598799,0.029157239072501007,0.7995404039595717,0.8121342609440305,-0.8829156277682992,0.3229473308576165,-0.440993323365664,-0.29145103764264135,-0.7549913843387841,0.09948370141508867,0.04627237456442668,0.8826369514780514,-0.17530573513996317,0.4711213814511048,0.9887052957866116,0.9216074435852266,0.25419585489978536,-0.9875491215999884,-0.7437406207598776,-0.2931429798670978,0.20844238491903222,-0.4932006562537985,0.011861531227353561,0.4566529104993724,-0.11526689476607199,-0.6280018696921787,0.28265585329330545,-0.2599458280495843,0.3818144096335494,0.767557149526251,0.11113909468529082,0.16524540515706398,-0.34511687065879704,0.751615454176676]},{"Num_inputs":65,"Weighted_input":0,"Weights":[0.5876676841919326,-0.12249665153566203,-0.4954960389489824,-0.4368178742961468,0.5399798647688947,0.11275747247740986,0.06265975102260168,0.7968441129462631,-0.8468252394522686,0.5478737781479404,-0.8664728452839328,0.3572474779333499,-0.9813598223620582,-0.26182759833249736,-0.5705388614988759,0.277895809564507,0.2541619170242926,0.2363767785721671,0.8726939189401948,-0.13618435688498076,0.48115120203042494,-0.8012847994733154,0.1940514464021561,-0.5572407953475009,-0.5147454565518639,0.8858152830308115,-0.5789290624904008,-0.829533211557336,-0.6666717915149087,0.6204528750806926,0.7265802845457046,0.6593138957158966,0.6447444002778244,0.740945486919437,0.7938811404198747,-0.7685806922749974,-0.3280094942371151,0.04579490174147027,0.143415392768375,-0.12177893357196823,0.6135971873386792,0.003618755283146591,0.06900922513896002,-0.5265668609925093,0.39517244271012575,0.42617237421877396,-0.2760700784542859,-0.7167665117423851,-0.5594204071814733,-0.6113760885710557,-0.16171031729856788,0.762835534629712,-0.6819154303236602,0.5306880535609058,-0.0059197215005311055,0.5472949298628609,0.23355626073861235,0.775238275519122,0.7225201467051932,-0.08063713082025137,-0.009169974221285737,-0.2005229485049509,0.5618610223749587,0.34675675163604147,0.06322239219891967]},{"Num_inputs":65,"Weighted_input":0,"Weights":[0.14133142666751497,0.17836852742798803,-0.18404410535784976,-0.37519275538802954,-0.20749819568790306,-0.2076367467698058,-0.8117320152494558,-0.7285685205160772,0.8250111354850116,0.49538629467712236,-0.6462706950273439,0.5878918523501999,-0.33348500283239424,-0.3668842407466355,-0.5419076670237246,0.4517748329621276,0.1637504358199482,0.13310463755470514,0.25993131743034437,0.812378294637796,0.26992525693673053,0.26238599829894405,-0.32881181052468855,0.2796722095822499,0.823755095003287,-0.6703304711023651,-0.7440848961947438,-0.77689716159631,0.6258608094807045,-0.6942222906338942,-0.2419184691162818,0.4462333415106561,0.295327421697698,-0.8159443644162061,0.05140550278693756,0.03904544767549689,-0.38008996079957547,0.7392710014147423,0.5204483768167254,0.8814207609382883,-0.46650865026585553,-0.7253700067934745,-0.9713392210696504,-0.3344883276031113,0.7239574249153606,-0.5770180546965926,-0.34910788161263717,0.28344231472495096,0.2630689859624149,0.6234339570844838,-0.583919929698007,0.08789080665699944,0.4859210541094312,-0.055892637124061895,-0.42677568575760505,0.6658302051939262,0.026216410108095722,0.07289005932914128,0.8282962344340541,0.46011033133881085,-0.5128344392417978,-0.5896078996028851,0.5575652430306348,0.43385915913310025,-0.7960750954192634]},{"Num_inputs":65,"Weighted_input":0,"Weights":[0.6389826961863119,0.4542794192434376,0.6747399125435634,-0.6707861266346804,-0.8706126620479661,-0.7858769228441859,-3.408228285406434e-05,0.9963356122095575,0.7317063471759535,0.7366343844566385,-0.13322538408944706,-0.05715932262420109,-0.6199488355868086,-0.5841646539467336,0.47235961891928846,0.0626384909683273,-0.3462682145627378,0.010152472788731215,0.7798189500424648,0.3563593014076194,-0.18351234360815327,-0.4335592943643143,0.25593138754347544,0.8795490159049211,0.24149773544405728,-0.9336925676165604,-0.03456029323484433,-0.04711023838871786,-0.04249050465829496,0.37672348401424927,-0.6782649263108197,0.6594025945258815,-0.6966050886242023,-0.5057028097224799,-0.07828304682050446,0.8932910072914453,-0.37574278149456886,0.842906036877145,0.24230622181989725,0.19993458390582908,-0.8029598122557057,0.8414234968992016,-0.5164790782481414,-0.7444294485679767,0.9206315865640033,0.7875303677101848,0.07648986653692069,0.010604401635129879,0.8841946437527228,-0.4927262296441316,-0.9715556999567592,0.5301287837732327,-0.047527269531644545,0.7356650057888188,-0.6290478866783984,0.9610918989620238,0.5149966840668743,-0.3474540137853027,-0.3418260451065023,-0.2936816913951166,-0.9579399831683759,0.8061256097585907,-0.7833266287213922,-0.7902052591030087,-0.05150256061695868]},{"Num_inputs":65,"Weighted_input":0,"Weights":[0.028129629110720034,0.01200548064245921,0.002761307586915951,0.8376904591439396,-0.6236230021693077,-0.14903773897875128,0.41256055317039375,-0.08527745019039035,-0.9718900633137784,0.7504035549514458,0.9276204038408113,-0.3749419497434965,0.1255271075066815,0.10651838079002096,0.3485808663689287,0.20523878437340692,0.8773394189981816,0.9188674631924005,-0.6869073619801265,0.8359959684654792,-0.7705293672770064,0.30956599017323283,-0.691521255763603,-0.16977582423569482,-0.41757298840436197,-0.5345629926041533,-0.6146210296169136,0.5248664540143797,0.3689513299285534,-0.5368914025691536,-0.470914219631135,-0.6621516633330766,0.3242818716486362,-0.9191936171483415,0.30678701137772735,-0.8856605524435389,0.1301171336994118,0.605216005640943,0.03098741819626394,0.453690641077205,0.9869608386799054,-0.54499421949633,0.0008443303921410461,-0.12049823435884965,0.912418301535886,0.07426566037937765,0.8750181307708973,-0.01852154509191062,0.10425381671119172,-0.49625176567439844,0.7108354769152248,-0.22309628663442616,-0.11302642289624376,-0.5307997742065066,-0.944004185887277,-0.130505582406375,0.41434254302970763,-0.14700310861254895,-0.2226593695637742,-0.8891432098654113,0.9804759114232184,0.5561848354966263,-0.8522397136136918,0.06368217837791246,0.6340437865574411]},{"Num_inputs":65,"Weighted_input":0,"Weights":[0.2768623909932053,-0.41863309244753766,-0.4497041581565182,-0.4744707565763441,0.3779684970789774,-0.8565596129250032,-0.8344973857328426,0.3402911004137985,0.8131926151139224,-0.9197425203189973,0.3617292469331532,0.47172875120773816,0.7740981657713393,-0.77120490112883,-0.3485904639357089,0.31006475276442536,-0.19633402892944607,-0.3953896455314949,0.31910440664453477,-0.21309762166205748,-0.5276081126076853,0.24914652659883973,0.1025717322652715,0.14800600906347783,-0.8233875503371783,-0.7125001784557794,-0.28605236792348443,-0.47236532120094876,0.6294869736116386,-0.7604912771030877,0.717540554722718,0.24973294210369668,0.5598369913156573,0.5808360596287636,0.45595746938933424,0.6089640558492382,-0.176660885175422,-0.9720651326211719,-0.5123795680928582,0.18248095681570087,-0.5552755520238817,-0.16542215426616502,0.516590963406403,-0.9771494789450025,-0.5352733015637055,0.7823681282521033,-0.605934691376891,0.20013883147496214,0.8136468114035538,0.35192514945832,0.3110799657452479,-0.2601627002623682,-0.8890178204375191,-0.7977532325392566,0.6463948215060116,0.91326195231729,-0.6075364293787147,0.7087071936452929,0.6033193540183812,0.2973147385375663,-0.6693666815825248,0.41399760014440345,0.8837177626978909,0.22156622204458065,-0.37283801615687717]},{"Num_inputs":65,"Weighted_input":0,"Weights":[-0.5313811666679394,-0.23783305331894355,0.6646072318683165,0.6970014236823185,-0.5079112802701411,-0.4475252107421246,-0.34291148638349567,0.21513348112965902,-0.9306202504141874,0.5971113980129494,0.9844357057058628,0.19972936810339714,-0.8684346085776997,-0.367654371217785,-0.34331228456861984,0.2050346190364396,0.14830516343474542,0.09402206567398985,0.7801227122399077,0.5614167074636323,0.3265218291318879,-0.4656893854281662,0.8136505766752915,-0.025625023041791595,-0.9042755725878886,0.2557660439659739,-0.49723045183912373,0.44731864143551237,0.08995459886999235,-0.6421330154574807,0.7156586139656607,-0.338650206159373,0.4718187949480934,-0.7828276869006587,-0.14293062310699123,-0.1750848943864971,0.9615429127277835,0.01127286023148244,-0.04809313219121658,0.4084860652019615,-0.15831554715973029,0.7911175251577127,-0.9626729825219018,-0.5536835117926591,-0.4386231009538456,-0.8764244142291794,-0.873486351240908,-0.30621261314489245,0.7072316022756506,0.7649056042694815,-0.4852808618483805,0.8878191149469121,-0.15795842725114784,0.0402377149044979,0.4356109908585899,-0.9866659594910292,0.6096787269517994,-0.8147507209870428,-0.36468129351500456,-0.8882670142198492,-0.8567975562337758,-0.9951157623217273,-0.720590289407959,0.1754478425237771,-0.40799068695850227]},{"Num_inputs":65,"Weighted_input":0,"Weights":[0.9494121105745843,-0.2645193204274513,-0.4869495076071775,-0.17419763196567883,0.9236761239028379,0.6345076590274699,-0.35071414122254274,-0.37115482209608985,-0.7697336277005816,-0.7777528578332225,0.031160246911995815,-0.4282835584733823,0.4727951891407478,0.010520721117932785,-0.8554282747694897,0.7563650173967476,-0.8044910663992747,0.6921519938072362,0.20214369202776927,0.7957155902926272,-0.07545149236239124,0.28004981151728825,-0.9486871526648816,0.8446215013989422,0.6464615410436034,-0.4387158909010064,-0.9739530408834205,0.6319841333713543,-0.5151515642171152,-0.4236560478957153,0.4503135406518173,-0.9856664767400245,-0.9349954984447291,-0.24295984109403557,0.0991917031973073,0.620641233652262,0.5604438787962871,0.23325308682814572,-0.3002689719888225,0.3294079483595185,-0.8240656218446821,-0.46547972583512887,0.6496528270184576,-0.8694034123545886,-0.6748929861020363,-0.3916377929950666,0.5725980423320256,0.2838151511925324,-0.8725667979835389,0.33067181674874746,-0.7083577653510473,-0.19528585352952743,0.2530122641147352,0.12129193983683662,-0.6233519382281277,0.206224660792647,-0.855756408674583,-0.6097265205975821,0.826094016099284,0.7445761303675202,-0.49870466631897337,-0.16524976248044676,-0.776974646212873,-0.016177343982736847,0.03104799875801345]},{"Num_inputs":65,"Weighted_input":0,"Weights":[0.021890178734737864,-0.7074252328259161,-0.3714844898130204,-0.2712054503817676,0.09292493248659661,0.48103397285825356,-0.67328216132105,-0.2969323080291608,-0.53076974134202,-0.2841930028356566,0.09671596929033166,-0.19301647173820857,-0.5442882898745185,-0.990347298668728,-0.3089282328628895,-0.013414115550781536,0.7111862167820171,0.6161592422141797,0.5733961445504558,-0.3525381824318221,-0.9829804973572126,0.3299763389420538,0.4313230396138674,0.7208640393588632,-0.11698500268656165,0.004409818682007849,-0.835413449957168,-0.7069736510610296,0.32835888170292393,-0.6378807673772877,0.7304289398591328,0.8877331303627749,0.8365915819595156,-0.06761272926188944,-0.7657012457430604,-0.3222772585340852,0.18571288364660243,-0.1412389568836684,0.10796857863381937,-0.07080256098972093,0.5869721311897977,-0.5745167895759578,0.55617928650874,-0.3382444299412337,-0.6056419518819587,0.6858864612575821,0.9091121915636937,-0.0972055431421407,0.6827645701250187,0.005529431547338204,-0.7096953780678467,0.4311818672357477,-0.903881129449373,-0.07775894471903977,-0.850024311176794,0.663204750884844,-0.616930138736512,0.07395882077935223,-0.7734208359007757,-0.2590879445681108,0.7638911859702588,-0.4700582754219462,-0.4132916314901207,0.1740525944270268,0.9592862103143172]},{"Num_inputs":65,"Weighted_input":0,"Weights":[-0.4396130389140187,-0.9944652761414997,-0.19216166908117804,0.7820239840082095,0.4908152529130154,-0.022455627787380084,0.04132996658361643,0.13585076874994417,-0.6917935499643202,0.5555257017049562,0.08368755824693297,-0.4091146918495808,-0.5312969130761613,-0.5049554118120778,0.9705853787974399,-0.6018162179550188,0.7417649092812442,-0.33637218152993054,0.4503592560246552,0.09127979178828749,-0.5940014321066062,-0.6388138391319274,0.04251083743931372,-0.2526686206983809,0.8652844638444899,0.8016003536081109,0.2376317087186679,-0.5240561588540975,0.47660686232218175,0.8535142849981876,0.5874425581938871,-0.24066705794584442,-0.737333676926335,-0.39749906668100377,0.6164004901938385,0.9067101420622496,0.13948891052398849,-0.07821074173508691,0.030132023382764217,-0.8439483669068073,0.8870832686331014,-0.7522425161293631,0.8162096946387738,-0.8254411994792422,0.32980861249234517,-0.14804545556303916,-0.6155467701840347,-0.7539843762329965,-0.22508457389006764,-0.2649156168131208,0.8007565869695821,-0.755164308456411,0.2689810707680014,0.35882278171896487,-0.17421851230168284,-0.7377516433680815,-0.9577877907931414,-0.23392510245230036,0.7293469048003325,0.7779530395734988,-0.28161143169692593,-0.5053479023353247,-0.4375586289634693,-0.3103203833356133,0.6159845432563373]},{"Num_inputs":65,"Weighted_input":0,"Weights":[0.01630011224121386,0.6582630676991341,-0.6189402599431526,0.6122268500426593,-0.5652064267049313,-0.7080893413400697,0.9459981182114441,-0.4542962437893171,0.3918783883362993,0.281840106285445,-0.8212420559091087,-0.21043604222845946,-0.987717136752347,-0.7347447189180827,-0.2850881828801195,0.23520303113214802,-0.1275720801872796,-0.1803758214163047,-0.38660804681470573,-0.1359598879029985,0.1035061942503892,-0.22502399480092272,-0.6945424358583847,0.18765628723164118,0.6782021873045203,0.23849748410426974,0.6620461836186997,0.5554779103508367,0.855133209736894,0.7359419619226304,-0.4880947716952325,-0.9743704790136204,-0.32720449103381144,0.5262485350702946,0.26419831008689787,0.5188738612760537,-0.09857518094576267,0.08245177673054549,-0.007300798784417473,-0.016100534890111762,0.6515115363306336,0.9945082383472295,0.4204774625179417,0.7568122246134288,-0.8488270936187642,0.10215425293545821,-0.07567079662279186,0.8155684205347011,-0.6192515667254439,0.03847390377339388,0.40775507659742094,0.7291544628215805,-0.07317689235880476,-0.29363592828765184,0.40433848529339245,0.3163978197705746,0.7936308057453414,-0.5435330484959644,0.603705324997188,0.1603923411710375,-0.09901014777475148,0.13145695463322649,0.8794461603468193,0.30839142517464957,0.32876988441235744]},{"Num_inputs":65,"Weighted_input":0,"Weights":[0.7156563804630378,0.5516046138435093,0.17376078131431605,0.5449086814264497,-0.39725365106927213,-0.8321960604792126,0.9328384877146199,0.2633964243962672,-0.5682016708243204,0.012221064742145238,-0.6936070620357535,-0.34376761757559593,0.21705137673594477,-0.09030565678101299,-0.8062731511365084,-0.9480910515972842,0.38597543471137574,0.6722313354827052,0.8669783487708087,0.10546827245350454,0.13858186790780236,0.6372950870154439,0.9620242341186283,0.28191530359821293,-0.25751139024728276,-0.8652034526853372,-0.27866414383682325,-0.27628461144570005,0.48576795567705355,-0.9683987820975201,0.8746146986638561,0.7500977372391884,0.21870368385585737,0.8383474536128728,-0.5930067932448397,-0.3649351677373648,0.045976389571195986,0.7935817368711804,0.6778316403351725,-0.1985374907149774,0.8133349076723932,0.37902665625370036,0.7430950274353059,-0.7211663752279107,0.47883123918085735,-0.5527913067805099,0.6703788625427334,0.010352631540498924,0.792290440482524,-0.4807157602120995,0.9163078103996363,0.41889364731368506,0.40246245654460844,0.999270064585033,0.60193634631807,-0.32661230341075465,0.32731141766683813,0.2779174471253083,-0.40174604713762974,-0.9487997865676795,0.13974761300839944,-0.42035120946348514,-0.22136390803699224,-0.6523596445542392,-0.06788711317247154]},{"Num_inputs":65,"Weighted_input":0,"Weights":[0.7535266379891166,0.4117975436205805,0.008059990477285783,-0.2551706378193481,-0.8419762778800193,-0.5453049717199618,0.24610332710989646,-0.9873414251821159,0.6483035929710621,-0.7020490003300026,0.8583494476074871,0.424966061896376,-0.9942155524275892,-0.6949372675376673,-0.07288300176029139,0.2821077593548629,-0.40363263376547664,0.7713310893082619,0.5899699016008253,0.005493644273219855,-0.5402560762909062,-0.2427124443314328,-0.1446429469010131,-0.504773162702949,-0.6860509803662754,0.008999279820063766,0.19995360179890231,0.5834493427491285,-0.10759542243810127,-0.09121258313703073,0.6120182555223974,-0.8913335497454298,0.6546076402397505,0.6174544179769288,0.9174980956407628,0.12375697663185847,-0.5371403352661626,-0.30557979474055363,0.11854588641474728,0.3343665644279332,-0.9517145706877331,0.5607006950066176,0.6505930528587613,0.1430106605029895,-0.7397212296574867,-0.8469868461039566,0.17270728329003449,0.29085274751377366,0.9557548180652022,0.1851545971748736,0.13186480470253792,0.22842821394014678,0.7154598156211234,0.19227728618181228,-0.21656777474876943,-0.18592883928637594,-0.9865698553140181,0.4124151713612054,0.8249505248568858,-0.5942009010134424,0.22097865069268496,-0.11277936039980752,-0.5062528485223275,0.5946619585225357,-0.8059025141727338]},{"Num_inputs":65,"Weighted_input":0,"Weights":[0.1810735148156184,-0.024251715948102492,-0.3886109093500463,0.8596898285368872,0.5419703481158458,0.5826322563968258,-0.1873689113462711,0.5344688167215499,0.6698928438798697,0.7222903814633599,0.11482798740640798,0.7057171876027173,0.8776980543692408,-0.04757090136026987,-0.46197084815537093,-0.6394003108051189,0.5075664133683726,-0.21377667068499773,0.652792770878907,0.5179742915023282,0.7195911850685268,0.11634977366316446,-0.12969275044823403,0.8626313280556364,0.452336497293911,-0.7639096463009643,-0.750044770739377,0.21670300851443014,0.6897235759939679,0.5782601671512573,-0.7474416928078336,0.64636885217441,-0.3707903086221862,0.45173687595116907,0.8170903485387304,0.016965261666637588,-0.9809512092193194,0.9566549121699239,0.9286907831817179,0.6882269746434293,-0.07834608582173042,0.9606697170207714,-0.5313059625688137,0.22484003416433307,-0.3369245314375464,0.5935654756471438,-0.3264693171246488,0.641902221439653,0.90687814555354,0.9688748320138658,-0.21174435503457922,0.29235691180369594,-0.7440441538433199,0.9164017226976975,-0.8752046404108929,-0.14634513499494728,0.825301130852105,0.48077111336867673,0.05274655439526743,-0.3972778206489689,0.7661110186908773,-0.3797212933351163,-0.47729212316184866,-0.013840829985483194,-0.7360153989004692]},{"Num_inputs":65,"Weighted_input":0,"Weights":[-0.21489420844818563,0.5462432952088052,0.6619349300211543,-0.7564620737472216,0.7195865386312645,-0.8411768898898349,0.7620432104984325,0.8114477604829868,0.476521100509965,-0.011278407243669797,0.24211560733943815,0.021533725574788054,-0.9443669522355906,-0.5582483222358937,-0.9951864211962417,0.052425636130402076,-0.024478074946303607,0.8602597400296565,0.5863178626059198,-0.9450699415487921,0.06118518426958586,-0.506514709844137,-0.023315130377618787,0.7353194394488571,-0.9556740988554229,0.839126965288356,0.5798322221197831,-0.646022364718186,-0.7250180359512739,0.8913422898133734,0.1280304011097948,-0.44099150626120553,0.9675333038012224,-0.07475225502119809,0.8389115760595838,0.6744316484486585,-0.4198891869974466,0.13331276014399873,-0.17733138748249844,0.05470348311683315,-0.0666739507332097,-0.6994794578355695,0.4703639746402428,0.20777479030710655,-0.1722418946728641,0.05573739423458002,-0.44496595786617865,-0.5996079151178649,-0.5774503605044065,0.6492520249278335,-0.5213675508349431,-0.31341037920410353,-0.5285785836598662,-0.34397874698722863,0.46383051303936895,-0.8965028159933686,0.5001641134529391,0.14200966940519733,-0.14064573954140924,0.7348593937728027,0.5166913261469055,0.17698246503948178,-0.067607094630325,0.6003359907399288,0.14847680259223117]},{"Num_inputs":65,"Weighted_input":0,"Weights":[0.9949249947040582,0.9571997992708035,-0.5932269447208609,0.43174749234014476,0.4923490922032385,0.07137526909112069,-0.12746141466269034,0.2593800539973423,-0.9068235261474734,-0.15797163340296672,0.43560868433607447,0.7415435044020946,-0.8242286103122681,-0.8306091152985906,-0.9274910642906625,0.8117869915249332,0.29621470169526654,-0.5025615447896344,0.9061051541036038,-0.2927913636217758,0.33023535238769863,-0.09251894051827558,0.9020504280226092,-0.07915664249605514,0.9863199004366343,0.78559333353307,-0.6989154074360082,0.13487275185975367,-0.40769826116934926,0.735539955571904,-0.8126585007275546,-0.4486187838404396,0.7116496951886542,0.9567417599069876,-0.7981999587217949,0.5312021187761797,0.13928543252641346,-0.092508791024146,-0.03478852476351568,-0.2894498608506614,0.9308471021249576,0.4243405392590087,0.8857825897609899,-0.3258757119987372,-0.5655445631745506,0.4602206645634317,-0.9374956259215217,0.2715181707696097,0.028318688225202227,0.031177956296396303,-0.14208603471448533,0.14441144077782786,-0.18759986705917375,-0.7502574353862431,0.5950982720415401,-0.9555097045054176,0.33955495145091774,0.6211094842612834,0.25310058392841195,0.1448398593793121,0.8540870395693914,0.8166890815049959,0.7882941838143813,0.9254640706405914,0.6900552644659874]},{"Num_inputs":65,"Weighted_input":0,"Weights":[0.6745364740460646,-0.425528919298919,0.47624179286564705,0.600071202861554,0.6697090496928431,0.33147532652805967,0.4115743221313486,0.8923934957005091,-0.416222611262304,-0.17207326857688643,0.961796042027141,0.5410678574808605,0.03201509049803741,-0.5818466319764026,-0.2843651111894142,-0.08891782906587875,0.48614837813543654,0.8772692092397338,0.8474455463583728,-0.5727228367093421,0.3960933345454791,-0.30965212747016835,-0.7110415920510039,0.1997057809076639,0.08201837361508812,0.24763037897964346,0.17050663399708887,-0.021977925670250475,-0.02322113498810907,-0.41166517020624516,0.6269919227055882,-0.7522047150779502,-0.20901571805420027,-0.2972539146501596,-0.9873660020948819,-0.19023351425972312,-0.6862674062087961,0.7449515452561339,-0.19964328570102552,0.34081928471939804,-0.01018966114296338,-0.008171523545701831,-0.7771871827461583,0.8083202169631944,0.02148542291761868,-0.8170534057242784,0.49531777922844267,-0.33875317342725886,0.5739915775184432,-0.4655660447047867,0.18322854277974532,0.9762349459067701,0.7194312665735452,-0.35003579210456426,-0.5819947551474192,-0.3452758664972677,0.7413583652123712,-0.10720301176313185,-0.23270983608901907,0.302816680410225,-0.27857480586119265,-0.12656151902921375,0.1520798810679338,0.6453435792751714,-0.6689207819148806]},{"Num_inputs":65,"Weighted_input":0,"Weights":[-0.42452616418310296,-0.3082094288401679,0.14772461650737578,0.22823245878740672,-0.9978094392568211,-0.7626691023209982,-0.46877306193067425,-0.05831564367057429,0.12106491073907821,0.9568430688332283,-0.8062913883755769,-0.8929420147737269,0.7079497697183106,-0.3443650927187647,0.6917648576672892,-0.11736536842910639,-0.1410272796102674,0.7202840955845489,-0.5706370609358559,-0.015651611450766434,-0.31911546617520714,-0.5036131638764936,0.3416685143589082,0.11228491258824502,-0.9662975296675157,0.9069748472389574,-0.5403818719772641,-0.2965000606907666,-0.44345117141085566,0.7343516125781999,0.2671420193604688,0.16451356068945322,0.7544960225004784,0.5343088387412993,-0.7664826512632192,-0.45020452593414195,-0.10016405243529747,0.12400084356486829,-0.9523044540796382,0.5963817519785606,0.967862106392442,0.24712491549196547,-0.7742928197239545,-0.9103464891094533,0.7155229504735545,0.675554228352125,0.8838734344406296,-0.819106815088231,-0.8887426050539858,0.6680429955717135,-0.43685052551741343,-0.4475575038067028,0.3593783350523285,-0.8715785810781937,0.3431555392677563,0.14661944090334722,0.1489282442503026,-0.7702042946004577,-0.4307180520257806,0.9658343415504438,0.9832975219264672,0.6402202056726822,0.4531387030953842,-0.45829944024380165,0.5973858005979669]},{"Num_inputs":65,"Weighted_input":0,"Weights":[0.08426175775969758,0.5292056132295371,-0.3930311076959361,-0.7951468504487932,-0.25825952912489447,0.4438854256003142,0.24477698027774286,-0.34953522220531563,0.9559219730386099,0.20470620015270558,0.20090499083996316,0.8415846791298889,-0.48438219788491754,0.3104828584709245,0.8221577274815153,-0.49403807485048423,-0.9682615817260112,-0.9985907584599736,-0.892363528898406,0.9748772596878756,0.5059875276143297,-0.018853348679023885,-0.08353202597424259,-0.9598479218206234,-0.863895823590628,-0.5953995934350993,-0.3835889271652986,-0.5322668870521481,-0.27219289660574697,0.8988785990303301,0.8353918730979424,-0.8777626044908452,0.5056376333137438,0.884207109047779,-0.2632516114065917,0.26727901327996006,-0.06455528144693523,0.4124848327158148,-0.33560917815507796,0.9643633948173493,-0.5303557123213508,-0.48995540806523263,0.21830482612503532,0.14907489862663414,-0.8485605688780361,0.4146348107188653,-0.32561198567008576,0.667615640626328,0.14349579062828766,-0.2219554917014227,-0.5084810576217884,-0.2729817906464699,0.2605852356873526,-0.6810837069743267,0.64927842205868,0.5481448997846021,-0.6578151587703536,0.9252668445216552,0.4753912524609518,0.7323452744512269,0.09553166493468757,-0.6800624727166604,0.5548034451470201,-0.40536245026173745,0.5567198235210733]},{"Num_inputs":65,"Weighted_input":0,"Weights":[-0.10267779086127082,-0.9109881755035614,-0.2549835163283456,0.07725762419278004,0.33619061385141835,-0.1053838894801008,0.4282452544932751,0.8807745415843231,0.7824652497747724,0.14307665066321196,-0.8652509643333478,0.04606023242288626,0.6632692733424397,-0.16566752779511174,-0.5284142294702656,-0.4147228635668788,0.5667518487821301,-0.9372806800772755,0.2069198791364335,0.29240000148090317,0.7645281039456155,-0.5935071559887275,-0.3595345061148538,0.2673598550434544,-0.36212558694872965,-0.9883285106170582,0.760785568548392,-0.3274192386673802,-0.12511180622559348,0.17584045399019588,-0.8717230382639278,0.4091300045454991,0.7442971492937791,-0.6096542578501742,0.15211736641808682,-0.6741315779017825,0.6531191483430683,0.5818587033181759,-0.34738603984828986,0.7414367661726562,0.10015541329891642,-0.3317925955844132,0.6448945250431419,-0.8232932884916672,0.710138654665585,0.2587967914289495,0.7512408329243885,-0.15683467519659955,-0.844281077112101,-0.6196002488992469,0.2782830761543176,-0.03935181824328049,-0.9197863391774186,0.020807222992900387,0.7180490596068538,0.7091809499118773,-0.25950556492773524,-0.7114750091335171,-0.5662571053630066,0.016819966104203443,-0.2749280656844637,-0.6110430017632605,0.2027224076382208,0.40284318282219944,-0.2127586667238479]},{"Num_inputs":65,"Weighted_input":0,"Weights":[-0.143393222995569,0.7827881781697161,0.6311134176755528,0.751414821888557,-0.6313741543093184,0.6156109924850643,0.7407690413219687,0.9105980043854061,0.48597287875521955,0.7887635551540564,0.2807672846488902,-0.4501310023323728,-0.2722625518169767,0.5178198195449626,-0.3539184684218174,0.5997060255157427,-0.056842945309310555,0.36111128693648076,0.08071607146033388,0.3507074967557966,-0.34704776722784836,0.9998546699708091,0.9178210242877842,-0.291285944538742,0.40253589039381743,-0.4205759470870287,0.3080847232009778,0.3933676348624964,0.08978589012112304,-0.05361477758152711,-0.0058776278439829355,-0.07257932438601078,-0.7392819381830954,-0.822460033620357,-0.9398113341888022,0.6652475277823209,-0.7006935825863527,-0.10287487375305626,-0.931089406081606,0.026981446931411357,0.5682169465936622,0.4005291015306991,0.12865973105603978,-0.21739434463732066,-0.09366001940574864,0.3947526151180907,0.13574883217061773,-0.3734730529066247,-0.22846016542575498,0.29112660115241695,0.17457367861593442,-0.0548306489125957,-0.9943234237940602,-0.9707075301784662,-0.04170702109571878,0.8446809227942835,-0.2050767250690263,-0.23696592366490066,-0.6954405755118351,-0.3752884257012653,-0.8303520282911961,0.8945537780006072,-0.758681589045556,0.23730279824206812,-0.4604097591668199]},{"Num_inputs":65,"Weighted_input":0,"Weights":[0.021945404669816426,0.8314432300499657,-0.9838690283742311,-0.5342330710860669,-0.11617863730975153,0.411836435019574,-0.6776069141420267,-0.017127515585406927,0.8877746954131627,0.7308462209067941,0.43286263592465524,0.3107365014624086,0.009790717650465908,-0.38949937316158667,0.1485789780538873,0.049734690129257686,0.489379768977362,-0.5780783439144215,0.568951887146018,-0.6198030659045928,0.9213975385273758,-0.20921138475379142,-0.8554017511996154,-0.30370246750210983,0.4216825465997087,-0.4270813259608386,-0.2685019670429465,-0.5711125808675961,-0.6492576999901318,-0.7386518155751869,-0.8360880262318124,0.8328155635480825,0.6155556381246408,0.11911195297853894,0.7777552058027537,-0.12070174539786849,0.9121810707629827,0.6578005842141676,-0.6617236632713404,-0.02000072029385558,0.23624086877598094,-0.2630031022891217,0.6399019808164959,0.1187798220244165,-0.0620627254266517,-0.08328746724636438,0.3868311439125547,-0.13277379216470897,0.4432402921550478,0.5525740391457181,0.5702378322214725,-0.3306567304593089,0.00636462051910347,0.13318071985151447,-0.030126698369507765,-0.06806125484521908,0.23005517936350595,0.12340256445244435,-0.6399258579981986,-0.3930159502980569,-0.9785090959262082,-0.03730802595214122,-0.8041700458653528,0.9257811411499799,-0.14071502975025185]},{"Num_inputs":65,"Weighted_input":0,"Weights":[-0.9652641147528843,-0.3634222469521253,0.6326080940478784,-0.3477557940972198,0.11573691284415943,0.2835022295090106,-0.15386329633070217,0.8493483038930689,0.9633747155574826,0.802359727624929,0.24861278303685386,-0.5348441584825502,0.8838396277126237,0.424628682921673,-0.5576848254098423,0.9324464352971724,0.34059686574459036,0.38752118787370526,-0.07811570524013023,0.6519555839147453,0.15018619890860418,0.9983612587195985,-0.3797420127100295,-0.9437987133096694,0.6342328633612173,0.228991772691173,0.6850179660617879,-0.1554617406027804,0.5193277184264691,0.14799570785551275,0.49587270710164955,0.43098356494519896,-0.37894920423817346,0.9510673582212155,0.3815947738155432,0.2871848147771663,-0.006065239442502035,0.8178488387560479,-0.8199723416331332,-0.5074762800393636,-0.30425153905863667,0.15842064366521647,0.16660997529235866,0.5111402778372145,-0.9309132103237219,-0.6161701602749292,-0.7222033934185059,0.4083951589608765,0.6516355496758186,-0.5464614139397119,-0.2920795248327468,0.3522031747401353,-0.9597374992816401,-0.7970914916222434,-0.932716637736144,-0.08593481283961579,-0.7156838095527965,-0.4836762598826071,0.7097193597133007,-0.880110483209626,0.4829215169726264,0.7618999063657612,-0.9141374096082062,-0.7552932133047835,-0.5504057793073606]},{"Num_inputs":65,"Weighted_input":0,"Weights":[0.37698564412280744,-0.7873210417762142,-0.6244465811355926,0.982499902577449,-0.684297647719859,0.21052377268997424,-0.4976514988176486,-0.2735689136038577,-0.12386798674514121,0.22691184697703326,0.3643635605556024,0.16501623314158098,-0.048716479830414716,0.47299947833037725,0.18914142566875092,-0.502205993962274,0.23090407680427893,-0.21966484707329448,0.36626328495015015,-0.2908737365379589,0.5050264002377851,0.06156099062465281,-0.5267867715963794,-0.9776687088042102,-0.7272255503040777,-0.36344177740213457,-0.4756203503136346,0.45898820801671847,0.7813185116485619,-0.1747683455311395,0.6483258692224536,0.28130182274985294,-0.7741278472936197,-0.26924719500410954,0.8290765226464829,-0.12931029609640698,-0.8476513352614223,0.6774055422453382,-0.9388981181497328,-0.3039390667595063,-0.5282881642243917,0.22920195219779105,-0.0992566568296328,0.5847198403603993,0.3505579336337039,-0.8468551905040216,-0.8566495354874997,-0.36279815925394154,0.16532615018632613,0.7727138522950945,0.5238648783011612,-0.4376304851635131,0.32513149008529796,-0.9507995207830603,0.48785132792551456,-0.62880591088743,-0.9596438750724013,0.12326392020204668,0.21104649915045504,0.038200236604379434,-0.19021944470826102,-0.9747201637776113,-0.9580165427405245,-0.25917439211633875,-0.8226849601602164]},{"Num_inputs":65,"Weighted_input":0,"Weights":[0.8844853686529242,-0.054857721757571976,-0.8537277117233697,0.6079127827777797,0.5678250333598396,-0.1353107678715958,-0.11750106986337083,0.0403744470857057,0.0949425853050021,0.6314327593371383,-0.5465479499162211,0.8138899280146634,-0.594721916591219,-0.670907253762172,0.8486964143094973,-0.8025213750843522,0.11494281238800852,-0.25880778469636423,0.28769326613962765,-0.12858736586774566,-0.19976616648948975,-0.7329327277028096,-0.00020348472619191593,-0.9246148931597591,0.6436698930697697,-0.5081210388571498,0.9133249264440808,-0.1206008677485273,-0.48797818778103697,0.6413860023416667,-0.3782516356985639,0.013958884176993314,-0.7717342955057165,-0.28968378197587563,0.6752777685462423,-0.18875288968583404,-0.3029292932589537,0.7085766114471093,0.47992257600480426,-0.4810630892208766,-0.43198092076621686,-0.028830815731610504,0.4561525666722581,0.18317602096114793,-0.6518293678083849,0.8377975735540508,-0.4677285259165247,-0.8029485411079262,-0.3610615290273771,-0.7133342937332321,0.9167320060519704,-0.1344248496494551,-0.33925062274035545,0.36842416848940207,-0.1769569321130715,-0.7052643703458388,0.5944705484697641,0.7525829905531669,0.159157574735737,-0.9817913083703256,0.9516352100122338,0.7136906883167393,0.5116570377875356,0.9548889687122215,0.9345441765638309]},{"Num_inputs":65,"Weighted_input":0,"Weights":[-0.32019913579279746,-0.5362520933530168,-0.581486356532287,0.9071852968727618,-0.9335585542994166,0.7913527645603018,0.33573738078456117,0.48262553958424936,0.31405941248663183,-0.29304608905856655,-0.5089390244317993,-0.1675989297163919,-0.41591946367223753,-0.03356892802450495,-0.9328124154609284,0.2918733750654847,-0.6235517711690715,0.9949023036184874,-0.7843542240127829,0.4349756119590087,-0.7676543539123879,0.9764486992684056,-0.29937222167359634,0.07442739749782157,-0.8686223174201357,0.2876319376371834,0.6101163013744584,0.1411763575351206,0.7404911575760553,0.40264733342183456,0.14015078679982973,0.6278577746456335,-0.24963787452625052,-0.216428726612663,0.8063374519587323,-0.07402680533671158,-0.9439817657179562,-0.6380782665278018,-0.9737084651965069,-0.6810004501721287,-0.5538259907084337,-0.6429624948185206,-0.23048367675538617,-0.038143702030218885,-0.18739824168444896,-0.5306645461145616,0.7493931311981701,-0.9960437213268399,-0.13099948791323568,-0.10905065779155487,0.8091325547986812,-0.5761139937860476,-0.4495713488447639,-0.8144098164464032,0.4123772242009176,0.9012920949812089,-0.6134758310786105,-0.4945874565945573,-0.3805756257707531,0.6217487351680018,-0.762812210702263,0.6094599632340318,-0.1542206979710986,-0.18185264589754535,-0.48192743362890833]},{"Num_inputs":65,"Weighted_input":0,"Weights":[-0.15246821694378676,-0.1225689529946663,-0.9696454453782871,-0.8417598019562105,-0.28477073956246435,0.6180215888921416,0.1706849527843275,-0.3781982573799284,-0.6770295191396545,-0.05380855409309937,0.783612238601207,0.04250432548891547,0.3407167464510208,0.5760213380918437,-0.998732516317737,0.3699444178762814,-0.5990778341987535,0.09358888472484472,0.20500592952567653,-0.00903024931124552,-0.3439894890213676,0.684974399181272,-0.5730938366158175,0.7811283382766745,-0.24069103615074294,0.8596825344554155,-0.11046255691803986,-0.5975866822575335,0.5075589553371886,-0.15162699446070904,-0.7638247848227177,-0.45184994967357395,0.40886334313775485,-0.7667878817743585,-0.11984870304710082,0.602327056116662,0.7865376939084174,-0.8283273270120812,0.5925946281057488,0.0821778100223407,-0.8977360162611937,0.01547647451068257,0.31589641920322187,0.356299626380312,0.9129073217653834,0.6327656987374808,0.1507665756416512,-0.6717928764776178,-0.20800869673391742,-0.31447526574654516,-0.300196169871902,0.7933786783716359,0.31332198308087,-0.5862591238002561,-0.1345014124143552,0.8359199989106552,-0.15514966375467665,0.5813084313684351,0.9453163521793715,0.18715971300085732,0.4805015679678786,0.11530716468034163,0.66813409394581,-0.42264592756915875,0.49564945421329076]},{"Num_inputs":65,"Weighted_input":0,"Weights":[-0.4231113305856111,-0.2582867173581498,-0.12978113372798605,-0.31466965221632004,0.6055435258669617,0.36334537290699154,0.2324697341013202,-0.4933926980691906,0.4863628352647418,-0.1959719236390881,0.1812759528849941,0.4445442997450151,-0.20271037747986898,-0.9086678009780312,0.3640634752727858,0.6081879760724904,-0.4659442471521682,-0.3146259094288355,-0.5048782157914602,-0.1112409607783782,-0.0670339121522896,0.39298103734077894,-0.5176936891081569,-0.4637193623304112,-0.37268226067424415,0.9649337823857354,-0.5086840011717624,0.3765315755206784,0.5543505788786891,0.9680116414231914,0.8107374500762283,-0.8248619544944813,-0.9488847518528315,-0.8199375485695847,0.07050652769457622,0.313489184223396,0.3307741324314908,-0.20450301718134556,0.28382900833667524,0.9963935224370037,-0.8184850900594198,0.790366379963642,0.6690499566496264,-0.23032697216757747,-0.8508263314012239,0.3275129072034355,-0.7253980854324251,0.8939730435107012,0.2616323152355924,-0.690685162987205,0.8843975484847939,0.12709139394458147,-0.322925329089105,0.4793874472935571,0.029459337132808683,-0.8691475155767563,-0.5415999595482304,-0.40616088689463603,-0.47928491356299274,-0.9916049694845164,-0.5901896299471315,-0.22897706942082952,-0.5311561791078012,0.9588238201771695,0.20152387363390223]},{"Num_inputs":65,"Weighted_input":0,"Weights":[-0.0629931299170724,-0.7835917115028422,-0.9997559816940075,-0.2795276010178632,-0.5148348745608812,-0.29317271104178555,-0.0772064969459092,0.5662473833711124,0.7767196885472591,-0.90394920129972,-0.4189001600386596,-0.12981170470701242,-0.6689079610864326,0.48016861511473286,-0.6096548037299336,-0.3783049551933515,0.3781577134178178,-0.23122335919068737,-0.13897196350876628,-0.5972687700450061,0.4976353337914816,0.2611798886886927,0.6021385742886276,-0.9506499788920897,-0.3483591748545365,-0.41463970115724647,0.661342564040468,0.16033959502358752,0.407028736286708,-0.9294456018729986,0.036804264618249594,0.6181877147839978,-0.6450256160362897,0.5757378182488997,-0.008447288033560318,0.6693312701731102,-0.4797696960498281,0.39922243787152567,-0.6245784184674612,-0.8092257577632396,-0.4759617113878678,0.652127040313107,-0.4569515881962741,-0.7160608933625534,0.5209596784587991,-0.7939404800857854,-0.4888804364844792,0.04465983057575462,0.33287001438750474,0.10489419516579179,-0.003287768708082117,0.18859743513733385,0.9521461905244342,-0.09459957830112009,0.6581556947739662,0.10088598649496561,-0.8773177870158342,-0.06661474329998684,-0.6870579749683885,-0.7403408829655199,-0.8175734777230872,0.5822544989061771,0.04780293519094614,-0.3124673392236855,-0.006490501166734108]},{"Num_inputs":65,"Weighted_input":0,"Weights":[-0.9604919057789283,0.37454338954802924,0.8558194223933653,-0.6658596855503669,-0.9604122627595649,-0.7560803054156544,-0.19482558687371765,0.6243201406380687,-0.5183552251144636,0.6957978474905799,-0.4523061769642829,-0.579383765095997,-0.7319312943768773,-0.9006945903763629,-0.9428581726486921,0.3940222592358733,-0.37617482497205756,-0.02858474359751295,0.7556331277147783,0.3876423129831925,0.6425111821770291,0.2203248927145105,-0.413402923999608,0.8671242751365809,0.41805008683239997,-0.5189023462623759,0.953444627657936,0.7842795570069134,-0.3763774151843321,0.5599324569423252,-0.1423709737813873,-0.4864818549275356,-0.9904179112061225,0.9483382672424077,0.6028364389042749,0.7248220093300974,-0.8765847844447345,-0.4167527936361659,-0.7677924716068218,0.5379448384698118,0.5758850839336191,-0.2803131364770066,0.33945652158635853,0.761962570641475,-0.30089201610667227,-0.5736255183734724,-0.8885102342733077,0.20903827104991057,0.5245695658439058,-0.9334160827170653,-0.3243581208526197,0.06710294161151364,0.701156831001237,-0.7105912735169311,-0.9704142661331844,0.5606103797842339,-0.06119851202800919,-0.7623302107227412,