{"Num_inputs":28,"Num_hiddens":56,"Num_outputs":9,"Layer_hidden":[{"Num_inputs":28,"Weighted_input":0,"Weights":[-0.24917272055197104,0.582219166896977,-0.3587959805858645,0.49024026947366117,0.26202598701578417,-0.38463754978336917,0.7003147012713666,-0.8635446687650494,0.06383214919706837,-0.7259842023893266,0.11545251392428635,0.4188869667283168,-0.5167465801310986,-0.7407102423138812,0.09074409915987891,-0.008349979186355938,-0.22879449749600989,0.9118634710344382,-0.20777931306939534,0.052086221249610265,0.5830034403440922,0.5550049300209605,0.4283071996919947,0.8717369709614888,-0.5947430426544844,0.2338592605699037,-0.3109112786899182,0.8363298272334567]},{"Num_inputs":28,"Weighted_input":0,"Weights":[0.7967615095855172,-0.21161460458367587,-0.3893687944720601,-0.9410608953167212,0.4691807011585878,-0.8544451665555861,-0.6715108978062193,-0.6051868006610315,0.6970459080528031,0.3503847253903638,-0.017604378159621792,-0.6053039983554864,-0.7894671816397607,0.058631802244135445,0.9132469961073808,0.3366281672257465,-0.8410039621076086,0.9695978164973174,-0.8320002565734264,-0.9020023706145679,-0.6774398407130566,-0.4535536238372503,0.5423588301188029,-0.09375189691078456,0.04243280762219448,0.6116436233064027,0.3211991012108355,-0.445932210232761]},{"Num_inputs":28,"Weighted_input":0,"Weights":[0.1196878150361842,-0.7522940035056624,-0.638676917287313,0.694978000612515,-0.30740134307478095,0.45980656292353705,0.2836991896267935,-0.4956682236570833,-0.5134100932917215,-0.10884092221201958,0.7074170758137799,0.18500256816024918,0.30893453897356626,-0.8910372366853707,0.0049477402546371785,-0.04214717981185434,0.8175259844645899,-0.4458214689389658,0.7275401289730268,0.30284017705662936,-0.881545882377019,0.6986574927639717,0.9946734786721643,-0.7625809275890605,0.9488505421543145,0.6726022584875442,0.233764970852413,0.8250097110747665]},{"Num_inputs":28,"Weighted_input":0,"Weights":[0.1881562136410253,0.23040331241884426,-0.15558722742008813,-0.49830807723659387,0.5821604896682293,-0.2707704973116455,0.5101129436188268,0.284111966478519,-0.9681841527233153,-0.5028791139802747,0.3257630061097605,0.46597880337898645,0.09295895165955703,-0.44544442353016733,0.44543398215652164,-0.5646414188585593,-0.358342829753861,-0.07920369410164074,0.47222846408279096,-0.3222369623191017,-0.8595596708851878,0.4780495429278633,-0.7514118012704976,0.3966446400536139,0.44964034238370143,-0.3600659819023856,0.881505538439554,-0.052860939334140156]},{"Num_inputs":28,"Weighted_input":0,"Weights":[-0.2762333961948916,0.09271830945599335,0.11704498232307836,-0.31898288126342467,0.5098995956543317,-0.7868944276307419,-0.8196515582253737,-0.09618040278210693,0.7635060331702657,-0.27210763284338324,0.2588291914634391,0.712845255844341,-0.5487427273954244,-0.17308856255096894,0.3980830581418109,-0.28444449791146786,-0.41206890964140297,-0.972723840153987,0.5427549940271141,-0.49753224523164663,-0.9237739594916928,0.8508944128804414,-0.9150170084349661,0.9075354421755282,-0.01688736890116216,-0.34109080177326523,0.7861030118487302,0.20288671125938107]},{"Num_inputs":28,"Weighted_input":0,"Weights":[0.430980116422347,0.8662730261344949,0.5988870293605664,0.6034618614574576,0.612783694431297,0.9139577958843357,-0.27098308506323765,0.827051509634523,-0.3680128561622198,0.4286805956282931,-0.16057458112672762,-0.9757479823963094,-0.6445778052918154,0.38513740629109927,-0.34086775232560285,-0.3510656474120122,0.7635591727581925,-0.21956296352263072,-0.05058457414525075,0.20517793161324582,-0.24642152316362087,0.6485318436442045,0.8355289868530991,-0.49174840803097,0.12669899466142187,-0.9381368869274325,0.13331788714389203,-0.187548695247174]},{"Num_inputs":28,"Weighted_input":0,"Weights":[0.40828453238432916,-0.026370526915659,-0.6399857375794653,-0.7961558247356721,0.6258215855976665,-0.07835365121661964,-0.22417940395951208,0.279370338355559,0.5716816027389204,0.9372833759218313,0.4997738558575122,-0.12581527333070863,-0.005270936042336305,-0.359422573168909,-0.6350052138984189,-0.7362756613521592,0.6256366257034238,0.8455341273351189,-0.30190706790606514,0.019951496613816788,0.07925870806567104,0.26909450226893394,-0.25596196370403645,0.6933239579762358,-0.8252305439845333,-0.24461801460949872,-0.6163044880792271,-0.433098921271424]},{"Num_inputs":28,"Weighted_input":0,"Weights":[-0.871832730627972,0.42131603955754526,-0.30638811170820246,0.6825625271347386,0.8634626092492514,-0.26199135110262384,0.5476889535167864,-0.6487967991699078,-0.6577102745543018,0.6593930650478799,-0.9281297132139816,-0.9718310078595159,-0.46810177144905696,-0.8626437533229586,0.4886669185086454,-0.47996923091580335,0.030581823206866865,0.19000179001952944,0.7319324210816454,0.2606619817820761,0.1687652443877352,0.8212458272765468,0.2913980175762363,0.7155380883629703,-0.03114184259526942,0.20297341297802118,-0.6210603877709099,-0.5063073219778701]},{"Num_inputs":28,"Weighted_input":0,"Weights":[0.4961405515325208,-0.02364646635776002,0.3721230736844059,-0.23068440982749472,0.5803694957602503,0.1614614644716117,-0.2771502122564389,0.427255636911577,-0.9237037044005045,-0.04323066339951209,0.5421608531771871,-0.9082935548953169,-0.4941139455823763,-0.39875322032294347,-0.8316870426229843,-0.63326666770061,0.2941959134436749,0.09483374999096772,-0.06434616535374516,0.828302139752128,0.6901855566167048,0.5295648850341002,0.5265775656548055,-0.8486822190580189,0.462995591498802,0.5447079070758294,-0.05506140016564298,0.3741647975027069]},{"Num_inputs":28,"Weighted_input":0,"Weights":[0.2624395519690288,0.5502488704083515,-0.2985294781072232,-0.47003118035480007,0.9467426225522031,0.9729782733149097,0.6190027908810332,0.6642595499975528,-0.9888635993903286,0.16769784055731285,-0.29584395480452597,-0.43738454338576294,0.5903513581048119,-0.8198677953925202,-0.0963481197076883,0.9240284822846079,-0.28786690589660924,-0.3330354691855777,-0.5334729383915018,-0.36468311034498835,-0.839903799654424,0.5319634806834153,0.09927249678386807,0.35465024893534314,0.7873089049635356,-0.03330424634511708,0.8069503916784151,0.14629641006402982]},{"Num_inputs":28,"Weighted_input":0,"Weights":[-0.15198627528156505,-0.809645829613339,0.34125556581637007,-0.6999308405720752,-0.7358869671086875,-0.7976320343397761,0.3434819690763562,0.9639973447641659,0.5641455315374349,-0.00895034132730177,-0.04821915175585201,0.3360399190302146,0.7292966468803899,-0.9266455746658758,-0.9372126490812822,0.4871780548153364,-0.8864949993017116,0.0227601041445471,-0.5657456456929904,-0.49202219638492106,0.10927873363489571,0.07695522053896786,-0.5100768537725527,-0.9834157648785943,-0.21563683946530288,0.8483902255438556,0.7662773983685955,-0.773725298600567]},{"Num_inputs":28,"Weighted_input":0,"Weights":[-0.7667465509546891,0.8760848146583693,-0.4306243297705815,-0.06709742721748702,-0.9942203337160818,-0.9601733902014283,0.8682741516847459,0.13548650756911673,-0.4924489278822759,-0.32912791308363165,0.24765669556348735,0.17301351621570604,-0.9434907438520802,0.42259889185273125,0.20330552475479102,0.5066844404577644,0.17518462099355903,0.3672288777604389,0.32716469935476056,-0.40815548713031213,0.09359179162668485,-0.3744651057145606,0.5172947684588283,0.5283066401994934,-0.00897894817856959,0.9595998059967916,-0.8457471750110435,-0.4735091253502416]},{"Num_inputs":28,"Weighted_input":0,"Weights":[0.09917457305787081,0.9625565357036168,0.22100516527001046,0.46511611240940876,0.15746367972232944,0.5753880480266647,0.5401972376695683,-0.3466894625570852,-0.8513160650308254,0.7169790624292716,0.16236924322776103,-0.886568245692084,0.029362894452245047,-0.5531803493563578,0.24370859093129638,0.16288416613107315,-0.03849033090390419,-0.6354604074235962,-0.5287107095472816,-0.8996004092599033,-0.14735494134463312,0.9109111473260172,-0.813779430111884,-0.6509011285315986,-0.2526145486740665,-0.9709263387096716,-0.9319345606597264,-0.192970178889172]},{"Num_inputs":28,"Weighted_input":0,"Weights":[0.6248493171369682,0.5213721097302029,0.07309344095202053,0.60627726200621,0.9422125845176157,0.7791265106224696,-0.033621708973974984,-0.628472933473829,-0.4914160249467665,-0.7073239432247174,-0.28490613124927444,-0.5235099536322134,0.244280840440942,0.43388350468128367,-0.6568040425700228,0.9908220368370211,-0.731648568766091,0.6257398982281899,0.6877323795160228,-0.44299898812873884,0.7582110966850315,0.35192962352997603,0.10191907654984611,0.02691237681127534,-0.7187842074397892,0.5990942873230627,0.9493402071560482,-0.1897755193348436]},{"Num_inputs":28,"Weighted_input":0,"Weights":[0.049756069113471524,-0.9564103241551518,0.1787794060818435,0.03221393245172366,-0.2558991458685943,0.3611470390905698,-0.15636448682082005,0.4071935055458977,0.7933945832492881,0.7101232192411921,0.735784199689306,-0.35652399041744354,-0.5374864713985428,-0.4270410948137767,0.875311982227865,-0.9869899734539733,0.31808782058532503,0.95733207436532,0.14309535091976322,-0.9926435895908474,0.011137566418106593,0.7332592875999944,-0.1288767817478883,0.8923171319549916,0.8778897675750363,0.7666133589135846,-0.987756600043375,0.9141076508944679]},{"Num_inputs":28,"Weighted_input":0,"Weights":[-0.9116930890667365,0.20117367691183263,0.1836062519694961,0.04787580391619084,0.9278337600305877,0.47153929076969314,0.5100164256998176,-0.35213243440997954,0.7654008289854264,0.6802163783123727,-0.5663773045541027,0.1265745089272603,0.8841947949946287,0.03376043733418621,-0.598729563922673,0.966605271156231,0.48909933515474235,-0.7539332837976398,-0.20009032355571266,0.05059693229146078,0.16783420700875706,0.9799361377749518,-0.5578250755168779,-0.5853465235029287,0.08060535427135429,0.9325440887356802,0.2884593879815085,-0.6340621160522536]},{"Num_inputs":28,"Weighted_input":0,"Weights":[0.4189150640066086,0.42052293721803635,0.826757603801126,0.4849847964717915,0.22552004304470596,-0.255879827710915,0.9117584250764945,0.39021848214412214,-0.5457034445079071,0.33835997496011716,0.9123894502115366,-0.1752567928373746,0.668946381517509,0.9278311301927145,-0.04617060391886407,-0.10884614270142401,-0.5576502734173215,-0.9803684542880173,0.23816173466683765,-0.7058222895244322,0.5193554086500651,0.481631841196263,0.38781448953629627,0.8945729094536152,-0.4502896206371291,-0.8360294624467719,0.6022909692586078,0.42533543831957377]},{"Num_inputs":28,"Weighted_input":0,"Weights":[0.6394927890823108,0.2799819344369594,0.05012916718689331,-0.09821161622525676,-0.5328973024023108,0.9806094689284053,-0.5156949901008088,-0.6940315051897696,0.909784895293051,-0.40298341895831147,-0.596876495297074,-0.8965803193461308,-0.3934482052461473,0.9102620954962939,0.4352859173924073,0.6462268708265113,0.8551069500682149,0.8672391925549592,-0.5331243914701815,-0.741896894814881,0.45628547300260625,-0.6044982022525995,-0.37577020080997303,-0.07490796827392798,-0.09246116711379482,0.086510032530281,-0.01747949040819241,0.7495445666594871]},{"Num_inputs":28,"Weighted_input":0,"Weights":[0.7320433659916192,0.2089133179983771,0.42426191410147696,0.575985819431398,-0.6803200813069695,0.6161618281156311,0.8611569689767882,0.626457627438078,0.6490914903020755,-0.21184151088751169,-0.04932567234329155,-0.38384702837347406,0.30219235647326204,0.7502536150625783,0.9443298303248027,-0.7317441367004415,-0.6592832816546578,-0.5716314549028978,-0.8235013507443616,-0.8767987430086668,-0.3734499327318189,0.900873104463592,-0.2870352571750613,0.5439938862868003,0.30791680990133097,-0.24021907423119648,0.27796812466149734,0.5499484911902468]},{"Num_inputs":28,"Weighted_input":0,"Weights":[0.41968500401730413,0.6016889533144725,-0.24392887961165133,0.5785792486708143,0.1093385001827718,0.8664953929362642,0.497126654788445,-0.0005202780418479547,0.6301006067199011,0.5366074283891484,0.35454052401744485,0.05865340376099226,-0.5537649565057579,0.7688884782170744,-0.6275726014679051,0.6002486795927937,-0.24025683121157426,-0.80718011139758,-0.8385557944474842,-0.3029739990474545,-0.2870259850674546,-0.3331589603927382,0.0627533466609187,0.8424163268110101,0.7768891733962431,-0.6947121706493143,0.8714924659671566,-0.08603349858781073]},{"Num_inputs":28,"Weighted_input":0,"Weights":[0.9572124761337393,0.08036222378277103,0.22365458670625427,-0.5103207463799957,0.6455467714682872,0.5511513624344784,0.33321566834943606,-0.6623312961211169,-0.46782446656550414,-0.6773229308821584,0.49079709531020566,-0.19104746579256138,-0.7882435045523604,-0.29819234114867355,-0.25672330325874015,0.4207477194944791,0.4123911534581297,-0.7234986023226558,0.5519799754227264,-0.5567518443550419,-0.5805000717421329,0.9830125236053815,-0.6343348763888872,0.34789747478228406,-0.3940233228865123,0.5881473508890103,-0.15185036452125544,-0.4229524544562906]},{"Num_inputs":28,"Weighted_input":0,"Weights":[0.6596291637966412,-0.3536801884201367,0.2046647316696406,0.1431352551705649,0.9405763554148787,-0.44808913720153776,-0.1964774517517558,0.7462989119179049,-0.31497204004432,-0.8674650906289476,-0.08666432590862172,-0.26534576530911613,-0.575346356357342,-0.7012710542765399,0.20595503584665242,0.10805027408524692,0.5477006676451595,0.03252520966023065,0.6982450970833327,-0.2102840406172366,0.45832819911387124,-0.4580946292386239,-0.18518608015477223,-0.6948088027795858,-0.13957265027247667,-0.48358479988224,-0.9899993442750399,0.5854292291817449]},{"Num_inputs":28,"Weighted_input":0,"Weights":[0.24482287490187815,-0.35682743772837877,0.38967826023775354,0.011417388120168459,0.8326690956404941,0.4726791957508387,-0.06897654229337424,-0.5745411747106757,0.5507681700242433,-0.4374810931931944,0.27112842251232605,-0.8061269804835204,-0.10694314520640924,0.2939615508220923,-0.6888066950831917,0.904283989922176,-0.002569311814139774,0.9784474635418545,0.837705150079376,0.6659748373641985,-0.4164909389959499,-0.7565188481607881,0.7810315365554867,-0.6385980687164676,-0.39314226069031755,-0.18807430077582965,-0.5924219904784946,-0.11533573098254768]},{"Num_inputs":28,"Weighted_input":0,"Weights":[0.7891780262413928,0.9651554953406543,0.4383081937787321,-0.6649884405613189,-0.3653943977602926,-0.5894724803732045,-0.700388402076759,0.6782528273435311,-0.5792617707713374,0.28964851590750196,0.8151545920634944,0.04647741822780915,-0.9567551221101159,0.3125538928853868,-0.36196306190274086,0.49844104879316364,-0.7504027015130592,-0.8571734641002215,0.4560381723360236,-0.5083600686976628,0.33051907344087184,-0.15133065920679412,-0.22634283907684893,0.7905170054929367,0.7033682303342741,-0.7326598255681378,-0.15300950471874153,0.734106189102224]},{"Num_inputs":28,"Weighted_input":0,"Weights":[-0.11683147816191453,0.7925500019199201,0.3404458519974114,-0.7516721405627702,-0.49411167462256445,0.6083008346037304,-0.21595117554410137,0.3375507311591188,0.49200904391144995,0.8883764250969912,-0.20094920386253956,-0.12572577391104633,0.8627497916442133,-0.6429720937659078,-0.05629775191900299,0.579134502159002,-0.6943680150297291,0.24227180522824732,-0.22508920998540605,-0.6185040067313159,-0.8681027390441134,0.5034222622592708,0.8806489855545427,0.137342610829142,0.9779773804403864,-0.40648768118243994,-0.458852812619287,0.4308589767468036]},{"Num_inputs":28,"Weighted_input":0,"Weights":[0.9430819403132424,-0.6941553470636213,0.05440185602017644,0.14782832859264983,-0.46335690363675874,0.5779784109652419,-0.9764800883306608,0.15445163265737016,0.6986158155128446,0.29654785463066036,-0.46740138986779145,-0.9247640485139872,-0.07411026751967986,-0.044865707002022526,-0.42817127111654796,0.6949694111007081,0.9969006433002945,0.5040085031809356,-0.3310927170723118,0.31566111789186446,-0.9052009094462818,-0.935931788322284,0.33507727353627126,0.08906206860504007,-0.22276993010443857,-0.9229343521335505,-0.11577573306012934,-0.42346161911464186]},{"Num_inputs":28,"Weighted_input":0,"Weights":[-0.22375997728631858,0.0539578705782886,-0.4788775005614352,-0.6760373664739051,0.4030249758399398,-0.7614144747630878,0.28449747433412065,-0.2028869083917041,0.6422538206796917,0.14898591129846905,-0.6101292327968479,0.4517278778097571,0.7201428699043371,0.5490984946659727,0.6855564030722257,-0.3645616532159853,-0.16444459598605055,-0.28073617031541553,0.9263934027703615,-0.702389501756238,0.15941897056375298,0.1637763717669216,-0.6515707260068192,-0.33124442427408607,0.9848857209833728,-0.08138183190131709,-0.7156227291617864,-0.8388366182125409]},{"Num_inputs":28,"Weighted_input":0,"Weights":[-0.3934713378862207,-0.002951684734841864,0.9924270973601115,0.7332581033397534,-0.71120173389097,-0.49919469079931234,-0.6379789855979938,0.7052263638287326,-0.16744810194292992,-0.7274397794726581,-0.3817769841202019,0.3205229512131893,-0.19257677692378838,0.2019755974096613,-0.6655740173064795,0.46849175646150476,0.25666287585569236,0.5633325966315492,-0.12070698974472749,0.8580124417563313,-0.06731016727280326,-0.7033014220744755,0.07655722994123404,-0.16742529456119082,-0.16912714796981465,-0.09579416310675881,0.7537956220832192,-0.6619214152410358]},{"Num_inputs":28,"Weighted_input":0,"Weights":[0.14868012985010748,0.345329110523408,0.015616912925744852,-0.7020487716090631,0.45838014723729814,0.08292343443457861,0.8362669801853342,-0.8008826127294327,0.07327837530851822,0.15426229131705127,-0.2798628832299491,-0.3032013146324488,0.7684356304127342,-0.7401142204187412,-0.31288219860759126,-0.6646037745919492,-0.20568077858151368,0.5228798682429556,0.48775095528609747,0.12473564651209812,-0.46093668398734566,-0.06674630609620202,0.509652826156574,-0.3640736729340992,0.26560906985121546,-0.4504935108537723,-0.3260284793833653,0.01618193131692025]},{"Num_inputs":28,"Weighted_input":0,"Weights":[0.0965526022040244,0.4576541607049045,0.6584007461567127,0.46411129527647166,0.42441649140443105,0.8007944144273587,0.663094844434216,-0.6931753782130947,-0.20568969398297954,-0.622500900740128,0.5690665228207974,-0.4999440429091504,-0.08988684709922934,-0.7035439245137358,0.549503072322524,-0.7464402285790067,-0.23433845871155123,0.2857968211551907,-0.9699025351298798,0.2115924328185499,-0.3598899967114515,-0.9388196681607949,0.25999016896280613,-0.11771550122169605,0.4929025704770771,-0.13316026019048088,0.3585227370229753,0.2619288416840382]},{"Num_inputs":28,"Weighted_input":0,"Weights":[0.505440075800025,0.42060501971117903,0.8257249020320858,0.506667150538542,0.9807290745033994,0.7271222030679692,0.2680773043613556,0.24169646881452955,0.06777381412777461,0.06249325800941441,0.24312476880453704,0.10142238284272986,0.7397827456557013,0.634440787380665,-0.9377533636133746,-0.3252732262125657,0.32972420121354085,-0.5187769033117183,-0.5922080441371622,-0.7740479077090515,0.2800324509578207,0.5938050760931295,0.9631889218041383,-0.2833669466037242,-0.9246629425992974,-0.7226578667270926,-0.17500271168617088,0.3734309215559848]},{"Num_inputs":28,"Weighted_input":0,"Weights":[-0.34997065161576246,0.6851168613187135,0.26351788301667,0.4556566243039468,0.014824245950764592,0.43529111520845953,-0.553981315316495,0.7215976528646382,-0.12020235127789025,0.13146792995394563,-0.9002139592892058,-0.2711772056566544,0.4153185132990611,0.2033534007778015,0.12863975074441547,-0.6619733386024986,-0.8524966490949036,0.7196177526242273,-0.47245963548907377,0.21729696757534933,0.8642484186542707,0.045416692080126,0.9448342574513018,0.38604950041020025,-0.6507650101034472,0.6728387798413957,0.9952528283488684,-0.0018489859127258645]},{"Num_inputs":28,"Weighted_input":0,"Weights":[-0.1274285699976635,0.4808908977258419,-0.0016501545831549835,-0.5799465958324721,-0.008438661842377071,-0.29555730200753416,-0.656050313732214,-0.12474223347426427,-0.7343580508083749,0.5621181019003927,0.5400924656708657,-0.6339076894600162,-0.48588191060828234,0.45371611992896765,-0.12743533103301663,-0.26498115792202626,0.0932390710206148,-0.49972238882491105,-0.07706716338809683,0.5625362776546288,0.04037209039795586,-0.10138519891184239,0.2559362300912722,0.294494562797335,0.3082034225663153,0.10188799099015977,-0.44390978178089124,-0.30759576731432847]},{"Num_inputs":28,"Weighted_input":0,"Weights":[0.04630923841467238,0.47803530197260846,-0.9628315860335903,-0.8098166606171775,0.5330055303269199,0.5875308865909343,-0.7670726146538369,0.9245488121931804,0.8623473753567781,-0.28846344107157706,-0.5516775645533231,0.709893102807674,0.7636906682957687,0.5686856904165536,0.9793836277795012,0.7908415861964666,-0.697952463740136,-0.44728824873629025,0.4950261585830933,0.42245689567480316,-0.33468732397315437,0.8305911943967872,-0.3704602916990847,-0.05406458804189562,0.4220887554857733,-0.030646098749737227,0.8335593407398036,-0.3435884437730313]},{"Num_inputs":28,"Weighted_input":0,"Weights":[0.25407388211883775,0.5119128606581587,-0.792994422991333,0.25481279136391044,-0.9274824852519091,0.2211825554174216,-0.02025485160493079,-0.01023321120823606,0.0007378558809383318,-0.28563895874988443,-0.7919456035374743,0.22793074903829114,0.9174500607036,0.24067597774511262,-0.33628908354739373,0.5972932021287913,-0.4072766829723682,-0.4194017245306828,0.6290643677998298,-0.1543815269126353,-0.6181664015012156,0.4287719083079231,0.8243911583424783,0.13283001662772986,0.967283653691386,0.8108056507099146,-0.8720066424515118,0.04689360287393085]},{"Num_inputs":28,"Weighted_input":0,"Weights":[0.6622288463294395,-0.27906543137909656,0.22161264492098853,-0.5711582047988711,-0.551575534428108,0.13091737819196703,0.6268002987394687,0.8795665597377706,0.27576739468668054,-0.7832447738230195,-0.22520829561248468,-0.010984040638822301,-0.110349268692711,-0.7396758882751953,-0.35520490630447854,-0.37710264765186197,-0.011321906560549322,0.5603478465113232,-0.6749862408741807,0.803668171968005,-0.12079611929364287,-0.06470489546826064,0.784391806304555,-0.911877100892204,-0.09590751633535932,-0.40880285093206636,-0.08866250986842272,-0.025639354431009287]},{"Num_inputs":28,"Weighted_input":0,"Weights":[-0.5176140689579987,0.13283813140126655,0.6755326129880548,-0.6083727474428753,-0.87283887721489,-0.5310269566582184,-0.11917068049315238,0.9406235213417151,0.3095622764367336,-0.5064681104477906,0.773284116401143,-0.6746686535135016,-0.8517634748147639,0.54588115508858,-0.23647860614828753,-0.8816923667049434,-0.6014011343430508,0.12456808113263218,0.5821318866434222,-0.7848442613128614,-0.2569737511647858,-0.28868149401515497,-0.49398083833626316,0.7696927414607404,0.7251469019039569,0.6557571781528204,-0.15367949286643467,0.6181358899336262]},{"Num_inputs":28,"Weighted_input":0,"Weights":[-0.06531940505128264,0.25876885649386483,0.14960985897405465,0.5402759202911451,-0.6260890190647042,-0.7804122228190071,0.7046721238362454,-0.22236590656949762,-0.6861688301283126,-0.7086632396967241,0.784557567312079,-0.7811022077399207,-0.9008085576405704,0.7493332385355549,0.6800050487461302,0.8885295780617195,-0.3726217336970933,0.5732353753851582,0.3358293522520954,-0.8150847871156208,-0.10093346805934877,-0.0061339743049020345,0.6178702995501906,0.9940381716345419,-0.9381804422006688,0.8467662331311017,0.2440060075744095,-0.7295623565180116]},{"Num_inputs":28,"Weighted_input":0,"Weights":[-0.0035884214093750977,-0.8630432490872109,0.28707599847117216,0.14563577253588678,0.8932644229972797,0.5046723545306455,-0.6753366969013965,-0.5963419760518596,0.14429255361521665,0.489414383553749,-0.03825760730001648,0.1313070737619011,0.9385041265637899,0.7353347717846985,-0.5280856462319223,-0.8577242929814981,0.4040290522437282,-0.34108699548314203,-0.6342396742807304,0.2887466948571009,-0.5618670526109406,-0.7429478408022296,-0.9822043894125758,-0.5893041519419169,-0.8564194793858135,-0.3671472048201224,-0.6434058886873363,-0.14103507306182728]},{"Num_inputs":28,"Weighted_input":0,"Weights":[0.6494080014553771,0.2632874916628005,0.9644873500573625,-0.5820166377900791,-0.47663432571223097,-0.4941956705694939,-0.008650385515827974,0.8005279518212083,-0.3195079096238729,-0.644904442575468,0.03236074561670499,-0.007413339142052777,0.11053406994638282,0.48495959956944734,0.7429046765817535,-0.4320691290007074,0.5177677500964251,-0.567762120409413,0.5537159111169008,0.8268663354880257,-0.08565146717414307,-0.9769316010071897,-0.050833150630115176,0.03687671678505677,0.9739815635412563,0.6564424600353185,-0.21598324570645133,-0.8531082871344405]},{"Num_inputs":28,"Weighted_input":0,"Weights":[-0.10892765584640607,-0.6269929087652981,-0.8195864724194306,0.28361006152806434,0.42676262679972554,-0.1206302307588426,0.8026880834242696,-0.9436018460322921,0.675506981556949,0.3184643714379267,-0.1042168506955985,-0.07008279104530424,0.10390226329432473,0.2477547088400418,-0.07606418141757076,-0.2661073332807159,-0.18638621717246062,0.41075354097802097,-0.8499783823058169,0.8449825525179966,0.4441411741571688,0.8465148727469651,0.9323414220277582,0.12772412889546647,-0.33786860634485416,0.07443012588882003,0.5508645206494591,0.12766895256575816]},{"Num_inputs":28,"Weighted_input":0,"Weights":[0.5030616077092946,-0.4544404105831542,0.7553035364905716,-0.5914294251514548,-0.6154876543479415,-0.48253808942014154,-0.7224461066806953,0.46066594073224665,-0.735514867024453,-0.2919717109963511,-0.22612809195463612,-0.0231457609811212,-0.48958303237085543,0.8805108827390453,0.9888092055082116,-0.8862625973601871,0.4896309765352218,0.6572870850764092,0.019575691873476853,-0.10201463861628435,-0.4404517031820133,-0.7393576140117182,0.2292948668366941,-0.12259084313182633,0.15463011144723837,0.6687672556331368,0.6743864365248995,-0.07286436130721208]},{"Num_inputs":28,"Weighted_input":0,"Weights":[0.9794531420354105,-0.05666684262177968,0.6436840541038884,-0.13509546967492336,-0.22178910526174145,0.7601868472945683,-0.5106849426194322,-0.12349233286533123,0.9307477201157786,-0.43777589215887336,-0.8498542224400252,-0.7999171088346455,0.15372398224826922,0.33488348839598703,0.8115198631618503,0.9445782972558125,0.9140338790738294,0.1758003040239895,0.12781164711973725,-0.7590219974841509,0.693543306232034,-0.7570679927718237,0.4374264277713249,0.07768504087675399,-0.8488167656645195,0.13136321124136452,-0.9555149452944169,0.9192613208903286]},{"Num_inputs":28,"Weighted_input":0,"Weights":[0.8191306914021315,0.9975287288380186,0.3059138913392332,-0.7997285186334636,0.6993536214629581,-0.08171237705978207,0.08737520054748571,0.43482636178301237,0.5806676184877584,-0.4545795922576342,-0.3910318783318216,-0.21938603331754858,0.6689787040656163,-0.4756799489949147,0.2495013624625939,0.6706500128291053,0.395381443594617,0.38904061622536057,-0.47395471936536104,0.41586693018467735,-0.48093242089150057,-0.2700094250818559,0.4962454767551374,0.8247731823672779,-0.5871746915683536,0.5969492500801248,0.6149486380739304,0.3121331406393004]},{"Num_inputs":28,"Weighted_input":0,"Weights":[-0.688114890478978,-0.5124366670389915,-0.4512225042478575,-0.5874192946826956,-0.5295680538977405,0.29003794449106257,-0.16722168978285945,-0.87533875461586,0.07200828509365476,0.16606713644668436,0.21842040547814268,-0.3730159225757469,0.26778304289814514,-0.6117836211618709,0.5245127055745289,-0.9159858195207786,-0.8147235493124136,-0.6626026684183202,0.06337279322020328,0.5840721481698199,-0.5105193745194188,0.6504070809914273,-0.508683706333894,0.6898056789724831,0.8391640757096122,-0.2016064691760644,-0.9063226989527096,0.9098099905794279]},{"Num_inputs":28,"Weighted_input":0,"Weights":[-0.1348316418352815,0.09297208029737258,-0.8936878731845577,-0.3578418835273085,-0.1431614104168668,0.9479917358936711,0.5727868511584424,0.053763551312221436,-0.3441217315148747,0.14203911592221807,0.4659744408464328,-0.3891805350216331,0.6635311592787241,-0.6046182079820029,-0.2710027264449292,0.6326936232753466,-0.6023194103246612,0.5856058785784888,-0.32984368438058376,-0.28541436715344637,0.4417651954789845,-0.9700464158271369,-0.7159120143107441,0.604388796086825,0.4048369290455489,0.0771332332706185,-0.05274003196022048,-0.8457272943494075]},{"Num_inputs":28,"Weighted_input":0,"Weights":[-0.5639717712366623,-0.4603626755929665,0.3574945655519688,-0.4987159555986562,-0.003619833710461484,-0.9524827104096858,0.5779319067115027,-0.8080196890734607,-0.18006275112946746,-0.2600055233074188,-0.7337765272727127,0.21269695103041397,0.17297238279575522,0.5640339143573538,0.6524776544843334,0.025036871555923712,-0.02060782280969342,0.6134738067340315,-0.7330297198294263,0.035244634019637955,-0.45451747036871903,-0.5362750367594368,-0.7455034066426678,-0.9176278032162913,0.4435691238934747,-0.5640929506079864,-0.9133678211103518,-0.9618056051681075]},{"Num_inputs":28,"Weighted_input":0,"Weights":[0.268086104404476,0.84521955548823,-0.32441146238123697,-0.20434438467308003,-0.7747666182641655,0.7868254814930133,-0.4980409708404835,0.8303757047649896,-0.3113855925426944,0.5114222439872362,-0.21237704903594146,-0.3736989982036484,0.4811803130118282,0.410542889061825,0.8700901676602784,0.18892866714462353,0.05369730616749724,-0.5189118642205679,-0.2542546697957905,-0.27662604392807666,-0.9617808239933984,0.27534199009474003,-0.15375535800844242,0.2424833620274902,-0.9065557120648556,0.09298267159285833,0.48482772637916627,-0.12576609001034456]},{"Num_inputs":28,"Weighted_input":0,"Weights":[0.04587372965337155,-0.7787146666875165,-0.8423528563904075,-0.8516836678123483,0.31937952464694486,-0.7201792641910792,-0.5250369215601908,0.37241324330742276,-0.13051187551038734,-0.7030186800855083,0.6789421194169587,0.10663235003861282,0.029278358971863483,-0.6203427754954745,-0.4513514973112793,0.6181894667463437,0.7028651256619753,-0.6655576552191489,0.7936399613179317,-0.3250784614589377,0.42117640958030655,-0.9651607867657785,-0.11565163954736013,-0.19318382205118845,-0.7266389986189765,0.7668067348041085,-0.9734412055766579,-0.5468016570373853]},{"Num_inputs":28,"Weighted_input":0,"Weights":[-0.3086359219093263,0.9144787245958097,-0.8424774632756871,-0.898911171405124,0.2718810928657043,0.3200189727247853,0.776992962225995,-0.5533304886875118,-0.7502094360670782,-0.042468917973821574,-0.4924884725579195,-0.19303726688688727,-0.9438557767862318,0.8326735368935645,-0.22064804295585827,-0.7501948588045573,0.09130934156749038,0.688180155228264,-0.7056478783334641,0.056589474464165956,0.5267833267353454,-0.7905170510768164,0.3350630447295113,-0.787671498774982,0.5728438989176226,-0.24217669933302788,-0.891869406248706,0.23474158981560733]},{"Num_inputs":28,"Weighted_input":0,"Weights":[-0.773394229472423,-0.5268845183549407,-0.7917561836206783,0.5981520597729741,0.4466123094294716,0.8341937679213354,0.907121561758099,-0.236976568578383,0.29000987887611807,-0.7990664347513616,0.045584076980156985,0.025998982320165842,-0.6291974889909479,-0.9358729805773235,-0.04569538182077071,-0.3758972250067554,-0.6222109077812007,-0.26648581877999755,-0.8229756822868448,0.6687134978390734,-0.3895962576937503,-0.5658794201199524,0.4634709735096958,0.2572971241583404,-0.468258466952566,-0.9897077767418595,0.11382424103464683,0.5127753358252432]},{"Num_inputs":28,"Weighted_input":0,"Weights":[0.4278529104951345,-0.6719170672464458,0.7922946791495824,0.9519945164771972,-0.16667189958617434,-0.37578882643950184,-0.1745789188230077,0.021382796083621702,0.2703313195720354,0.5355937030172571,0.7174603309306633,-0.5927518240454415,0.457866073107132,0.1755827495610014,0.6356724932940181,0.793411820242724,0.05956557591695355,0.0917316653676361,0.1889582421034961,0.1475449145975427,0.5023275295866385,0.8926812181016592,-0.9510310767785142,0.6128022930532862,0.8581511082192907,-0.3248774887784719,0.08606612131989899,0.27721006485195643]},{"Num_inputs":28,"Weighted_input":0,"Weights":[0.3393941567602323,0.3712916815507672,-0.07477031177795335,-0.5072574568648656,0.9715469013629998,0.6582719969701409,-0.5182139059648199,0.4588875721032253,-0.9891452265783018,-0.7142243390842434,-0.029959853740088804,0.21912251827765905,0.7916351895547511,-0.9142542959629175,-0.5366891177434315,-0.31719239831894297,-0.18964802152135496,-0.6683125589199892,0.601075397561142,0.9695143122434504,0.44787230347429885,-0.12167970306994313,-0.5223156060567218,0.7394869605682413,-0.4267736306446688,-0.3694222234385872,-0.977039669596937,0.010052508402950355]},{"Num_inputs":28,"Weighted_input":0,"Weights":[-0.8870094561095732,0.9008784943245363,0.5285346662365102,-0.45435678747827246,-0.31732031500437974,-0.3493584070662267,0.600743604150727,0.1445774150540824,0.5410851002447541,-0.15651349967587458,-0.9867079834272957,0.7135529184120315,-0.7352825573363309,0.15193137492859643,-0.024100499704474254,-0.8281241053603642,0.6929651254503475,-0.641050705432157,0.9237373505973134,-0.36988936130366556,0.285950477482229,-0.696911518852952,0.008374910062286745,0.50763320138441,0.5654050425824042,0.1303575379107138,-0.28024925795256606,0.3775723595262128]},{"Num_inputs":28,"Weighted_input":0,"Weights":[0.7890902505710939,0.34443512499552154,0.414185302937198,0.6125229764455384,0.023892233599433155,0.7868104947315027,-0.08980115646057785,0.13819623855105023,-0.2406034573805288,-0.3701903836557263,0.11432393658416906,0.8331372882000634,0.3476105609417919,-0.6329804731609597,0.4298506442815502,0.9702243834880542,-0.5737116690014051,0.3008832925305023,-0.6761575590297737,0.006506750378265425,-0.545245359625669,-0.14292613325574244,-0.05015495966419825,-0.8121496630324816,0.8909646807765967,-0.7701620906362528,0.1595948343618585,-0.979457366531543]},{"Num_inputs":28,"Weighted_input":0,"Weights":[0.2703362749413709,0.36455821143502964,-0.26457669394181726,-0.07818597313991682,0.14367314554665178,-0.2787492017813261,0.03321233756411934,0.49682921199963426,-0.24715004784987626,-0.9501076442527419,-0.6852676575740784,-0.15250619334063875,-0.5805487567086829,0.2396460509711853,-0.9607190355465833,0.4611946104993443,0.8961181880046893,-0.7357379712747618,0.6199618114890755,0.5028949260546156,0.33227658335041266,-0.0004958677824891122,0.6916956039371349,-0.8995576146953239,-0.24585570895255937,0.029824231812802804,0.9516974842230015,0.7030587729117195]}],"Layer_output":[{"Num_inputs":56,"Weighted_input":0,"Weights":[-0.5173478538907186,-0.19960751234303853,0.3061207900417282,0.6719220926386595,-0.30029124609968183,0.02834580097831818,-0.8464650062796475,0.004712580233064978,-0.921647638496891,0.3293708929643171,-0.599418968199195,-0.7428281000879503,0.7289360766401125,0.31732810370931697,0.5077324884708003,-0.5581216897706831,-0.7287875274766078,0.15039414185780542,-0.4987408931642837,0.8936224936502015,-0.9414364234100213,-0.30240813126577937,0.48615184045896265,0.27765420649229156,-0.7151313359487322,0.04665465000431568,-0.6063998331239513,-0.5076281694114735,0.48314989528397967,0.449802655550809,0.5555300234833349,-0.2852494731066946,0.142668587247047,-0.005682295422304806,-0.19795824100078252,-0.027227819998178804,0.5956461088700364,0.9196811345354741,-0.3025561785683525,-0.3030159637033023,-0.9522757221634853,0.07732120887920946,0.33902695808123084,-0.26320168295499824,-0.5782458236100475,-0.6918089338260727,0.8379118875144413,-0.26877413680263507,0.5690250864105426,-0.1190480481734304,-0.6148500265984072,0.16146239847300325,0.6748792465547333,0.7906623071174042,-0.2504983477794077,0.6447014922114951]},{"Num_inputs":56,"Weighted_input":0,"Weights":[-0.9059883210551025,0.36687794470654156,-0.6349583479322182,-0.09217646615120267,0.25470418144362994,-0.8196227390172361,0.1530150685194116,0.9085100483357331,0.4499632232732391,0.37654622803599347,-0.8128252164188223,-0.39186785033975247,-0.8209580699005408,0.1343990235603283,-0.42349706281994104,-0.005165882335246619,-0.02476654937488887,-0.8788266916754753,-0.15526472127798285,-0.639541350346234,0.4185119366896697,0.8274938377863181,0.12865427072449376,-0.07404309790672381,-0.7897083306579739,0.15688797665174836,0.2126266720619634,0.46392160636451996,0.5451196901157305,0.1586874743241946,0.3148039559193021,-0.7392005123826759,0.8051101941442189,0.019995322672631266,-0.2537623832682837,0.49875548721494134,0.09616368471216341,0.3647648254282503,-0.8370623755823102,0.5072918743138164,-0.36858759913467587,-0.2962231658461715,0.5352893527006339,-0.8807556197423891,-0.26924192328523633,0.759471440108987,-0.27683113515974567,-0.4269040616821077,-0.26999384228321877,-0.0824309658740523,-0.3289697070891847,0.13048685942324334,-0.8654958553711299,0.7114461017730556,0.6433976893022801,-0.23533287958168403]},{"Num_inputs":56,"Weighted_input":0,"Weights":[-0.8736479537328264,-0.888755803679821,0.6465180298728661,-0.014924225453541773,0.9287253931781825,0.5214205460645582,-0.2030869886952944,0.959603897014577,-0.016596556753985192,0.1662094656177222,-0.3744907598500776,-0.7095123690415663,-0.17345407950904423,0.4957426075398583,0.6294313855947926,-0.9120364116148589,0.9371157265265895,0.810045555470142,0.3651882322782085,0.639699252878533,-0.7154907087360889,0.9297657876108181,-0.7920680011700065,-0.0885230006432296,-0.3192891250358596,-0.21813274221601786,-0.3905770128484167,-0.03229331181687767,-0.9565058659026822,-0.8215770076309553,-0.04722975559827791,-0.83515442528153,-0.9568409582972653,0.19162638341181615,0.7598892421402961,-0.0595451851825749,-0.06107052535772439,0.9408837861240493,-0.5689397900453523,0.14805259504152213,-0.7517760974592389,-0.20888256949675243,0.6417945420496571,-0.38310918797078475,0.20601067031126896,0.8794646166563711,-0.3400516785672676,-0.9006914989468446,0.33113158563456624,-0.6800611156183589,-0.9436677322785936,-0.23606031979035202,0.4635623460671423,0.5184702199347875,0.17562666379338876,0.23967086396483506]},{"Num_inputs":56,"Weighted_input":0,"Weights":[-0.6379923884218976,0.915423378777626,-0.9960198246671417,-0.7279651672576337,-0.007445357325107982,-0.654732422889355,-0.3113597551024978,-0.5563237552822426,0.5012556788634743,0.6626472142432676,0.3215207130935469,0.7885246249954154,0.23082031942475711,0.2866426043366732,-0.13721384671080206,-0.8555020440816725,0.3663505742840172,-0.5889112457337058,0.08858405076169329,0.4255017349179957,-0.2646278634106033,-0.116443941941071,-0.22986358759427905,-0.2387891638743037,0.6918735175884181,0.25825511629555886,-0.6792422936422957,0.7527357815838713,0.013021624731043513,-0.5768196425532707,0.22616533501253544,0.6753593033786591,0.48661110833815746,0.8941238021874813,0.7609573605590458,0.07611822384313882,-0.9651361790158747,0.2840036868615712,0.10710592086259774,-0.3156478755480665,0.3841712184425832,0.0981444074630724,0.565343188351852,-0.24676105771093204,-0.3408978784373571,-0.06874241119142532,0.012193738006573307,-0.5416263827023062,-0.46698801351247854,0.11038654801911596,0.7511426855644177,0.17785958929476875,0.44585911554042923,-0.390428739191635,-0.08013147739725035,-0.11176608468390425]},{"Num_inputs":56,"Weighted_input":0,"Weights":[0.6830446273615662,-0.050329061434237654,0.5952401841031998,0.06676984464037905,0.6007675655449198,-0.4172304510694672,-0.05433938810677996,0.1986659278658489,-0.4872748626463813,0.4580112469679527,0.18499081574283815,0.577020944641514,0.7800627602228509,0.4871365831229084,0.006627810738196294,-0.8109575399211847,-0.6938318681459461,-0.5030494245825743,0.7566995746765393,-0.009692645056327942,0.19622501188322516,0.10201218083105013,-0.13125863506064217,-0.9482533334357062,0.9326814328734336,-0.3660609589246151,-0.24571922582463757,-0.42804659586334004,-0.8671772738551186,-0.22744451467001714,-0.04619460262621977,0.928307097472592,-0.27188552657589204,0.11267078370487393,-0.898177949111431,0.9247957112198542,0.3840169931520372,0.03995438962216391,0.0836656013834376,0.04018520784187918,0.003216945100185109,0.11857543152560313,-0.2980241814695155,0.723817171844876,-0.3448744794191926,0.05757806093616291,0.15125765543295122,0.25542608903575736,-0.2857873329067163,-0.5493212822615461,0.014149241003906798,0.7371418988727605,-0.3421031963190604,0.27063061253684917,0.9492175344986296,-0.723535263069659]},{"Num_inputs":56,"Weighted_input":0,"Weights":[-0.15078250697625173,-0.8948140145974732,-0.9714711417579978,-0.8122263623641929,-0.7935358377671813,0.3211230916715213,0.6153925285086219,0.8200433329807677,0.3016069621311468,0.5662192203512244,0.7762536768287633,0.4480332729139047,-0.5648146811597251,0.15005390914745553,-0.8852352394737826,0.947762618394959,0.7436714922366605,-0.3147782708460459,0.7913490997524069,-0.4825601116657804,0.5723622363274472,0.2840241328863835,-0.578935614340196,-0.6965002014282244,0.8313622632862148,-0.3114254176495471,0.16624439327619744,-0.7332576418129874,-0.9603948599419009,-0.7637567190203944,0.23994794915928086,-0.5748446184043104,-0.18559237529345418,0.1900946763883642,0.40100122449485465,-0.9545861785109249,0.07234178898606092,0.2767994974678121,0.7143790946797268,0.9621818718813353,-0.03711188593157144,0.5412336673944631,0.7450151857260252,0.7939648856401649,-0.3427564789763149,0.4361808247666532,0.3462294069236127,0.9017340365138762,-0.18520837133947443,-0.2875059263821762,-0.2589105729853337,0.8008751135505607,0.9762580848187161,0.02031600439720216,-0.45753183008409537,-0.06094986984628825]},{"Num_inputs":56,"Weighted_input":0,"Weights":[-0.5679482754068137,0.4582626489578243,-0.45360327855339244,-0.24681559427942001,-0.5459031826474389,0.7288051031063423,0.5113100020842889,0.9730444139103247,0.35052441110929466,-0.3881199608788669,0.7704704751689628,-0.9289334122212622,0.99922037111008,0.8080095214440943,0.6570301242144763,-0.5188656509912775,0.11425916341317599,0.44462863169786293,-0.5070452102594113,0.8280612338424649,0.6711406868775589,0.2336308856390612,0.8187071110265118,0.7535970064474624,0.288214522174687,0.638898543879459,0.5063025557478964,-0.8599943847968669,-0.12872223543648087,-0.26424035794775735,-0.0992109700687781,0.6018432797880644,0.7615071866523393,0.24259100036941206,-0.24001791649315474,0.14686851489473862,0.024857465523274724,0.9894362518623707,-0.1300508466280088,0.09745145931617505,0.011232961132611852,0.5515080325425086,0.07464487506290385,0.2322584753711472,0.6092434458466651,0.6865647756832172,0.4871420277666585,-0.5089932976762332,0.15134461860330872,0.37020147921146607,-0.5246668265045518,-0.8432150763416073,-0.30725825988174027,0.10923061630456887,0.1886007373739902,-0.4860295582243972]},{"Num_inputs":56,"Weighted_input":0,"Weights":[-0.0774602728353323,-0.26955356482921733,0.49283271959237784,-0.6067376550207517,-0.6638830904818654,-0.8682104794322248,0.3093010788576105,-0.41211926505985563,-0.6744777746139008,-0.6705024536771609,0.011275485252132844,0.10236779955946962,0.33354493661868245,0.37184500048461633,0.45371100131289976,-0.25008827408905066,0.11575783751174518,-0.005794760154932299,-0.7457133905055529,0.00953933111156613,-0.6255105657982312,0.279176389256945,0.7196483990842362,0.14977883362360211,-0.6252549137673179,-0.693093905592817,0.49835491095989215,0.18294797778461502,-0.1289398737790256,-0.12380139140360413,-0.5478461321627384,0.5166395814760452,-0.9053505188813871,0.11269796335197824,0.7423982393449562,0.955852398439273,-0.4230449880546868,0.222464893963628,-0.16626648317544201,0.4470539585175026,0.2802940419503719,-0.2721224246655146,0.955942167998431,-0.21332086464661326,0.21201184905477888,-0.37108117975884813,0.15953653754625363,0.6751850704920312,0.28201687524237795,0.6403323339785516,-0.5355700293857015,-0.5069444497072493,0.19916113821022363,0.7310822337627592,-0.8826060715424997,-0.731532401318501]},{"Num_inputs":56,"Weighted_input":0,"Weights":[-0.3906296832927866,0.19796375855583626,0.8817527581447395,0.25946806638920217,-0.5708337312552956,-0.8170502271722725,0.6062458734753937,-0.006871389407402062,0.8056262431355934,-0.8378715924009877,-0.7776745882518468,0.41769663414343206,-0.783150546247898,-0.7496598374155461,-0.7580095073170546,-0.4949502887638294,-0.6935933476449831,-0.6837890208415889,-0.46760579467543195,-0.32097402673471676,-0.8876213101165156,0.6459515733347925,-0.5657882669317806,-0.23129759729593324,-0.5538086411062801,0.9146409720813842,-0.8955200936231105,-0.6060225043418963,0.8765072332976467,-0.6976120199981171,0.8535375890861399,-0.13578660846070023,0.6266699226914922,0.35842220486510024,0.004353399821023007,0.7309673024552388,-0.5244132684050342,0.025836334473366973,0.8183517185469011,-0.33871378628166804,-0.4851737852530841,0.1447663000654862,0.1945092944864475,0.16278264349325156,0.19344792853621762,-0.29207396162372723,-0.8734434650119912,0.06642381391061591,0.1677069696648632,0.506896016183424,0.2092253268480988,-0.5347890248498566,-0.5196560670628291,0.9868713190289307,0.21797448606785408,0.15511184437747327]}]}
