{"Num_inputs":28,"Num_hiddens":56,"Num_outputs":9,"Layer_hidden":[{"Num_inputs":28,"Weighted_input":0,"Weights":[0.7636792431992552,0.7709208395153866,0.3075443181818682,-0.1656157449353678,-0.9298468817710748,0.7657791658346202,0.1535168677767913,0.416787797075987,-0.05891310949019635,-0.6943447306876951,0.4884598504316533,-0.2604087345921876,-0.1485424661638889,-0.8272691653591459,0.3416402630374853,-0.450012855834393,-0.7960652943105351,-0.4112715686375963,-0.7444889735599695,-0.9266651267010503,-0.15967725122843235,-0.4602319534165026,0.13297958628455553,-0.15995829735114508,-0.5232126435314526,0.3274570963255985,0.8471422326031937,0.7670395791545672]},{"Num_inputs":28,"Weighted_input":0,"Weights":[-0.6995083490380736,-0.9940475268943691,0.998175625718732,0.6502956898739893,-0.01104652331876721,-0.5468413025545555,0.2219403747547426,-0.04705045149820608,-0.3043748016811777,-0.1022917204792888,0.9747536003668071,0.24243552038442595,-0.3258209847414111,-0.05884322626390448,-0.1480549567406867,0.09497786745262937,0.8595037932070864,-0.30968475568487586,0.4126750641969916,-0.7711490355656352,-0.8216944784105519,0.5857245558515545,0.16863678421167982,-0.42536442602987967,-0.8283712206712179,-0.7233267139984598,-0.8113078054490019,0.8418903052254931]},{"Num_inputs":28,"Weighted_input":0,"Weights":[-0.13733628617581883,-0.6998418677374634,0.8471022673048945,-0.10662852243382126,-0.27721050990413765,0.3601590531691985,0.013400906049604755,0.8511288136634605,-0.15332877035708603,0.012926119052667717,0.67057706998419,-0.3231103134717537,0.2397239569159395,-0.6292933216899191,-0.9875579843588494,-0.06766037792141921,-0.5611092114531128,-0.7429552698708324,-0.3923987933487346,0.16252263540949108,0.9728248591826358,-0.640129915469034,0.37635388076930276,0.40857411559485146,-0.15505583655380162,0.2422390068567979,0.9766949666836389,-0.22112810200966104]},{"Num_inputs":28,"Weighted_input":0,"Weights":[-0.13853948769728974,0.24140098765129103,-0.7443680846425045,-0.855011266268976,0.9290753921318695,0.008509372232843093,0.007040942250908566,0.5354787435265329,-0.6743493955619622,-0.2809390120913977,0.07100540762820895,-0.3836175212738737,-0.5650534121821161,0.6968512904009754,0.3005416357019257,-0.819840549615958,-0.8709579797899687,0.4571532759825827,-0.6408943447961839,-0.6795722155620575,0.7047458101375075,-0.9324130683677772,0.6325459596461069,-0.6040532423629708,0.7274581531636672,-0.6653972477322652,-0.5343462290029786,0.10799125072140892]},{"Num_inputs":28,"Weighted_input":0,"Weights":[0.5705681094788404,-0.17618215384793035,0.7957074691468988,-0.7724026167979284,-0.7661657760090987,-0.03366292382760827,0.7904145851909306,-0.13732689900199047,0.06283421459469918,0.22128314047712094,-0.6391657279333212,0.4994448942739671,0.6018779510571417,0.5372498669778554,-0.705335905799796,-0.7623195115162286,0.08121203085405204,-0.4410305266430311,0.8795599446369005,0.21829235253394663,-0.5348308207080221,0.6033359947441377,-0.6845303022589346,0.23090997880571207,0.08971656712068232,0.9373108570838036,-0.7604247689627264,-0.4209993340476401]},{"Num_inputs":28,"Weighted_input":0,"Weights":[-0.4701256743812656,-0.014416658908333102,0.8734061316986752,-0.7311072615288472,-0.9024969205883432,0.15763117171799057,0.08533796578733832,-0.75344157177193,0.9797798060184648,0.8234770421398963,-0.843420828905713,-0.10789265394034786,-0.1392752547364262,-0.9396075683686032,0.5106201698436572,0.3491928958815378,0.6436916258493046,0.17938331785930473,0.9379480291773976,0.23039521898106696,-0.2625810469888118,-0.6420753606820941,-0.961334742784547,-0.1319821140603591,-0.655802508746806,-0.23157915950678043,-0.22382357445224443,-0.1372606375181541]},{"Num_inputs":28,"Weighted_input":0,"Weights":[-0.4006187640669594,0.24409523275976852,-0.9861520945008692,0.4152735591381107,-0.5821767836360305,0.9232594123054247,0.8574575301028287,-0.7446999561385241,-0.5431951650164526,0.8476590909501796,0.18892399303372032,-0.4118236196167624,-0.5844459729449988,0.7073972440648049,0.5414856102685099,0.6007964073979573,-0.09774876758639861,0.2460978532232605,0.6242734157827325,-0.9073696714300099,0.13198857105934403,0.39166034974685915,0.9537597866543117,-0.902674134289217,0.1237390456363987,0.5614326747534699,0.43656335320359085,-0.7485084590329285]},{"Num_inputs":28,"Weighted_input":0,"Weights":[-0.9744503555995521,-0.26616188914081995,-0.5470166390119271,0.3036654673491861,-0.3035672266826166,-0.772303565294043,0.46000833247313366,0.23767782417111416,-0.038257689298220154,-0.7486071442554227,-0.9203101958067277,-0.10679041273462242,0.05889771244800568,0.28754397150986155,-0.7097988892642675,-0.7430709312675132,-0.25710057590703794,0.09689455288933835,0.8095971343700379,0.5289404985806971,0.014036455433603878,-0.13941274183888175,-0.2608560328490135,0.27981913387593393,-0.6424555014578399,-0.5332497208307947,-0.8706213635918493,0.38428144961572097]},{"Num_inputs":28,"Weighted_input":0,"Weights":[0.8703611707812564,-0.7374375114790392,-0.14957253529201298,0.4745936781907458,-0.3670147635998674,0.4569583686579388,0.5227173761945314,-0.20772433962025916,0.634480477681441,-0.21759664109280608,0.38498194763585336,-0.4710012957121793,-0.3823111380703772,0.700275864211279,0.3741475240275678,-0.44786502497137315,-0.25993487334843945,0.24002103589108037,-0.575760066362603,-0.6635287948512268,-0.1321019246268882,0.38039887935231786,-0.9303214256323624,0.980638513809359,0.6510143022607382,-0.08516175381532354,0.8107665415302483,0.35313558533279754]},{"Num_inputs":28,"Weighted_input":0,"Weights":[-0.6307161844888165,0.9334834760390291,0.6334032757493371,0.9151313722903938,0.9285282908301886,-0.8635916635726285,0.7316442866429624,0.1782356193561303,-0.5338557697269173,-0.6759748577088096,0.0711094204054663,0.094620669127226,0.02635492075532131,0.4921482434058342,0.3096457936266017,0.4448868931616363,0.8264766494365059,0.28015990814579506,0.7768831795699209,-0.34369831328610556,-0.9659488933865596,-0.1877881278771707,0.7977291942442661,-0.0531306633199049,-0.9277430033266914,0.5498111161647232,-0.9552613362876705,-0.29843425955876113]},{"Num_inputs":28,"Weighted_input":0,"Weights":[-0.03375870907085976,-0.29416940236963074,0.5732111173337442,-0.4878329073051637,-0.251037988733123,-0.349666588567759,0.5234546479771434,0.5049759270056755,-0.8371673993689953,-0.5019224379835954,0.08213442869701648,-0.2869385163088739,-0.18580159388045947,-0.6163080524747044,-0.24721830927406274,0.9105573012707342,0.3635355041948527,0.13244115833248338,0.8994368806688,0.7609752501535922,0.21362875861633324,-0.6192944992518316,-0.3222215000367371,-0.831959145545981,0.9975419819547338,0.9197954425252095,-0.4565202824760005,0.8652393993081218]},{"Num_inputs":28,"Weighted_input":0,"Weights":[0.8935123604002548,0.38085263607055864,-0.4190142217217887,-0.21440571564660826,0.5768947965224289,-0.3091770304390402,-0.8591815344924928,0.5557330517032022,0.5175638820382202,-0.3553626628497678,0.7535946308044688,-0.7232678062502976,-0.34850553914870364,0.10450030769673391,-0.06476199721986087,0.18824303067083026,0.9461301365751886,0.18363473497227023,0.395179268694011,0.460603453218148,0.5279984190390825,-0.8428588398992971,0.6960528889572835,-0.5464529513511966,-0.02461565031133972,0.060176666672214996,-0.6216443652705848,-0.7943945369745002]},{"Num_inputs":28,"Weighted_input":0,"Weights":[-0.15604203477077383,-0.42983057562471016,0.728836130378645,0.23274500188203007,0.028043007747739823,-0.09334723996000227,-0.7593843420610186,-0.8099973362239757,-0.13482934936652946,-0.9706913716657535,0.8835579802198275,0.7507564018597757,-0.029703120984978515,0.678336681917034,-0.20912625925499295,-0.4960001582205964,-0.2766244977800576,0.3204602014524658,0.42491486857236627,-0.7905731615964371,-0.45931307613513683,0.5305457136941931,-0.5442146106276287,0.7795171468942592,0.32907295892256117,0.516256198987866,0.8660725751878042,0.6959516596808963]},{"Num_inputs":28,"Weighted_input":0,"Weights":[0.34711521828873004,0.6664180469389303,0.9930467474220277,0.1257963095269663,0.7907299409855488,0.0899333183052069,-0.7001701167288419,0.27817381875295255,0.03558786962665428,-0.2149923459769546,0.740984348758231,-0.7554188841029651,0.9714985076797986,-0.7929798223670061,-0.6108511898790291,0.0906686176557876,-0.0953225302131393,-0.14904110373199764,-0.8458666315154203,-0.22316423384184825,-0.6820727030980933,0.6744341194526076,0.6278923173888591,-0.5533116462126005,-0.36989684917817356,0.28659830306858813,0.6737341709553615,0.5962032002369675]},{"Num_inputs":28,"Weighted_input":0,"Weights":[0.3477769851276824,0.09762662999413663,-0.5233740461677581,0.1488792278599076,-0.8608884619737031,-0.8080450771574174,0.8515691132529013,-0.7036399913424201,-0.20639583791290883,-0.38954001524951243,0.5872490536472288,-0.48442742653861304,0.2738157865863997,0.7085975924032073,0.27412194843982296,-0.19100629215788711,-0.8547886653284005,-0.7846227656489903,-0.09298110731351095,0.7341875644953939,0.8122678545241431,0.5412181099897824,-0.13946800640154156,-0.309022556749328,0.037554598220705504,-0.5793366421308657,0.14234521171293735,0.7002544316455745]},{"Num_inputs":28,"Weighted_input":0,"Weights":[0.252264362334913,-0.5092936586113035,0.562071807161705,-0.5917335444661351,-0.0520797761674644,0.5716774802447382,-0.6031355952825856,-0.7144580587685228,0.8459418254621065,-0.8720610488307173,0.8319375481434741,0.6064099422605878,0.5957193874788675,0.29310066075531904,0.25705900983844443,-0.4853911849805206,0.7124766894654593,0.9269719252262507,-0.30655371124322384,0.48542794141696044,-0.19915335295819103,0.10249927257566172,-0.7446259908504265,-0.24493411814034738,-0.4104530757206951,0.6337535013227302,0.20548017054711165,-0.14704855224397462]},{"Num_inputs":28,"Weighted_input":0,"Weights":[-0.3391877353541951,0.19957639668078908,-0.2611459587708367,-0.7084324649246381,-0.27013759192324927,0.03731820870723346,0.04596652094711806,-0.5898864541344406,-0.1650306130987692,-0.38444244471628786,0.7538532158248428,0.19634115386327156,0.4707785383568561,-0.9333039122595626,-0.5176802062210614,0.7370152785896902,-0.9583253059138555,-0.542689716083093,0.9929567387227294,0.5933178128680074,0.012496758513901307,-0.7326589726426103,0.508239017633642,-0.7738188763927936,-0.7146525581507941,0.725378886590744,0.7903405437147235,0.18895239201865555]},{"Num_inputs":28,"Weighted_input":0,"Weights":[-0.7559166822102928,-0.9694400418264332,-0.939201134683924,-0.9198528710039056,0.5293191863969395,-0.5112109917483226,0.5784844753892922,0.8765060065702763,0.0391263551916019,-0.5299119732241693,0.9772691797542512,-0.2914655103132888,0.2275448585203137,-0.7518827543490401,0.17833271197999512,-0.7294824004619871,-0.37703083125336356,-0.5852653551395062,-0.8396953425622709,0.5817846977909951,-0.8155742610312486,-0.09771153093527851,0.1167805755616238,-0.7564029171583728,-0.82236652962616,0.6993873536612021,-0.32576376686299846,0.5968970010453976]},{"Num_inputs":28,"Weighted_input":0,"Weights":[0.8355361774119157,-0.36627060224187535,-0.7719957830949532,0.08801687050839457,0.01541468081578512,-0.04755640721626608,0.14620254798479304,0.15165652012571296,0.4961908774254127,0.9826005429020801,-0.2875219802946193,-0.8176363568245708,0.37433983640016066,-0.5441213547465535,-0.5119440684837081,-0.21577116892694748,-0.07895456162729875,-0.4769424642942526,0.25793223051214786,0.6862267419623771,-0.3038544410963889,-0.3844970716831646,-0.034093122104927986,-0.001806523158287776,-0.6581945222267491,-0.981461084888117,-0.2711242228983568,-0.46129801991224284]},{"Num_inputs":28,"Weighted_input":0,"Weights":[-0.16780661701418842,0.6694864219865768,0.038239264774558634,0.02393377151124665,0.5557610038121175,-0.9181026186295697,0.36376897223708915,0.11347655766045461,0.9489121234905713,-0.6636678796229291,0.9712597803272647,-0.7310754043521943,0.4341451700055228,0.43239594136592996,-0.6319679652573085,0.8841783831732117,0.5876393969871294,-0.013699920458687176,-0.29544416558830433,-0.3615658976857651,-0.7221790750956255,-0.017396105291337394,0.2798990440992033,-0.469716118652974,-0.19638323944773062,0.7808582429119535,0.2537769905927585,0.9490314809602403]},{"Num_inputs":28,"Weighted_input":0,"Weights":[-0.2535817582432419,-0.16858481636277822,0.7910211549654529,-0.19137581582389507,0.26246699662318274,-0.5646817970192195,-0.8637070251470629,0.8072118772303556,0.1271259113493477,0.42367983255689645,0.8374976756721608,0.6168496759188595,-0.5551139592230633,-0.7333465505463445,0.8595848819167957,-0.45455992593346606,0.7361683693130161,0.3783059498698018,0.575268146198102,-0.8376294282478698,0.6385441921151136,-0.7289284486492098,0.5276846216551987,0.8033934516696479,0.4908191004900815,0.9501969415392715,-0.3324823372859659,-0.36475137116593803]},{"Num_inputs":28,"Weighted_input":0,"Weights":[0.21824100674450864,-0.9730327043806689,0.4865400602760708,-0.0634181304269762,0.8965646966584964,0.9772964673227929,0.3095371580519024,0.8588127914896311,0.8595233249022003,-0.7896651526956726,-0.2351715291290245,0.0103233338764106,0.6679209856191177,-0.49362213991004233,-0.08657922641080773,0.9614406707519436,-0.8484442731052733,0.8433624924458678,-0.03272706857092922,0.9639544655979984,-0.4913100838860398,-0.43294717071941013,-0.6490532983664209,0.9358139612363647,0.21548506940850753,-0.7649482695491756,-0.3224782864208483,-0.6326046492600098]},{"Num_inputs":28,"Weighted_input":0,"Weights":[0.07257443790518736,-0.032344316947373275,-0.09333149176166156,0.6454397171918436,-0.5713156627950835,0.9629076647312167,0.8024434710480444,-0.7892769279108868,0.10478150044503942,0.2034245222011406,-0.015894051239363383,-0.6794607013603282,0.9845921810944998,-0.09222401221255128,-0.5604983998097199,0.6233226200970308,0.4527571265807544,-0.5437190791845077,0.6864950466133126,-0.7798433579957054,0.9791623119136155,0.7925194376466653,-0.15262228699141622,0.13471408237043048,-0.6520689312854586,-0.4066971842194754,-0.37497154436926217,-0.030381388595258962]},{"Num_inputs":28,"Weighted_input":0,"Weights":[-0.27873091996730825,-0.9762780006153698,-0.6077295697139468,0.9071995126369907,0.4240642515588575,0.6194172786293624,0.5157255082448189,-0.6469118539199206,-0.3163461528948067,-0.32662059223556017,0.7326269160202996,0.5457077230851557,0.30566313098227993,0.05985166521578256,0.6219292166267634,-0.3933449807065357,0.9785459661586302,0.29461730695971333,0.3275766300694247,-0.8079529386864488,0.9219217939028115,-0.5207812389146379,-0.8146158625696066,-0.9607847968706269,0.9947917079844115,0.3262120366493979,0.9641454318699865,0.5178234287450036]},{"Num_inputs":28,"Weighted_input":0,"Weights":[-0.4928348018596227,-0.9937340272173879,0.08522377826250738,0.4723867260276462,-0.8727723376083271,0.1204098221461547,-0.3126346470428424,0.7916820084332787,0.9736303983426844,0.8776027210150792,0.6995688052932196,-0.24710150000680187,-0.23162709815272808,-0.443745812322345,-0.7970043785596357,0.4166456806362806,-0.28925966487101196,-0.45118443489744686,0.7806755708823361,-0.7802670054333626,0.44279830386832164,0.7429901939664934,0.7846362153279305,-0.011959660732839716,-0.0023110109633341924,-0.8172084609742234,0.1998860244806384,0.26792646599353453]},{"Num_inputs":28,"Weighted_input":0,"Weights":[-0.17106109951877957,-0.5222304260749355,-0.8961086039969809,0.36822521504025496,-0.29278060394684424,0.07418702300011648,-0.055924090800174575,0.5369097953856141,-0.7485711084892189,0.33177740335999206,-0.90988418289452,-0.565714893782022,-0.9456382990346553,-0.5212929919346269,0.6510912295074711,0.06065977678679402,-0.3152369366807418,0.9207274499561882,0.8341479132462306,0.4446197161314567,-0.15672720802680096,0.5023310461553085,0.41085248560318055,0.5465152302988088,0.5663548085123133,-0.9750433620326256,-0.03221110865689358,-0.054739966273353424]},{"Num_inputs":28,"Weighted_input":0,"Weights":[-0.7083902469240392,-0.6249803855771514,0.14656188939547143,0.5226331853143025,0.17695698923385583,-0.6888933996914894,-0.22560483369992157,-0.1602464967491003,-0.5708454949883317,-0.43263217743774673,0.39639540264136164,-0.39570692826858866,0.31694523367537397,-0.8058421265232496,-0.9572935664336077,0.1350135823391989,0.5891271699583971,0.3635154983688924,0.2923992855093691,-0.9072261652069376,0.6030800866406847,-0.6397984912853636,-0.690366812925665,-0.025192142041081,0.5500132797231747,-0.14991064247551622,0.9910411740726335,-0.6312661465857254]},{"Num_inputs":28,"Weighted_input":0,"Weights":[-0.07512308639700482,0.3761260954776873,-0.3876532146432531,-0.854874814332085,-0.9698681514260876,-0.893411550683658,0.597922338480122,-0.2365766594218377,-0.26856025946275863,0.2727695627497373,0.8946345963869229,-0.10661557634425511,0.08654156578759897,-0.6348939660861876,0.4509670191855051,-0.21023712685196638,-0.9156245068677171,-0.8053461255672815,-0.5413567222149406,0.275961212662339,0.8270559702746747,-0.88137377656603,-0.11578639955349901,-0.5848290151910644,0.12964448733333112,-0.05676469488492464,0.20138973979148833,0.6934032483163719]},{"Num_inputs":28,"Weighted_input":0,"Weights":[0.9937389655511033,-0.3041049103232203,0.834658154136642,-0.5059853008174927,0.1809395452222109,0.6066615419169628,-0.12023296882650403,-0.7257167240262608,-0.5210801961562481,0.4296889812330076,-0.7316466995983093,-0.02488083475582048,-0.9171661947863222,0.39335096707821915,-0.1708018941218411,-0.6236615445306641,-0.3579256930478262,-0.29402664696981684,-0.3013378473091529,0.5724088055157879,0.639265178982517,-0.569241558990386,0.6990700859512105,-0.26377396436087486,0.6886856444046106,0.1836697918809016,0.7858303945538581,-0.3347425946282748]},{"Num_inputs":28,"Weighted_input":0,"Weights":[-0.6019435352311979,0.8726079504649795,-0.2872120233542186,-0.9248031212411865,0.8255172949004945,0.38087830760122654,0.4056482082338575,-0.5817190774735546,0.014391447521493683,0.5716087713447262,0.8161280331839951,-0.16393953817583817,-0.6290509029888157,0.7565929258324358,-0.5501130439489187,-0.02248808036936678,-0.8878428624907942,0.29137387987273944,-0.8969326785696679,0.8733710519974764,-0.5391979247324464,-0.5752552669576969,0.20385407899993147,0.13854779220070101,0.8404115144616189,-0.852495197768705,-0.2663859664937669,0.845339464397439]},{"Num_inputs":28,"Weighted_input":0,"Weights":[-0.20330482446408027,0.3426514034723298,-0.009254033506925219,0.6395044545034914,0.49889340687822137,0.9361896513752961,-0.2466411724438049,-0.34794392677644814,-0.7335207035319685,0.16348535245460072,0.137109228858334,-0.18013828646959096,0.1201946995323393,-0.3174439404442677,-0.27949207779053253,0.43515751575216255,-0.8367706092953517,0.8658926885561224,0.6579026206805432,-0.3203992473566891,0.6349548370284466,0.2422835715732623,0.30277146311917846,-0.22416559654873713,0.4223006080505185,-0.6898432608343985,0.7324494140408147,0.5619470057333271]},{"Num_inputs":28,"Weighted_input":0,"Weights":[-0.7573987114030485,-0.9983484542413067,-0.47794241143906546,0.03691884015291036,0.2395648846332632,0.3512695237044423,0.6332785026386563,0.1555321172211801,-0.27631797621814347,0.8295151603150248,-0.9829632086769153,0.554915659966204,-0.6091693167819807,-0.9892950483195401,-0.048749979107673425,-0.4695193179005568,0.30249033378542367,-0.5739017026063704,-0.05176178310402613,-0.23468523499835225,0.7231720735483405,-0.37010634294423383,-0.600678731870176,0.2634891260952814,-0.06141149266839707,0.24279476374931397,0.8567685488379,0.3490195525916644]},{"Num_inputs":28,"Weighted_input":0,"Weights":[-0.9217131643432159,-0.19259734276974638,0.23367133321476352,0.7676915645407778,0.7494854990210953,-0.8988333511164512,0.7649307300356432,-0.6450821456735054,0.03296249561398534,0.9645119849543309,-0.5328118790063316,0.23320660816459382,-0.12882112692520997,0.8318406195045966,-0.43289826045313373,-0.7160799524251018,0.9928378452399838,-0.10753727983419226,-0.555794345635687,-0.39226620339465723,-0.5261451644502848,0.6238902559582487,0.5878017502283577,-0.7495132762355339,0.6873910829124417,-0.3901592084222326,0.5355571111917665,0.6133228149264265]},{"Num_inputs":28,"Weighted_input":0,"Weights":[-0.0003339831291038209,-0.9396566223377596,0.6753404020603659,-0.6478520314102607,-0.8360482406321483,-0.9295132452591148,0.5084614653227981,0.3737258635626013,0.9151915517472515,0.4487370797381074,0.2711706129428091,-0.6565358496496554,0.5499089070430314,0.23756762702091128,-0.5419091976636548,0.9551891675957891,-0.25115987625551717,-0.23638747419891015,0.9759057425251294,0.40051093262987814,0.3925827391856891,0.33322420341479075,0.8719938681072235,-0.17127079658507083,-0.9667428794446689,-0.7120872262861109,-0.040505835471716156,0.6424886102943754]},{"Num_inputs":28,"Weighted_input":0,"Weights":[0.9299233058873866,0.7417143334282577,-0.8239506192329358,-0.1459441589831848,0.6706638453311524,-0.4971696385042115,-0.7367589995786461,0.4697226552481888,0.6482634292184006,0.830357819361224,0.13517508714398763,-0.3930866355282254,0.09473450449997811,-0.726929910676399,-0.8406765692704612,-0.28173551351984116,-0.1416356827054055,0.1060482208204101,0.76516051895882,-0.9862145239861309,-0.6048397311418582,-0.8414711459344212,-0.9452646247948981,0.09866010644897161,0.6677978860911926,0.08748429575911709,-0.6395156398794932,0.02308027932448531]},{"Num_inputs":28,"Weighted_input":0,"Weights":[0.3568028196310471,0.7260042474861541,0.7412806637287648,0.74932869113381,-0.6636809690097489,0.7595284055181328,-0.4062957175754398,-0.8209026889995188,0.2900801607536616,0.8533250357394901,-0.6041382957719154,0.9447848544547506,0.7260660767998601,0.32571386234526467,-0.549334195684049,-0.28352091253994427,0.4050335543458625,0.3517309912708444,-0.41763546292783116,-0.22053923853820268,0.9189639811339536,-0.17071181641278288,0.4577093929549554,-0.6461452594776032,-0.7935686698355013,0.6370637725866577,-0.4205986467420375,0.053504348809555236]},{"Num_inputs":28,"Weighted_input":0,"Weights":[-0.7706267482380743,-0.9535498360586908,0.18904168243922204,-0.7332350318415255,0.4203385992437174,0.11201154788426693,0.10396482304788646,-0.31828972075302464,-0.9481973476574619,-0.3046326432670209,-0.8380944275888689,0.1304418585321201,0.9590140093602832,0.9502071322789207,-0.45570838754789467,-0.23332973811502655,-0.6290026740082676,-0.3052979108299072,0.33969438739558666,0.7765802419502343,0.8756901432267228,-0.8197610822019721,-0.41441893084333914,-0.07949434859580706,0.7535530126350134,0.08103912783198242,-0.8016701080447565,0.7268508356282555]},{"Num_inputs":28,"Weighted_input":0,"Weights":[0.2800437177311905,-0.9402826992081011,-0.7362436029576899,-0.2073182067565117,-0.47859553648255393,-0.941456898016459,0.26533149681484725,0.3001906295820427,0.5888416012940503,0.33170468576526413,-0.33650137621813003,-0.7042508788146026,-0.8186295615626416,0.9713910231723957,-0.2555470082292165,0.9502876240347862,0.46767047473976,0.9244869168218577,-0.9634339826185074,-0.7693977646149526,-0.05278083894472452,0.4652387268662932,0.9071850420851477,0.11932127710498186,-0.5299897486790477,0.07733980347474989,-0.1261667062886841,0.037161869048045526]},{"Num_inputs":28,"Weighted_input":0,"Weights":[-0.9668648506500381,-0.9497769535725847,0.6056584992791407,-0.9317874138612612,0.5198631466096364,0.4351530793197842,0.017231331350274548,0.13354675589999587,0.4516929970057839,0.9642734762850549,0.6033531638186715,-0.035501921985940044,-0.15015457779841723,0.37930612604719083,0.4651753936077916,0.6895735981935374,-0.3121766723118605,-0.0749276362911171,-0.5435677805966068,-0.000635173670125222,0.6443250697160674,-0.407904155099151,-0.22696227186570828,-0.813856207024236,0.822323884666935,0.10605469896056152,0.5874882518350042,0.5403167823636323]},{"Num_inputs":28,"Weighted_input":0,"Weights":[0.7377781864334851,-0.5879867226630003,0.34683254163362776,0.3850892272752935,0.57528311483883,0.791107523977367,-0.22708639839707423,0.3513869351387977,0.5467370415647526,-0.36547666576548987,-0.07100367390694229,-0.6157004665706196,0.8114804042540058,0.2525880914702141,-0.063240758422616,-0.9987814912983369,0.567220943214102,-0.5118270167217,-0.7312223162578786,-0.17011689577576838,-0.27822416620034196,-0.21389749699393024,0.8428092159467384,0.3388865350916235,-0.3593546094652944,-0.8620891402941329,-0.7507278752806972,-0.3343035798917663]},{"Num_inputs":28,"Weighted_input":0,"Weights":[0.2167759420400286,-0.015809335798189217,0.01796717865674502,0.43730837515384624,0.2822466520820095,-0.04208142068908438,-0.22380251383316985,0.4548958566525214,-0.7724093070121896,0.04225237602946552,0.23319650813178905,-0.6333601011883441,-0.27416899013838847,-0.36592474435075895,0.35966263387309727,-0.26976199304771176,0.33947342755537924,-0.25403515410437305,0.3416402943076211,-0.6821616673688897,0.48927854362024203,0.05963625243855719,-0.21970871598231934,-0.9072268901502055,-0.6246945412713194,-0.02950251416534322,0.5000708775404861,0.3934098988135424]},{"Num_inputs":28,"Weighted_input":0,"Weights":[-0.8425456289754014,-0.9708912219662652,-0.8535576895705468,0.33779536441443114,0.126328050704952,0.6160250220403374,-0.45596840351841583,0.44975093080271367,0.8821715870983877,-0.8172929812210812,-0.45878248945311284,0.9897570322172387,-0.6079929368709376,-0.5240072341023476,0.3161846252658991,-0.06136160911341171,-0.80915822337738,0.4873015370355718,0.9796385439782345,-0.27391720195575386,0.8349661079615383,-0.5713082591566728,0.19038080170464333,-0.3896638893061489,-0.6160196066571673,0.7490699821725009,0.5395321361964847,-0.6178287864465075]},{"Num_inputs":28,"Weighted_input":0,"Weights":[0.36993295480652755,-0.21990533357152608,0.831713678273849,-0.810916498177031,0.27546451177469367,-0.17462068020142052,-0.8865874412851185,-0.37677723551983944,0.21953917551375413,0.27179296143741216,-0.5296846901232235,-0.8963354221203853,0.7109334398367682,0.9922846041488287,0.960190991456761,0.342473595897987,0.3393315991624337,0.29118739161689167,-0.9067452930680232,0.44066244195389426,-0.90663792347327,-0.5827955711201065,0.6627961839650913,0.12629323188801056,-0.02973564061037226,0.4987494755436739,-0.11636384247686815,0.6725602404197706]},{"Num_inputs":28,"Weighted_input":0,"Weights":[-0.041188417594075655,-0.4694107552872433,-0.7141278395086854,-0.7171639137432815,-0.9005831812014824,0.45254800485957425,-0.9686849861307603,-0.4287671803778623,0.32520036554855536,-0.6185945996359614,0.977487721797146,0.9490890927330364,0.3810295815138367,0.816698525220735,-0.535431103948095,0.985972261771624,-0.5384957967920058,-0.534614484525149,-0.20171232473251832,-0.3575211038538544,0.615406481192502,0.8739896983080038,0.7282564882815261,-0.09041876854083597,-0.8546549457630876,0.9383478361839581,-0.17338641660546594,-0.9153555330939427]},{"Num_inputs":28,"Weighted_input":0,"Weights":[-0.3452346706556685,0.19720912907244292,-0.6373014654761449,0.06623083730844814,-0.05201283734027695,0.3781890972821791,0.5848924818969872,-0.3345263484919878,0.9005021139242102,-0.6301739320550148,-0.19275349863739843,0.6143202909372012,-0.7512028318738515,-0.3119202411054096,-0.8949537855488948,0.779916874287079,-0.39905943395142285,0.5614632870738936,0.584538044629616,-0.2898956835543567,-0.31299730042189977,-0.9008133711334473,0.8086148368119708,-0.9189835267173675,-0.8899990075433096,0.036237716619224036,0.24326113444064745,-0.5669299261687257]},{"Num_inputs":28,"Weighted_input":0,"Weights":[0.13258377636068097,-0.057588671203756325,-0.8188474584463592,0.07643960546644024,0.2169599240022826,-0.7776983211557451,-0.35920377162194417,0.8729013220489641,-0.3376197698098179,0.5030795520007452,-0.06308196346965289,-0.4497327957045545,-0.8046429456591307,-0.46454576310753903,-0.34886116049681515,-0.0982858984716164,0.6638909065892507,-0.10554934150389983,0.25291437397153715,0.1412378216935335,0.1054145306293448,-0.8771413601802378,-0.7230624157061809,-0.9068473385154774,0.28318328881188326,0.13532462412106017,0.9118690539743464,0.7581444107216659]},{"Num_inputs":28,"Weighted_input":0,"Weights":[-0.349480151817414,-0.8819598776594534,-0.5395839794792807,-0.03165239964030264,0.848529144774032,0.06551124064780423,0.7021539020488037,-0.9152294885152301,0.8980415000031701,-0.3090975373271393,0.24697722983542136,-0.13381559482180194,0.4032087442438579,-0.6456058646096983,-0.5598364332767645,-0.9273589247963174,0.7325300059514874,0.9718665546551648,-0.640705582695394,-0.7312160021771541,-0.15624945138360924,-0.39993667585518544,0.7558536897772123,-0.01680060081623791,0.6685348107897593,-0.3456127277204055,-0.3320477265286593,-0.23740763277739085]},{"Num_inputs":28,"Weighted_input":0,"Weights":[-0.28003401141863515,0.723379018173393,0.16861667831346772,0.6796590106977034,-0.10462300336285402,0.34505487608302854,0.03665544182643754,0.13898868459474567,0.39826312803995423,0.22866010377600077,0.41710987860477133,0.8398944761716984,-0.46741111706309024,-0.7161966478207342,0.7316479901730055,-0.16837247097478136,-0.6371775183777639,0.4810220556479574,-0.1373083474198793,0.17386072806890973,-0.7577061057316017,0.5359622541067359,0.6696842020371918,0.826115740758433,-0.9274294291217043,-0.8515642664187522,-0.10956681412587499,0.990553493784339]},{"Num_inputs":28,"Weighted_input":0,"Weights":[0.5042169624972146,-0.38827679327647024,-0.6130161795430797,-0.2056420252593547,0.5135466888341607,0.9017123285971353,0.09598827127332465,0.5865760208916486,-0.8238617067561625,0.20877752657004023,-0.8100188262297037,-0.575205272996205,-0.3096780067098338,-0.8525893920098282,-0.8291245082969783,-0.6042551632969568,0.3544126851790732,0.6245711469881499,-0.4279130766175734,0.3939176834669431,-0.25572273463032,0.029958533007372168,-0.1599852517243936,-0.5135888774144048,-0.5360057214015946,-0.7308528128276328,-0.25865885416540524,0.2630999266197771]},{"Num_inputs":28,"Weighted_input":0,"Weights":[-0.43212957733968527,-0.5227699994242245,0.5935946569245101,0.20880206735299156,0.7534741713416924,-0.3328501134709383,-0.06603382510687661,0.9416059101136158,0.2784373381725094,0.7624070123261022,0.03601779234240454,-0.7357631116006796,0.04485757185842587,-0.2400427675855067,0.14330916923360282,-0.4910915514628095,0.4294021103110077,0.43836320957608654,-0.2902465050755495,-0.29386047346092037,0.5395675536685003,-0.7465254659478986,0.9938371934360144,0.3688759531323491,0.5720410440720409,0.7094317345323542,-0.15921514681657534,-0.0923742752101343]},{"Num_inputs":28,"Weighted_input":0,"Weights":[0.09733710484549629,0.7697668703254934,-0.9117158878698249,0.28742150802337907,0.37328528205747746,0.5755737540871908,0.9692974662996516,0.09046965629915382,0.5431141733830096,0.22042174565424943,0.4689599205164907,0.511821540406612,-0.4871323309994998,-0.2856374140595145,0.7493867806000922,0.22116863943352483,-0.19796195261795857,0.6074669838877877,0.8146533639218625,-0.4485708518794195,-0.4726962594331342,0.3586565507241617,-0.4695422816747502,-0.3210245000519908,0.1789664627021308,0.8595697525639596,0.20970517907212116,0.32574470664375954]},{"Num_inputs":28,"Weighted_input":0,"Weights":[0.3696512778505878,0.6499047467930514,-0.6668077157981369,0.6459130499086179,-0.58529694242377,0.9296910667883316,-0.6464009401592408,0.37673463243102345,0.5434693314819969,0.7443967997813579,0.3432725583404108,0.2732306609265829,0.1763954039119222,0.5876131661938344,0.7118047291810317,-0.8701795309798689,-0.6281797017417643,0.4593991992663853,-0.805400873243644,-0.5050540923999391,0.6769601706448971,-0.7355458331049758,0.9919351645294596,0.9443605937785984,-0.10954015970759023,0.3621976327373857,-0.4677685449108293,0.4673169803596189]},{"Num_inputs":28,"Weighted_input":0,"Weights":[0.5306628002078588,-0.40785051419183505,0.948851839113696,0.04542099858712012,0.21760792953355068,-0.7666477987174929,-0.7494651514707634,-0.8991907269403916,-0.37104119989497,0.31140662024428756,0.8890796066423652,-0.6702758980282194,-0.01696174617908386,-0.3871737327494026,-0.6314330137641015,0.17465047767639197,-0.7244762574639416,0.5656436507361442,0.33617888471406854,0.5562416139013773,0.7333992694667195,0.12516604237469298,-0.6793171552961315,-0.30109266714927496,-0.33705941349777835,0.9388510440329241,-0.17247629693606537,0.274292666294661]},{"Num_inputs":28,"Weighted_input":0,"Weights":[-0.2319137081994488,-0.6644996373048193,0.8385910591194454,0.031652181876508756,0.7330329417048693,-0.5703783623225722,0.17246017769376887,0.238588071653137,-0.5412576417782908,0.43947242525806285,0.034575035931044384,0.382888141804711,-0.8315388313711751,0.9138367384991817,-0.7900105778965769,0.908792226346379,-0.7153497961002648,0.6866126782666109,-0.49298603655297735,0.27735870363957504,-0.07551138618939923,-0.9317040864015778,0.6507369396805258,-0.9305711079593768,0.6732836247677811,-0.78882182762701,-0.17166029524854043,-0.7838672437626905]},{"Num_inputs":28,"Weighted_input":0,"Weights":[0.8841323996798764,0.44575831833963075,-0.8882797604888342,0.2650320768993626,-0.2655788439675282,0.706346184317475,0.20831875334792516,0.8886322703379821,0.18102867959449576,-0.1826188495660227,-0.7856127311187237,-0.44110024912510115,0.4284407423050409,-0.4548208503297627,0.5028840532954622,-0.9588975219013123,-0.34816499517387967,0.2275993102708922,-0.46999727580778816,-0.7268493625083823,0.5177960557640484,-0.5777954976645239,-0.2392611415311312,-0.7983322258802423,0.5846235954530841,-0.41339764271373536,0.46489491807911665,-0.7078764557228769]},{"Num_inputs":28,"Weighted_input":0,"Weights":[-0.7575732278027368,0.2780073924860289,0.30777678113143336,-0.3682150280084061,-0.48445237102528194,-0.9668900992141116,0.43048315672183435,0.4744022652990758,0.08779489092164972,0.6624528204262103,-0.6670056394231987,-0.19298600560599988,-0.31533564321563623,-0.793842475279931,-0.9685607678802702,0.7328217491148812,0.9190635210130094,0.2227609380324589,0.7098449480622047,-0.7676625162319359,0.2384124938037857,0.14474975307352556,-0.3936969607412033,-0.48776505046514274,-0.5262855041468639,0.9700615044799219,0.9181846587967986,-0.21447996488841592]}],"Layer_output":[{"Num_inputs":56,"Weighted_input":0,"Weights":[0.7875598589923833,0.5830210485424616,-0.4682010679875799,-0.2656647541008478,0.7270602196459421,-0.5880135063482043,-0.5953808744521265,0.911434201321754,-0.7394517833078034,0.9236602814607755,0.948916447600062,0.48398062934312214,-0.36803081129619075,0.04459012825444142,-0.08744762453343702,0.46786974212937205,0.43384185050364565,0.36801418475433345,0.4906678810064671,0.8989514478328633,-0.8332032246534568,0.9790081758904126,-0.7998279064387463,-0.6240211707514931,-0.15770739844297998,-0.9774396505330063,0.22028172147369784,0.7738144174715831,-0.5389299029914396,0.8329636281195809,-0.8549444416061385,-0.9639430470306789,0.8901437844975706,0.5086590594125959,0.03777886479151049,-0.5508928019387898,-0.9828647869480618,-0.4946315518095795,-0.009735864760739399,0.17480392302398817,0.5776266011105873,0.7436847243235696,-0.10496432771455222,-0.977378383544281,-0.4500534949894409,0.24784666108746967,0.674468424372271,0.2795534703979985,0.09008418993483214,0.016150646441272842,-0.2843666127259076,-0.8210444946068128,0.8014024423375463,-0.056867359018263564,0.77475199180901,-0.14840456356423437]},{"Num_inputs":56,"Weighted_input":0,"Weights":[-0.6580112017096096,-0.7481924909184337,-0.14946715854787407,0.6723644858793023,0.5364488897877759,-0.22945151458443647,-0.573173373000306,-0.9146217921883514,-0.7979388788558306,-0.2689799023438413,0.016400827895060477,0.5445851638314836,-0.18662897389129274,-0.2161579526170353,0.5213146750896991,0.4284158024810547,-0.7682744563397705,-0.30079791388753263,0.47515320326507937,-0.6074638091422454,-0.24486982385122413,0.5938458360897876,-0.8286584796662235,0.6270266308366539,-0.16153008466061913,0.28143561169071485,-0.04462899916793939,0.47118275097308904,-0.5691758683124306,0.42580071638747086,0.8598400114560676,0.3773946741187806,-0.2208579066620595,-0.9217307388807958,0.30137397293031243,-0.07758179935468756,0.009028286484852321,-0.20955624240285986,0.9906960442100508,-0.3340532317853828,-0.8333537211964487,-0.6439689425478319,0.21239707755495307,0.7105128879327562,-0.7577925535938373,0.15998542039219577,-0.28803641942828884,-0.8257122917897899,0.33022046445705056,0.9341598975550334,-0.6155630784918518,-0.0895204081264045,0.8716896129561591,0.44356856949110446,0.47251554852842714,-0.3751749931097156]},{"Num_inputs":56,"Weighted_input":0,"Weights":[-0.7246925699966279,0.034895843787900116,0.46308565719329464,0.2670616035448239,0.8466021255452438,-0.7790067064489726,0.08453431248307641,-0.1322972568605908,0.6714003297314917,-0.19879406391799215,-0.27761122776404734,-0.5021438089718261,0.7838058330410089,-0.3671958573813432,0.6804911243520428,0.7594712420946699,-0.5647979249831844,-0.1528520715242213,0.10027334409803279,-0.18268089083273764,-0.19153684181379482,0.498619718930303,0.6338563888992212,-0.7406831046480862,0.05737981899686129,0.5656082621260536,0.4744840092724081,-0.5086856696554583,-0.6848878740381115,-0.6168526897205202,0.012219592750799313,-0.9463649451118837,0.80196395447071,0.9379063909013154,0.9343257139956231,-0.998102477593983,0.07045944086146738,0.8294216623862585,-0.33545819903770635,0.29847397885377513,0.05728778243948396,0.28684513874854645,-0.09222267754756797,0.7807781577659372,-0.14561318609704532,-0.5921663545294271,0.9237547652016072,-0.7265604433569395,-0.745736816242013,0.6258014287621891,0.5331378760691501,0.42963411373122296,0.14120342463006308,-0.9266821577285754,0.8118766328655977,0.4628270705500783]},{"Num_inputs":56,"Weighted_input":0,"Weights":[0.19324870428690377,-0.7188685004292079,0.8103617014773723,0.19221735329700618,0.7085036306782373,-0.19859012670549614,0.43368756647176676,0.8536869267757474,-0.6079227431716021,0.08832741851435366,-0.3242290346773695,0.3729151233611163,0.12038981114957736,0.6761043889381482,0.34426380944260404,0.2672231205126163,0.27050991354261744,0.5210344885262326,-0.48177327336729114,-0.131044141592363,0.9207925804729009,-0.5548958383493512,-0.8166271178896846,-0.3648621772096514,0.3908556169582442,0.7926744769604739,0.4094197203375598,0.895542907026103,-0.4249983848381561,0.06270077969042198,0.16943840509629027,-0.2279177515691616,0.11672633709916491,0.18219399391421098,0.40129317067820613,-0.9874836530780772,-0.741001871316911,-0.6029777555398895,0.45672010641643657,0.21140846054248041,0.7545923183664827,-0.49998631475280475,-0.7048197377445503,0.40181190257508836,0.5334715812754844,0.7024124570273977,0.7867233195902925,0.20521562733360033,-0.07441580044735152,0.015773264728514036,-0.19814940996992647,-0.05290080252889984,-0.16120163451812186,-0.6827351245710948,0.024477187949895063,-0.5489640062207186]},{"Num_inputs":56,"Weighted_input":0,"Weights":[0.6303013653601508,-0.8148595271085348,0.5655630794399455,-0.7241891058729213,0.033629460140076395,0.8901625927039958,-0.29566520798155327,0.09330352614640769,0.29730756180170337,-0.08607512132751127,-0.1756956320827613,-0.3710385023188755,0.431311434976263,0.2828732003923966,-0.4374802586511988,0.994828511621737,-0.5871841335005688,-0.4828664101349147,-0.42566435012808657,-0.05706969052677757,0.827419976730895,-0.5674274300258151,-0.07568755865637455,0.8371617484670202,0.9466654885961292,0.5599303904164128,-0.97745877629775,-0.8012047874088578,0.773333913789876,0.6065804520149096,0.4319452911085113,-0.16721951301875781,-0.9260444374289327,-0.3363228794423324,-0.2469999618481784,0.6228207853377199,-0.7071905587737477,-0.6968001832030252,0.5634030742048972,0.5012506953899656,-0.9515140898564383,0.8841222761470049,-0.17291838786228442,0.1881212818096738,0.46154542309959057,-0.4451354949841674,-0.06860598072981994,-0.05001950587516124,-0.6993552260075351,-0.39020917622201234,0.565781742022657,0.6860591373724483,-0.18069838766896718,0.27101090632424074,0.5743830686167148,-0.035207403795048275]},{"Num_inputs":56,"Weighted_input":0,"Weights":[0.0013797197614677792,-0.5307391032403201,0.7771902927682564,0.8321402434946563,-0.7174810944517169,0.28445947771811997,0.1449395091633967,0.5987314528915042,-0.06226409247466125,-0.46552206890731496,-0.9840572115148388,0.2225811712417356,-0.33188708835633307,0.06898241653366055,-0.26494060723127233,-0.29385752906978324,0.7398353044817603,0.6435153971211671,0.43322992165885665,-0.03440272570173952,-0.9401974335847112,0.6210713228899363,0.17370948357843097,-0.6638965662814267,0.6700991393459594,-0.42394616298291343,-0.45117951704660875,0.729433715461651,0.17100300433848514,-0.6960583708372776,-0.7102783995475523,0.9284790113954529,0.3396795781121178,0.25015425949674075,0.5382417139313014,0.697668822733281,-0.16983953970608,-0.8199849596579338,-0.2560911343320025,0.7288813281634585,0.9056242018727345,0.46980645384827513,0.7163761250580685,0.3061461914285222,-0.581656319450047,0.6150097901976663,-0.16789086330677871,-0.38591339119324164,-0.7947234653426659,-0.1777383881135124,0.02339168719850604,-0.7559992832970752,-0.8275567318043447,-0.8887096189080195,-0.4537629049114432,-0.04277616263079742]},{"Num_inputs":56,"Weighted_input":0,"Weights":[-0.18308873251329072,-0.5381232658699515,-0.934315686807077,0.3082051261944718,0.6818103838206748,-0.13272873614856562,0.9007125561449885,-0.49997093314037333,-0.10887274132400926,0.008367660131008092,-0.9540035318535481,0.3724658709722972,0.5597473383858038,0.9324195452003818,0.7953693721159063,0.9977461782830073,0.019620416411943342,-0.21942335920201894,-0.2897783490323349,-0.07385567226015954,0.4017859340035821,0.6254572460694812,-0.7944334971172329,0.4848352862948573,-0.6006630667665355,-0.661945254964053,-0.29569846310358283,0.9791838262638071,0.4903258619583466,0.8374950680538074,-0.7782793184179544,-0.0977894358551109,0.0281891685097182,-0.2725772662980208,0.6291256860930086,-0.9274576523610305,0.3169757775015378,0.5402389129923475,-0.5413623117469414,-0.4403551831239374,-0.9748421770663555,0.6836545182218927,0.46860200182468636,-0.15372317190884488,0.48869909834500547,-0.13069596664346683,0.8841585465679236,0.7725510656056283,-0.43660835243468543,0.047552653357314734,-0.8391623353013529,0.3887615828496449,0.2869389303438865,0.6210708962733034,0.6660179941917386,0.28628702664330663]},{"Num_inputs":56,"Weighted_input":0,"Weights":[0.7434500227941301,-0.7843193177006904,-0.20393072104534604,-0.7390672674544583,0.6543356298127663,0.35263026475578174,0.1950293969777206,0.9815289906312479,0.3689832869751981,-0.14736159025408502,-0.5215298877038653,-0.9829570586580287,-0.1444288642932997,-0.23290432551034124,0.03565619928450747,-0.07856789105506501,0.6361514584174821,-0.945851261610156,-0.11740612699738373,-0.26465845998103354,0.5426394816150593,0.8691176243958816,-0.5630500553621951,0.6094660223949782,0.36852245291084107,0.6992581244607796,0.3580539720028617,0.07131564582799887,0.4609123474005581,0.15861749704210615,0.3035168491410627,0.28264205187337854,-0.8522849283152895,-0.051377400691567265,-0.9074556279770079,0.20758346155353657,0.7984080368352231,0.33336148371239216,-0.5024181102110675,0.5424506674044507,0.00830487856763873,0.48005775452274624,0.38704251051523175,-0.10118208145260565,0.9200991940486594,0.06491935258220871,-0.7956209939914368,-0.6103145288981289,-0.31503105505135187,-0.9179311497755914,-0.3133578105726511,-0.7475600131959255,0.5201358017952791,-0.330403043617594,0.5899874387254347,-0.43021976734272704]},{"Num_inputs":56,"Weighted_input":0,"Weights":[-0.2556991720592767,0.3991188068826388,-0.20033328601803935,-0.5347966921360879,-0.047709650498266476,0.11534195321887464,-0.8342862967120999,-0.6810555412179449,0.5619156605810318,0.3925444076031539,-0.5025914312161913,-0.08252415590617423,0.310311349520511,-0.45393088296310213,-0.5550859195726559,-0.7362073460315264,-0.5542352642800915,0.4234424937369061,0.233993837279606,0.30947668540458606,-0.10832523895547985,0.8696557678211592,0.18578646791469566,-0.394527385238273,-0.40808109979531626,-0.5172282416003027,0.815084578057903,-0.4759444529867328,-0.09786451605560698,0.8032090597435477,0.8235133658162457,0.3422136757503855,0.10766395748615643,-0.8846598980196347,-0.35700376936173184,-0.9215234382765642,0.7825530700692869,0.14519220319257453,0.04079975910637712,-0.23902898163669495,0.8541650364297426,0.32155441598022216,-0.22318835077235333,-0.11104132174316694,0.0012174057211655764,0.24534770036944642,0.5127624897137188,0.01676757130795381,-0.6283633792176508,0.577837331766067,-0.21417365860143955,-0.8307849786980708,-0.14672019059123453,-0.014105466853862936,0.8735111851722455,-0.4926724817158442]}]}
