{"Num_inputs":28,"Num_hiddens":56,"Num_outputs":9,"Layer_hidden":[{"Num_inputs":28,"Weighted_input":0,"Weights":[0.10892726206015402,0.2905036283729079,-0.265899162399276,-0.20286012199181613,-0.15163175996353195,0.9548993190522717,-0.3951768215164454,0.6219402019746461,0.9423330496937099,-0.6483035168575572,0.06590407218185446,0.292646338845153,0.0707574499759065,0.17919678293730046,0.9170784571101889,0.46997510684854626,-0.686972612428101,-0.7517627407005811,-0.9734931475190205,0.053939599090330415,-0.0703364197127726,0.7475863769831754,0.05142514450750646,-0.15667077050927036,-0.45157471898026846,0.6847821059176444,-0.6011326841704971,0.6564008167269819]},{"Num_inputs":28,"Weighted_input":0,"Weights":[0.3648303803986186,-0.1799209607477037,-0.7174204511142321,-0.994356601362678,0.26691963551302567,0.15203163762987226,-0.7031907008205439,-0.3266103945372789,0.5845249705151094,-0.26202155048559095,-0.6057714346365427,-0.18426995986846484,-0.37357046642686154,0.6383979949172802,0.6879406182870702,0.8043694024115198,-0.5616174822200313,-0.8713544850493828,0.7520807628501083,-0.8394876057797722,0.028538721279196322,0.22556232696427503,-0.3865459395631259,0.9065234375270703,-0.6584428961088843,0.9196640095773592,-0.5439231980472388,0.7582371543186475]},{"Num_inputs":28,"Weighted_input":0,"Weights":[0.7814284246573475,-0.33214820021776614,0.5126397261757354,0.4374980504673982,-0.12451214197771188,0.3394514412801708,-0.5927187869954851,0.7972470124415298,-0.12443706241327956,-0.12374688459077876,-0.9958245796575761,-0.8250043410151571,-0.30888024455217145,0.36871453923929076,0.03630397220261372,-0.5971099513303897,0.7435275237661512,-0.1922120356536523,-0.754110273265482,0.9889857632865364,-0.02848203725612164,-0.8116102035829771,-0.8500957722839613,0.3429117683281462,0.9775843978258552,-0.500341660758268,0.828700202490561,0.6541821820992075]},{"Num_inputs":28,"Weighted_input":0,"Weights":[0.28632607270949095,0.4777784064735666,0.39924462369955416,-0.2887197569538237,0.5302187283749309,0.29803146289409965,-0.4533391387803648,-0.38916326056227646,0.7270554912216101,-0.5239327735767431,0.6180483786929027,-0.8579269900909172,-0.014172290240992758,0.8450230319404681,0.510643158412954,0.2444769916865568,0.9056711346269293,0.13007891348534995,0.5496362199656808,-0.47455077958295344,0.787686476459942,-0.6595743869766015,-0.21495491478885664,0.09819873093880327,-0.7109663766199195,-0.247566907429285,0.33324139389296015,-0.7835939616648472]},{"Num_inputs":28,"Weighted_input":0,"Weights":[0.2998510602449076,-0.5778167198573755,0.06448412210587562,-0.2945700459560717,0.26695300189999527,-0.8506904146468097,0.6088842017375853,-0.7342005960599011,-0.11301537077678181,0.1891544748165268,-0.2095268871226864,-0.24535680313777364,-0.17557243076908524,0.3103285665408517,0.1411498389081962,-0.46488422830254117,0.03629027561125975,-0.8230266742464565,-0.5245866152439437,0.7865543541168702,0.4488692250313524,-0.6483120822108737,-0.3276305477100244,0.23871149925517687,0.2178660746398342,-0.5916274238392725,0.5555678169285339,-0.8434004575091945]},{"Num_inputs":28,"Weighted_input":0,"Weights":[-0.2818045446296983,-0.8496504272172334,-0.6965825776719514,-0.8503744552431429,0.7833449543276254,0.0020155327688744507,0.35569843125305955,0.48800377961363006,0.45313438382308413,0.9478593715355585,0.12953214176626582,0.40649221516803746,-0.2480968780037881,0.5040661483197271,0.914005333511386,-0.35580618230378047,0.25884924006432897,0.9469283123577996,-0.7765124384833858,-0.46842603192967613,-0.05265782326239199,-0.07747234433084538,-0.6389906884564015,0.903334717539001,-0.18216415363686989,0.7693164713260463,0.7535140791019621,-0.36281842184199764]},{"Num_inputs":28,"Weighted_input":0,"Weights":[-0.24053796074979295,-0.3696471551609636,-0.9992909584136553,-0.6718733524337425,-0.5245168154493076,-0.6711195474368241,0.9122430860045456,-0.2382973687904354,0.9462090702997916,-0.05046613921872212,0.4579305896659769,0.6558606419232302,-0.45841064310052226,-0.4028559750524542,0.1552572056044894,-0.06401788358667393,0.1103538160230999,0.767627327397838,-0.8328191390106732,-0.4350262603128979,0.2885285466727392,-0.4371206629004145,0.9843956643509091,0.6147254938247613,0.1999962330099636,0.599019157644433,-0.6799433974997233,0.5636567385306366]},{"Num_inputs":28,"Weighted_input":0,"Weights":[-0.9268163064947159,-0.21232459513485158,-0.975570570609536,0.9575316807842313,-0.8341058640907945,-0.3780259937318188,0.5183654844581438,-0.25427365060415585,-0.26330678590781875,-0.29124707522272686,0.2242111711015078,0.9140967273889931,-0.8177902034032016,0.7910542160613037,0.6088591688990408,-0.7618466656719249,0.7974204700894798,-0.7130015353489478,0.6584018491071477,-0.5383102093292698,-0.48638698307935824,0.03384821608255861,0.8132973152900504,-0.1639785385368674,-0.4435655546972025,0.2540699698832338,0.722193249945438,-0.04284358376323494]},{"Num_inputs":28,"Weighted_input":0,"Weights":[-0.5346601562137133,-0.07882897181380544,-0.23274121881320542,-0.5027352232218156,0.8591101473439875,-0.061316083852762104,-0.8217852427499004,-0.24545038679961018,0.24802534085860106,0.006217991299403813,-0.9019101179653706,-0.8440682238599645,-0.587531533013574,0.7904035147400847,0.7070768423649612,0.1774702109404831,-0.886598871045737,0.42816555043223903,-0.1599424275848318,0.5929563586729343,0.17973388425155257,0.4478745595747329,-0.5238974086048765,0.4826573909285432,-0.08993242146841562,0.4070629296005821,0.2659607466021032,0.8572705449686773]},{"Num_inputs":28,"Weighted_input":0,"Weights":[-0.42469345385969914,-0.4377612283185113,-0.9713090297109932,-0.37592867259818596,-0.8998187638160863,0.5108937641739637,-0.4923835872297244,0.4683321664099629,0.26686361374820655,0.7259916092369882,0.6237747086583174,0.8835170405759227,0.2385895632473296,0.504132998103767,-0.2886340890393495,-0.12600184025777195,-0.7954946675007056,0.8707991610211478,0.5925766677182811,0.2708260942701495,-0.5657586906017131,0.45078371889937663,-0.48876871274617595,0.4957574298205203,0.27356033434211424,0.19478433899964376,-0.20032825897048612,0.8766739253323541]},{"Num_inputs":28,"Weighted_input":0,"Weights":[0.5912531720368206,-0.3242601581498167,-0.9460736269370923,0.3828128865390672,-0.2445147397547207,0.7190246852971518,-0.14014653988207104,0.6902141606398451,-0.5189418980909527,-0.8824173293876677,0.8640563868031352,-0.6590149050031673,0.7286770890248853,0.8507971974752453,-0.2550001240078773,0.7332573122443047,-0.87393988942352,0.9236670883440143,-0.03560196441498409,0.052848035417133454,-0.8659638347202103,0.4354570788439023,-0.8946925654443292,0.6804919761403816,-0.5266239564320792,0.7150558154668254,-0.9174853083978071,0.9887867701058002]},{"Num_inputs":28,"Weighted_input":0,"Weights":[0.8474466420125879,0.44526375195075096,0.5650154558012968,0.19464580424640476,-0.5329080122945683,-0.2574057638093573,0.14536879755862508,-0.7256775555798838,0.08310177451417866,0.10136941385863851,0.0023792196068364024,-0.3480304313356899,0.5667498413238914,0.918664533708835,-0.4082688349714283,0.325517530664871,-0.365763322981855,-0.552713396203441,0.6844871999837299,-0.8286431954056273,-0.8434807641847022,-0.5024110164779598,0.5810678040324515,-0.8032460691728419,-0.9343598013356602,-0.5066272591819523,-0.7614898525543297,-0.8230103715839169]},{"Num_inputs":28,"Weighted_input":0,"Weights":[-0.27019909933157715,-0.9427528654950783,0.5318679902969972,0.20921227098530681,-0.056956252065173185,-0.6685311864758952,-0.6148338202528234,0.21594025988356091,-0.8808658046009148,-0.6947026575041653,-0.7592783983956779,-0.7260981792473907,0.48610623353303195,-0.3865940669461305,-0.9394074472397141,-0.021405199577003375,0.11735851045948698,0.5037580984665799,-0.33559020514997306,0.12245205417668847,-0.5090371043171296,-0.055915891959273045,0.6968457731565065,0.49439868142870247,-0.8976998526349982,0.09735436843215206,-0.2879118382905804,-0.8686843682781837]},{"Num_inputs":28,"Weighted_input":0,"Weights":[-0.6066861986792147,0.07981853750449441,-0.2281459426788297,0.04242698223367092,-0.7031805780255767,-0.4026955047834212,0.8173279846824864,-0.5299667672459816,0.14613799192069576,-0.15316987647597147,0.6765071847181394,-0.6772816932119003,-0.05229460968305266,-0.32095330134051137,0.7832695065880275,0.7694798048366029,0.8277767588885716,-0.21849309803995642,-0.2502151100269797,0.13835434074533692,0.11116671467124783,0.8879211288060096,-0.8294498109073902,-0.7168724524183362,-0.2879885775907821,-0.7972927839615755,0.6289637292093218,0.9855831364858452]},{"Num_inputs":28,"Weighted_input":0,"Weights":[0.9958590133082177,-0.4647296942958855,0.007145822671572599,0.6004349153341415,-0.4124782433012909,0.692433937017991,-0.2580043746250258,0.8114052079460079,-0.8858639322672605,0.16978001438510137,0.7552590803732966,-0.7676581866963065,0.28847382023604884,0.4125817206438567,-0.6274543600202617,-0.6835784280634722,-0.7596799874480762,0.05655399325683419,0.2780320765992874,0.9994417135282709,-0.7268962384137937,-0.8795403646936725,-0.2137376233891557,0.6053051549920145,-0.6420509851728117,0.25789187420488413,0.35167457462721563,0.018057123243164108]},{"Num_inputs":28,"Weighted_input":0,"Weights":[-0.344364086198257,0.12770288111985173,0.6741526558417386,0.5819033230317703,-0.3104432961217005,0.4729847228503803,0.42183366563643765,-0.7827798896183258,-0.7120421173500682,0.1942860408199234,0.43670954179053356,0.6843617727007265,0.25074253542277636,0.3049184349912404,0.8326198867469756,-0.3952947818191427,-0.5067701311766486,-0.5066147983519329,-0.07700124515225815,0.834761675342107,-0.8382925107782428,0.5467076038211842,-0.04994127530275638,-0.959740232479838,0.46072947005210385,-0.0787440285572164,-0.9851691818366658,0.9141904798063094]},{"Num_inputs":28,"Weighted_input":0,"Weights":[-0.55388220866248,-0.38652821849122154,-0.5100012179667872,-0.2971168655889468,0.16657753078660553,-0.6304978525272815,-0.3827490257948669,0.9057115504225419,0.10014109611735389,0.5718181074077218,0.9713690205875516,-0.8515445533596979,-0.6368830788168698,-0.7120070641938967,-0.9143499573182199,0.49710544281393454,-0.2683466581485454,0.22761872056267185,-0.36082034134562424,0.0799722571545507,-0.06499790122522331,-0.02663465760743644,0.004251264606783156,-0.13268795958235335,0.9435467811541962,-0.010924240976358246,0.5320836783511125,-0.22663458072148523]},{"Num_inputs":28,"Weighted_input":0,"Weights":[-0.5445335490577803,-0.7495726830259726,0.9844316874841632,-0.006030068600768823,-0.04993560068329017,-0.030118398829658277,-0.4688112959008006,-0.6938196585973717,0.8970330073664605,-0.8063131176105269,0.9632232888302332,0.8243964670013726,-0.17959332935651107,0.8447275613070537,-0.31722146495459214,-0.7173420300827471,-0.9637437373797563,0.4453835785104223,-0.8308908898530313,-0.4404822824344058,-0.6438448353601691,0.7648853676540515,-0.3776117586579574,0.4241230620872236,-0.22829484743521267,0.7316682898482036,0.11120178122053592,0.6981016665741928]},{"Num_inputs":28,"Weighted_input":0,"Weights":[0.4563984514289494,0.6144801731147445,0.22279057789549261,-0.42100715504088326,-0.04661833747903721,0.3308021592596686,-0.3388566577609705,-0.8775529212664664,-0.7259118265948837,0.9653639362112516,-0.2906117187604004,0.8606306082076864,0.6271483046954416,0.21401364192337335,0.33016759595709866,-0.3239190634879754,0.12913657147183044,-0.6866800188101618,0.28596456941555615,0.3393861488806822,-0.3179058681869673,0.9943026974004534,0.5557352722685949,-0.21220833159258223,-0.8309149191566094,0.37650890903792433,0.9150548657270925,0.3467379133665758]},{"Num_inputs":28,"Weighted_input":0,"Weights":[-0.8803198288358333,0.5759012336428928,-0.9249002204354637,0.8467895434479542,-0.9623743791634957,-0.8929083555224999,-0.7359183786792034,-0.5542279848526082,0.20257317897108007,-0.9898919853316427,0.7561759005023809,-0.8301349875236129,0.44519958363339573,0.19446429948490818,0.33447258015985537,-0.39668244755223625,-0.10998705496111838,0.599862643827469,0.23282773588457206,-0.7975430921345724,0.9346118253531477,0.01897904559526742,-0.1023141429357739,-0.9086694688681087,-0.7399823744939764,0.6648162144903398,-0.06717226824480793,0.03234362939034785]},{"Num_inputs":28,"Weighted_input":0,"Weights":[0.6186352926726226,0.5961316216751287,0.6661153422781849,-0.008368644486104415,0.6881524482597423,0.09600422667804431,-0.7227118840600868,0.6337566430400663,0.20479349902295785,-0.7347323640150794,0.7750247389224227,0.20549695774746457,-0.20041282440701014,-0.1778726014435672,-0.5200557306237598,-0.9285000821955344,0.044522490618293276,0.4335886272777687,-0.004945216149738418,0.79432870134025,-0.2311604495159626,-0.5648367262690743,-0.6879476792787174,0.5640834802689885,-0.5484685170886123,0.10489147797716858,0.9734464901180473,0.9493631708970836]},{"Num_inputs":28,"Weighted_input":0,"Weights":[-0.5766763337544591,-0.6470183029149259,-0.3588360807825609,0.8473411310340293,-0.9283006793590396,-0.8799855471901773,0.13710299990322872,0.19512623407555663,-0.1722794136077722,-0.887391518239552,0.632075034127777,-0.20085111996294902,-0.07036730321711071,-0.34870399168549626,-0.8714785699769734,-0.2587271123592061,-0.1117442774432792,0.5134497728373566,0.5092711403165795,0.06926551468101194,-0.5392593599963269,-0.04210641743948673,0.10628321899209481,-0.45131207694940545,0.9727961932970797,0.23149980856486452,0.6771143737169785,0.0692777761123824]},{"Num_inputs":28,"Weighted_input":0,"Weights":[0.013768250512700364,0.4790219288586224,-0.3765316807432971,-0.2465735504097354,-0.32729191058309215,0.7857688351261471,0.36196706137512424,-0.34624870946379005,0.5869246795684935,-0.6022630383005637,0.9055376448765295,0.16311322819597684,-0.22992173170828223,-0.5343469230702373,-0.05703038884451783,0.874482898519827,-0.919084510992414,0.20294645737687445,-0.8702544134270795,0.157223110759378,-0.6500588237422953,-0.974307037693189,0.07688314282370645,-0.7987114768159305,0.2806373128711408,0.06590850973439877,0.9830057245488673,0.08740509650564277]},{"Num_inputs":28,"Weighted_input":0,"Weights":[-0.21308524919304273,0.6569902659996001,0.2745613996798677,0.5232036187805884,-0.543889515350055,0.2182157888461851,0.11211313205424767,-0.026511330724076965,-0.33748375313654644,-0.28364682309536704,-0.8431865898993169,0.6889004437317285,-0.25373312764099576,0.2519576436304327,-0.22123763750938186,0.7727588005373054,-0.4422125228172332,0.014934831053436737,0.8836666586104216,-0.3922753739242033,0.9802362134849976,-0.6984583088299816,-0.703327201336243,0.26383125509392613,0.5078578665436946,0.11895344017315468,0.8274002681546262,-0.28253684101572374]},{"Num_inputs":28,"Weighted_input":0,"Weights":[-0.6747892272387859,-0.6386247108774579,0.3262603856373705,0.16914074738802864,0.31857317419423636,0.6849208456734854,-0.5471836162256076,0.9036840798827948,-0.4816043019210565,0.035893599962638634,0.2148149563170514,-0.8886827340777486,-0.6935070433355647,-0.525925034614944,-0.8820084959601697,-0.650466004119768,0.8547719058218648,0.5070423064011209,-0.5559074770868518,0.7319357148247134,0.8046780645229612,-0.20956169463095387,-0.8872495277745002,-0.35525319216241746,0.8430599246879773,-0.7817365026152938,-0.48020714795518593,-0.22222882806258293]},{"Num_inputs":28,"Weighted_input":0,"Weights":[-0.3369506299055327,0.8934791812143039,-0.33701204628625536,0.7665937074941847,-0.38217194004509014,-0.3263845792427933,0.5235644497541114,0.22881490160032913,-0.3175748781214648,-0.2704497353846933,0.3596233549811112,0.025482238271048674,0.9904053813089102,-0.1517599850861282,0.6370362500130344,0.867420383770968,-0.30199097768249783,0.7850075809181012,-0.836177610735231,-0.6121931440031276,0.6878388331763448,0.430640574091258,0.3681650497647875,0.19120519832402505,-0.43057687578265147,0.9700312355774625,0.23018110405605152,0.21143719597902222]},{"Num_inputs":28,"Weighted_input":0,"Weights":[0.4594099050429994,-0.49848193898811677,0.9407908780543826,-0.7513275203926533,-0.06988916495164799,0.23415029008622223,0.39659857422685985,-0.3225186068615964,0.33118759632805594,-0.4243869895560025,-0.5550842117845696,0.6489756751158993,-0.4757237575098022,0.12732692999328865,0.47122809035861213,0.202626157736149,-0.2787193788789496,-0.92693722577681,-0.5774810638228385,0.4169059580377843,-0.5471315150939025,0.21336348368506974,0.6823883750751203,0.5535575081412782,0.9642275876448607,-0.5002372885196975,-0.29848500029682545,-0.9283514784291548]},{"Num_inputs":28,"Weighted_input":0,"Weights":[0.023147309732277854,-0.4561195529569091,0.3065218437672481,-0.46324369755733474,0.11389260762676501,-0.31099862506864195,0.6841996605865137,-0.0766694667642448,0.8171227720760683,-0.8343540713251438,-0.09359382439955721,-0.7057372612601527,0.3350451922498423,-0.23421272121399428,0.3475462811106542,-0.11383811901192975,0.8532219633737215,0.7770894923019376,0.974294844166764,0.32370845308766727,0.49613292593499625,0.7962267265837055,0.7617992820880928,0.13060744228292598,0.823492238722648,-0.3780184643259398,0.9900285913975311,0.30020945306897184]},{"Num_inputs":28,"Weighted_input":0,"Weights":[0.31469420984428,0.6327783110240781,0.6319779541127104,0.6958129765526442,0.20827965182952712,0.3634064548509377,0.6769506007786845,0.9012109798586534,0.913932880244207,-0.436488796230028,0.6770224534011173,-0.3051900480520108,-0.7467223960373546,0.8507998352817439,0.39435857381984674,-0.259415317812276,0.13743799487915842,-0.12636666236841654,-0.563075559640651,-0.5000617351691794,-0.42010912107849496,-0.6025235459393228,0.009458502152753345,-0.02508006138406571,0.811264746073104,-0.04051972862326492,0.5322366986984877,0.9283217588879591]},{"Num_inputs":28,"Weighted_input":0,"Weights":[0.5763977860073117,-0.3460328550483248,-0.1374421769849168,0.1750279302540083,-0.36353590603883157,0.5245039975430212,0.9657567070072921,0.5239184391753169,-0.6717901861769702,0.5586857651288459,0.773281912885158,-0.03482835087555247,0.3686219889303881,0.0870178218146731,0.7970184980571768,-0.22973010232016833,0.3392221827547537,-0.8576659346238313,0.7644777944362355,0.1411344915025241,0.4309380710571453,0.19683976947632975,-0.16183324305291158,-0.40585202995292236,-0.4563557762742305,-0.797934730899294,0.21552549157410805,0.793592935341777]},{"Num_inputs":28,"Weighted_input":0,"Weights":[0.9644912332700151,0.05335653826619957,-0.8649771634352085,-0.8579782805945977,-0.09345167918654418,-0.065811273140432,0.3369002623858981,0.37343577191589183,0.12758270530890425,0.8934830510786584,-0.14392707944448113,-0.44517518786183885,0.9803119688326731,0.5975103172034408,-0.9703203360894795,0.16222128275388759,0.9849942713357922,-0.5866379112682543,0.9646663794348136,-0.7244040691119955,-0.16577456734198126,-0.8723789712297345,0.4152642838655294,-0.0016451789160890629,0.9491077406096866,-0.7142654731804089,0.910863941027628,-0.9323728798163214]},{"Num_inputs":28,"Weighted_input":0,"Weights":[-0.34560285147887615,0.37769185119534443,0.09980383787739422,-0.033535789644954295,0.27131375001582647,0.029310977084784806,-0.14668871551676566,0.5079168295751808,0.49375417835027813,0.5769798913166106,-0.12873830088214344,0.7924013254881734,0.4069486124478958,0.6128857233730334,-0.13725480030146842,-0.7995747903214894,0.07923634830297832,0.2232962512245964,0.9019643292992261,-0.5693074145856258,0.4377628991861462,0.7462550061317395,-0.2119159950137195,0.8694278389399397,0.6710507562837296,-0.9188399169030015,0.07319114187934384,0.10407144794320478]},{"Num_inputs":28,"Weighted_input":0,"Weights":[-0.23430198386816203,0.337403066633833,0.7565113253183045,-0.128882454266806,-0.18099585819238284,0.7219760218028275,0.44726757091338065,0.5832924645680408,0.31610200463948246,0.9871756329923926,0.6277724905279005,-0.737857369623494,-0.30933072121260463,0.24174041859086604,0.7455566606068118,0.052513459992461264,0.2335342551530033,-0.39426615903862483,0.31132762365671307,0.8841199539415456,-0.10807447254444602,-0.9585890994110583,0.41481372798425253,0.9598698567343131,0.40846212296834805,0.15069882623228414,-0.4806929307718878,0.9288325179701034]},{"Num_inputs":28,"Weighted_input":0,"Weights":[-0.17405764586357397,0.6595813602062686,-0.5131536017830476,-0.8234902601955236,-0.5468932499333046,-0.9508165555243494,-0.2315295228045735,-0.14796531677219737,0.06770012613771215,0.8942124862970602,-0.30115962969159327,0.8014144025500998,0.8280418689864233,0.9368442812178652,0.35669358386506356,-0.5207666701865431,0.576534014640016,0.22497776027779448,0.3149473921659536,-0.6912399780323069,0.005274244755722135,-0.730157289897736,-0.756532750482686,-0.3078800581864082,0.723525567325358,-0.39338025164771984,0.5143899458052541,0.27699795120760307]},{"Num_inputs":28,"Weighted_input":0,"Weights":[0.5157218362502567,-0.9097854978026537,0.6808861329206435,-0.9851521518935253,0.02737027577271811,-0.4666496313943024,0.1539697028054834,0.7975264799575108,-0.6629083029082813,0.17877797872199452,0.6057496078252174,0.12120575201526917,0.34752687282953865,0.07668945616255396,0.9027021576688896,-0.3431342980936346,-0.10068660169769494,-0.7359388276502883,-0.7155701259180142,0.40650549772897393,0.759320757946855,0.986125751280621,0.050377381391820686,0.21897172480414007,-0.39586891071376584,-0.31068294518318684,-0.2970446966904975,-0.0836496521352953]},{"Num_inputs":28,"Weighted_input":0,"Weights":[-0.9090711849043359,-0.5461356250336408,-0.5204439026552357,0.2872317759132659,0.5737014103796043,0.29952164840173223,0.32197297211565346,0.5196205660419766,0.3814137480245865,-0.9244483125402757,-0.639445167724233,0.13735666017586867,-0.8617250744943736,0.18020732212026114,-0.11125884664113161,0.5042190815595373,-0.8238697210330557,0.4452041542201146,0.5316606175076695,-0.19111952436164814,-0.41366281911304703,0.23575457119196264,0.6076773967851934,0.6634240018019117,-0.22971996330508337,-0.9564610508145408,-0.810875110245735,0.007135082866357889]},{"Num_inputs":28,"Weighted_input":0,"Weights":[-0.040270284972967474,-0.7670332919785183,-0.047114692133609304,0.5012638839624082,-0.41691954791226926,0.8127473553277029,-0.9237722560205661,-0.019481966859475897,-0.9527354485663044,0.19354491675849372,0.09034651769423818,-0.9858827946864184,-0.8617692819643865,-0.10463342734835535,-0.11745720145003835,-0.7385857838811203,-0.982147492855141,0.9531286515675883,-0.6240384741119563,-0.09593500296444935,0.5728486347637758,-0.46819337093811464,-0.13447569341188592,0.6853120203901508,0.5899189887725553,-0.8505956170660436,-0.601977422524701,0.33694065453925637]},{"Num_inputs":28,"Weighted_input":0,"Weights":[0.5653888418420923,-0.9442455896942732,-0.24579742647063552,-0.6878961652774319,0.8092552188613287,-0.9997133035183482,-0.5770340492172701,-0.2016799365872458,0.5766637956205041,-0.47730418013502374,-0.7736597278876215,0.992418801875659,0.14008536842281827,0.26954412693551655,0.11627736004964273,-0.5146535870213118,0.4067051917942257,0.9989617405201057,-0.31339665286232654,0.6519859692230314,0.6757401371172522,-0.9698306004839242,0.6343903810481,0.35582894206594884,-0.5478631412942002,0.6459091296824027,0.14690242206558857,0.33080068501701665]},{"Num_inputs":28,"Weighted_input":0,"Weights":[0.744068008527182,-0.636138687523297,-0.6587174939544156,0.22282661522283487,0.12406839441345396,-0.6194240807824585,-0.6981916121500146,-0.43435605628493723,0.4344699195960007,-0.5123790422034961,-0.36664789834776257,0.21226857433695723,-0.016291721224611977,0.6443828577561495,-0.32783660225131295,-0.8429089527357937,-0.8638893578658287,-0.3776347330396542,0.42205422059238473,-0.7975484666208211,0.8474743189353988,-0.6708472583683642,0.496112349502452,0.059997267319083836,0.05158795751728351,-0.8903844269721575,-0.7303044750185366,-0.7146826570209547]},{"Num_inputs":28,"Weighted_input":0,"Weights":[-0.6123369504328666,0.258507038062066,-0.4587509715966325,0.7194358009347073,-0.7043898196347786,-0.6896721361550004,-0.7606109086697207,0.9820086172932252,0.0674443609267874,0.4028557718288608,-0.13212452578675504,-0.6752496029202404,-0.12353068461459238,0.7695782612787812,-0.5469245447941777,-0.6274041672227316,0.4372825969819496,-0.727834833694098,0.4566919566072969,-0.36935841080909393,-0.8553643573292092,0.23547798925328056,-0.41943500661183164,0.12375308585255462,0.3069635019217227,-0.7135991397245235,-0.2640132870133336,0.7768465915933702]},{"Num_inputs":28,"Weighted_input":0,"Weights":[0.6049914441038973,-0.5744774336484855,-0.199061045931622,0.6897926792524476,0.6881901427965385,0.3077456633015696,0.38919977980581577,-0.11533717378054176,0.7038462637830454,-0.7580060329508393,-0.12059637380707067,0.9601800010689348,0.47237884379872974,0.3763773900748746,0.49199164171015175,0.7187180312535044,0.8268840191870779,0.3089605893836489,-0.17417246061846625,-0.2899192615545869,-0.6663515246085173,0.6600640384768892,-0.42204439112939407,0.5021799989261142,-0.2513361887861991,0.8858692048416719,0.4861785760556352,0.8344974705517101]},{"Num_inputs":28,"Weighted_input":0,"Weights":[-0.315938724747614,0.15677456143889068,-0.7483679628234177,0.6296984011003486,-0.5411004171429473,0.8836581270199502,0.1658473731402279,-0.12662488115350368,0.4803669482531936,-0.6150992799450676,0.7937874419308246,0.6772952703496404,0.7097035103725737,0.1607348665465298,0.07420867213075977,-0.7563044007808495,0.32707872509544944,0.8619087915565351,0.7936525718013456,0.2940073963907277,0.9463199772961652,0.6844427521124075,0.3778242540936061,0.7066316433933919,-0.6197001611551763,-0.01665188680702201,0.35814016794585735,0.686315317804912]},{"Num_inputs":28,"Weighted_input":0,"Weights":[-0.12033138212462857,0.0419990939687811,-0.09634235768124022,-0.4181096788000158,0.6509020951273601,0.4621542657216815,-0.2551075141533944,0.3485595996981694,-0.48299233739441705,0.10048347776252009,0.5940829420769622,0.3750762732864239,0.05746853884984282,-0.8239116764137763,0.36867997523265617,0.6424095730323296,-0.9708777977191738,0.6069600709494765,-0.3715998941049199,-0.47650908089170263,-0.0567405816670532,0.11808488019545149,-0.910342414644484,-0.014709875359923963,-0.42542019366784,-0.6068980953819374,0.9328267050204562,-0.7134267819923004]},{"Num_inputs":28,"Weighted_input":0,"Weights":[0.8229104060548271,0.7201528849166832,-0.6297567160995707,-0.5952898459048902,-0.8167420000527688,0.4445461100350867,-0.6190615838737226,-0.5789261654629023,0.14654825522428738,0.47297228111008716,0.20842667683460392,-0.33117197328350256,0.12255335384463595,0.12881551922535173,-0.9829348428243934,-0.3420858150945487,0.5123694811636774,0.17405708567741307,0.9049991377653004,-0.5465002152253433,-0.8173566122819825,0.21252083348698014,-0.12480607334853777,0.6257949380514429,0.15405141730338623,0.7816666960462264,-0.5935673846166225,0.5056611399330944]},{"Num_inputs":28,"Weighted_input":0,"Weights":[-0.2523100387155919,0.6034884807182173,-0.04635898097669089,-0.5604418458103072,-0.333295131821581,0.26189866837437714,0.11335757028265103,-0.3510288315587978,-0.5332674243860798,-0.14232141110377539,-0.10338713098270558,-0.7483995091785483,0.537799828405235,-0.26049000900649466,0.7698023530052549,-0.4125527044634646,0.13729649213789896,0.6012299994506731,0.2315191170273736,0.3180045807794012,0.6973439031981072,-0.9032142143375922,0.5612001254756427,0.24349873016148837,-0.7325234259996093,-0.7935465222197116,0.8496539774488296,-0.9808529923750597]},{"Num_inputs":28,"Weighted_input":0,"Weights":[-0.6870618768256208,0.4130818833779417,-0.7708774715194991,0.22798656843031195,-0.9227521873527189,0.7585823241675747,-0.006500485058834937,-0.20913929699002476,-0.8630831745822691,-0.09627432899555188,0.8297376972286001,-0.018699439994377953,0.48232272731973036,0.32061582192007076,0.03647595681919835,-0.3188381770965677,0.2693722287202749,0.3004893153400723,-0.4592525970999083,0.6675953488337092,-0.17363628341745752,-0.44185223789509265,-0.9905586858160385,-0.5604865930405393,0.9545016829395425,-0.11776957279204092,-0.9032963191442211,0.8168692459170872]},{"Num_inputs":28,"Weighted_input":0,"Weights":[-0.5036891678797267,-0.6947424402947209,-0.04808824799739353,-0.6267943446121035,-0.19530537726878205,-0.7236320055526848,0.19981683008038575,-0.6387045492044857,-0.06279874782808903,0.8494349193233275,-0.7140320059390555,0.6258205767156797,-0.1429187002507033,0.28800108209785,0.9270093037649871,0.4681537722217848,0.510512647164836,-0.16382385088581708,0.33251890054704614,-0.28819278050802144,0.7278880108472758,0.08886572117561986,-0.2679352129298236,-0.9696732551742413,0.47145997882591306,-0.640357737959949,0.6910872097191565,0.9368981215601675]},{"Num_inputs":28,"Weighted_input":0,"Weights":[0.7433549107377091,0.07936136717846409,-0.5766063153160002,0.5540817731126413,-0.5196557285464669,0.006862151279027895,0.8448071162568245,-0.1481042869559691,-0.32684502638448254,-0.9397562922049916,0.809819694492119,0.1689852437945103,0.5649559660947086,0.5787664609165541,-0.9832103712533242,-0.9780883707620532,-0.627190879686623,-0.6580332912513147,0.7411081374452106,0.5229409305829014,0.169861318326338,0.5580432289787447,0.6642416444822663,0.27042482757234243,-0.34994590984321783,0.2509472929480565,-0.7283759991819639,-0.7119996935704751]},{"Num_inputs":28,"Weighted_input":0,"Weights":[0.9782609324208171,-0.19172934661660002,0.7173313919881674,0.8860048005893189,-0.031377632274467104,-0.3795977907569792,-0.07615700821794502,-0.3220674931591144,-0.01743792425209012,-0.7532416657325334,0.11549090882015167,-0.6989963903627743,0.5850497091606528,0.6699575005996363,0.6174985747702715,0.3397008077449297,-0.15240619327573257,0.29182538718146933,-0.1122787173798564,0.6037550419365483,-0.38016247470869446,0.3792627475595143,-0.6693671736187404,0.11916885428141666,-0.36086226819705225,0.16739333257212752,-0.34603732042674507,0.6828852103327401]},{"Num_inputs":28,"Weighted_input":0,"Weights":[0.8487134265762075,-0.8483649960687367,-0.743904435892445,-0.23708285780862537,0.8022908914335878,0.256583234784298,-0.5919075430269198,0.2638355000558581,-0.36646664256972383,-0.6341240997129747,-0.20949525158760585,0.26744963058057225,-0.8003864037739354,-0.7286212152508236,-0.2477997489966589,0.3764492371378263,0.7322864590746705,0.36895697821135265,-0.8635649292409429,0.5688301789957897,0.2655260919543996,0.3962923345914391,-0.4493514082478558,0.14358640382986287,0.9529553362263383,0.3555141495017249,-0.47892337783917915,0.9611875071213307]},{"Num_inputs":28,"Weighted_input":0,"Weights":[0.5503627625385854,0.6846870159064367,0.33816858705167974,-0.04740652214239227,-0.5421356786576901,0.3794584267769645,0.800625724485682,-0.08344885735322838,0.6494244804816263,-0.14703368648522852,-0.5832208567851016,-0.8768193372202613,0.6306709271837183,0.8493159449802681,0.47909080366765333,0.6334453746034794,0.1580674354210776,-0.3896452682999415,-0.9424778385210761,0.4609273347172982,-0.010139620200462662,0.8485915523683611,-0.17899176537351746,-0.9626477335405965,-0.2835634548315543,-0.8925391028781626,0.13927889587178277,0.9255081797533224]},{"Num_inputs":28,"Weighted_input":0,"Weights":[-0.5501097072565755,0.009567028622464946,-0.689253525478712,0.6646468281463822,0.11262727133417805,-0.5209843702815062,0.5405118533539992,-0.47016250818498606,-0.9259988707698332,-0.7601874199149435,0.09920841481823572,0.14096975799617928,0.4965680297913233,-0.46085908365879846,0.002470079260035396,0.9493201224426291,-0.4956320141367957,-0.44709326551357653,0.8944891640498203,-0.4148845089986133,-0.28239842036588947,0.8721539024977734,0.9159833418656156,-0.6127733733778958,-0.6112159077513869,0.03350802296271227,-0.7729242505037013,0.7261018803618773]},{"Num_inputs":28,"Weighted_input":0,"Weights":[0.41066840372229296,-0.5880141725327714,0.835160452757471,0.7880247406942555,0.9724794548653761,-0.041763795558533046,0.7204469158881612,0.45604208165574,-0.02635500295552573,0.8307248621123038,0.06892727955945621,-0.7641840116209971,0.641386371954134,-0.6599496325640883,0.02599744605477028,-0.3092192921992587,0.5768762152796396,-0.6543982387676412,0.21031462453262706,0.36899797084172015,0.8060806488400627,-0.7171967165602894,-0.25679694541391707,-0.9905064398212192,-0.08274529104850037,0.062436570680039605,-0.7114663043232261,0.2478188091064748]},{"Num_inputs":28,"Weighted_input":0,"Weights":[-0.39041223528794256,-0.8747286764378184,-0.9935017228213414,0.2691668102268905,0.5893886161522852,-0.8115848836014551,0.5816023317577446,-0.7891872081495633,-0.9927012543639795,-0.8535462218006089,-0.48962465560186297,0.2840117379982583,0.3871046604493511,0.6552544342024194,0.10479894594512862,-0.23069212143266626,0.5950579012444628,-0.1973471869953326,0.7020126991459341,-0.03900970368889545,-0.4274791121515491,0.834840905388565,0.7158957203694571,0.4665228774603871,-0.22150614414948044,-0.24524236654237674,0.39453888906743684,-0.4644615982600343]},{"Num_inputs":28,"Weighted_input":0,"Weights":[0.06858529837675742,0.12503975134708556,-0.9535201312307647,0.8859183546642582,-0.4913831253874026,-0.8999490188125884,-0.5664497039376222,0.09675606606577447,-0.2163110261649558,0.6389367635577501,-0.6121540959807533,-0.1313502641973694,0.1455072742386485,0.04084656691770561,-0.656544929076396,0.5936356664248856,0.19602647207850477,-0.8634378067238561,-0.6207057098734821,-0.46418566782122983,0.010245825613026449,0.5250822630298893,0.29781042607156105,-0.35537568768899797,0.5629315885322284,0.739243780221958,0.24554393595637292,-0.6699508129497542]},{"Num_inputs":28,"Weighted_input":0,"Weights":[0.9473159921006984,-0.8165369288574321,-0.614657010213939,-0.8052681787738505,0.17458097028861475,0.7239605544533549,0.1470909638059832,-0.5290421725674639,-0.2662148556265269,-0.39801411642542095,-0.5967854922893279,-0.7658059929409304,0.8304994079201014,-0.36367060270712537,-0.25282769201700594,-0.9641729105722027,-0.777722242831594,0.7803530255338693,-0.7645064907539827,0.7343335985100805,0.4841899176704645,-0.30413345914562384,-0.6509560172707367,-0.35763167762025827,0.3214590132031212,-0.1577780611338988,0.10214035183616477,0.4438325000736525]}],"Layer_output":[{"Num_inputs":56,"Weighted_input":0,"Weights":[0.5282354773233873,-0.2799173896279452,0.8238654183273115,0.30806295959148544,0.9945196687647055,-0.8705639256206688,0.822991248523089,-0.9895282821695462,-0.18198813657433044,0.7905717982187028,-0.7154716849231685,-0.8598668273893082,0.21556382648399874,-0.4316760383780873,0.7868689432945895,-0.19970978876661916,-0.34052979117225834,-0.31141517990862544,-0.40039774821527374,0.6888764859164318,0.013434679778539849,-0.12633652918611638,-0.04121427725098725,-0.24090578438460453,0.23342424608080825,-0.46916084748205067,0.3331054348590743,-0.48532357322830144,0.9851117581531068,0.6215376942727249,-0.26908085538895166,-0.9422028123694027,-0.26127574353380434,0.16880392772454278,-0.6047255934142746,0.29809427058299076,0.09100459333764954,0.06837559259466852,-0.9726259230880169,-0.9999982574612285,-0.8012553869728937,0.6549243908642408,0.5385510112545919,0.19137341213197856,0.4714779853946631,0.2593437292858627,-0.8784309900556538,-0.03212827917140315,-0.7825123871831303,0.42785734326976654,0.40320228568891747,0.8217999249202952,-0.3959743809301085,0.9677033676700113,-0.9470084755244967,0.007595040766290362]},{"Num_inputs":56,"Weighted_input":0,"Weights":[-0.6506097152353736,0.46063837068610414,0.7641817175801529,0.9807361311627352,0.49476766258351246,-0.7104185677364654,0.17767992718271364,0.870028385917071,0.4028147929626831,0.20570019362349456,0.8918343672174869,0.16269103340480884,-0.3318135350306932,0.4430534906499506,-0.8603685571111604,-0.5744196785506379,-0.5054878894172139,-0.8398960384464861,-0.8506092744833862,-0.7581181757989628,0.17760350699592897,0.8523268753978219,0.3956260585039775,-0.6824101061487005,0.1824830582948691,-0.2713064471892902,-0.2886512703081311,-0.20528306371088334,-0.4721136751358699,0.28027520360958924,-0.9760235482501731,-0.35410231226277555,-0.04828595618646814,0.8556723572318115,0.6244462007928164,0.3517336794034607,-0.09457027830960951,-0.7503742082263436,0.49464551795108713,-0.8628952719223044,-0.4511272447154079,-0.3311085081676637,0.5041979475394529,-0.28964778910204647,0.19935729370443633,0.6777073606730777,0.24048449450765985,0.8782366266985107,0.7188295608341566,-0.41114160917623555,-0.49924920216052904,-0.343837444669289,0.8701925411408487,-0.5763489565065079,0.5602816917700688,-0.49997202079903735]},{"Num_inputs":56,"Weighted_input":0,"Weights":[0.44259588837198316,-0.11346883489967563,-0.8870373057346836,0.7322294692356808,-0.47048894272375363,-0.076003346005862,0.759770471241852,-0.24986227076638634,-0.613420921019806,-0.9674287544879985,0.7376953903037633,0.30019856932719446,-0.937692064291746,0.5285353928686043,0.45261074281962665,0.9788947751918389,0.4008631739711308,-0.7009758397920145,-0.8593837722306361,0.6892580398616268,-0.6759868002143574,-0.4510290825657165,0.37662168369480375,-0.34528465458504554,-0.7421298137257462,0.6080168441648921,0.9147018757978667,0.7250531384750116,0.7377762695171524,-0.2284003990884399,0.018258605007148043,-0.8721276099379877,0.47936553163792683,0.1994939959155091,0.2923423824373681,-0.15599969771207067,0.24950855412502926,-0.8617385736060386,-0.1645052623976383,0.3194703116187707,0.36728032599657423,-0.45286411002610183,-0.037024197172487505,0.26988627086236017,0.17560610549776023,-0.23330796123711106,0.4439585235705197,-0.2741171467010455,0.5764447416461251,0.6892944248413662,0.33724714619614415,0.7210093659398846,-0.5361038622080665,0.16124083259028454,0.3747990264085215,0.5058253227426122]},{"Num_inputs":56,"Weighted_input":0,"Weights":[0.11223237922361862,0.7639935177474846,-0.2845245543480742,0.6353711455666537,-0.22423103824079227,0.9603898225591905,0.9942719134525846,0.720158405312735,0.11735417035378659,0.22996936815517688,0.5116269386124468,0.64519085634354,0.9037143540668591,0.46186087705798196,0.25045340006767103,0.02561755017858358,0.8072178139754507,-0.7106324567320152,-0.4208196839484041,0.33906263049281726,-0.3705216168283454,0.6068028588655725,0.48947312974449253,-0.6707335929792879,0.703150108635545,0.5147868408635503,-0.6089952729728938,-0.5951245896605911,0.14752488543864106,-0.8673460918526872,0.2200744610256964,-0.994992689378087,0.9122204811824941,0.4123299693890894,0.6729633715251941,0.9790172199744125,0.5568054682780192,0.6598320880747846,-0.4734011253757241,0.7525464613668487,-0.9306180279727986,-0.6283614315540809,-0.6520930067048578,-0.3140945688059057,-0.7479985283472845,0.3450199385388002,-0.5814862894184372,0.18635052736112523,0.48713262821249703,-0.25681676952060695,-0.6556791815405156,0.6678076165949904,0.9148687990042004,0.5111059950039072,0.9160685063425773,-0.6144604453588174]},{"Num_inputs":56,"Weighted_input":0,"Weights":[0.7792413583590858,-0.8849842411619053,0.4043527776284521,-0.47006095752928956,0.15382775079641342,0.2549260237248081,-0.742674690092336,-0.5229822373885678,-0.09635241842743891,-0.015691950356203743,-0.9521828778664175,-0.006305491175159106,-0.3428396025535819,-0.7975411079860059,0.17692814443021265,-0.8871450704214777,-0.6529220776134298,0.8089312396304351,0.08871441139753422,0.06592537720864677,0.8522103110608508,-0.46413707159339856,0.9691979676136437,-0.37102616281757905,0.18159992615195164,0.6596566887374986,-0.6629333182881353,-0.03951550716313068,0.6942862642676624,0.7032002346560078,0.9544300547158304,-0.9083813726658918,0.2673522290069317,-0.4867462619974854,0.8901770259298842,-0.8459397853176797,-0.2793623442295857,0.5971153747398212,-0.6896583329408661,0.28536782047694254,-0.479941526611513,0.5060642115692724,-0.5563772154356905,0.08154479808306436,0.40337099765349294,-0.2422603904080881,-0.5812500450852776,-0.6086786458638709,-0.17185358244918314,0.8562626142437146,-0.6253341394011604,-0.5667991461612412,0.4109594068100464,-0.5025155386637605,-0.5346944270314739,-0.13395702206643434]},{"Num_inputs":56,"Weighted_input":0,"Weights":[0.4439199650071508,0.5738412560374937,0.09334130684780684,-0.0668950526756682,0.49015565546383155,-0.8172972057406974,0.5825322671633297,-0.19473260513709933,0.7409404499282113,-0.3264648179800538,-0.9551373884409293,0.24003472233605194,0.8375705381651304,-0.15985748583299353,-0.8340896129480654,-0.37066383680470416,0.1572320944824146,0.7099374933402345,-0.2730451613826824,0.32671775601045017,0.13278678739757765,-0.6628368394607922,0.17693486550781334,0.14908781808172744,-0.6571676226539889,-0.17267851135849088,-0.37141638780727426,-0.2773907270736007,-0.6446132825160649,-0.2401644326340282,0.8483243884455909,-0.3395662842229281,0.889295616843796,0.04494408973745245,-0.3897271566192425,-0.7622676321495103,-0.45685110630211523,0.35072583726814077,0.22582876365785332,-0.1885585515362621,0.13261037013605836,-0.29582718292934906,-0.9636638645636791,0.9820076632222947,0.9498458763159354,-0.019498123321971317,-0.9612847302297676,0.5483140840172087,0.7102362313925339,-0.04044599091222356,-0.27068841533071963,-0.5161621310687328,0.8007452093783083,0.442971390403468,-0.5997075680885533,0.952098327416006]},{"Num_inputs":56,"Weighted_input":0,"Weights":[0.40949318841872495,0.44790580783446576,-0.4959242410694119,0.7696875640447269,-0.996982794618479,-0.6528402433986256,0.48018333019648685,0.15008184923331513,0.08805623404544005,-0.5261691197702674,-0.7573473580308299,-0.5612670256593106,0.35441491958619675,0.7671869564349227,-0.20939001518810396,-0.5221449651564649,0.20439057252301018,-0.2990690072060118,-0.061324599396595514,-0.5625734033947021,-0.06324455006343088,-0.8232809719924263,0.1330900643394255,-0.8488907332606291,-0.5552825626426703,0.829853785953721,-0.40762380865689074,0.7266594394537964,-0.15438422889269365,0.8944882833049539,-0.45992478354078026,0.48381606490820017,0.49870221128788095,0.8321302393795942,-0.943556379947707,-0.42959708697179133,0.46419506694471213,-0.303287730523783,0.3301138292275658,-0.38069805661829004,0.05337473207898302,-0.3323302720912503,0.39258723621750957,-0.8019017681147462,0.7664413089838638,0.5055662448020564,-0.7691102092022353,-0.185972548202052,-0.924321529600702,0.5731586054838527,0.14602245027378702,-0.33147942394122487,-0.7865655626241219,-0.7084097133252393,-0.4054741261664496,0.8855071825945475]},{"Num_inputs":56,"Weighted_input":0,"Weights":[0.3495422557135708,-0.9177903517920291,0.41164485906612636,-0.9256568000962868,-0.1817649852518266,0.8165499021201963,-0.5995082140951471,0.37872902680908127,0.07137647877080444,0.22369058690147114,0.1590746297819905,0.13338980572042525,0.050424746724621494,-0.6977349112034108,0.8449129546055234,0.8503590272181294,0.5581708306408046,-0.6692279140481583,-0.7715140132199836,-0.9996196126616691,-0.42000653931993104,0.827920805671116,-0.8668350502344042,-0.8462006083703408,-0.7320893469824231,0.9463089139557743,-0.9153175171821575,0.44792929487684874,0.08879495956658179,0.636543339939738,0.7590130665731363,-0.5635857668914279,-0.3966126767283916,0.4922128143852804,0.32614275478556487,0.8476876856360682,0.8771164688770869,-0.9733536476971858,0.47312760723919633,0.10277552058099615,0.9668104169722953,0.8426626460668232,-0.5864818823205264,0.43144946260849815,0.6576738312968489,0.07840028767525342,0.21827920229445286,-0.0750260011849081,-0.694716543748707,0.20621014964846673,0.8457984560837268,0.7996747785017497,-0.9100508970661847,0.7107862322960752,0.19123619941136139,-0.05845003365142187]},{"Num_inputs":56,"Weighted_input":0,"Weights":[0.2588959674133522,0.6562689673991506,0.30374104522608425,0.10374012567761515,-0.33903880593372127,-0.36830980982821315,0.05946471140529552,-0.4325532033239704,-0.20383760313734234,-0.6161444925681706,0.06242762518948641,0.19107485842462069,-0.877255578182789,-0.9254203693442038,-0.23864194651010107,-0.48661077570754263,-0.7484335006531482,-0.1483844581135758,-0.15419212455980746,-0.8823496858609963,-0.39302302773213094,0.3284555273228167,-0.011926598500589303,0.8884037090648484,-0.8658079257877522,-0.10322923816529417,-0.4396655525174644,-0.929386948091402,-0.7850680567371653,0.8500749511444186,-0.8949293157088497,-0.1810523263616831,0.7055947084872678,-0.8765412227407856,0.2391472761581308,0.6970993368948672,0.8051579566663354,-0.7152799576167777,-0.14624650155067775,0.7638833223800596,0.10293160210151764,0.6685882738059226,-0.6378278536733715,-0.582744276377644,0.5114486963344778,-0.7589399077299213,-0.6064680159844207,0.2116477214084853,0.7835389273488713,0.4087942518466263,-0.47218153886325775,0.0997673858802619,-0.8527576471866857,0.7021370331744112,-0.6830818493154699,0.8625648440025389]}]}
