{"Num_inputs":28,"Num_hiddens":56,"Num_outputs":9,"Layer_hidden":[{"Num_inputs":28,"Weighted_input":0,"Weights":[0.6987643753457382,-0.8993373865221028,0.2790726519117135,-0.49976566278188506,-0.837427469954666,-0.9660033012508343,-0.5369561694226352,0.33095772379971833,0.08951926688247935,0.3285869641211703,0.40646914496485875,0.42495247266021474,0.5584476218692036,-0.6226865412902036,-0.038341543981055826,0.8384611143230685,-0.36679395078461496,0.14405545965380995,-0.04107372384351271,-0.40851549737745874,-0.99906296571987,-0.5768542478895813,0.7041846142856092,-0.6011258189446171,0.26405383071198507,-0.8451386430514436,0.4981477127378473,-0.6362690168790611]},{"Num_inputs":28,"Weighted_input":0,"Weights":[0.31368093337572667,0.5525549313329261,-0.536313167102618,0.6436415548016923,0.22407608472341245,0.3642448437044943,0.7095211570020692,-0.7870773896732617,0.4169187928045759,-0.5411796349340767,0.6521201904334173,0.8374037134544132,-0.9306138189620804,-0.17097216986380182,0.41644207944543643,0.37041900333677735,0.15037180005400286,-0.31688440836608567,-0.7467813721336902,-0.5947403410108123,-0.7932447116154049,0.5915793626041304,-0.9015685302209706,-0.25924100181612786,-0.7001175715190515,-0.3815399981730887,-0.5588571833216607,0.5051829828616219]},{"Num_inputs":28,"Weighted_input":0,"Weights":[-0.09479710987441181,0.034079989416479384,0.9378793096497975,-0.37779453563057375,0.8019026707199459,0.1475061831087059,0.09886844196736466,-0.6974409192559474,0.08520687590594278,-0.0685459027752211,-0.31087422408636156,0.14101652627421024,-0.07392927533420557,0.5935682329100096,-0.08976569953945912,-0.12249338527487874,-0.32986413794975944,-0.09114923234687455,-0.7918020143596672,-0.06907469449720705,0.45982289276795796,0.4351806052407836,-0.0764013297240761,0.07726324780498217,-0.697820492889702,0.42740647444113655,0.4360966666158841,-0.7484075300708597]},{"Num_inputs":28,"Weighted_input":0,"Weights":[0.2804325060906565,-0.2668863292083895,0.880299505559168,-0.5610253240183658,-0.8803478221773935,-0.3606519971635763,0.13079799531839242,0.5331977064611244,-0.30288842978488184,0.28120845607186884,-0.9058604971562527,0.05792912313032583,0.31961548787399163,0.04048635487936081,-0.010180488756808881,0.4651923768984636,0.8200859533601597,0.6121014137471197,0.23502548117510202,0.8546899341633296,-0.920535975508407,-0.22093637588092618,0.77303299319833,0.33400811743231906,0.293308496933929,-0.8184702342654964,0.6850740929653283,0.6833820891108255]},{"Num_inputs":28,"Weighted_input":0,"Weights":[0.5705681094788404,-0.17618215384793035,0.7957074691468988,-0.7724026167979284,-0.7661657760090987,-0.03366292382760827,0.7904145851909306,-0.13732689900199047,0.06283421459469918,0.22128314047712094,-0.6391657279333212,0.4994448942739671,0.6018779510571417,0.5372498669778554,-0.705335905799796,-0.7623195115162286,0.08121203085405204,-0.4410305266430311,0.8795599446369005,0.21829235253394663,-0.5348308207080221,0.6033359947441377,-0.6845303022589346,0.23090997880571207,0.08971656712068232,0.9373108570838036,-0.7604247689627264,-0.4209993340476401]},{"Num_inputs":28,"Weighted_input":0,"Weights":[0.9819586560227895,0.5368981490456761,-0.898196938953692,0.5103498733356713,-0.25857997235922126,0.42609871005508304,0.6022060243626326,-0.05946150431761554,0.3193388330003284,0.8652266257336596,-0.017278310586395507,-0.1317784796848107,0.7661754922560393,0.5899022999504573,0.8102070746063088,0.809500677555528,-0.049951084499549436,-0.078883793222849,-0.8560209073291211,0.23057341950673216,0.9631066594614452,0.822166367801066,0.24300119884249893,0.9905299667608642,-0.025735935140608235,-0.2656743057617691,-0.5323615969219935,-0.4713168065985883]},{"Num_inputs":28,"Weighted_input":0,"Weights":[-0.03170298409634342,0.586933465777157,-0.6065713040452176,-0.23370510717781268,-0.7766145725324137,-0.8688095524447751,-0.6201786464836261,-0.10361565641880954,-0.3901846394277112,0.7076550290932531,-0.06021444150052546,0.3467802229715886,0.3843643265160763,0.6009220582802981,0.6589224696681089,0.8620849312282028,0.8939883773128297,0.44040552131186383,0.34109474092295455,0.07504851089530096,0.5430389201912134,0.8297697108628059,0.2869006909982996,-0.6348353437529617,0.18445228438934902,-0.4319702723943062,0.10147396601117187,-0.8618408621228238]},{"Num_inputs":28,"Weighted_input":0,"Weights":[-0.430188548387227,-0.21548658292336154,-0.4341275064406108,-0.21115016487857952,0.38057335769305833,0.33853675062541866,-0.3461030845163001,-0.23548275706250366,0.31725482032076524,-0.9330385088150916,0.2868326808663817,-0.48853845644637883,-0.998803101429253,-0.6482646056639967,0.441225187379372,0.19000283357481562,0.08183414333531469,0.9185768558423764,-0.6603954443957842,0.7750017581987811,-0.018614847963267955,0.7750225486362989,-0.8849900393419803,0.9790604680342421,-0.1037795655483833,-0.8566630157898465,0.8299567051664869,0.4758377998333705]},{"Num_inputs":28,"Weighted_input":0,"Weights":[0.8385124240840505,-0.2978103105205616,0.8089586564626701,-0.6368246478263134,-0.04638000131452824,-0.04419205788039504,0.8255765363762708,-0.7245226129350251,0.7436880137360402,-0.13076966816069924,0.7639953089146907,-0.8342192180440641,-0.8246395494430284,-0.22639004119332018,0.7676074835317865,0.7533865341448029,0.9558307579390768,0.8520090637194124,-0.016657023885511713,0.1085221119159665,-0.5123133181651596,-0.43632233292217515,0.6344108246787346,-0.21887133390968183,-0.25029886450831207,0.8644586895211732,0.9397420661941127,-0.5748462949898696]},{"Num_inputs":28,"Weighted_input":0,"Weights":[0.8981054241906901,-0.6154913230754261,0.19828598492877791,-0.7616008151094673,-0.3827960906993563,0.9142430477408192,0.09282057976866476,-0.2316160362093329,0.37949946592181716,0.32635907146963894,-0.30867173867969055,0.2945592815893019,0.23223366649133648,0.14833943741586042,0.30431678597145306,0.9679807899812543,-0.9075422902924888,0.6451140903496089,0.7832204896736068,-0.32921193706021656,-0.9937876204835508,0.31226812413083205,-0.36893994783136463,0.714393994846434,-0.48897380874749563,0.9416480572903898,0.3683413015486763,0.6378490326729174]},{"Num_inputs":28,"Weighted_input":0,"Weights":[-0.5484827484251649,0.8499893568183365,-0.8723518688799996,0.9002395630577034,-0.1478481322093278,-0.05962199713842309,-0.9988988171795563,-0.14876033909846487,-0.006011468232158035,-0.900845362968205,-0.8209896341846852,0.7608829270279924,0.8460271241220767,-0.3563759001804777,-0.2142429548889906,0.7867556069275519,-0.025932934910043892,0.5474799998513113,0.7759343365943303,-0.533921329057393,0.21122735397114378,0.12947492015822948,-0.5947189220217466,-0.7472466861324722,0.7628777067029511,0.2944663419766791,0.7154145097203635,-0.6901073080070725]},{"Num_inputs":28,"Weighted_input":0,"Weights":[0.6568840234996773,0.18549997094640602,0.5238549937605255,0.8702323121718893,-0.3586529031026454,0.020026994903908468,-0.487903050209448,-0.680041580021158,0.8132561161475136,-0.7224305062018499,0.013923266672745127,0.8884260923574416,-0.9916007559189915,-0.6350743220376124,0.7278624885476452,-0.9227524752233622,-0.3129630406023991,-0.8508319521627454,-0.7418367227602636,0.1171087382491991,-0.6081759350549534,0.8567442764195494,0.5757093357654111,0.38457329103498883,0.5810530234020055,-0.5443952965249117,0.4479974020165107,0.1808279058878317]},{"Num_inputs":28,"Weighted_input":0,"Weights":[0.47787518916307614,0.4283759590248366,-0.3602699257361739,0.30770341537745316,-0.5386273547752947,0.9390933033171867,0.7923428284671772,0.07508688661154284,0.5651435710217663,0.8339512289908468,-0.2848500591590911,-0.2770528826735783,0.9732924019741913,-0.22287958953294829,0.08911394023945896,-0.4537414809159487,-0.13595930026828817,0.5347986095064061,0.016343102319596126,-0.6620886712412434,-0.5692127623601484,0.8529975463225865,-0.1594258413911026,-0.2423909309174852,0.4674811508518848,-0.462905066068639,0.5015548266810486,0.013604670560610987]},{"Num_inputs":28,"Weighted_input":0,"Weights":[-0.5636698795431692,-0.5726674020337805,-0.4803417616854665,0.9371852221867913,0.28332981577136573,0.49865787297884645,0.32944582049508364,0.8173377307579437,-0.5202139421274694,0.41847146745135544,0.7617407049374865,0.5976022953436264,-0.2013876420267129,0.4850543066702879,0.45316316930894107,0.7635655256188405,-0.8272000312299992,-0.07367901069631877,0.024010044893754134,0.008391620708094738,0.956397231258703,-0.14225224081391408,0.2030315551398687,-0.6062367269241453,0.43543594446630074,0.0962846058855884,-0.15794571756667075,0.6119778728793563]},{"Num_inputs":28,"Weighted_input":0,"Weights":[0.873415137813075,-0.5413595231053208,0.44062620037829925,0.5129646485375281,-0.09969214984810348,-0.32204522320912765,-0.05501589549776997,0.9719887200163408,-0.27533704574211426,-0.5006899853927633,-0.9042633036404715,0.5794344310599906,0.5124203628045476,0.3149380911199424,-0.5580022959286353,0.3150107527636383,-0.21831510969769752,0.8385089999379611,-0.7006290366208021,0.04078404412035885,0.5311770636684707,-0.5036350796647753,-0.08911206246599745,0.3995782848548315,-0.8360610660706647,0.024544065885811372,-0.46723641324694787,0.24400326919466875]},{"Num_inputs":28,"Weighted_input":0,"Weights":[-0.799399146021253,0.5154503636256675,-0.1577036398466467,-0.05256279895639704,-0.6731298562092397,-0.11629183669900234,0.3036772628972757,-0.1283840910753844,-0.029154837320323757,0.24300942722351748,-0.7466101638604502,-0.559205964685022,0.3628025716424583,-0.14247562358035093,0.1753261953187102,-0.2436639307039512,-0.20338578251951445,0.3267399410150478,-0.49880175492054757,0.757885753326593,-0.3983770000896715,-0.29606784043535694,-0.12138467151472887,0.3097712735829188,-0.36340384653903346,0.4517623205133334,-0.5023459018191019,-0.881984403927202]},{"Num_inputs":28,"Weighted_input":0,"Weights":[-0.42772629414552366,-0.27928359982425743,0.6408772579063515,-0.5339028486986778,0.796147357236237,-0.502776043494693,0.8906771876795991,0.529075511841141,-0.30075080992510195,0.8559727595057871,0.999864880232535,-0.8109657980606395,0.5219933298421815,-0.10879266585106262,-0.12745097598492738,0.4172267173376045,0.10820252141164244,0.7901965196469722,-0.302084566408622,-0.745864770092584,-0.5478857383038713,-0.45377553372398904,-0.806153975861647,-0.9109656455226731,-0.331328530439818,-0.7385696361297462,-0.9945817253331246,-0.46073007670987765]},{"Num_inputs":28,"Weighted_input":0,"Weights":[0.5555593309465972,-0.1639947089572541,0.6578458857982423,0.6396056775022951,-0.2165047023286345,0.25202085041122313,0.41204064155678677,0.15960345345939664,-0.4264280151867641,0.5720737715513267,-0.846227885831607,0.5562224811289527,-0.38334587927125297,0.40048627499289946,0.25172717240871645,-0.38698300759375037,-0.8770620549858995,-0.7385485859653425,0.07603623347535304,-0.25749882473391805,-0.7057674919006056,-0.5957493883477305,-0.9787877106916021,-0.5407259417643817,0.5943347529763958,-0.35743903105100006,-0.1381524109844675,0.11432428595077981]},{"Num_inputs":28,"Weighted_input":0,"Weights":[0.2698691266592339,0.06666184803850306,-0.48749308006296743,0.9479985520425873,-0.07006221050698269,-0.9339178527330156,-0.41069648214707877,0.5896752543639039,0.8455200049377234,-0.773276807910018,-0.6948541842195535,-0.25261324744175273,0.880612030631782,-0.6102346730525441,0.7076415781480627,0.08477567116725715,-0.824510177531482,0.1611916284819892,-0.20752146102149838,0.1711956476382155,0.4541387623035238,0.8981895195432392,-0.22029284970154828,0.9618983003562747,-0.3826645605256985,0.9586532689823697,-0.24979560130434175,0.1305996046636415]},{"Num_inputs":28,"Weighted_input":0,"Weights":[-0.8373029719282951,0.501493940825471,0.7727440405025046,-0.6649597375828342,-0.9740611467554476,0.11233485786773345,-0.3929868709934389,0.1707014717287707,-0.7200338082651311,0.9118685253085412,-0.9643550780684493,-0.2696202698428122,-0.0427660861523218,0.7436263263594141,0.22560934079810613,0.3919558109850265,-0.6993297357897397,0.6218888374660156,0.6993418509138343,0.8971507659136466,0.4075635633305945,0.7544763568471695,-0.696141503477947,0.19564334820430784,0.09127193767307995,0.11306723589079848,0.6685585399876761,0.19669761128937524]},{"Num_inputs":28,"Weighted_input":0,"Weights":[-0.10900789682442869,-0.35611397111752774,0.2684229739147197,-0.16041956481021358,-0.6960314414747608,-0.19056925917191558,-0.5959238378766476,0.45334893207291294,-0.27473564080510926,-0.5882307914130858,0.836603792394768,0.8162718695866991,-0.3334937228206447,0.9212262984018222,-0.3506688558880786,-0.7444051817839403,0.8981509868214079,-0.1837793229378799,-0.24402446009576362,0.8507012508255545,-0.21069121474965402,0.8235066191196896,0.6425042583352929,0.32807169201626296,-0.8581130735732019,-0.06492138313297735,0.2753844273714492,-0.13741041451897562]},{"Num_inputs":28,"Weighted_input":0,"Weights":[-0.9897977588879793,0.23335640425139914,-0.7178104422733937,0.8254463818379116,0.052360639150656585,-0.7385886687137282,-0.3199165931203827,0.9215403227432002,-0.47023572213888587,0.6278855101060499,0.2608297234685921,-0.13645191371327758,0.5426929987063707,-0.7037962307461352,-0.017091370118971994,-0.9757553446570867,0.07697195354479525,0.911676724005487,-0.45247352847542044,0.024176247983481947,0.9631430896563791,-0.7739596352765558,-0.7410490623178179,0.7040073623748597,-0.5055893203100574,0.9341978383185681,0.5792358633823871,0.728326158760134]},{"Num_inputs":28,"Weighted_input":0,"Weights":[0.993141279920615,0.6155500378990997,-0.7186946021326652,-0.2637824205761867,0.9091627354297604,0.9520717404108527,-0.04982403250455292,0.991838561464877,0.22845482299597952,0.4613619510086031,-0.10463642988329702,-0.7711173771402169,0.7468018232368616,0.970056067393473,0.04444287345726816,-0.34233221538319425,0.7995085803525501,-0.9143827035975285,0.1942207243434395,0.14196639514038956,-0.9385198995724049,-0.13087772140733667,0.15409461195184138,-0.3591410722337046,-0.3665915982611688,-0.9501204791813249,0.28027982122579287,0.29462676111020825]},{"Num_inputs":28,"Weighted_input":0,"Weights":[0.8345244422471063,0.35742019081809606,0.9539527442330664,0.8187031897583181,0.5674567968534092,-0.813087644851579,0.6236517869448148,0.8095329338618904,0.030041593630468766,-0.03108059423546028,0.43468312479839044,-0.133309302113659,-0.11995270188262475,-0.2308469091517935,0.49734280878470405,0.7102988456617094,-0.5409544276217002,0.9719488319447696,-0.19167799291338095,-0.5537556425045386,0.24336760470999086,-0.42909180292580074,-0.5074211238054618,-0.28365375011933647,0.5568890345278019,-0.3148125273133179,-0.5371077985805515,0.7432621916670177]},{"Num_inputs":28,"Weighted_input":0,"Weights":[-0.3648528680863884,-0.3764935170465843,-0.08533056260606375,-0.9479058322954488,-0.48557181131391813,-0.9584126361593007,-0.5304964147362412,0.2538164285923443,0.0034303089547347287,0.2873890729193205,0.3574330935739316,0.8661652213401705,0.5093682202437391,-0.18036672589170843,-0.26415492147594355,-0.8260271084617556,0.7515747158815116,-0.28776375734851356,0.2918015814091761,-0.6333963978890595,-0.6649792653294939,-0.972945759322434,0.16190428074646834,0.43591310459788724,-0.3820810072737265,0.04959820397601544,-0.13899843669215295,-0.07687892025485177]},{"Num_inputs":28,"Weighted_input":0,"Weights":[0.09768127402855531,0.30433628701000015,-0.5444254965372639,-0.6426751897176664,-0.8787280506671535,0.7249735160787589,0.08378273771343436,0.44660572887314665,0.1047075007593401,0.4257643843927357,0.5227808900871647,0.024075337059038304,-0.46265721048946407,0.2794355075458348,0.882177365747852,0.6075032452391205,-0.44691029235222834,0.6288331632684347,-0.7279235697482134,-0.1698181929357364,0.8129716069302366,-0.19708639010039608,0.47889962601878255,-0.5724841682814051,0.20995738113664597,0.4034959863169236,-0.5560221414188978,-0.4091412426243931]},{"Num_inputs":28,"Weighted_input":0,"Weights":[0.7517109005980924,0.7982440992774771,-0.7197244502263183,-0.0743559008711463,-0.8190578676037331,-0.47202801294566443,-0.5987925125437381,-0.7802918115808305,0.4949673989565919,-0.5398914071396322,-0.959100476317128,-0.4935753115204191,-0.38795053385278977,-0.0033933961274299485,0.029183344010451195,0.24289726834248349,-0.790742724512945,-0.5794862780864667,0.961266327140448,-0.6718166155261702,-0.1569143058430461,0.4139892449006095,-0.782846313835089,0.6066568609702669,0.8368110506090918,0.24001538859259175,0.12377550064019127,0.7801488228319595]},{"Num_inputs":28,"Weighted_input":0,"Weights":[0.65600773919239,-0.7375609666406058,-0.440323690729472,0.20111281775880396,-0.7384313458955417,0.5627589551805381,-0.22492903841162448,-0.9848625744729883,-0.19787098728215158,0.5770755692582972,-0.2504302815850934,-0.6690142339381291,-0.8073159335997331,-0.09320351008893069,-0.3907188933619997,0.8462924438038164,-0.06917258076332922,-0.1761026384089328,0.0591391688607954,0.7847426849351562,0.46121473970612703,0.3361772428412171,-0.3451493420280173,0.8163014843423988,0.42657937092011755,0.42729788756176457,-0.4711554877486799,-0.1601915433159502]},{"Num_inputs":28,"Weighted_input":0,"Weights":[-0.46160654037600024,0.4359069542364795,-0.943504216871636,0.9163735769144634,0.729300604100251,-0.14764400883706652,0.8880862353131216,-0.9334548371177087,0.7321040991710892,0.3584105271979785,0.049325947488340294,0.03596994360911743,0.9894187774485756,0.9678593259772825,0.25253748212757277,-0.5513641342888393,0.7627126319344169,0.9686836333830418,0.4471178781290115,0.9360563811101739,-0.23002530480164907,0.9019287027286846,0.9048173988842583,0.766464355060845,0.34507964510575473,-0.3819297892859761,0.534625986940122,-0.6967675800150855]},{"Num_inputs":28,"Weighted_input":0,"Weights":[0.06990675542139768,-0.7488818059661266,0.28295410346882255,-0.7321480142314533,-0.8299093392304,0.760619224045914,-0.8191316527669898,0.0059003847119840636,-0.7360369162313585,-0.46510080444242097,-0.28125868626841144,0.49750559791206794,-0.047537532884269096,-0.29036737838916404,0.10857250853743694,0.8924289969918515,0.3394287836872387,0.6305530245672337,0.050727139328687,0.060683458202249074,-0.137385949331982,0.5195765270792261,0.25693932010281406,0.46283946818859767,-0.9930122730842718,0.5811060249783464,0.7518456849719464,0.7787919873899227]},{"Num_inputs":28,"Weighted_input":0,"Weights":[-0.27345435446131305,0.6971825267177099,0.435921968451475,0.4563518191561491,0.2780751573018607,0.6160616551002818,-0.7937930247050454,0.1449065745108984,-0.36988812670884386,-0.9081025967959542,0.44522853501423265,-0.5934193594222754,-0.45616109839076646,-0.7912609071875147,0.8876742410641514,-0.6938959026466913,-0.7812396601862841,-0.441602749872266,-0.6758735321537979,0.08076550822769346,-0.9244991869024988,-0.08598619028066212,0.9542403680503031,0.31867042816542335,0.9324953639438303,-0.07741443659818381,0.8591028378040821,-0.5937519109364506]},{"Num_inputs":28,"Weighted_input":0,"Weights":[-0.7338507678602604,-0.6998610748891101,0.8454960902219701,-0.9578725077702459,-0.3590325414198895,0.19282791635117347,0.1523166781558536,-0.6453650849972263,0.5491998577401398,0.6503322279163761,-0.235114063163972,0.8737184042139243,0.7487658933131187,0.9259387591877757,0.26451143780954234,-0.8208180245998888,-0.9254556451726353,-0.9115351713591062,0.9451394163927072,0.13161815661071885,-0.8024735509654528,-0.5685355992576211,-0.8300768210703485,-0.47890825895188927,0.7306871998879594,-0.04171093622037236,0.1463554369278326,-0.5778088327032328]},{"Num_inputs":28,"Weighted_input":0,"Weights":[-0.9263793100091249,-0.9491772328042127,-0.4527243570534776,0.09346597627179909,-0.2607170075592409,0.8735949675063388,-0.7100345225560906,-0.9814736300460858,-0.7086687176453392,0.2743684759536391,-0.5494343073247652,-0.2494443158183618,-0.07811476917058435,0.2739585775055169,-0.9332955639693914,0.5252563886199206,0.049362907966041814,0.9210413819883938,-0.5854238576139463,-0.542888142823506,-0.5456962205663856,-0.47137848876696853,0.1045446768295013,-0.1773230919513622,0.03886921944854271,-0.45008505260593457,0.11127743663520939,-0.621345069037379]},{"Num_inputs":28,"Weighted_input":0,"Weights":[0.7741293553141488,0.46887270695855165,-0.8671862945642848,0.6873274030956176,-0.009807223101308327,0.8780801597569978,-0.18231525778941116,0.5056497803946831,-0.8617404868496417,0.3473451870866757,0.5806245964379555,-0.7372422657623672,-0.24091620431980298,-0.5430811323449783,-0.11106648292315913,0.043094564297039506,-0.28965661560386413,0.49666959238830244,0.9664752011714455,0.3462681163758765,-0.7559648598057195,0.5255152528151275,0.08654521491900136,0.760860771430655,-0.4399359557588869,-0.5829601708082612,-0.19196260527241282,-0.9683627401655295]},{"Num_inputs":28,"Weighted_input":0,"Weights":[0.55899941962462,-0.8304995261849561,-0.14369689590369017,-0.1860031037626847,0.09184169952041454,0.06947888913214473,-0.05087653997235153,-0.9355229645129477,0.4111684209420363,0.5354938573531045,0.6049579801039935,0.26302682366149543,-0.5121235304463655,-0.7529675049676596,0.856223036910966,0.14330434104874024,-0.566893978919459,-0.8516030350368919,0.050977609814221836,-0.5118236386640544,-0.770792440179749,0.7333306948033085,0.08036839336126844,-0.8894084092371005,0.7237427519481046,-0.16181368949989572,-0.7574081382628963,-0.13323643057204337]},{"Num_inputs":28,"Weighted_input":0,"Weights":[0.702000989382058,0.09121721903266788,-0.5489318969367627,0.9644839254357602,0.6523249968823823,-0.09889285434618911,-0.5593873695618267,0.38560812257361743,-0.03313519210510818,0.9019342849686065,-0.789020331083101,-0.19035944996996024,-0.8177454262554008,-0.37567511626563665,0.5636606245968467,-0.053153687801821614,0.6128259500570359,-0.8508424795053489,-0.5641946136656888,-0.7002673122365305,0.4503398023041385,0.22999895133919002,0.5947775060073344,0.1252786147779401,0.4335029163333566,0.5155279175257721,0.49869153673012545,-0.12700053819260115]},{"Num_inputs":28,"Weighted_input":0,"Weights":[0.9449126035418078,0.7468000845429672,-0.052937396400823844,0.27339435839054893,0.9402716965920126,0.8430011930263661,-0.8508801692048528,-0.863571259636327,0.4541125289932786,0.7466105238623788,-0.14783862280197957,-0.3987907192776975,-0.0777558643528482,-0.9321934947615071,-0.26939395567228774,0.6086949492048246,0.2752151827040181,0.27052131402603763,0.044691544223830926,-0.5200398818274109,-0.4353039021290229,0.22533559801601344,-0.6726481433673819,-0.6683528141456745,-0.7079489581630628,0.010095757816443784,0.1801088113542062,-0.512626921625741]},{"Num_inputs":28,"Weighted_input":0,"Weights":[0.1818081288524993,0.21650749692793014,0.2898036750665163,-0.28661403687046916,-0.03159609067380542,0.3754978927750656,-0.022552471285720133,0.4885834369345077,0.0027281373055285663,0.8988558239060116,0.22784653295851243,-0.46074340063396946,-0.9036646372845946,0.6282053176717084,0.1868328636754102,-0.2856550862223699,0.2732872136012787,0.9165441075939531,-0.9787996765339151,-0.7420461883777953,0.11472724076143437,-0.4941606269312312,0.5171015144320157,-0.42705485855444747,0.24890896291359077,-0.11958066508061949,-0.8037593295182374,0.4426227020235538]},{"Num_inputs":28,"Weighted_input":0,"Weights":[0.41356581719717966,0.5933163612565908,0.7589618923085744,-0.5533604250614332,0.00635567129167014,-0.6251584858101208,-0.6724704378824448,0.6321628610494521,0.015512297770630346,0.6099961672597198,0.952516445345047,-0.8952284218766694,0.950056530104382,0.6673281481296225,-0.87006726228132,-0.0974419825891778,0.4027821535528817,-0.1832890142305531,0.2825905569357168,-0.26436459453333105,-0.26169149363633115,0.21744888629218906,0.4105561380847995,-0.4185514419679587,-0.20530699070961633,0.7516331437192441,-0.9546127015081581,0.4634380467972161]},{"Num_inputs":28,"Weighted_input":0,"Weights":[0.39235640474718836,-0.28748491124282793,0.635414463691302,-0.462177570733343,0.33196768964329015,0.6722895348157523,-0.011150489760184734,-0.9212992960643024,-0.7582354084164709,-0.6828354260886838,0.32008222208328263,0.8888782006594269,0.22618506762159618,0.43176797918019694,-0.20565368227224212,0.7562619272681432,0.14510938970000087,-0.45227490597523057,-0.4345224432094552,0.550957602306698,-0.13104086258349845,-0.9867381336717446,-0.20453301085929465,0.7410791450938341,-0.6030138568699828,0.293192090960517,0.5134364765234412,0.7041769888211611]},{"Num_inputs":28,"Weighted_input":0,"Weights":[0.4648478105833753,-0.08816398328438513,-0.8032794040777889,0.9696564328749926,0.7138008269102891,0.39694356874904857,0.9617641023095083,-0.9041618079386495,-0.23042556394438674,0.8957860352099509,-0.6831401910657763,0.26842395883732895,-0.055829630697555976,0.0326257127897267,0.532779119582417,0.804084124805108,0.9583351991539815,0.1917364740128824,-0.9650041772075958,-0.2477122997488147,-0.09810541260489758,-0.7581824463147858,-0.2639495226258758,-0.048907264707174436,-0.8278993729270143,-0.2579644860635112,-0.2977248897861281,0.015494218502992707]},{"Num_inputs":28,"Weighted_input":0,"Weights":[0.7140100873547803,-0.9834067604038168,-0.6835339269136799,0.23965188853222208,-0.14087859023212668,0.27840209444342623,-0.9889441179480176,0.07753014954565995,-0.2697499074195777,0.7893590428412092,0.3140657133828375,0.1893994617242445,0.6563789635115702,0.44454448877968655,-0.5193455226529726,0.01078501037466606,-0.5704339845392973,0.2689165848142423,-0.8883573817754139,-0.36431464747242526,-0.3229012738001623,-0.6575056985611765,0.902814450094428,0.6176647325353726,0.4479991739930629,-0.4098306504933221,0.37037653135963944,0.2801933843088895]},{"Num_inputs":28,"Weighted_input":0,"Weights":[-0.47379133851878064,0.3444819382133071,-0.6305944991409321,-0.0580938005219237,0.14251920881614177,0.14720878500609658,0.9929006201311681,0.5383701312800089,-0.43113861362266737,0.40491000203998095,-0.391355964656509,0.29205170993437646,0.40652684183251075,0.2977170029339502,-0.3280822749817498,0.6027590957345565,0.5058636485235368,-0.9741859615357245,0.0238309103817107,-0.8883292554624459,-0.8616423116389217,-0.3500747006610283,0.36348463496875705,0.6434925000775227,0.8801689831575483,0.5059833179992577,0.12180912794637777,0.7277944380393626]},{"Num_inputs":28,"Weighted_input":0,"Weights":[0.5165593753314248,0.4283038180714207,-0.37106267854787045,-0.9674060164818882,0.09308382658592795,-0.9056881274550047,-0.46001644876325176,0.4290816412375904,-0.016618287841257295,0.6525458807581641,0.3442604714142994,0.8135938511014278,0.6073645842569844,0.22721513434326912,-0.5621822481802445,-0.14418636811321928,0.8481041329983945,-0.5254494822674716,-0.05925446329777473,0.21360832150310416,-0.30011514786982196,-0.17009747341669423,0.9964525448430448,-0.6569858032635874,-0.225863410247924,-0.10923205727892449,-0.2658670355934697,0.6428777012505618]},{"Num_inputs":28,"Weighted_input":0,"Weights":[0.2734700617163617,0.2673150674468727,-0.28188883228596306,0.8439399321225078,-0.37031381136748487,0.29063456484167705,0.5009199725270534,0.6365102900232904,0.5920940534406842,-0.6896762290051174,-0.48964183428792407,0.7571771519979231,0.8073100840755785,0.31178013810038063,0.41109421890490805,0.25991517696529187,-0.5776719709113868,0.23603459138963778,0.5800516120573551,0.7457561970441655,-0.6312690644459469,0.5450876415058106,0.19889499597346116,0.6280321804027891,-0.8064814710483899,0.5272522713842733,-0.9759732467716586,0.4607341574406498]},{"Num_inputs":28,"Weighted_input":0,"Weights":[0.6247286845925029,0.2369293850907479,0.22442182606272576,0.1337733003356163,-0.7255375882492843,-0.8031754511741266,0.8207645791447613,0.6206712847022533,0.923000991817388,-0.10106281213951096,0.757864175642103,-0.12554078325448037,-0.4395876933388251,-0.3095039367064335,-0.5769824507523064,-0.7900901433985794,-0.5117510379371067,-0.7879153707248034,0.5192580681796086,-0.00515274141166866,-0.3450777573215089,-0.811704534023136,0.7576628296387042,0.8538658708788409,0.10164912978042229,-0.7915120099021062,0.30900082955445085,-0.9630216466344896]},{"Num_inputs":28,"Weighted_input":0,"Weights":[0.3331629636176885,-0.5547531831870978,0.8623285742728868,0.5437333076062785,0.3933294852123699,0.3015661381193644,0.7830145143731093,0.2854406253843502,0.11017632120437026,0.33541054456035346,-0.9895891251357922,0.6181673933853411,-0.9442069188625588,0.9441525133590958,0.9931170464551677,-0.2773126165212605,0.2695775952936348,-0.35445830026005776,-0.603757468157607,-0.09984496281179989,-0.649189549709059,0.07293641732547118,-0.9211810402412406,0.09316192887399954,-0.5446730234295751,0.9325390130768221,0.8996533910248334,0.2133138884049952]},{"Num_inputs":28,"Weighted_input":0,"Weights":[-0.19529082764778594,0.9813903174057721,0.2838614865115805,-0.892813041739848,-0.552206066367996,-0.911095833384487,0.9135991129008503,0.27894839289091045,0.5863063521471761,0.8164194091108699,0.5916533693356245,-0.764498670736307,0.8196273819401423,-0.31043662348482826,0.3553254581085432,-0.34301972130453373,0.7252252706343023,-0.5775423856349622,-0.9150382955692397,0.30925050047858393,-0.7256447213374102,0.7722215850656657,0.9281803452240365,0.9437685724927141,0.4017786688421263,0.6247115890628634,-0.3573660647902175,-0.16144427622203528]},{"Num_inputs":28,"Weighted_input":0,"Weights":[0.4181858337005475,0.802197546138834,-0.5499310194920219,0.16936827849259428,-0.011613615700199587,0.3213853302691889,-0.321405105634463,-0.9336898572059268,-0.6827403573418198,-0.5655069607645277,0.5864534213562171,0.6521427071974368,0.4688265329477559,-0.6004686928236661,-0.18494550498570106,-0.7964742193570107,0.6274826149954165,-0.8561350751918044,-0.3594741251879512,-0.6685610434225904,-0.5848571510600462,0.2454323843039341,0.3452680876925367,-0.8009218263187232,-0.03775708828807445,0.57343989569219,0.7464596573196876,0.6485226310860315]},{"Num_inputs":28,"Weighted_input":0,"Weights":[-0.5507247679573614,-0.08596108413190406,-0.5072483531753453,0.7791318716617492,-0.86061462722498,-0.6644694091037262,-0.597949799134174,0.0124744104083232,0.6833077119166011,0.1565372977575612,0.9128185068189305,0.7417740866238702,0.4950002405633529,-0.40707043393123454,-0.06686365447968678,0.5778934626652854,-0.9577338824032924,0.5677792046103511,-0.7843324378363551,-0.8316338079523946,0.19904319600747256,-0.9602516354073758,0.010884953156767407,-0.21638092286252852,0.25276937801945243,0.49955915700273423,-0.24518796696822742,-0.1811217836310356]},{"Num_inputs":28,"Weighted_input":0,"Weights":[0.3910282793184552,-0.3502241452464898,0.13292675583732638,-0.07780935108502163,-0.9455357217845579,-0.19524442733946978,0.782660833411716,-0.019803129966045274,-0.13455836663408705,0.9852329377923561,0.6147896437831708,-0.3150775833881204,-0.6114144638417298,-0.4726540517456138,-0.8569131849880438,-0.21465997240088242,-0.9598535332162907,0.8222657350689235,-0.7556510055541272,0.08118035425020564,-0.08870916644195159,0.942714827003901,-0.2171037351530003,0.2848509164932451,-0.10267779086127082,-0.9109881755035614,-0.2549835163283456,0.07725762419278004]},{"Num_inputs":28,"Weighted_input":0,"Weights":[-0.4095226638199385,-0.5963886884254076,-0.5550093118189454,-0.9216038231422524,0.1369279323562056,-0.5681290935690676,0.3806970679339785,-0.32916574492210937,0.6613343827431348,-0.09977040852028696,0.7993282854122947,-0.0711593953858275,0.010935738028363229,-0.5100547719075463,0.6420113498049909,-0.6173959066429014,0.4936328908900498,0.9088772935327225,0.4216117756233355,0.6873333109536757,-0.7828006689399417,-0.2783821370317683,0.3068078914556287,0.4892628980576019,-0.8322191051484791,0.5657816350992855,0.6953550847806891,-0.8880153081348692]},{"Num_inputs":28,"Weighted_input":0,"Weights":[-0.1628100816291579,-0.975371845689837,0.2949987955679729,-0.32209470502713555,0.5647530864301595,0.47941733743630444,0.1855498589026101,-0.5939652540917266,0.9816632643194032,0.29990413967728147,0.617738197731124,-0.47070606410378557,-0.8696285749776724,-0.9727889488583349,0.19014963519674,-0.5136876888899564,-0.08897968391313626,-0.8149193487863051,-0.19697854098339318,-0.31855506296727676,0.508903793611923,-0.30254453587027774,0.8395476145552874,0.4931363349664135,-0.6294086614385496,0.47038653731419,-0.37031905324303216,0.3262912025546352]},{"Num_inputs":28,"Weighted_input":0,"Weights":[-0.08558930776911444,0.9063871502032426,-0.03678521111891819,0.18678319867679072,-0.05832248626554293,-0.03758390554742164,0.25643846833512174,0.14848019581348337,-0.6206165912995096,-0.31498639649164095,0.4831489548109389,-0.6451493527602601,-0.8659810224594551,0.4508123032240985,-0.7428229468906943,0.09169997804034247,-0.16033070597874954,-0.047665662799914355,0.26467207912625734,-0.8314475444048727,0.8692050900528487,0.9405235029394188,0.993474013624394,-0.4203366925587203,0.35735788004978275,-0.8424488693487578,0.06580000638428074,0.42780414388759347]},{"Num_inputs":28,"Weighted_input":0,"Weights":[0.9727942343297291,-0.6832707774831412,-0.5473826562151939,-0.6483419075716026,-0.1578592024009231,0.6462966194730075,0.4127185013133179,-0.7803234155582107,0.37237775681166285,-0.43916655002300475,-0.7235081987478962,0.5050066089668197,0.16278913213995283,-0.08127095269566398,-0.013810062155515723,0.5805261060322588,-0.5114174283492987,0.5382107261509308,0.21234056920049404,0.9986594167531813,-0.2772118252888457,0.5394884190494742,0.548540258388241,0.1292914908432472,0.20679023239286698,0.5057345026989541,-0.26305634393016974,0.0973094648572066]},{"Num_inputs":28,"Weighted_input":0,"Weights":[0.2249337958060187,0.32832713147141956,0.7600607545876217,0.6900097877435418,0.7610267078612121,0.8251351210376792,-0.3485570502224572,-0.03204694054052504,0.6709969640085718,-0.9560082006917245,0.11087222377139883,-0.8210485437807182,-0.3441910500712019,0.9414131185461989,-0.3141818163517345,-0.3078399479067787,0.7278032337024685,0.8192344087304972,-0.23954913887771423,-0.9004657490212596,0.16276229054208824,0.8737687718916862,0.7487112060560628,-0.689670904833096,0.2793368196885275,0.8186626044120988,0.9544179509148014,0.6110201212018844]}],"Layer_output":[{"Num_inputs":56,"Weighted_input":0,"Weights":[0.9779024754321335,-0.32615892842549254,-0.6594462995556862,0.49574962894509866,-0.4312221198765652,0.4956922280096232,-0.8387210361237779,0.9236925286238604,-0.9033897518980436,-0.13773860413500283,-0.2580799170943624,0.2763466249300206,-0.6687123787340226,-0.25130027737497473,0.4042114584854639,-0.2809698370385012,0.33276209217863784,-0.12010673328839372,-0.8787085399407364,0.909558629555417,-0.5218664037542103,-0.7040096553413064,0.14804898662274812,0.71002816038029,-0.2283080923736256,-0.659278474637657,-0.3578891761435631,-0.7668242998375527,-0.9036167879166135,0.6023928548207556,0.5900956904816332,-0.796688255775205,0.6898141710346943,0.9836174774811184,-0.18426209834595708,0.39983274862630624,-0.9328349269073589,-0.3810169016584368,-0.23995297518241987,-0.5076242986224723,-0.9316732599360881,0.8752662788183847,0.9968266925508622,-0.3843357517909304,0.7073813956598498,-0.12217801073685108,-0.16369246743256127,0.8410904821056309,0.6541331515791546,0.584076970514595,-0.49900510465233017,0.3235200774792457,-0.5202065158867673,-0.26838313327239527,-0.020420860710230637,0.8425295255034233]},{"Num_inputs":56,"Weighted_input":0,"Weights":[0.6666115025432835,-0.02012604476683444,-0.8117915399557711,-0.7438434083700839,0.7832784624284039,-0.9508316462907873,0.4442549837786165,0.9201862267323464,-0.9014088818666088,-0.9548456619874726,0.5922745638828826,-0.7986282930716758,-0.9368883377101541,-0.3877741002676588,0.13648712932658924,-0.20918660922074617,0.3235020984413888,0.20941362873081548,-0.3039182728501857,-0.10652014920937214,0.7999090812649998,0.9938019935957225,-0.5296848573662856,0.6093424533088758,0.5766357693691562,0.45004434336098287,-0.7118234047115315,-0.6857296361569798,-0.5432965124363947,-0.09144732011733736,-0.3330604547333662,0.7228809742550175,0.8990429955723902,0.2307728461142684,0.924181696114692,0.8847064163624319,-0.7669592831106072,-0.9034993012526014,-0.5095109961466291,-0.11855170365433132,-0.1752600407512659,-0.5016735070377929,0.8573188779857062,-0.2944848904391145,-0.7947785664181306,-0.9083335944586457,-0.055470937444561885,0.37887633287532774,-0.5586132388645042,0.36440832851795,-0.19138341105608236,-0.9224501422426304,-0.736579113007938,-0.4534282693112752,-0.12550587196092378,-0.8006617551658393]},{"Num_inputs":56,"Weighted_input":0,"Weights":[0.4722088651598706,0.00158603122823342,0.8039039010036078,0.11097657619225121,-0.463301057448108,-0.3935453860811067,-0.9346060149962234,0.8520767777473872,0.7125083504687562,-0.17453431551676735,-0.39485805278541053,0.9489549201029008,0.5311023207664722,-0.8293913951524282,0.12296016578557545,0.557201960879925,0.98524952305363,-0.40088835816089763,-0.7965717904981843,-0.4659485151046412,-0.07591843659774011,0.5575430019681697,-0.04851833132161443,0.03524924736064672,0.2092183514448127,0.9551255276336281,0.1829365157543359,0.16897539616053292,-0.453074838118969,0.15620330947411554,-0.3476451944402471,-0.955643705456259,-0.24968261951068338,-0.2512701987250634,0.02399385955466604,0.7891647775574451,0.5812710330985826,0.8285900957252461,0.11393565322876031,0.7711971107392162,-0.43934395964639816,0.5012154223381244,0.21211562035996145,0.5635139031541878,-0.6841938889204211,-0.6642446404699405,0.2688416846440451,-0.6679539149115336,-0.4523289037042866,0.3395114827815433,-0.13160781578456127,0.3972849252072339,-0.2713419460829284,0.09233797276437117,-0.9108504611121739,0.3974969407804796]},{"Num_inputs":56,"Weighted_input":0,"Weights":[-0.935476297680039,0.5781290284537439,-0.5923755472128878,0.05678488925711078,-0.6854125036941292,0.21131261934825663,-0.2793529003351194,0.07075115818395172,0.319612049362094,0.6075270858668556,0.7765733843385487,0.0021386459936565405,0.6440793043048538,0.05458255323415906,-0.8124394788133591,0.7782325431062593,0.38945168194154567,0.8388296284715364,-0.7220451467953036,-0.36950217678884667,0.3973072080590505,0.15010949026873432,-0.22155047587981813,-0.9488946780721942,0.11668624601433342,0.9071777115311217,-0.041624670713340195,0.45713025576011845,0.17856680872381547,0.7714399828407916,-0.29754865405903885,0.6498095623225015,-0.6660192139529999,0.5621511062689764,-0.22747652714218214,-0.633198199432998,-0.3934447795300029,-0.5115382735057692,-0.6645829198411504,0.12604087412673626,0.23515647620607005,0.609788994547815,0.6158060465302306,-0.3760975525908865,-0.767679727797085,0.6569227278398464,-0.6178479238559333,0.5386341475497383,-0.7401360429707005,-0.4074359645880956,-0.35757179680343953,-0.8957349656141536,-0.4110191999243554,0.2813579586123336,-0.9698894843366723,0.15975107478567319]},{"Num_inputs":56,"Weighted_input":0,"Weights":[0.8824861456414712,-0.702180750743403,0.965381833415029,0.8642555845487918,-0.41089378932714327,-0.0027258319273962828,-0.4206279005699428,0.6302315262930209,-0.6741749558739573,-0.07011435995797011,0.9931871618159935,-0.7167976027287916,0.6943402224087669,0.6698251380698477,0.14517479133765288,-0.020210392773930108,-0.7226105566078028,-0.3316832447902992,0.8243690471037823,0.9101767340906977,0.860847099822541,0.4746956916676963,0.9670199574691722,0.27978941760144127,-0.19405631142385016,0.9030462477209866,-0.9732891285384785,0.5052190457045438,-0.019269477731219897,-0.6932671493909123,0.6526393123265568,-0.6963406111808654,-0.9718074979357076,0.342665372032974,-0.6219978342336823,0.5576032975831211,0.8760875487337498,0.25617534284997756,0.2249449580916898,0.44437236237746847,0.49212179663673417,-0.2702299982272406,-0.7077376270197925,0.7220366509481406,0.30722006916676814,0.8075282669404664,0.24715080484390795,-0.6340081892837494,-0.36599697819191856,-0.4338628849969327,-0.7259854857960515,0.8178886715370344,0.13504022806210858,0.8062815141087301,0.8102919537842483,0.42311406343460267]},{"Num_inputs":56,"Weighted_input":0,"Weights":[-0.4129069273325162,-0.9561940589339797,-0.19395521545313787,0.4937733253622498,-0.08311462571912442,0.6698571397175364,-0.417324231170193,0.08302726972906371,0.38227091205194896,0.3569442133136087,0.16367896935973736,-0.4921580051196327,-0.5990839715276683,-0.5558950607088546,-0.13612617559778362,-0.5172058735972856,-0.8783990713667434,0.5124045691778714,-0.4637392496251581,-0.25175584286381103,0.9986226098150284,0.2938824874013779,0.23065211998784596,-0.9610100720590269,-0.46208026848226336,0.7056378287376563,0.9413158078717014,-0.9301927350886747,-0.8288934647492963,-0.479687303816824,-0.8001957962650192,-0.2728055347422722,0.47762667333441877,0.2535646812673036,0.8003392811501158,0.10967419675160173,-0.9486522996380189,-0.28787779423085236,-0.2265135653271051,-0.9030530511978831,-0.26445812916390965,0.09138564813783412,0.3369826367298374,-0.48439533612303654,0.7642579296243881,0.8683537534023498,-0.32652665850866913,0.4847888771932949,-0.1554135244717365,0.4916240557277649,0.8007422646022984,-0.3126723274455041,-0.07804930356435802,-0.8808939727539277,-0.4209595359066204,-0.8960620485145386]},{"Num_inputs":56,"Weighted_input":0,"Weights":[0.904367682540232,-0.14650894973932038,-0.5481541817186083,-0.3214913849933533,-0.01251486725667239,0.9983462714953788,-0.696547020723322,0.7190562931048603,-0.19149869658334517,0.18864586781179082,-0.5490063103096833,0.5352426818613434,0.4611730321625691,0.35799903391531274,0.24690416126827608,0.8610415723239324,0.822561848443238,-0.8077748857703404,0.595139079068393,0.7095030099436868,0.047488764749916035,-0.39826974621008715,0.9126499794440424,-0.3658070298374576,-0.02796018384335397,0.315066335795801,0.6285843908989466,0.5621525688240698,-0.200339833198257,-0.9721941665336072,-0.7916396390200968,-0.6038395614691703,0.735301654056566,-0.01331688893149574,0.9924690361067339,0.457172792557033,0.009413908409214189,-0.7898585047875238,0.9931712317010211,0.33484817888364726,-0.6913753605339104,0.5573462150705899,0.06685424129461648,0.9237229810159671,0.7253791422153357,-0.9527927610818795,-0.7832927901483854,-0.20462095638860023,-0.6694543327806406,-0.15752337029784558,-0.6947397079337808,-0.8271961958050952,0.4619209813199865,-0.2667171999153325,0.8877156756519744,0.9148139371547241]},{"Num_inputs":56,"Weighted_input":0,"Weights":[-0.10347589749154273,0.6795153045062339,0.9308881945408065,0.46003926975502685,0.4257520577773992,-0.9220806865971944,0.3632208620616495,-0.3812032939632952,-0.4615949595845469,-0.30797701535214284,0.5627860321346638,0.6917901282058991,0.9667583063696674,0.7706065970715961,-0.9242685624141811,0.9862272585614047,0.5742722659938047,0.23694518349154792,0.9046947893506896,-0.24289518688839096,-0.5619324531360779,-0.7900562908652351,0.7697482028251579,-0.6504707718920811,0.23379039369529564,0.015060916800484936,-0.036394164153789155,-0.30432771792951674,-0.31741030935949544,-0.7402417100892211,0.4787403388166027,0.7620457463109751,0.6107834610001155,-0.9750838931948671,0.5391971106602971,-0.08735662265279343,0.24845948339011348,0.1362733242134826,-0.8084129439721564,-0.4720033140781478,-0.436227557786213,-0.9295976943972583,0.029869421622669368,0.2364834545484662,-0.9478230202812303,0.15360965114294522,-0.9269475993910892,0.3529555407348355,-0.7751997843539887,0.025534527908648297,0.29387707879582026,0.971647958430008,-0.8529198742699242,0.6703656604462316,-0.584517844987793,0.023908959845596156]},{"Num_inputs":56,"Weighted_input":0,"Weights":[-0.524489725978716,0.12447654997211366,-0.43042472383118346,-0.10873053261455823,0.6616011684301291,0.13969201725395664,-0.49774876550385583,0.13581632014864842,-0.35678696021577117,0.80593177820295,-0.5081774567164468,0.4960631283368331,-0.20048061507668313,0.02848643848423449,0.8726290602665383,-0.10650910963817506,-0.3534991997138003,0.6496554394184009,0.10942579862342239,-0.8913950312250529,0.023530911868260063,-0.793123882573866,-0.015851117629383404,0.2422189110068853,-0.8192359456584275,0.22538062262703162,-0.47079288990846646,0.38167537074583824,0.1482703798770253,-0.19641347867214698,0.2586270666512702,0.7482798267802786,-0.30290064985566145,0.5789614002976766,-0.3650678158884566,-0.33991026724130113,-0.3853864945118999,-0.5661952223007314,-0.09441937587946181,-0.13571228951558778,0.353901594637694,0.31486255100759375,0.9394044239548125,-0.6260327006717271,0.34887342445542635,-0.8176553054186434,-0.618325898288528,-0.9733677681977886,-0.22687642902912242,0.50245344210752,-0.9641025786507579,-0.25564655388172897,-0.59838423936145,0.20391266353790782,-0.7568301693035765,0.6347273714704647]}]}
