{"Num_inputs":28,"Num_hiddens":56,"Num_outputs":9,"Layer_hidden":[{"Num_inputs":28,"Weighted_input":0,"Weights":[-0.7241701149326927,0.5290765218473694,-0.4394430738776126,0.7143513307005944,-0.8373322954589819,-0.6252981948356464,-0.8831161388360679,-0.9971600390096105,0.10582864336833908,-0.2762864366683794,-0.3414365278069862,0.10290614479607285,-0.1202344968306569,0.9937273406632774,-0.9410649546981945,0.7153476288060014,0.6046169245593012,0.9903473958444284,0.1699681574495695,-0.02170425513965879,-0.23686776608163151,-0.6304070720643677,0.09835327236100855,0.5206768432957478,-0.9424763935001725,0.955312559918905,-0.3580077380623302,-0.5068654525863623]},{"Num_inputs":28,"Weighted_input":0,"Weights":[0.52434298982916,-0.4983576237148927,-0.1396493919149715,-0.6947415889106032,-0.9321968271721356,-0.2917295133845169,0.5685811088421415,-0.29520782291336245,0.44550583546811295,0.7595896050943853,-0.2085295070417632,0.9706495956700105,0.7964227355268456,0.8458163256520173,0.3944103268063559,0.3568639087978067,-0.2590787823119982,-0.6741369946996216,-0.7945096228835644,0.170999805115702,0.1582339480988364,-0.7890616308019023,0.3232053066450373,-0.28384819193380373,-0.3938127059541694,0.613044977479813,0.6453132753165114,-0.5406972691974893]},{"Num_inputs":28,"Weighted_input":0,"Weights":[0.4053892579244889,-0.7359920768693559,-0.980747007277451,0.07612811633854277,0.18149942784318007,0.7747953107555443,0.041902718932084415,0.25561763223704803,0.8342909841353183,-0.3066898325743037,0.7615910735039018,0.6900364441234146,0.7472304154989275,-0.5596907707795752,0.4650644061679432,0.305871436594894,-0.9955645760038854,0.7367113475767839,-0.3229335808889233,0.4231701155775556,-0.8536378432449772,-0.8247945167380472,0.1860318002652166,0.24687943491878284,-0.2762521144360186,0.414845882681504,0.7304111254061221,-0.02944267187289873]},{"Num_inputs":28,"Weighted_input":0,"Weights":[-0.8939868259318975,-0.4915363590842182,-0.14290832433068734,-0.8013857641242668,0.39986208200265416,-0.8061349479624046,0.4961997027370937,-0.6606084111842829,0.170684210172952,0.6110983809628061,-0.1472777992165648,0.3820638848658793,-0.5739472357039348,-0.30500278221295685,-0.09217661244524922,-0.03962708895922151,0.2544949382338768,0.1205942537707052,-0.019683779421815983,0.6736510835660376,-0.6089875308483211,0.2751852018004548,-0.9544850946854737,0.01573804107213328,-0.40674470268541807,-0.7406329564551575,0.5372738940055073,0.7879054944033026]},{"Num_inputs":28,"Weighted_input":0,"Weights":[0.4794900537613269,0.7221037086053108,-0.3625292535012644,-0.8817047378029694,-0.19338530797386377,-0.583534221853949,-0.6516298432293064,-0.18715733733645157,0.9275461937155689,0.08839263248276374,-0.23420712244977027,0.6220224825122083,-0.17023890719560764,-0.7340269343254051,0.2994703765392974,0.07523408714991597,-0.3544129887917924,0.4628474270346796,0.820006112607909,-0.7391323573841594,0.08653924144971348,0.14424401078598748,-0.4267109891380855,0.8506242393519823,0.8632508404999251,0.6496824806224248,0.48954812415138904,0.3028036341508833]},{"Num_inputs":28,"Weighted_input":0,"Weights":[-0.6845839940386251,-0.06542726249316555,0.3462214057003288,0.4282290915262723,-0.29167058896163656,-0.7039781487071842,-0.9861802378181233,-0.8454214093297698,0.5731531822141085,0.680906598465602,-0.3243724776212643,0.2145359650189822,-0.7648259050604697,0.847759680417056,0.20816714536341085,0.6373034637986397,-0.4518252200080267,0.24200935404306945,0.8536048449134686,0.4890957906314113,0.0564152505890918,0.2415350467461983,0.9459986527810116,0.9492888204231895,0.6359357433927852,-0.7294414876983986,0.22038698683943214,0.6564382530698987]},{"Num_inputs":28,"Weighted_input":0,"Weights":[0.3796896200389004,-0.8101639614004625,-0.7831134249886295,-0.6257000567682436,0.9160229523218577,-0.46349915247301565,0.8673116947051815,-0.10062077473254416,-0.5452574699057747,0.9214978953281778,-0.9768470234115977,0.21769422875430466,-0.7913362797264923,0.9489108232503582,0.043910603086759536,0.39982119312898545,-0.9466742582774587,0.47179728975414603,-0.5174202880749674,-0.3052384338667077,-0.8265328509085637,0.396854624935282,-0.1336346510998393,0.9788665330451172,-0.01873018975897689,-0.993691622138407,0.23662325590148736,0.3625307901316046]},{"Num_inputs":28,"Weighted_input":0,"Weights":[0.404833237533923,0.8786653983198671,-0.9220743741860341,0.9938313969649331,0.27766192130290834,-0.912998017626643,0.968949750163465,-0.5819997881936755,-0.1565522802731356,-0.7801988944382213,0.16591597143344083,0.0020447869892075143,0.19368621361557303,-0.21025031100237856,0.9850875195881104,0.9356069494603794,-0.6475861648599315,0.8721586189803185,0.6022209811876991,0.3833178147955896,0.44949564525949715,-0.847732596949182,-0.6268322939639702,-0.31308040386193814,-0.9040392106022703,-0.1581795379498624,-0.9867313980350895,0.08617611344831744]},{"Num_inputs":28,"Weighted_input":0,"Weights":[0.6972741026279721,-0.5989906038560101,-0.48251051013410495,0.5381883953901594,-0.8712345250081618,-0.1044221896933385,-0.6902561762053708,0.22375605397791154,0.556768122758027,0.29948423462294094,0.90932412395757,0.2646163694295047,0.5510627104925794,0.7585007011172193,-0.39543261516111616,0.7153539275386407,-0.060408911680933985,0.7339490875984773,0.8863879511293846,-0.006306516542022078,0.8859864491685232,-0.05539043044110881,0.6532272130312138,-0.2199106518876559,-0.4064785486892981,0.4080139755145835,-0.27588743005989536,-0.692515766164855]},{"Num_inputs":28,"Weighted_input":0,"Weights":[0.8715105684090998,0.20771842439178245,-0.9249093909090041,0.5593101890447509,-0.34816649346039086,-0.4388881385681954,0.7980851429981701,0.4830084411113611,-0.8908451454532269,0.05095362452986851,0.9817852492311547,0.4581580020298204,0.31212386085238397,0.3847183151026403,0.9165642959187004,0.12706444884281853,0.359244717711136,-0.7328962241882842,0.7944042986884787,0.17819853918114803,0.11244192620422089,-0.6408482408245688,-0.793878567299543,-0.45055423326229205,0.11284290854748957,0.7354369293225143,0.992105894137135,-0.6095594111816074]},{"Num_inputs":28,"Weighted_input":0,"Weights":[0.4717111563287453,-0.5292551405037913,0.9252391936818396,-0.37886359530106817,-0.43571144888192037,-0.43972805004700366,0.03767482862317051,0.12779444341987123,-0.16687969917187562,-0.5192640461721694,-0.9320457130376592,0.711225459171738,0.08897444525790954,-0.9830329482057597,0.8645213491939943,0.45424379368296486,-0.2509711406980306,-0.7078354053379631,0.014395574103694742,-0.5383048287069215,0.6721311520619102,-0.6422907488195142,0.5233240461670603,0.8485997704289521,0.9983778421844716,0.06908376098771551,-0.7113423167248683,0.9166264346630717]},{"Num_inputs":28,"Weighted_input":0,"Weights":[0.7349693347588759,0.15235324416852358,0.3503510513709598,0.5227959562504056,0.04647560186138788,0.3480510148795475,-0.03479828406376595,-0.9216180568372779,-0.06886490500011377,0.8833218893717603,0.7121147820522222,-0.2553149785366735,-0.0734822407280935,0.9534928085445731,-0.34443906402065705,0.5255004591990913,0.2694536939840153,0.48785919016958945,-0.1301410251975228,0.09867742497260545,-0.5493870806613241,-0.9588822030923171,0.2811034880666998,-0.47172626749477853,-0.1609817308351228,-0.2690064827009012,0.23831105520527696,0.5336997732535615]},{"Num_inputs":28,"Weighted_input":0,"Weights":[-0.11278719180040653,-0.021948968756897336,-0.27342856154152917,-0.42193543654860377,-0.17648657573831916,0.3165075159096835,0.9473742415159498,0.9460941386514579,0.8135014370841582,0.17934407503609462,-0.25388753080170323,0.3061747882943531,0.3494821928615277,0.5206775092682294,0.4178978225434966,0.1564865310266086,0.4165329500612347,0.23186347953372177,-0.6886309170343694,0.5073509735213073,-0.13089486557306962,-0.9282597422158376,0.09462134369681663,0.7157419226157056,-0.5097738943041141,0.8837538108957641,-0.07113392647563332,0.6889164614498164]},{"Num_inputs":28,"Weighted_input":0,"Weights":[0.5575066623789959,0.10328263609659638,-0.9399919929754864,-0.4790349159606916,0.3777541841096843,0.5456553554174581,-0.15530265071596283,0.4161399125129559,-0.8010762644802314,0.20531623964421275,-0.7339594277005024,0.17930045912058734,0.17264653309577027,0.17942581411943714,-0.9799108537823751,0.7622784217716494,-0.2197011938374832,0.5382745568876859,0.5294363004245084,0.6323110658142725,0.5941929891012601,0.473930653772503,-0.21661190350152992,-0.5578559214400978,-0.44741747911139684,0.8535447568132044,-0.8072852945845219,-0.6313874928928986]},{"Num_inputs":28,"Weighted_input":0,"Weights":[-0.1197368796603755,-0.05350565882818248,0.0006129437135364846,-0.004635707021991564,-0.915256530335195,-0.02508295009827588,0.4484755108454539,-0.9656791855147633,-0.2528842929921631,0.7137760862805134,0.6002953122674612,0.8376710546702797,-0.0310043591335315,0.9537676545945131,-0.5721877888631732,0.05347078864204957,0.9792827680226024,-0.9735754915049668,-0.47198177370359384,-0.40278577033710183,-0.48399392507628014,0.10371986179404669,-0.4077733862215016,-0.9922920601391408,0.913499821188644,-0.8972866326773518,0.8968900159478419,-0.18890314089470517]},{"Num_inputs":28,"Weighted_input":0,"Weights":[0.027040100506528164,0.689527411154039,0.7258828014090892,-0.7746296583799785,0.8244901343737796,-0.11871224832595306,0.4287266257808713,0.3962328473394905,0.47261840110766107,-0.9324789522563364,0.5634072987800915,-0.7899104465773512,0.569193780624387,0.8113819715476311,-0.4237030200699975,0.9745972323415659,-0.7968444812808533,0.7424756558039198,-0.7529928532431378,0.03728080705182424,0.2514478918426326,-0.0296139145875568,0.6032506683510552,-0.3764577352270164,-0.7028463895872823,-0.4140397675451911,-0.13475917204634735,-0.4064441888538728]},{"Num_inputs":28,"Weighted_input":0,"Weights":[0.36468075205503125,-0.06483540513691521,0.24496321447411384,-0.3927189671376833,0.40288731122353894,-0.7766815805766025,0.3137211528864732,0.8901104425408521,-0.7578949308925065,-0.697549123390235,0.5545533240292677,-0.26957998705314934,0.4583818048691477,-0.8063648278945024,0.25250130806534665,0.5731314478184422,-0.7763844762852196,0.2178908083348261,0.7405147220412773,-0.06970254458512426,-0.9152206129478677,-0.07940981842491879,-0.8652544511245249,0.1900043909406941,0.8122015130848725,0.6309330219465923,-0.08327950437189391,0.7773034319138621]},{"Num_inputs":28,"Weighted_input":0,"Weights":[0.3094863479829846,0.3385987231938634,-0.8106461078878412,-0.42708570547492997,0.21507877832303968,0.0690249700446226,0.44463319302643045,0.5303027582610931,0.7241926927831781,-0.8484034772256447,0.4087565410784997,-0.15244453731429108,-0.3417850964595597,-0.40813462749215934,-0.8296470136737712,0.6599604145036262,-0.7919459658451585,-0.8674668440149774,0.11078260194272005,0.5889371175745148,-0.8161888800003239,-0.6263018278436806,-0.24132453489134187,-0.41431710135366906,-0.9985692837486292,0.9521880525535769,0.5419448270408782,0.481591784963318]},{"Num_inputs":28,"Weighted_input":0,"Weights":[0.7523386161087382,-0.2581824880528003,-0.841392426652738,-0.9702172985387923,0.7876942433923604,-0.3485741455375193,0.2614480407324107,-0.8675908941153194,-0.7822990088373274,-0.5037315112244044,0.6895188626873394,0.6411270689517496,0.4741291448960354,-0.07237780709364505,-0.32409733106726535,0.4825623457183845,-0.4901609254811671,-0.5531530743090838,0.8372833169630114,0.2617390568254008,0.7988343100168744,0.39955769636637606,0.23177413044468786,-0.046567434437174926,0.9423281857823091,0.9237745323423603,-0.6527740255835807,0.09650981549117654]},{"Num_inputs":28,"Weighted_input":0,"Weights":[-0.19514688809628256,-0.916018838822811,-0.732607175868053,0.17616139304556167,-0.5844780482473197,0.04904135604078008,-0.6784113364801687,-0.557285190061217,0.7599796930380034,-0.06874710636414827,0.8270451713146474,0.13181689719647416,0.2738097070541514,0.05714143452983378,-0.295804526176371,-0.2550442844666114,0.5331625045843496,0.7094459859263507,-0.08089040401283154,0.10180744609239833,-0.7175990734349191,-0.35383445837202376,-0.17627271608997186,0.34046940527522773,-0.17448083025534322,-0.6291650756434829,0.10175594145699773,-0.8941435781094028]},{"Num_inputs":28,"Weighted_input":0,"Weights":[0.12419207805140742,0.391034044817099,0.11312255903203194,-0.8698515581863864,-0.22115239774499051,0.15024157682019457,-0.9624645154532322,0.1740943963155721,-0.6642444457763779,-0.9080079645863547,0.42966786736869134,-0.5735668834780252,-0.5924242908012238,-0.7118669875859187,0.6132137912915583,0.9713520543112018,-0.6295341719387302,0.31696800896168265,-0.3657800330768993,0.5812963493792651,0.33570052258145067,-0.3535914037970267,0.5426022938892103,0.4261181169163768,0.7104729791955002,-0.30785922212330386,0.6294471580136252,-0.842915419930308]},{"Num_inputs":28,"Weighted_input":0,"Weights":[0.6726297961663941,0.356103798313286,-0.8396343291571222,-0.0006835941462532968,-0.09530521869646469,-0.8835119581366381,-0.738525898094945,-0.7109462565561306,0.8735417069492768,0.5962325892327536,-0.007533932173648505,0.7084177947004613,-0.43791379747490444,0.8009704574282954,0.20817449795470844,-0.39096056353256103,0.7698769194987878,0.3507949843508742,-0.6077159397546217,-0.8334968027337221,-0.06242686659609764,0.34877633973872557,-0.20661831394696295,-0.29678013042464413,-0.5543498638658009,0.7510521124038041,-0.01996440649235498,0.17608883708788103]},{"Num_inputs":28,"Weighted_input":0,"Weights":[0.41349798208196975,0.5954629585564717,0.4593406518378833,-0.5595496512048804,-0.9315870086931561,-0.007114797206855927,0.39996011535439036,0.9384733955645539,-0.23279879734562503,0.7707659729952656,-0.15083547604961722,-0.8361579550415694,-0.8551698281320967,0.9135592766622422,-0.6692759277333025,0.19269150793208678,0.7191772498063376,0.30577838595775253,0.16948630653292862,0.5315147286689299,-0.6299256083349318,-0.1637355334671522,-0.2806881064448551,0.031196169843279664,0.06617203204491728,0.928863891259327,-0.8753654272062154,-0.9313091927251627]},{"Num_inputs":28,"Weighted_input":0,"Weights":[-0.536375134723475,-0.07288839764814292,0.6311852787684891,0.20910098101272978,-0.08089681532045012,0.38429854882125336,-0.8946272652619665,0.23664744596663612,-0.9295102678816889,-0.35505592616417725,0.8968510814906951,0.30759224106325456,0.03332570706089122,-0.11886740767392945,-0.04923329856440095,0.41701086902487705,0.17122638387712774,-0.9706536022378678,0.025737535995093097,-0.2340130887602564,-0.9038601553115809,0.7699721651240454,0.6626120678923688,0.39276894279684615,0.3567032015828011,0.06378058038142398,-0.37063145965746747,0.03940211832912488]},{"Num_inputs":28,"Weighted_input":0,"Weights":[0.44387371779728846,-0.7004740057511595,0.12158721964029207,-0.9339583479135745,0.7330277206592448,-0.4992389467642472,-0.9744108200698098,-0.8305816550716465,0.9175607412447664,0.5146394912978578,0.03661196202683081,-0.8041061138012009,0.6455536923872522,0.28291031697115665,-0.5047723972033686,-0.3502483449695606,-0.26409268952245957,0.24679876361171904,0.07429457629343084,-0.30852646383603566,-0.4012681806616719,-0.84330085486677,0.4342782874803226,0.524794815575371,0.14391038797407085,-0.474643708015851,0.4371992301471732,-0.6758729476868793]},{"Num_inputs":28,"Weighted_input":0,"Weights":[-0.3238836557114094,0.27643373222061185,-0.1535979513670248,-0.17277502063061523,0.5220741675719001,-0.01781480884090747,0.9733862152037356,-0.9271185399953233,-0.30717922775886897,-0.3740978646818527,0.7635677169083428,0.031694556902782,-0.1922878852739669,0.6950187414382776,0.41188754921774806,0.5090584252945727,0.06696222317157008,0.15906232342675386,0.15781396469318976,-0.2683058347875792,0.7232906685956249,-0.4730559891371672,0.6308920526852959,-0.8023767821604073,-0.9014053689665508,0.6961416824713935,0.835321513415022,-0.2896282657231244]},{"Num_inputs":28,"Weighted_input":0,"Weights":[0.7903515568716102,-0.5725629882336094,-0.2167034797869246,-0.33049112772589084,-0.6359476607413549,0.5685844842731904,0.7115295377755828,-0.013110941250428443,-0.13552317049919604,-0.9118848703544229,-0.8815697805691186,0.04013581012625278,-0.4791741394051927,-0.12813570803966323,-0.3802711061949191,0.1410974212559637,0.6630119186784467,-0.15534975115403715,-0.8769310394876226,-0.6933743983750982,0.4096409989826242,0.7794419874176042,0.34403708910663267,0.7983886173003041,0.13411701246549623,-0.5819531745815577,-0.7110936729808143,0.9838071113624163]},{"Num_inputs":28,"Weighted_input":0,"Weights":[-0.05499262579707764,0.09586815512795521,-0.5599630377033282,-0.10925041994956786,-0.6346748970543328,-0.09112609249227432,0.6721318417210627,0.42562359091665347,0.7515915086757221,0.29412835091565226,0.8458045279929405,-0.04222573166445731,-0.08531737683574625,-0.3565092370270755,-0.3728590438508962,-0.5539872193811057,0.03283315738920334,-0.15644792608954827,-0.588665973387964,0.08529190361315009,0.16161542870746892,-0.965205260302036,0.5091048855492741,-0.1189969045129119,-0.028124694425034513,0.605114390306525,-0.269223188458381,0.29280694894215986]},{"Num_inputs":28,"Weighted_input":0,"Weights":[0.4878234022566663,0.6096964006704262,0.7461405638903029,-0.8422498202649716,-0.24988576862627943,-0.562499671678093,0.8495727339721488,0.7978659305778055,0.27088923768471584,-0.33728870051218096,-0.3198844781601802,-0.1973122878302649,0.31136251554493843,-0.877743981326592,0.4595623344026134,-0.5800950197673129,-0.35756680865452917,0.20900739360059273,-0.9994114443331898,0.7798511554914906,0.020802000950976618,0.2639735418121547,0.9939618583453138,0.958426344502173,0.4490002606112564,-0.5328492525568289,-0.7414328816945013,-0.22141014679447069]},{"Num_inputs":28,"Weighted_input":0,"Weights":[-0.5560195898559424,0.05759984592165135,0.967891952998724,0.4254330754474527,0.6765195221924607,-0.6703450757953324,0.13247269044184518,0.8257464233162823,-0.4915609719694519,0.7186501883806009,-0.7759071266407018,-0.4439263944096795,-0.4501953225856695,-0.08333613609017121,0.859210280628931,0.4573383455336031,0.5353872740746677,0.043957032730398415,-0.25216466451813013,0.687374393000757,-0.7258260446911549,0.19593772881234894,0.9433956250230218,-0.49457045122159526,-0.28941692557586285,-0.2750961957000243,0.9200003968726462,-0.6737671182186744]},{"Num_inputs":28,"Weighted_input":0,"Weights":[0.7674799119301325,0.14529669852547356,-0.5595637334960473,-0.7505576001416557,-0.36989329985788977,-0.8618000354901126,-0.06737165414291657,-0.3872998401965946,-0.13516896619005248,0.7305153875993005,-0.5615200760984704,0.8538989852474761,-0.16746413870254773,-0.41365898403852874,-0.6399872281408243,0.1661553023113922,0.39710488435415336,0.7307991846272806,-0.24539560677717687,-0.03806729336989678,-0.44775266240705835,0.052098995276689486,-0.2535709762797068,-0.6136136562561272,-0.6901442180804523,-0.1294027384387263,-0.5763965846415051,0.8907030784014802]},{"Num_inputs":28,"Weighted_input":0,"Weights":[0.9465981331688866,0.7779082809356725,0.23539520667678793,0.1181038444094078,-0.4410607251107651,0.8165770497705087,0.1782195477655606,0.08162246671254869,0.4534472879328424,0.8751084996541878,-0.32765183291449473,0.4061456698541821,-0.724593842097343,0.8272634310509213,-0.2678364046941306,-0.8292668026125902,-0.8289131986377123,-0.13187926522798543,0.3182672448041508,0.5357409734887244,0.4447180044365493,-0.2345527967002956,0.8974361156405124,0.5699675244741031,-0.09667606103165305,0.5702547122101875,0.8290639610913049,-0.026144188438115945]},{"Num_inputs":28,"Weighted_input":0,"Weights":[-0.17375115042163558,-0.6455895920130956,0.27584012495703103,0.9452126747900602,0.6539765703445628,0.6415712678334737,0.21938569589883916,0.5691082850973486,0.27417484217974697,0.19676068904202948,0.6645337653706545,0.48349152961099096,-0.031149346477573725,0.5504359875247431,-0.97634679678689,-0.9138251789773503,-0.46162552709920135,0.8864288746459665,0.9837325222377407,-0.34415929959731617,0.03790555784534688,-0.6413616192890909,-0.7564088423584449,0.07570529844254303,0.9200021931174982,0.46461997091331364,-0.814679790226877,0.6740394148507443]},{"Num_inputs":28,"Weighted_input":0,"Weights":[0.28474614567761214,-0.304563346037643,0.8790132413982887,-0.9487783989619307,-0.2977252205713755,0.23379354197580238,0.1317803566783633,0.600281408980718,-0.5418002332254199,-0.2756730973442658,0.5151060843222444,0.803816565034823,0.5373435915767772,0.9068752018637078,0.05228888713349433,-0.07027169027942337,0.32001939839823357,0.46918063043317293,-0.7498161335988365,-0.29576753843627246,-0.2515284837362207,-0.8608355200954597,-0.9417621759109107,0.8837394708036184,-0.5376192751008961,0.67564991194014,0.1756444608373109,0.9680892105150278]},{"Num_inputs":28,"Weighted_input":0,"Weights":[0.9157788419845965,0.2530099841455402,-0.0337423012788125,0.16944716443752927,0.05807762437527031,-0.6106796184434498,0.40838676352755643,-0.7061119926944581,-0.6513384077049894,0.07245405579766961,-0.10530594207455346,-0.40439589879799054,-0.29410512266710676,0.7331017779748381,0.7361518176900153,0.45891839463169704,-0.2717096171138982,0.3910435325765449,-0.6323448523740856,0.5150161506228201,-0.7446808068458042,-0.9544951994457701,0.2129318409575327,0.5196301230722244,-0.2934790083733617,0.15164500885990706,-0.9018830657822876,0.7636762443773146]},{"Num_inputs":28,"Weighted_input":0,"Weights":[-0.1670824776503974,0.8177656901993204,0.06202361652873778,0.08708871366532489,-0.6668991580873448,0.022233014990876265,-0.7641783395352612,-0.441705614654503,-0.4192603977507452,0.33401607688544543,-0.33407405891961117,-0.3893895841378521,-0.5728566596185931,-0.8196161481126985,0.5092876713605459,0.6496085711473119,-0.1449691374974913,0.23543755919256992,-0.7763796742199773,-0.30691651607928516,0.1381493407244565,0.24224172888168094,-0.7172560131592056,-0.7361852714373885,0.4019770539488807,0.5916331887604607,0.48205023886162524,0.10556343821305214]},{"Num_inputs":28,"Weighted_input":0,"Weights":[-0.3738672862039166,0.8363462039538985,-0.9265834544619659,0.7716046127543033,0.7733127018406769,0.11648616555284064,-0.37879425001421685,0.0738774354573688,0.39199473696144427,0.8526151352719928,0.06198921076833219,-0.9420184867265871,-0.3525039181378976,-0.3167581413702317,-0.4140980376261656,-0.5259722842836709,0.4737998995966457,-0.8508744647069929,0.020468383134131907,0.1704160125518801,-0.34682542954281426,-0.23982107499009142,0.08513510909527189,0.46318380441618134,-0.3716413254998555,0.1457472135572051,-0.7514476676812778,0.6161064366366926]},{"Num_inputs":28,"Weighted_input":0,"Weights":[0.05602070263664838,0.05858544799652199,-0.3800826276946784,-0.8983729046718816,-0.845080846867879,0.8065340833419163,0.08710638286939565,0.6161733082054892,-0.10223264448327074,0.9378467097591208,0.8271353308512275,0.47304591140554497,0.296254833368399,0.9129993914324102,0.34370754230232503,-0.46303479581665596,0.831680012775047,0.0026206680145985928,-0.8989111225048257,-0.738666310079581,-0.9598439591936742,-0.4141563867530308,0.6097433940552848,0.6231979552507447,0.785302719301415,-0.6765625281921648,-0.9515494662365632,0.7618963642233381]},{"Num_inputs":28,"Weighted_input":0,"Weights":[0.26391094032131246,-0.5391368328024417,0.8572008499219037,-0.3749264141077977,0.18793565602012863,-0.7948870606403058,-0.42739937756607493,-0.3952825179420776,-0.0643248722015003,0.4107473311773573,0.4050446297805739,-0.2281599337705662,0.8969108945537598,0.9857670903005646,0.4447530197820919,0.5073886419981612,0.7032669324161747,-0.8863534417020695,0.23823891218307636,0.11686586595427184,-0.631125573892368,-0.19831434566814343,-0.843320628052006,0.9939359575798496,-0.228679358740991,0.43712262630583765,-0.9635088626640242,-0.5210817392561806]},{"Num_inputs":28,"Weighted_input":0,"Weights":[-0.2718350040136053,-0.08738284984350697,-0.9942673625677613,0.5907940814963992,0.08708861898170994,0.1898950285492167,-0.7797606231876743,-0.021303671479898867,-0.22564072575149552,0.7357086348515163,0.32040960684975284,-0.7889888357706832,0.7576847797270032,0.017565955659010424,0.7582954329211713,0.8157177007096348,0.9339446367060618,-0.8954095123348911,-0.6585584213961286,-0.1755834921768027,0.5289043473802719,0.11963922200534838,0.654662273020375,-0.9849539098717986,0.10415619564251455,-0.7705809057360931,0.9492474342443518,0.7413922330118079]},{"Num_inputs":28,"Weighted_input":0,"Weights":[0.6244809413996146,-0.07997172200826863,-0.5576841691219994,0.9514896215641069,-0.2941793869746937,0.7667870392136009,0.7888915636907876,-0.36974192325879174,0.5177920580638051,0.5533756863991337,0.0373206208342991,0.692997424203641,-0.38334769813514624,0.21440715820214318,-0.7466384015434099,0.4826740323851877,-0.33988695466641217,-0.8925957791068608,0.7575512738629737,0.811072477163614,-0.9811464571777466,-0.9300712059112407,-0.9226440442192232,-0.8479630031523671,0.5676438883151158,0.8216795204944334,-0.6161590384076963,-0.005427794731506119]},{"Num_inputs":28,"Weighted_input":0,"Weights":[-0.5839590015209154,-0.9829204323651916,0.7821632937962055,0.43253646678502555,0.059995230609761085,0.46230266040168977,0.28284474163740025,0.9715134633148093,0.8739630258231381,-0.47520327626083225,0.7749820402628178,-0.8952750797165836,0.054323097044685964,0.09128426486767194,-0.9416147072341672,0.8367169297620185,0.9338314594130892,0.2766186203470413,0.05215118763811466,-0.5374802955094746,-0.047216239066734667,0.9609122919026845,0.34714245141234157,0.36716531413516496,0.3484171758533512,0.6024400813216335,-0.1153768386439884,0.4913015175641211]},{"Num_inputs":28,"Weighted_input":0,"Weights":[0.8098223358948053,-0.10494573881466085,-0.3622267487632228,0.7327586112097046,0.9752495762321198,-0.22768425953202165,0.14550831024493038,-0.8744808347401033,0.2803419917230796,0.009863747680468382,0.48127454347056453,-0.3950860979899462,-0.30500516705062075,-0.6098652104119802,-0.8497080446094278,-0.3264370257313012,-0.04236121124415271,0.38606862900213534,0.4271399025726117,-0.9096212669997189,-0.0672973844632152,0.4716620550872246,0.7630803342341757,-0.9076895117019874,-0.16164461367272553,-0.8278201757416525,0.6463073238004533,0.2699638139045182]},{"Num_inputs":28,"Weighted_input":0,"Weights":[-0.6345937277390299,-0.270752424964381,-0.4107178863744332,0.7074228840394818,-0.1760263795809336,-0.26495509248205773,-0.9230944440085297,-0.44944053902635506,0.07068559494392357,-0.9654501479036591,-0.6091003588251928,-0.3145171200635156,-0.2388357637890648,0.758307031750767,-0.9759737302936065,-0.30710503247107557,0.12051507970781206,-0.9181898924377746,0.8919220500051688,-0.5402022000278718,-0.2694478513541382,0.24522919230277118,0.6951710893143332,-0.5192635104937193,0.9416867838291638,-0.7094896266501085,0.4750033808962979,-0.4279377032021189]},{"Num_inputs":28,"Weighted_input":0,"Weights":[0.02926058772508333,0.8803822029770727,0.3118713213847468,-0.3494549975372161,-0.2427582061441773,0.5869647675545722,0.57070886447696,-0.9293800032532861,0.12484156509079503,0.8114065836572906,-0.0503317915853404,0.6252617412897947,0.26961100333925736,-0.2853193291588004,0.9502115220835861,0.9231318520965945,0.8014200732673031,0.5428311890853985,-0.2831632794918043,-0.6527029349790651,0.9185882747146814,0.46102921956136966,-0.6974797305737875,-0.26567068462948196,0.6554646983837762,0.011682601450207164,0.7148577841605639,-0.9768809188254927]},{"Num_inputs":28,"Weighted_input":0,"Weights":[0.6925261917769847,-0.6645281902156899,0.20840181475639796,-0.9501114284562836,0.5566605353525544,0.6449313030531325,-0.6054596041423665,0.44464553932862083,-0.152405435165058,0.0788321414333788,0.462050628647223,0.015460460781143714,-0.004188126406678316,-0.008687800542482194,-0.32781139597963127,0.04821998765210034,0.7037858748982548,0.16380433652941484,0.7416061736142234,-0.395123555469467,-0.7454823755099764,0.5915743080058011,0.14200572768966913,0.6235670711934946,0.5735568497235259,0.24423357305831628,0.09276844384904814,0.8752242965126467]},{"Num_inputs":28,"Weighted_input":0,"Weights":[0.398922951230813,0.30690309316125086,0.19400134231175326,0.19070859361720305,-0.766301531756606,-0.36752850491285505,-0.49649453231331864,-0.8951528155949762,-0.7532921798469936,-0.8255932560552682,-0.3384886261406149,-0.4183822132460234,-0.6666523955460496,0.35553309204765493,-0.0016537141692232193,-0.3807934956924035,0.4230066854972099,0.1577781622554819,-0.19811840733278174,-0.7569206690567558,-0.7097481081724475,0.8770186976101793,0.6667506830159533,0.4233850609199712,0.053819706291741376,0.36275744527088216,0.42165362597656264,-0.24668100394686954]},{"Num_inputs":28,"Weighted_input":0,"Weights":[0.3866995402298945,-0.08536216459297041,0.9813868828479677,0.5612052664637017,0.2808069263216415,0.0528103751413882,-0.21267116033657718,-0.22692057848955038,-0.8165302057362976,-0.17193124405822813,-0.5639220060438812,0.3032089637773132,0.8285747886748325,-0.5686129801081985,-0.916114944908486,0.7984242125087637,0.41715673229937567,0.05458542959781432,0.48071515639960505,-0.8785108055315387,0.008694851624769573,-0.5411025486405747,0.3985021493450336,-0.8453266866939078,-0.7760705031380185,0.1914587374112533,-0.8763703901600761,-0.4745058972964933]},{"Num_inputs":28,"Weighted_input":0,"Weights":[-0.983054184248523,0.6432668920395479,0.4236783826746189,-0.6951283272780739,-0.49127243334999104,0.09572150984126537,0.5061563012099386,-0.8341017253844382,-0.9326268082729032,-0.2440844381399503,0.036179360116385784,0.46059700929161895,0.17333520181097906,0.7626404794919974,-0.6553774518548161,0.43740635574342623,-0.046074488930370694,0.6552509870016359,0.23434641127872013,-0.2518936786464946,0.84681216131409,0.45093425204017135,-0.28359095837011705,-0.6065457046541625,0.005565073160849421,0.8003580782297077,0.6387185709679757,-0.7537770082796964]},{"Num_inputs":28,"Weighted_input":0,"Weights":[-0.23068124582097094,-0.32184436767747326,-0.9845619470986982,-0.9340529395875343,-0.052010397674512876,-0.6243325053567566,0.44068907145133407,-0.5722333949776301,-0.888696601427819,0.2861823965693193,0.38650831010989384,0.38661270478904,-0.03648748174861893,-0.7498054051451402,0.04961611774039487,-0.2995427077852968,-0.6836126687352595,0.9219827115658064,0.8044054990362741,0.0925064929587538,0.017041898416463752,-0.5948734313308004,0.1734354800761293,0.8795009991117764,0.3369023149324606,0.8472337559551724,-0.37404459268788404,-0.8424601824672955]},{"Num_inputs":28,"Weighted_input":0,"Weights":[-0.7344770792640425,0.6895279346514187,-0.24203189545450288,-0.38254728934233817,0.6376599194055361,-0.5113260062989587,-0.3430165436560826,0.17554765680842221,-0.6060536148413793,0.026189933093890616,-0.2435840407391272,-0.6969033022153847,0.05020841705983914,0.8777683845719844,0.2197026816793617,-0.41868504620421876,-0.548741332237789,0.16292659887234207,0.3495809114341246,0.08653407942652147,0.9780819666363652,-0.5413616767717151,0.7974852518256477,0.9376178786806786,-0.4592478300113094,-0.4131568307267516,0.6601893931449849,0.6585578816016877]},{"Num_inputs":28,"Weighted_input":0,"Weights":[0.29866151189492784,-0.14665527119243482,-0.44605126271761764,0.062420121674434226,-0.800044624613346,-0.9802154681261862,-0.3574057383674858,0.01469353545394747,0.15200323358043044,-0.6117858947318324,-0.7980199508282803,-0.22442809288625443,-0.12566531514948032,-0.378280052988924,0.6698194559108546,0.45339071798441877,-0.24230010815717773,0.8253488329966541,-0.1344281182349294,0.5058445824357476,-0.8437660061596484,-0.5622495717542988,-0.47225878142963285,0.7038475783831855,0.09668038008212876,0.3580415730084239,0.8371322216508557,-0.11864964250548049]},{"Num_inputs":28,"Weighted_input":0,"Weights":[-0.6235303610331273,-0.5311641343824433,0.8250720367789746,-0.30801862940395863,-0.86535022379875,-0.04498635463763534,-0.9742855802392361,-0.793327450903001,-0.21034272120380215,0.17027709892917064,-0.6836803282653066,-0.877176963036999,0.06840695702422472,0.607206115140821,-0.6988154649968601,0.06332339088389971,-0.043192646168766946,-0.8779313748377017,-0.8507346192347464,0.2191513567734329,0.4068492400575572,-0.8492956955532618,0.5982186833907899,-0.29885392656631726,-0.9704597926515559,-0.43738181505896023,0.011148903074875705,0.19140157821827009]},{"Num_inputs":28,"Weighted_input":0,"Weights":[-0.8600492686693825,-0.7885456488103739,-0.0009411217741760458,0.3824464281834785,-0.23011058089565906,0.14854594258901344,0.23986691515547265,-0.08651707243228102,-0.467927889372189,0.2086955094034264,-0.21681082887812797,-0.5174743705607031,-0.8761979551257102,0.43154674470255183,0.178479052089912,-0.6246719676269161,0.39844293532121333,0.919603457526788,0.2555652216847,0.504650816123555,-0.9302767643543842,-0.024070581362113597,-0.1243895862201041,0.9639672411266036,0.4937436820608345,-0.007736315601060029,0.9559531640288219,-0.45916735718169555]},{"Num_inputs":28,"Weighted_input":0,"Weights":[0.346822677382695,0.39911731610176737,0.9731868979697105,0.3001287005836655,0.2176887316156968,-0.2779944083986716,0.10698037856345732,-0.47637708362995734,0.4878511380164565,0.6215091684823455,0.9996857879102914,-0.9017124787084193,0.004963797910682466,-0.6322569085889383,0.2974026371810854,0.47047337846567006,0.826466524309722,-0.5618956398915721,0.6917767185463408,-0.3855436081210859,-0.4709849008962832,0.18967924080656862,-0.8845893260403067,0.011204622622682736,-0.8265660490266016,0.44926595848461637,0.8693378407712198,-0.786955412952162]},{"Num_inputs":28,"Weighted_input":0,"Weights":[-0.9294456018729986,0.036804264618249594,0.6181877147839978,-0.6450256160362897,0.5757378182488997,-0.008447288033560318,0.6693312701731102,-0.4797696960498281,0.39922243787152567,-0.6245784184674612,-0.8092257577632396,-0.4759617113878678,0.652127040313107,-0.4569515881962741,-0.7160608933625534,0.5209596784587991,-0.7939404800857854,-0.4888804364844792,0.04465983057575462,0.33287001438750474,0.10489419516579179,-0.003287768708082117,0.18859743513733385,0.9521461905244342,-0.09459957830112009,0.6581556947739662,0.10088598649496561,-0.8773177870158342]}],"Layer_output":[{"Num_inputs":56,"Weighted_input":0,"Weights":[0.1326527564562605,-0.222686217756641,0.17745099289730848,0.48831946522917424,-0.313134148777374,-0.34015875876628243,0.3276567047604635,0.8518578713110554,-0.5562699525012513,0.6831141406110035,0.5738692211173055,-0.026494043198428074,0.017258789330931945,0.6121270395418348,-0.18345067381274127,0.42948207046043807,0.2302567548826422,0.3940487386735625,0.8014847642597323,-0.9587350022764928,0.8371914510111478,-0.8003866306077778,0.18988214511181978,0.4608401850908488,-0.31184712397955927,-0.4104088391379944,0.9472714099237631,-0.7491774207089616,-0.28483712679510254,0.1371225819144155,0.8601300175680935,-0.6372531498189368,0.18800463901843312,-0.33489524606791865,0.8319877916031873,0.264810764263699,0.20065079910631267,-0.9416799558895196,0.5131948149831065,-0.008534152502961856,-0.32427685195044453,-0.12290520257112902,-0.47086479539756587,-0.9349390468831223,-0.2395819507011968,0.8250793397456395,0.21930461473059237,-0.9431255732220447,-0.37330956784363045,-0.8221709736894505,-0.601399613617954,0.7715833810480881,-0.510109430926508,0.7736425696283511,-0.4072315447426166,0.6431965132973232]},{"Num_inputs":56,"Weighted_input":0,"Weights":[-0.5200179796273414,-0.5631462316767261,0.9081714447424118,-0.768948176571716,0.6579389419747579,0.34271144489332306,0.6880174372287273,-0.7905177551153793,-0.17831105188208118,0.4425407218411226,-0.7692955370404322,-0.8696629166144927,-0.06868189892674981,-0.8410802189447786,-0.16380222203120298,0.15301816158422188,0.8460958625856188,0.9642588500757943,0.22586872210497289,-0.7115046879105384,0.31634606322887593,-0.06028370007756112,-0.7596933621223633,-0.6180852025352334,-0.2529168512791563,-0.9493306235860774,-0.9534778849680947,0.6493500094872653,0.9023453275655655,-0.7164369287994781,-0.6945533691895238,0.4356646285725312,-0.395663041030217,-0.7456414889053442,0.37698571954371984,0.5508457435622129,0.879434461515717,-0.9479073103245523,-0.2437022491552966,-0.06155418534211943,-0.9306799997224657,0.4034967357745687,-0.16792655125107392,0.48859905232764955,-0.26564071919074483,0.3029678895299708,0.6348609972401729,-0.9698940749979619,0.7117386201087503,0.18530639123848736,0.7744576507570955,0.6077991150770885,-0.2121616840095093,0.305001220229558,-0.9485934207827674,-0.0936967233978625]},{"Num_inputs":56,"Weighted_input":0,"Weights":[-0.22978901441549338,0.12766787678990488,0.7620479915069718,-0.49528229576778426,0.9714332735289999,0.3761258348045071,0.34798873074072967,0.4764916104680996,0.12982855330135856,0.8327077719426934,0.23271211759867483,-0.10431576796833764,-0.5455483017078124,0.8010949369640703,0.8781932737627913,-0.10906312079836711,-0.35754738960739074,-0.6696015062768269,0.9647157659410113,-0.7351177846743748,0.6372139941911905,0.12007059949823695,0.6419603885522998,0.12129231701084153,-0.26694824546444995,-0.9046853212047832,-0.4636155006989028,-0.49254951195776975,-0.7264920832118089,0.01313445813289471,-0.6621333081135483,-0.0055252239123781965,0.2611718932190672,-0.19063454759898568,0.7248877876398869,0.24372210950027906,0.4743997282670738,0.008381648599611324,-0.8181701705790212,-0.5526733860016512,-0.802759235203427,-0.023431366540487164,0.19621086734532334,0.9907155753838321,0.7133321455448975,-0.6261666175978258,-0.5475444209017335,0.011483354834461057,0.18868032273413493,-0.8707514904531604,-0.2537267082197049,-0.41503548226399445,-0.743854319873153,0.014468967226549001,-0.4875658261687662,-0.034847654108778214]},{"Num_inputs":56,"Weighted_input":0,"Weights":[0.016754787747627065,0.3519852197149911,-0.25803821314821107,-0.22015938295604454,0.8079518063211877,0.8942222959859303,0.8322428548983793,-0.021629559876663484,-0.32478628195969883,0.9614220514939626,0.10726731444542681,-0.16105142379909243,0.7997144648358663,-0.6235389430644651,-0.5603444361394236,-0.18213562345746093,0.12436311735667727,0.7766605795114028,-0.7356333931792265,0.15144945157229306,-0.6556155424765353,-0.2594368319389908,0.5816412382062086,0.9144624391493199,0.6429304386201833,-0.6927891591128732,0.14066557397114865,0.4474957655488234,-0.8633754045647,-0.5973545945503904,0.5471097711387767,-0.7119520759692086,-0.5394011288498073,0.8741390434567249,0.7755769108887265,0.013172597519277351,-0.14964429710350724,0.8835818750373379,0.9334319083949767,-0.40471519340307416,-0.38927263648804866,0.4249939350251779,-0.9056244787463112,0.9066850529084478,-0.924976086930107,-0.09283117077000136,-0.5479107454282257,0.8099904639359012,-0.2366404325204503,0.9416178148167826,0.18311055907204787,-0.9996718188388314,-0.8808314090734879,-0.9043872263100529,0.54381124148816,-0.3186644211440359]},{"Num_inputs":56,"Weighted_input":0,"Weights":[0.39101592483785397,0.9600549583804403,0.2335320324157435,0.42531051665854935,0.6728220195038739,0.3589115340075004,-0.6774396906617861,-0.3962660846605305,0.5084129872470751,-0.8381316088577803,-0.19044342391010427,-0.4680249852026864,-0.7626263906012853,-0.6393474751183473,0.7750363555862558,0.12476856893297872,0.4970545270587947,0.5287783440167124,0.9301810384539704,0.28756215638673654,0.1818377556601669,0.9498976347784289,-0.8138360761330898,0.720494495785601,-0.3745374617969417,0.5392915303561989,0.4812867454953629,-0.5721983163165236,0.7445057809594828,-0.6643148599824658,0.24119129386961746,-0.2228396377838675,0.7184671458326766,0.054420626556766605,-0.7497959506292029,0.8339819352312599,-0.8479006611861017,0.5006527144314608,0.34000260668864857,0.15651155474761347,-0.7360417630382979,-0.9725194270234165,0.6439670384791796,0.08409293815065366,0.95284543886504,0.0391917423500614,-0.8711950236858584,-0.23590719636461033,0.5869532801880613,-0.735035595843053,-0.5853436022211631,0.8287232817315981,-0.650738306259432,0.9480830939292286,0.7162140188629187,-0.9259791544814817]},{"Num_inputs":56,"Weighted_input":0,"Weights":[-0.18631921761797943,0.9850838446652326,0.6082017513512137,0.9574177161881801,0.6100019796348191,0.7515299198081549,-0.5818677298163759,-0.32459537101932756,0.09117055288131848,0.5079554248969107,-0.5832355072754825,-0.19086098944729535,-0.3253699281782748,-0.5873445317029127,0.006925876676544096,0.4490037376143796,0.35029756708161086,0.9559895730501684,0.7904310614360723,-0.4691454768376251,-0.2608538876177068,0.08806043182207501,0.017888904048967147,-0.9152387825979904,0.5541447802319996,-0.5286881621773172,-0.889196178512671,-0.707220496556434,-0.002015612370752873,-0.4936333826335031,-0.9178606615132721,-0.7884873686017192,-0.7168430073360499,-0.043828810858275835,0.9544352964212077,0.04694703967352942,0.33237602209852235,-0.7763637533960485,0.26951926530435677,0.15638558983624096,-0.9628370163045477,-0.613648971069798,-0.6828933296565519,-0.8933329322025512,-0.7773102282438186,-0.11040861120373813,-0.5879598380684485,-0.06946143101818225,0.6723629497395156,-0.8919992255014321,-0.09645538241777285,-0.23891268334600868,0.6809283211102952,0.37662375168996465,-0.3190665016410409,-0.37500428976244315]},{"Num_inputs":56,"Weighted_input":0,"Weights":[0.3904299830124829,0.7670411756037909,-0.031067279803236425,-0.1395790324816113,0.6326672675260265,0.9184866261878271,0.7429436539560792,0.2375790884437159,-0.0110550016600518,-0.8723565140121929,0.22149849636236385,-0.7606188535132359,-0.7395283610818884,-0.15433079738035194,0.8792860925411923,0.29051150458464314,-0.5734341387423969,-0.7494306195396823,-0.027845092809199334,0.40628904827322887,-0.6721027732900351,0.4826187225581322,0.13641491260363847,0.03177685009568676,0.5094523999052805,-0.7959693472719698,0.5115393798332724,0.46344185365420865,0.3596094544243569,-0.30553258190807153,-0.04998209781938212,-0.6233717734272631,0.7540949732881808,-0.7624010799269847,-0.5815892097934403,-0.3385197901614392,-0.7870844269036295,0.37777995996095437,0.2049498945050865,-0.656612390052512,-0.45219111224813624,0.4012369187256293,0.9692967789158657,-0.6800922733837975,0.31823054842202136,0.016494282400265847,-0.7086801612796579,-0.36212617067264785,-0.3091795987929864,-0.8111440782867105,-0.2324277195292378,-0.2937816968004151,0.9117027216922138,0.42187683715111013,0.6540184745369988,-0.40132606755081845]},{"Num_inputs":56,"Weighted_input":0,"Weights":[0.19054057970197102,0.8725637293613058,0.660729314362446,0.08317945366449786,-0.5137701125223999,-0.35969691735872966,-0.509074347220768,-0.30240986266134695,-0.4111512457248788,0.13909337638529262,0.3946470751089173,0.9930296829435254,-0.19875260316537657,-0.23626549858907953,-0.7985014459025921,-0.8623546476701597,-0.48763332401412907,0.9252622731061864,0.35111723174617415,0.4516391382367657,0.17486250585755658,-0.5279250239618991,-0.7611118215540331,-0.20806826203019813,-0.5017527119220919,0.41783860896223524,0.6197571528725285,0.577018397374037,0.9738054242078165,0.9400009431346006,0.06666780926601068,0.3423902735313029,-0.7572926432330502,-0.766228982132648,-0.4678274944828318,-0.525747685104011,0.23170322639090069,0.21453115309212278,0.07367100314171093,0.4573166181358357,-0.02129971393153296,-0.17121093168722645,-0.16555959473415238,0.10232247555873619,-0.41021210942205744,-0.9821594940461934,-0.8163925628837279,0.9648382622533713,-0.8539563583982804,0.9584198009127769,0.299689901369077,-0.8682613757970341,0.9281044694790634,-0.6327696911423362,-0.9829792782507059,0.9439190675150477]},{"Num_inputs":56,"Weighted_input":0,"Weights":[-0.1468462620130787,-0.5338625183826958,-0.015535869426653082,0.6441901414619482,-0.9439949264531131,0.9775664813328884,-0.9378688403815575,-0.5434249646655402,-0.40691047422192295,-0.0758230794539636,0.11838132654373323,-0.08526206343683962,-0.38886501972645837,-0.37044970635100427,-0.5148354728930492,0.326344983272294,-0.9817121025859388,-0.4397428528279813,-0.8647731904413003,0.17287026030233954,0.0649563756176561,-0.9993213990405599,0.9605943041137952,0.1670364627440064,0.9426278342446257,0.322065700393813,0.49717214534302023,-0.11812267674391641,0.8216283665208168,0.7526189148699796,0.809775664269577,0.4197271943402605,0.638814973407341,0.2719900500042087,0.024160477243004408,-0.6334641922881437,0.34494085130463636,-0.18844602876400562,-0.670359244315063,0.06564772625036785,0.3341356447347803,0.11291958849856765,0.5600426344491634,-0.5721967761376148,-0.12417171674215266,0.44128893403378244,-0.6897526850429255,0.017308619895832766,-0.6186279043056393,-0.35676082801689113,0.3830207702052688,0.3186478411737024,-0.07029964011080059,-0.14030633786886226,-0.17964476680301134,-0.4704089565927779]}]}
